0.000927835 0.00391753 0.0042268 0.00257732 0.00556701 0.0056701 0.00783505 0.00680412 0.00762887 0.00597938 0.00371134 0.00525773 0.00716541 0.0101528 0.0042268 0.00618557 0.00597938 0.00783505 0.00793814 0.0102062 0.00257732 0.0043299 0.00917526 0.000103093 0.00237113 0.00783505 0.00948454 0.00979381 0.00793814 0.00804124 0.00917526 0.00762887 0.000721649 0.0085567 0.00286413 0.00979214 0.00310888 0.00892205 0.00565298 0.0070027 0.00810864 0.00462559 0.002545 0.00532959 0.00522528 0.0091834 5.69188e-05 0.0101903 0.00123168 0.0100518 0.00792921 0.0100449 0.00587629 0.00412371 0.00319588 0.00134021 0.000618557 0.00835052 0.0057732 0.00989274 0.00484291 0.00946068 0.00376485 0.00975749 0.0104182 0.00754236 0.00853686 0.0109502 0.0183349 0.0142927 0.026728 0.0159839 0.00476285 0.00279517 0.00636762 0.0046746 0.0039856 0.00580915 0.00209534 0.00913449 0.00247275 0.000489689 0.00185567 0.00793814 0.00896907 0.0056701 0.00465277 0.00615076 0.00551622 0.0114931 0.0157865 0.0144365 0.00105685 0.00204487 0.00225641 0.0218835 0.0122565 0.0112082 0.022002 0.00554719 0.00366222 -0.00772559 -0.00794178 -0.00367635 -0.00678699 -0.0035067 -0.00632261 0.00337837 0.00273644 -0.000797731 0.00606191 0.00268041 0.00979381 0.00969072 0.0054557 0.000515419 0.00162348 0.0077606 0.0168629 0.00862587 -0.00688449 -0.00230023 0.00500159 0.00655113 0.011064 -0.00205331 -0.00560921 -0.000458986 0.0100244 -0.0128672 -0.0213942 -0.00304871 -0.00301826 -0.010839 -0.0138983 0.00175865 -0.00739622 -0.00221044 0.00354217 0.00997957 0.00175258 0.00814433 0.00735872 0.00440188 0.00929936 0.00629014 0.0133403 0.000876999 -0.00135004 -0.00902078 -0.0109284 -0.00876889 0.00542608 -0.0023461 0.00326965 0.0189355 0.0149714 -0.0111894 -0.0103341 -0.00678728 -0.00440218 -0.0139896 -0.00425389 0.00100465 -0.00707286 -0.00116658 0.00333229 0.0102224 0.00536082 0.00463928 0.00740351 0.00585964 0.0151994 0.00858617 0.0111609 -0.00310565 -0.0140134 -0.0286635 -0.0312329 -0.00381247 -0.00864017 0.00160465 0.00353148 -0.00300306 0.00255604 -0.00248741 -0.0261344 -0.0217836 -0.0174766 -0.0109855 -0.00482483 -0.00399319 0.0075791 0.00163141 0.00978315 0.00377544 0.00587629 0.00865781 0.00375586 0.0101044 0.0105791 0.00167518 0.00699044 -0.00124502 -0.00221092 -0.0235549 -0.0116899 0.00709246 -0.00720051 -0.0110554 -0.00083483 -0.00184591 -0.010063 -0.0158654 -0.0385283 -0.0370776 -0.0123774 -0.0116868 -0.00917798 -0.00163181 0.0017736 -0.00123471 0.00566259 0.00864151 0.00936596 0.00310541 0.00943975 0.00699009 0.0098717 0.00680609 0.000521016 0.0116336 0.0004694 -0.00780037 -0.0163494 -0.0153697 -0.0280632 -0.0106906 -6.65943e-05 -0.0116866 -0.0256558 -0.0366325 -0.0409486 -0.0231377 -0.0194694 -0.0186234 -0.0185443 -0.00817866 0.00067467 0.00466085 0.00634345 0.000784792 0.00505155 0.00540544 0.000732508 0.00769066 0.00280701 0.000185455 0.00234683 0.00294023 -0.0134241 -0.016472 -0.0273073 -0.0233447 -0.0214987 -0.0117071 0.00896699 -0.0193236 -0.0412257 -0.0346286 -0.0276274 -0.0245505 -0.017306 -0.0182825 -0.00209185 -0.00820498 0.00117872 0.0023274 0.0039592 0.0051632 0.00175258 0.0100471 0.00956444 0.000773443 -0.0037935 -0.00622063 -0.0022139 -0.00333784 -0.0175865 -0.0258615 -0.0245252 -0.0245617 -0.0218659 0.00256705 0.0117857 -0.0264733 -0.0602351 -0.0371629 -0.0269599 -0.0275082 -0.0255903 -0.000665693 -0.00950739 -0.00858374 0.0031317 -0.00330165 0.00302354 5.17367e-05 0.00587629 0.0010392 0.00407648 -0.000859381 0.00162265 -0.00697403 -0.00189452 -0.0106214 -0.0187657 -0.0281299 -0.00322394 -0.0189943 0.00484413 0.013512 0.00854513 -0.0111939 -0.044477 -0.0365598 -0.0234023 -0.0069203 -0.00360233 0.00708713 0.007965 0.001117 -0.00296099 -0.00380425 0.00109814 0.00695884 0.00216495 0.00382772 0.00909747 0.00978375 -0.00491023 -0.00677847 -0.00153814 -0.00272679 -0.0105261 -0.022133 -0.00279158 0.00820426 0.0057181 0.0122235 -0.00755286 -0.0166177 -0.00941176 -0.029824 -0.0186989 -1.77794e-05 0.00384073 -0.00268665 0.00750945 -0.00506598 -0.00423893 0.000999587 -0.0013456 0.00756094 0.00484536 0.00237622 0.0020186 0.00748034 0.00119335 -0.00445458 -0.00052113 0.00458396 -0.00461309 -0.0243525 -0.0258144 -0.00389243 0.00503813 0.00252573 -0.0259406 -0.00861525 0.0161158 -0.0306459 -0.0245649 0.00421719 0.0045407 0.00795157 0.0129208 0.015362 -8.98156e-05 0.00319393 0.00401561 0.00634829 0.00969072 0.00648465 0.00572433 0.00647597 0.00217812 -0.00450243 0.00406806 0.00335053 -0.00294136 -0.0130793 -0.0147658 0.00708529 0.0175832 0.0187295 -0.0113699 0.0153252 0.0231469 -0.0190151 -0.0178576 0.000894731 0.00871557 0.0123122 0.018145 0.0210313 0.00220445 0.00173045 0.00701665 0.00670394 0.00164948 0.00505281 0.00857207 0.00550057 -0.000809861 -0.00743364 -0.004109 0.00117338 -0.000138403 -0.0174938 -0.0230368 0.0160892 0.0415199 0.00218562 -0.00968507 0.00442135 0.033126 0.0307361 0.0213068 0.0243769 0.0236696 0.0221832 0.0218576 0.010776 0.00310786 0.0166881 0.00149709 0.00205181 0.00164948 0.00927745 0.00657279 0.00453772 0.00216519 -0.00109801 -0.000327767 0.00197762 0.00254976 -0.0120126 -0.0176761 0.030225 0.0466659 0.0199223 0.0225463 0.0132905 0.0322647 0.0359722 -0.0022844 0.0134357 0.015749 0.00792327 0.00545354 0.00408976 0.011481 0.0212413 0.00405836 0.00752939 0.00938144 0.00670116 0.010038 0.00577967 0.000371085 0.00099859 -0.00800887 -0.0106978 -0.00669305 -0.0200545 0.00669379 0.0287578 0.0474187 0.0347278 0.0052396 0.00416274 0.00988402 -0.00169669 -0.00728087 0.00187967 0.0108902 0.00862628 -0.00426296 0.00292999 0.0160437 0.0141494 0.000770749 0.0016721 0.00597938 0.00804124 0.00784682 0.00710144 0.00199738 -0.00633127 -0.00444579 -0.0121025 -0.0211254 -0.00931883 -0.0130593 0.0075779 0.0698759 0.0376334 0.0278833 0.010616 0.00674225 0.0112472 0.0249416 0.0163962 -0.00370171 -0.0105747 -0.0162206 -0.00213793 0.00144215 0.00421969 0.0080857 0.00897121 0.0085567 0.00720908 0.00999819 0.00832754 0.002779 -0.00265767 -0.0115362 -0.0110736 -0.026088 -0.0236239 -0.0161004 -0.0121679 0.026141 0.0251216 0.0405839 0.025585 0.00694547 0.0269532 0.026258 3.80219e-05 0.00814318 -0.00755414 -0.00988727 0.0043436 0.0018838 0.00159468 0.00981 0.00113958 0.00680412 0.000690809 0.00289572 0.00152496 0.00321445 -0.00553204 -0.0143855 -0.0165212 -0.0270738 -0.0346594 -0.0383017 -0.0306015 0.00957069 0.0172073 0.0459061 0.0392548 -0.00429195 0.0183781 0.0280426 -0.00250525 -0.00299742 -0.00758116 -0.00918053 0.000826276 0.00789941 0.00498806 0.00464481 0.00123711 0.00195871 0.00463916 0.00596778 0.00176407 0.00703143 0.00236563 -0.00853316 -0.0156445 -0.0205703 -0.032793 -0.04903 -0.0455182 -0.00595417 0.0224813 0.0268096 -0.00791756 -0.01917 -0.0125171 -0.00358898 -0.0102646 -0.00862145 0.00410008 0.00548595 0.00402839 0.00961562 0.00621368 0.010054 0.00463918 0.00556696 0.00340204 0.00448775 0.00198413 0.0108711 0.00731183 0.000589147 -0.00315321 -0.00875851 -0.0274851 -0.0368157 -0.0403228 -0.0090795 0.00959487 -0.0223966 -0.0378336 -0.038137 -0.0319879 -0.0216537 -0.005323 -0.00896679 0.000495788 2.62596e-05 -0.000362611 -0.000746369 0.00513704 0.0077476 0.00608247 0.00773196 0.00752577 0.00135839 0.00689282 0.00211717 0.000777263 -0.000867195 0.00294772 -0.00493962 -0.0134466 -0.0121451 -0.0227125 -0.00890994 -0.00702851 -0.00210171 -0.0177019 -0.0328949 -0.0202847 -0.00582992 -0.00378787 0.00190118 0.000656185 0.00236326 0.00262506 0.00880088 0.00536858 0.00228588 0.00773196 0.00814433 0.00659794 0.00830183 0.00900128 0.0011534 0.00983464 0.00162343 0.000328256 0.00354891 0.00101247 0.000466952 -0.00261054 -0.00228249 -0.0108877 -0.0102731 -0.00380412 0.0105205 0.00359857 -0.00401333 0.00244828 0.00146487 0.00930413 0.00251127 0.00324805 0.0047707 0.00172414 0.00711953 0.00835052 0.00814433 0.00278351 0.00308534 0.000826056 0.00572985 0.00506635 0.00437214 0.0119864 0.00770446 0.00966991 0.00126928 0.00418056 0.00374401 -0.0101234 -0.0104159 -0.00376082 0.00372558 -0.00330448 -0.00236809 -0.00188199 0.00292804 0.00461142 0.00713472 0.00588951 0.000866744 0.0034075 0.000212693 0.00835052 0.00608247 0.00742268 0.00979381 0.00659801 0.000196197 0.00603852 0.00341678 0.00889445 0.00746707 0.00137711 0.0103172 0.00558998 0.000316163 -0.00116793 0.00407603 -0.00184273 0.00218481 0.00310064 -0.00196227 0.00236827 0.00140596 0.00843752 0.00944393 0.0037044 0.00680361 0.000618557 0.00340206 0.00319588 0.01 0.00546392 0.00195876 0.00185567 0.00484536 0.0017584 0.000836023 0.00354464 0.00864242 0.0107721 0.00735351 0.000844393 0.00760237 0.00466797 0.00716236 0.00696139 0.00381289 0.00722202 0.00853675 0.00448132 0.00366472 0.00717288 0.00264548 0.0042403 0.00969072 0.000618557 0.00587629 0.00371134 0.00350515 0.00618557 0.00659794 0.00907216 0.00587629 0.0043299 0.0071134 0.00113402 0.00927835 0.000824742 0.00319588 0.00494845 0.0067325 0.00530713 0.00247423 0.0014433 0.00329897 0.00701031 0.00237113 0.00391753 0.00896907 0.00845361 0.00824742 0.00484536 0.00309278 0.00237113 0.00257732 0.00948454 0.00587629 0.000927835 0.00876289 0.00845361 0.0102062 0.00340206 0.00772225 0.0016356 0.00948739 0.00629949 0.00668137 0.00398643 0.000900894 0.00476671 -0.00277557 0.00186199 0.00891832 0.00153879 0.00583815 0.000429877 0.0010508 0.00369199 0.00339289 0.00204638 0.00226804 0.0102062 0.00216495 0.0101031 0.00237113 0.00659794 0.00360825 0.00783881 0.0101048 0.00256791 0.000231735 0.00726649 0.00124087 0.0120432 0.00692956 0.00382772 0.00573817 -0.00379464 0.000536145 -0.0114703 -0.0130124 -0.00966805 0.00147956 -0.00372871 0.000679946 0.00668536 0.00156009 0.000378988 0.00983894 0.00509999 0.00340206 0.00494845 0.0101031 0.000927835 0.00754143 0.00796255 0.00328131 0.00601557 0.00616053 0.00833192 0.013052 0.0104082 0.0102267 0.00576559 0.00522275 -0.00178319 -0.0137136 -0.0134012 -0.0150634 -0.0145608 -0.0199919 -0.00704441 -0.010728 -0.00494943 0.00475357 0.000344614 0.00355305 0.00751409 0.00361142 0.00278351 0.00309278 0.00546392 0.00810799 0.000672763 0.00813517 0.00302701 0.00699412 0.0159746 0.0192405 0.0157813 0.0162917 0.0163347 0.0118475 -0.00233962 -0.0246438 -0.027781 -0.033062 -0.0404543 -0.0223066 -0.0166091 -0.0163114 -0.0151925 -0.00870915 -0.00379739 -0.0018081 0.00537898 0.00634226 0.00967504 0.00917526 0.00938144 0.0070938 0.0055097 0.00488741 -0.0133465 -0.00877847 -0.00528188 -0.019602 -0.0170839 0.0184588 -0.00134078 -0.021067 -0.00601776 -0.00301202 0.016916 0.00519369 -0.00458517 -0.00486623 -0.00921488 -0.0132841 -0.00894089 0.00178633 0.00203306 0.00509284 0.00143878 -9.99555e-05 0.00668432 0.00340206 0.00474353 0.00310757 0.00772124 0.00825055 -0.0109441 -0.0306704 -0.0287984 -0.0123812 0.00363961 0.0371975 0.0100269 -0.0113924 -0.00681842 0.0290904 0.00770103 -0.00824216 -0.0194955 0.0171968 0.0141622 -0.0262763 -0.0279304 -0.00916968 -0.0138693 -0.00233622 0.00256027 0.00798024 0.00215389 0.00278351 0.00828659 0.00652324 -0.000785106 0.0063831 -0.0001215 -0.00791707 0.0136095 0.0254349 -0.00352822 0.0226869 0.0227672 0.0147606 0.0127402 0.0312773 0.0257929 0.00677791 0.00299937 -0.0243969 0.01596 -0.0112907 -0.0348659 -0.0330454 -0.0331976 -0.0157098 -0.00453206 0.00425639 0.00679813 0.00843943 0.00739306 0.00294469 0.00206535 0.0235602 -0.00977585 -0.0190632 0.0207063 0.0137966 0.0148949 0.0467628 0.0363925 -0.00139657 0.019565 0.0329774 0.0425263 -0.0122876 0.0293353 -0.0159449 -0.015432 -0.0445469 -0.0253322 -0.0183336 -0.0150995 -0.0215128 -0.00837483 0.00748037 0.00948802 0.00216495 0.00531804 0.0109158 0.00958683 0.00408283 0.00409658 0.0155392 0.0214589 0.00686403 -0.00560363 0.0177848 -0.025894 -0.00715712 -0.071747 -0.0296465 0.0192282 0.0158789 0.0026127 -0.00191264 -0.021102 -0.0336781 -0.0323866 -0.0137778 0.00108359 -0.0100018 0.00399345 0.00872821 0.00379615 0.0071134 0.00544657 0.0081169 0.00761864 0.000847737 0.0187359 0.0270917 0.0140274 -0.000302461 -0.0596177 -0.0355761 -0.0781789 -0.0918872 -0.109677 -0.0447459 0.0160643 0.0563003 0.0269756 0.0139855 0.0052322 -0.0340968 -0.0304199 -0.0189317 -0.00789146 -0.00196234 7.90599e-05 0.00870328 0.00351142 0.00835052 0.00512406 0.00185207 0.00471992 0.00453076 -0.010207 -0.00644289 -0.0412272 -0.0489692 -0.0998302 -0.0839408 -0.0885675 -0.0914825 -0.0653481 0.0395564 0.016496 -0.00661264 -0.0105986 0.0129137 0.021491 -0.0114645 -0.00822078 -0.0138784 -0.0010118 0.000634257 0.00336159 0.000283287 0.0028493 0.00329897 0.00466301 0.00555783 -0.00417377 -0.0092467 -0.020188 -0.0419305 -0.0684322 -0.0803526 -0.113966 -0.0795391 -0.0415496 0.00875597 0.029424 0.0379661 0.00431547 -0.0141093 -0.0161253 0.00322986 0.00798603 0.00873315 -0.00149679 -9.7921e-05 0.00505067 0.00831319 0.00550395 0.00703751 0.00790722 0.00948454 0.00784084 0.00875096 0.00566985 -0.0111483 -0.0281041 -0.0489938 -0.0746357 -0.0867331 -0.0773005 -0.041548 0.0040217 0.0279931 0.0213926 0.0224212 -0.0168929 -0.0105176 -0.0364992 0.00115046 -0.00631411 0.0187393 0.0125703 -0.00112945 0.00633071 0.0144879 0.00512804 0.00513817 0.00112564 0.00134021 0.00917928 0.00242006 0.00779447 -0.00583075 -0.025272 -0.0463329 -0.0593173 -0.0656259 0.00417008 0.0307213 0.0449882 0.0227272 0.0124583 0.0243195 0.000495296 0.0195913 0.000680383 -0.0213837 -0.0300692 -0.00864349 -0.0126236 -0.0233407 0.00130092 0.00276809 0.012412 0.0104663 0.00835092 0.00340206 0.00114556 0.00524947 0.00160819 -0.00428104 -0.0165693 -0.0200082 -0.0318522 -0.0106314 0.0047262 0.0190168 0.0297447 0.0141293 0.0152476 -0.0111626 -0.0392503 0.000379796 -0.0115667 -0.0328649 -0.0428982 -0.0274411 -0.0118127 -0.0161965 0.00161157 0.0094213 0.0115319 0.0106721 0.00287261 0.00123711 0.000975679 0.0089429 -0.000209381 0.00293373 -0.0073894 -0.0110041 -0.000150508 0.0205788 0.0121653 0.0245396 0.0201605 0.022973 0.0294609 0.0111944 -0.0173313 -0.0144373 -0.0208085 -0.0153298 0.00940133 -0.0169732 0.00868694 -0.00642288 -0.00525474 0.00697432 0.0115187 0.0129221 0.0140567 0.0102062 0.00763306 0.00915666 0.00792173 0.00195849 -0.0098247 -0.00913246 0.0115233 0.0321215 0.00994378 0.00484756 -0.0134692 0.0309007 0.0497717 0.0641614 0.014198 -0.0354263 -0.0291786 -0.0211495 -0.0062454 -0.0124555 -0.00829955 -0.0107776 -0.0130186 0.00977155 0.0149627 0.0122009 0.0101313 0.00824742 0.00793814 0.00327702 0.00558324 -0.00521522 -0.00984805 0.00242171 0.00531818 -0.0103047 -0.0227069 -0.00524169 -0.0136605 -0.0128202 0.0140631 0.0552961 0.0144292 0.0129387 0.00761298 0.0184664 -0.0109644 -0.00083021 0.00462562 -0.0117359 -0.006027 0.000781374 0.019157 0.00428219 0.00386184 0.00175258 0.00510704 0.000836533 0.0121662 0.00146624 0.00571135 -0.000410095 -0.00809622 -0.0309757 -0.0361818 -0.0345694 -0.00606011 -0.0213861 0.0285689 0.0519521 -0.00912778 0.0073015 0.0242965 0.0238743 -0.0240376 -0.0300381 -0.00821056 -0.0169277 -0.0145799 -0.00858875 0.0113804 0.00754057 0.00878005 0.00628866 0.00822354 0.00921776 0.00605724 -0.00125235 0.0161656 0.0168446 0.00546944 -0.013131 -0.0147182 -0.0148893 -0.00785402 0.013796 0.00889811 0.0112231 0.0178097 0.0310781 0.041584 0.0279159 -0.0223623 -0.0224186 0.0133612 0.00158504 0.0023595 0.00477956 0.00997875 0.0106552 0.0042268 0.0101028 0.0074226 0.00244509 0.00851708 -0.00885507 -0.00780775 0.00831637 0.0164425 -0.00843092 -0.0132944 0.050337 -0.00757817 -0.0172313 0.000167681 0.0137765 9.06313e-05 0.0151261 0.0106679 0.0643715 0.0331829 0.00342905 0.017693 0.0101835 0.0119447 0.0122024 0.0105484 0.00279596 0.00587629 0.000515222 0.00793807 0.00184092 0.00284455 -0.0134248 -0.00370441 0.00192434 0.00736391 0.0150427 -0.00515517 -0.000643785 -0.00651443 -0.0432102 0.0156417 -0.0116616 -0.00522702 -0.0121018 0.0288198 0.0388312 0.029031 0.00470035 5.23567e-05 0.00808253 0.0176749 0.00742153 0.00941812 0.00828363 0.00824742 0.00113402 0.00391753 0.00107597 0.00259132 -0.00298835 -0.0139011 -0.0143143 0.0159543 0.0286397 0.0221935 0.0171807 0.0391605 -0.00611736 0.01396 0.0327416 0.0100704 -0.00814439 -0.0150579 -0.0138535 -0.008039 -0.00587127 0.00314296 0.00745916 0.0115012 0.0132454 0.00588185 0.0102416 0.00835052 0.00804124 0.00886598 0.00656265 -0.00230137 0.000191245 -0.0128513 -0.00830455 0.0167958 0.0273555 0.0230631 0.00380786 0.0247005 0.0105217 0.00515641 0.00779903 -0.0206109 -0.0381654 -0.00373892 -0.00341267 -0.00900424 -0.002136 0.00275378 0.008569 0.00832664 0.00880997 0.00131712 0.00815615 0.00309278 0.00154639 0.00907216 0.00656401 0.00720616 0.00295587 -0.00385744 -0.00409266 0.00439371 -0.000358818 -0.00404443 -0.00509966 -0.0406815 -0.0263176 -0.00675482 0.00115722 0.0157721 0.0163378 0.00489795 0.00322759 -0.00100045 -0.00177607 -0.00623652 -0.00350107 0.000708292 0.00674455 0.00918575 0.00176513 0.000618557 0.00618557 0.000618557 0.00402062 0.00618506 0.00956729 0.00598369 0.00177017 -0.00574858 0.00634865 0.00747994 0.000342094 -0.00903051 -0.0026436 -0.00606659 -0.00185149 0.00537353 0.00116824 0.00189297 -0.00350393 0.00122414 0.00700212 0.0029734 0.0053804 0.000419223 0.00247379 0.00505155 0.00742268 0.00742268 0.00329897 0.000824742 0.000103093 0.00268041 0.000206186 0.00979003 0.00473589 -0.00111486 0.00464521 -0.00127752 -0.00281042 -0.000162016 -0.00526827 0.00449286 -0.00438736 -0.00447744 0.00448505 0.00386442 0.00691459 0.0074338 0.00315708 0.000893221 0.00506675 0.000662068 0.00927835 0.00824742 0.00525773 0.000515464 0.00463918 0.00505155 0.00206186 0.0085567 0.00907216 0.00948454 0.00927835 0.00876289 0.000618557 0.00505155 0.00690722 0.00670103 0.00730333 0.00658183 0.00896907 0.00546392 0.00618557 0.00329897 0.00979381 0.00340206 0.00989691 0.00896907 0.00175258 0.0028866 0.00608247 0.00783505 0.00278351 0.00969072 0.00814433 0.00381443 0.00556701 0.00824742 0.000618557 0.00175258 0.000148138 0.00557259 0.00362661 0.000425567 0.00725166 0.00204287 0.0105496 0.00451909 0.00287334 0.00744544 0.0100312 0.00766807 0.00915908 0.00687342 0.00715242 0.0102519 0.00725933 0.000964788 0.00618557 0.00340206 0.0057732 0.00649485 0.000721649 0.00350515 0.00670103 0.00144704 0.00721488 0.00122696 0.00617463 0.00991231 0.00537321 0.00437029 0.00279922 0.00821152 0.0079532 0.0215673 0.0153023 0.00994585 0.00701768 0.00651872 0.00528163 0.0101677 0.0118897 0.00958876 0.0149115 0.00641886 0.000681147 0.00750846 0.00237113 0.00762887 0.00185567 0.00948454 0.00369275 0.00674847 0.00781889 0.00145142 0.00757426 0.00434439 0.00297942 0.000607156 -0.0057949 0.00660506 0.00430149 0.0276359 0.0356093 0.00561528 -0.0142069 -0.0174524 -0.00519668 0.000507041 0.0030084 0.00459593 0.00507382 0.0109643 0.00813937 0.00733329 0.00182463 0.00783505 0.0014433 0.0043299 0.00550317 0.00657605 0.00854711 0.0106622 0.00753588 0.00492614 -0.00530837 -0.0182447 -0.0117815 0.00629525 0.0440893 0.0443272 0.0243418 0.0117748 -0.0137796 -0.0290784 -0.00574983 -0.0055148 0.00234385 0.00409382 0.00456297 -0.00279087 -0.00106767 0.00233024 0.00499192 0.000345643 0.00917526 0.000309278 0.00393207 0.0052439 0.00745843 0.00940661 0.00453581 -0.00822987 -0.0145255 -0.0232983 -0.0142674 0.0122647 0.0143743 0.0252275 0.00943018 0.00566745 -0.00196232 -0.0097787 -0.006486 0.00821224 0.00109317 -0.0111362 -0.00991302 -0.0072967 -0.000362559 -0.00471972 0.00216771 0.00799151 0.00257732 0.00628802 0.00573121 0.00125995 0.00618735 0.0064409 -0.006975 -0.0138387 -0.021028 -0.0278957 -0.0390745 0.0170106 0.029042 -0.00449968 -0.00453056 -0.0124507 -0.0207364 -0.0194296 -0.00591863 0.0113777 -0.00722763 -0.0134507 -0.00749212 -0.00481403 0.00288348 0.00136364 0.00919144 0.00598041 0.00525773 0.00945897 0.000970643 0.000778326 -0.00292945 -0.000447087 -0.011532 -0.0146994 -0.0133019 -0.0288333 -0.0181958 0.0279661 0.0118046 -0.0194172 -0.0229625 -0.0184346 -0.0203182 -0.0123374 -0.0188097 -0.0163728 -0.0138913 -0.0171664 -0.015213 -0.000669569 -0.000325215 0.00628135 0.0055844 0.00245432 0.00616805 0.00691934 0.00373851 0.000646994 -0.000845432 -0.00320715 -0.0103114 -0.00368663 -0.0187994 -0.0273495 -0.000352411 0.0229091 0.00375432 -0.00515078 -0.0560306 -0.0589937 -0.0228122 -0.000663304 -0.0240817 -0.0275348 -0.0232689 -0.018494 -0.0135831 -0.0035844 0.000354061 0.00338714 0.00194276 0.0014246 0.0071134 0.00340996 0.00167072 0.00278014 0.000490975 -0.00022442 -0.0177186 -0.0214602 -0.03054 -0.0167509 0.00110492 0.0208481 0.0115904 -0.0191898 -0.0549248 -0.057001 -0.0302695 -0.0226075 -0.0350708 -0.0431639 -0.0324617 -0.0175591 -0.0194522 -0.00873224 0.000341366 0.00297213 0.00432766 0.00359598 0.00257732 0.00432511 0.00679961 0.0064357 -0.00275854 -0.010817 -0.0176627 -0.0218595 -0.0431798 0.00136022 0.0163464 0.0247261 0.00473372 -0.00674533 -0.0562493 -0.0404475 -0.0222675 -0.0415939 -0.0488921 -0.0569573 -0.0370885 -0.0286359 -0.0236546 -0.0154878 0.00391715 0.00226585 0.0052468 0.00198537 0.00824742 0.000857513 0.00923815 0.0057702 -0.00375663 -0.00532685 -0.0200063 -0.0156121 -0.0228898 0.00148973 0.034304 0.0185444 0.0194166 -0.00839736 -0.0251618 -0.0184839 -0.0220814 -0.0283546 -0.0318997 -0.0454018 -0.0317075 -0.0207325 -0.0187562 -0.0112608 -0.00299622 -0.00196993 0.000388326 0.00951473 0.00391753 0.00332464 0.000409635 -0.000444756 3.01098e-05 -0.000307766 -0.0161369 -0.0197391 -0.0159039 0.0144271 0.0344353 0.0384156 0.0180289 -0.0185842 -0.00798584 -0.00116923 0.00194343 -0.0239579 -0.0128777 -0.0188967 -0.0249947 -0.0219578 -0.0118209 -0.00656926 -0.00795937 -0.00241453 -0.00202965 0.00321921 0.00793814 -2.64229e-05 0.00751057 0.000681602 -0.00238391 -0.00643939 -0.00558301 0.000968119 -0.0157224 0.00209223 0.0323001 0.0211196 -0.00221276 -0.0355388 -0.0258638 -0.0086047 0.0237598 0.00027808 -0.00666646 0.0148851 0.00929267 -0.00489013 0.00686796 -0.00159028 -0.00554984 -0.0024716 -0.00107915 0.00623772 0.00773196 0.00493807 0.00350086 0.0055686 0.00279114 -0.0087031 0.00416613 0.00933223 -7.06654e-05 0.00636908 0.0221793 0.00949507 -0.00710402 -0.0358733 -0.0422474 0.00590535 0.0313891 0.00163391 0.00611392 0.0151199 0.0419934 0.0236924 0.0194216 0.0112423 -0.000252601 0.00467338 0.00487367 0.00741508 0.00690722 0.00689947 0.00711327 0.00620375 0.00728925 -0.0104024 -0.000218173 0.00141841 -0.00285349 -0.00636184 0.00577295 0.0270145 0.00418732 -0.0320787 -0.0194029 0.0045169 0.0147832 0.0219627 0.0159131 0.0256743 0.033423 0.0385325 0.0176209 0.0114998 0.000227281 0.00805121 -0.00200435 0.00910605 0.0101031 0.00739638 0.00576992 0.0055642 0.00490483 -0.000893687 -0.00796445 0.00222415 0.00559532 0.00255899 0.018988 0.0376394 0.0130521 -0.0216988 -0.0145255 0.0165794 0.0173551 -0.00116618 -0.0125962 0.00588168 0.0126976 -0.000111188 -0.00334674 -0.00133866 0.0141717 0.0158722 -0.00447552 0.00325779 0.000515464 0.00339957 0.0073055 0.00442299 -0.00640734 -0.00984965 0.00613581 0.00133008 0.0102303 0.00494847 0.0150801 0.0226308 0.018775 0.0163374 0.0125845 0.00683455 -0.0141848 -0.0203362 -0.0171168 -0.0169102 -0.00236957 -0.0128407 -0.00239916 0.0061141 0.0170317 0.0046425 0.00659682 0.00434027 0.00876289 0.00402062 0.00509933 0.00940088 0.000611429 -0.0107469 -0.000159459 -0.00382443 0.000316313 0.0105371 -0.0127094 -0.00472662 0.0173865 0.0236561 0.0287919 0.0127531 0.00425655 -0.0129458 -0.0041021 0.00246834 0.0120252 0.000909827 -0.00297024 0.00994098 0.0113163 0.00855873 0.00146748 0.00916923 0.00195876 0.00280601 0.00920324 0.00441296 -0.00373994 -0.000799756 -0.0037597 -0.0122675 0.00186155 -0.0021293 -0.0103328 0.00950698 0.0123968 0.00568799 0.0217859 -0.00978006 -0.0249522 -0.0457384 -0.011875 -0.00869028 0.00886258 0.00158856 -0.0134531 0.0178152 0.0194725 0.00426617 0.00495528 0.00959042 0.00494845 0.00690411 0.00149057 -0.000175558 -0.00372222 0.00229873 -0.00401458 -0.0202136 -0.0210365 -0.0251817 -0.0366352 -0.00610021 0.00332994 0.00236646 0.0235035 0.00361962 -0.0157977 -0.0221713 0.000685137 0.00520539 0.0131564 -0.00246723 -0.00981155 0.0202271 0.00894511 0.00901501 0.00420505 0.00505155 0.00979269 0.00979346 0.00672212 -0.000108577 0.00608229 0.00374317 -0.00428592 -0.0185127 -0.0222469 -0.0294913 -0.0515974 -0.0371402 -0.0170839 0.0149963 0.0319917 0.0271445 -0.01142 -0.0166544 0.012884 0.00967055 0.0066122 -0.00573194 -0.00328414 0.00750073 0.0106983 0.0107824 0.00265195 0.00453608 0.00639065 0.00288624 0.00330025 0.000751935 0.000698375 -0.00101981 -0.00141143 -0.00914846 -0.0275022 -0.0261628 -0.023311 -0.0531712 -0.0400366 -0.0324328 -0.0156359 0.000176187 0.00648553 0.00819842 0.0279844 0.0254823 -0.00786116 -0.012787 -0.0138221 0.00393515 0.0105482 0.00733391 0.00798592 0.00123711 0.00350515 0.0043299 0.00677663 0.00119209 0.00812548 0.00421786 0.000923248 -0.00238148 -0.00512038 -0.0136845 -0.0219636 -0.0320069 -0.0484997 -0.0361476 -0.0204985 -0.0121355 -0.0135267 0.0106362 0.0197774 0.0132235 -0.00289762 -0.000978024 -0.00564752 0.0096156 0.00850084 0.0109672 0.0047211 0.0085567 0.00690722 0.0043299 0.00932378 0.00941298 0.00727797 0.00754733 0.00703536 0.00655206 0.000457155 0.0088501 0.000354082 -0.00204029 -0.0110042 -0.00887549 -0.0147265 -0.00554691 0.00866679 -0.00157341 0.00847028 -0.00121437 0.00492906 -0.00374234 0.00558386 0.00424536 0.00789269 0.00709182 0.00205007 0.00298969 0.00608247 0.00659794 0.00455735 0.00051394 0.00810623 0.00639907 0.00917953 0.00746042 0.00546989 0.00405384 0.00442736 0.00427203 0.00973782 0.00841247 0.00316373 -0.00019426 0.00131209 0.000432738 0.00580398 0.0035543 0.0103036 0.00245224 0.00521011 0.00453077 0.00853931 0.00225758 0.00596686 0.000309278 0.00639175 0.000618557 0.00536082 0.00659792 0.0104166 0.00314132 0.00845369 0.00991871 0.00912555 0.00973546 0.00948754 0.00968349 0.00270915 0.00973328 0.00314227 0.00470871 0.00725759 0.00138282 0.00558416 0.00468179 0.00609796 0.00679341 0.00780607 0.00288577 0.00691393 0.00721649 0.00412371 0.00773196 0.00257732 0.00185567 0.000309278 0.00556701 0.00237113 0.00658146 0.0076903 0.00937107 0.00222498 0.00121671 0.00757934 0.00334122 0.00142949 0.00130688 0.00445496 0.000410116 0.00404774 0.00742818 0.00238454 0.003791 0.00515488 0.00200179 0.000937537 0.00800777 0.00773196 0.00360825 0.00412371 0.00618557 0.00639175 0.000721649 0.00649485 0.00680412 0.00226804 0.00525773 0.00391753 0.00463918 0.00443299 0.00453608 0.000412371 0.00762887 0.00658518 0.00450817 0.00103093 0.00360825 0.000412371 0.00185567 0.00525773 0.00958763 0.00639175 0.00721649 0.00175258 0.00659794 0.0042268 0.00319588 0.00525773 0.00958763 0.00329897 0.00113402 0.0056701 0.00185567 0.00391753 0.00402062 0.00351661 0.00517102 0.00553736 0.00400246 0.00590787 0.008036 0.00555485 0.00922055 0.0026355 0.00778745 0.0065702 0.00403098 0.00842141 0.00590919 0.00309832 0.00129035 0.00129462 0.00328925 0.00515464 0.00525773 0.000309278 0.0042268 0.00845361 0.00505155 0.00927835 0.0010269 0.00670676 0.00664423 0.00279979 0.00138488 0.000232474 0.00967647 0.00894344 0.00549417 0.00556298 0.00584837 -0.00738021 -0.00863093 0.00217243 0.000296577 1.38502e-05 0.00871411 0.00877665 0.00167608 0.00583627 0.0072871 0.00676259 0.00910464 0.00536082 0.00175258 0.0043299 0.00257732 0.00555272 0.00763278 0.00660225 0.00207232 0.0063625 0.00188737 -0.00116438 0.00554221 0.00396462 0.00606568 -0.00142635 -0.00794353 -0.00955169 -0.01214 0.00666576 0.0069338 -0.00661773 -0.010864 -0.00714078 0.00611068 -0.000690034 0.00309259 0.0105148 0.00219418 0.00235642 0.00340206 0.00247423 0.0056701 0.00283894 0.00212086 0.000508212 -0.0016627 -0.00285857 -0.00275224 -0.00540116 -0.00743748 0.00183848 0.00182944 -0.00725707 -0.0168908 -0.0149693 0.00442199 0.0128004 0.0234047 0.00411835 0.00468891 -0.00839272 -0.00383666 0.00185475 0.000203608 0.00713337 0.00228863 0.00870483 0.000750827 0.00989691 0.00701031 0.00967218 0.00278552 0.00746709 0.00352609 -0.00606682 -0.00366536 -0.0105611 0.000194144 0.000657281 -0.000333601 0.00383202 0.00222003 0.000842131 0.00977595 0.00631994 -0.00649236 0.00437337 0.0145546 0.0222635 0.0227405 0.00153644 -0.00107383 0.0106489 0.00342308 0.00962036 0.00269653 0.00443299 0.00886575 0.0101762 0.00933831 0.00591269 0.00709513 -0.000738507 -0.00872663 -0.0180857 -0.0120314 0.0125544 0.0069777 0.00617269 0.0141688 0.00379355 -0.0161331 -0.0140329 0.00187365 -0.000256341 0.0125935 0.0104937 0.0344237 0.0172509 -0.0066728 -0.0018237 -0.0104401 0.000180382 0.00309699 0.00907216 0.00619201 0.00174003 0.00722404 0.00322963 -0.000193987 -0.000885039 -0.000945479 -0.0182292 0.00670435 0.00948258 0.000585239 0.00985953 -0.0059696 -0.0243236 -0.0215586 -0.00377239 0.0150311 0.0290483 0.038826 0.0362409 0.0311314 0.0337381 0.0178241 -0.00649504 -0.00763331 -0.00577826 0.00455247 0.00451672 0.00779592 0.00485293 0.00768368 0.00231996 -0.00179503 0.000337251 -0.00705775 -0.015743 -0.00551197 -0.00293444 -0.0355033 -0.0251837 -0.0262552 -0.0111231 0.00900128 0.00892496 -0.00200226 0.000277993 -0.00363763 0.00480955 0.0272365 0.0499423 0.0383794 -0.0185226 -0.00825795 0.0048276 0.00864724 0.00350515 0.00792588 0.00586642 0.0029861 0.00827455 0.00582311 -0.00817121 -0.0168624 -0.0153353 -0.00546087 -0.0143654 -0.0270885 -0.00463737 0.00482196 0.0295998 0.00715412 -0.00406524 -0.000253367 -0.0144298 -0.00968808 0.0102869 0.0432302 0.0756935 0.0767835 0.0121726 -0.00463215 0.000704943 0.00648167 0.00865979 0.00499917 0.00957623 0.00716765 0.000828816 0.0043756 -0.0125553 -0.0169956 -0.00533463 0.00174504 0.0025618 -0.00202663 -0.000205184 -0.00218753 0.0188611 0.0171519 0.0265322 0.029081 0.00230594 -0.0223404 0.00341552 0.0473619 0.0821615 0.0697923 0.0232254 0.0055142 0.00773852 0.000466676 0.00474227 0.00662318 0.00900738 0.0133809 0.00392724 -0.00526496 -0.0275582 0.00688059 0.00513324 -0.00167256 -0.00710146 -0.00668039 -0.00366416 0.0129263 0.0259703 0.0171682 0.00176736 -0.0312632 -0.0325337 -0.0358182 -0.0136545 0.0372422 0.0507038 0.0625799 0.0484603 0.00847517 -0.00181038 0.00948192 0.00731959 0.00732811 0.00538294 0.0119795 0.00402408 -0.0266365 -0.0257286 0.00553854 0.00465065 -0.00267354 0.0138711 0.0181204 0.0142208 -0.0117375 -0.0119733 -0.0194144 -0.0162983 -0.0296608 -0.048248 -0.0336828 -0.0180848 0.0312961 0.030751 0.0572786 0.0593072 0.013211 0.00156126 0.00516114 0.00845361 0.00206298 0.00143757 0.00868684 -0.00942729 -0.0166134 0.000595663 -0.0178303 0.00307379 0.0303849 0.0180384 0.00860924 -0.0261506 -0.0299866 -0.0281327 -0.0229549 -0.0263734 -0.0392771 -0.0433243 -0.0234996 0.00241846 0.0231548 0.0354646 0.0406824 0.0394342 0.0150047 0.00800937 0.00777395 0.000206186 0.0073008 0.00908494 0.00409807 -0.0191824 0.0120368 0.0180946 0.0325701 0.0378037 0.0428968 -0.00118984 -0.00502616 -0.0350212 -0.0377651 -0.0270667 -0.0320989 -0.035793 -0.0245455 -0.0171705 0.00214884 0.0291349 0.00766472 0.0207648 0.0332643 0.0147963 0.00593675 0.0084772 0.00310234 0.00268041 0.00679867 0.00516983 0.00116586 -0.00741299 0.0200352 0.0429484 0.035203 0.0168407 0.0127103 -0.0160692 -0.0280888 -0.0296959 -0.0254016 -0.0372385 -0.0207756 -0.0162829 -0.0204027 -0.00385225 0.0145341 0.0162272 -0.00225699 -0.000320304 0.00493632 0.0203418 0.00799053 0.00134541 0.00217665 0.000309278 0.00247718 0.00714619 0.000635442 0.0169993 0.00605018 0.0355182 0.0436252 0.0340136 -0.0255785 -0.0350211 -0.0357921 -0.0198518 -0.0253934 -0.0137453 0.00995462 0.0126771 0.00284927 0.00467894 0.00379024 -0.00389372 -0.0138495 0.00514403 0.0113778 0.0178202 0.00230796 0.0100832 0.00209563 0.00886598 0.0101025 0.00322681 0.000445412 0.0117962 0.0109688 0.0326631 0.0179666 -0.00597553 -0.0380119 -0.0249944 -0.0309966 -0.0213124 -0.000421385 -0.00217477 -0.00118701 -0.0139705 0.00412256 -0.0182789 0.0013567 -0.0201956 -0.0108798 0.00353784 0.0115554 0.00535949 0.00355581 0.00334817 0.00785569 0.00639175 0.00298969 0.00796214 -0.00352845 0.00881978 0.00488512 0.0250927 0.0285563 0.00586593 -0.0282909 -0.0254111 -0.0377543 -0.0315065 -0.0293173 -0.0202961 -0.016309 -0.0101188 0.00331814 -0.003588 -0.0203032 -0.0161169 -0.00780939 0.00498213 0.00128206 0.00506434 0.004938 0.00624821 0.00374359 0.01 0.00649651 0.00755754 -0.0080157 0.00106705 -0.00225086 0.0315442 0.0235459 -0.00238717 -0.0245513 -0.0425714 -0.0413243 -0.0274209 -0.0288695 -0.0172582 -0.0343291 -0.0129886 0.00077955 0.000234659 -0.00878096 -0.0109745 -0.0118521 0.0029936 0.00463529 0.00632918 0.000690112 0.000242054 0.00689033 0.00670103 0.00260558 0.00646962 0.00131733 0.0112951 0.00806702 0.0218545 0.0222815 0.0161841 -0.0157118 -0.0174334 -0.0276016 -0.0228766 -0.0233315 -0.0410191 -0.0302334 -0.0174652 -0.0105623 -0.0304451 -0.029256 -0.0202792 -0.0116272 0.00534288 -0.000524204 0.00286831 0.00710798 0.00393574 0.00268041 0.00185488 0.0064946 0.00443539 0.0108724 0.00690687 0.00800194 0.0121553 0.0162051 0.00764915 -0.00587321 -0.0218706 -0.0429217 -0.0374926 -0.0423823 -0.020361 0.00127681 -0.0216926 -0.0401158 -0.0451719 -0.0246412 -0.026376 -0.0061012 0.00449161 -0.00243956 0.00388501 0.00393496 0.00548169 0.00360825 0.00267964 0.00422655 0.00860212 0.0107775 -0.00060725 0.0134741 0.0201624 0.0226974 0.0387995 0.0189082 -0.00962747 -0.0135244 -0.00369429 -0.00565225 0.00928384 0.0111108 -0.0310463 -0.022689 -0.0145523 -0.0043947 0.00782382 -0.00555998 0.000950878 -0.00162788 0.00215665 0.00692139 0.00780755 0.0028866 0.00628866 0.00525773 0.00246333 0.00254926 0.00169766 -0.000742297 0.00635283 0.0125034 0.00863286 -0.000464129 0.00673773 -0.00307166 0.00213932 0.00743421 0.0208593 0.00923526 -0.0236189 -0.0179533 -0.00181187 -0.00538341 -0.00574732 0.00297334 0.0127404 0.005304 -0.00310852 0.00826915 0.00790834 0.00948454 0.00391753 0.00257732 0.00792655 0.00252839 0.00400857 0.00739419 0.0108815 0.00150198 -0.0114097 -0.0134637 -0.00237899 -0.0212391 -0.00823252 0.00568244 0.0176758 0.00939188 -0.00220675 -0.0145821 0.00122699 -0.00904302 0.00264936 0.00841144 0.00887441 0.00799416 0.00573526 0.00626144 0.00474719 0.00742268 0.00381443 0.00948454 0.00285402 0.00671259 0.00401106 0.00733672 0.00374381 0.00500664 0.00300376 -0.0106973 -0.0133707 -0.0135209 0.00480985 0.0119065 0.0134689 0.00520834 0.00965171 0.00167177 0.00302894 0.00146757 0.00410904 0.0118064 0.0106266 0.00140289 0.00459585 0.00381881 0.00103616 0.0014433 0.00639175 0.00494845 0.00278351 0.00834966 0.000503893 0.00716814 0.00570087 0.00321103 0.00987409 0.0125676 0.00839096 -0.00222484 0.00201745 0.0039734 0.00960018 0.0112129 0.00399927 0.0100982 0.0111031 0.00449726 0.00908807 0.00410804 0.0100084 0.0101287 0.00566988 0.0085567 0.000206186 0.00917526 0.00505155 0.00164948 0.0102062 0.00618557 0.00340206 0.00588346 0.00830526 0.00115178 0.00413755 0.0044063 0.00837528 0.00976045 0.00104418 0.00201724 0.0089857 0.00704545 0.00824309 0.00199208 0.00788421 0.00523187 0.00679928 0.00179603 0.00369422 0.00925933 0.0014433 0.00226804 0.00309278 0.00597938 0.00443299 0.00268041 0.00587629 0.01 0.00175258 0.00989691 0.00824742 0.00793814 0.00309278 0.00701031 0.0101031 0.00587629 0.00515055 0.00411476 0.00804124 0.000927835 0.00340206 0.00762887 0.00731959 0.00690722 0.00185567 0.00783505 0.00206186 0.00701031 0.00969072 0.00298969 0.00268041 0.00886598 0.0071134 0.00835052 0.000309278 0.00752577 0.00979381 0.00917526 0.00174094 0.00410708 0.00580995 0.00860571 0.00363214 1.56942e-05 0.0060136 0.000286209 0.00480475 0.00428603 0.00064863 0.0022281 0.0018433 0.00655526 0.00265071 0.00916443 0.00123755 0.0072158 0.00195876 0.00835052 0.00123711 0.00175258 0.00525773 0.00989691 0.00587629 0.00267602 0.000720005 0.00424158 0.00573257 0.000627798 0.00936907 0.00730945 0.00503671 0.00925664 0.00648015 0.0078522 0.00517261 0.00833733 0.00937795 0.0102222 0.00544911 0.00817806 0.00301701 0.00561882 0.000950018 0.00437499 0.00523428 0.00917971 0.00226804 0.00896907 0.00783505 0.00371134 0.00331192 0.00638353 0.00795388 0.000583493 0.00470478 0.00214968 0.00824655 0.00252892 0.00525128 -0.00103345 -0.000248331 0.00304869 -0.000817099 0.00850635 0.000511723 0.00907253 0.00578691 0.00242903 0.00260254 0.00753051 0.00158477 0.00189972 0.0005201 0.0080635 0.00467271 0.00628866 0.00618557 0.00494845 0.00592027 0.00763798 0.00211381 0.00766305 0.00557739 0.00599882 0.00207282 0.00675415 0.00891512 0.00572274 -0.00208891 0.00510201 0.00400992 0.00352178 -0.00205406 -0.00511389 -0.00170408 0.00298814 0.0043111 0.0102797 0.00960985 0.0113954 0.0108206 0.0077441 0.0103445 7.94418e-05 0.00340206 0.00536082 0.00741605 0.00936803 0.00513086 0.0110727 0.00578553 0.00352321 0.000590533 0.0046964 6.13237e-05 0.00306852 0.00125627 -0.00123724 -0.00415705 -0.00573847 -0.00621437 -0.00246459 -0.00296448 -0.00471925 0.00796605 0.00737978 0.0104041 0.00387333 0.00462283 0.000986231 0.00211212 0.00739045 0.00474227 0.00247457 0.00407246 0.00429663 0.000466662 0.00510705 0.00502138 -0.00353702 0.00452403 0.00134666 0.00678336 0.00101686 -0.00607038 -0.000213894 0.00411785 -0.00213052 -0.00358979 0.00334932 -0.000136319 0.00406338 0.00780694 -0.00189655 0.00778399 0.00699653 0.00314693 0.00943039 0.00426123 0.00820795 0.00216495 0.0080576 0.00464928 0.00154786 0.000348519 -0.000572776 0.00148705 0.00311697 0.00495195 0.00138124 -0.00137659 0.000302243 -0.00239415 -0.00679586 0.00425926 0.00145495 0.00461824 -0.00256337 -0.000312489 0.00210839 0.0047502 0.00228376 0.00751845 0.00546239 0.000243861 0.00353004 0.00974284 0.00678125 0.00889425 0.00628332 0.00723435 0.00444059 0.00516051 0.00339031 0.0031361 0.000229326 0.000355943 -0.00282218 -0.00609904 -0.00606609 0.00174942 -0.00764945 -0.00155782 -0.00019869 0.00133324 -0.00808588 -0.00490716 -0.000425282 -0.00137544 0.00344406 0.00369146 0.00624038 0.00415597 0.00901645 0.000274425 0.00556808 0.00298969 0.00614915 0.00437849 0.0065676 0.00144049 0.00127393 0.00771217 -0.0017373 0.00251754 -0.000148734 -0.00479327 0.00273275 -0.00178727 0.00181579 0.00384663 0.00295158 -0.000423067 -0.0101425 0.00261328 0.0044696 0.00085976 -0.00176178 0.00313791 0.00599185 0.00405038 0.00878814 0.00199261 0.0102873 0.00628866 0.00610935 0.00120494 0.00276493 0.00969437 0.000274685 0.00446173 0.00597847 0.00389949 -0.00317462 0.00323352 0.00466119 -3.26545e-05 -0.00560533 -0.00102046 0.00257988 0.0028651 -0.00312218 0.00631682 -0.00287305 0.00432144 0.00504101 0.00149241 0.00211892 0.00766948 0.00915737 0.00386488 0.00161282 0.0056701 0.00846092 0.00346758 0.00855703 0.0124632 0.00564172 0.000797316 0.0048115 0.00170877 0.00250752 0.00329254 0.00349237 0.00480374 0.00461946 0.00690931 0.00487846 0.00274735 -0.00752457 -0.0040045 -0.00145969 -0.00249643 7.2987e-05 0.000988025 0.00929259 -0.000460736 0.000915758 0.00289569 0.00177681 0.00628866 0.0093069 0.0067125 0.00494822 0.00489423 0.00942491 0.0022778 -0.000137846 -0.000906599 -0.00290188 -0.00131685 0.0055188 0.00243838 -0.000962754 -0.00254019 0.009463 -0.0053837 -0.00403192 -0.00189499 -0.00362304 0.0053915 0.00711557 0.00839951 0.00975874 0.00151306 0.00189526 0.00614773 0.00344105 0.00907216 0.00149722 0.00836677 0.00538322 0.00395973 0.00649638 0.00247266 -0.00350359 -0.00310171 -0.00718419 -0.00351213 -0.0026326 0.00383798 -0.00264642 0.00354924 0.00386351 -0.00405327 -0.00735568 -0.00150179 -0.00387801 -0.0035608 -0.000237486 0.00894341 0.00814892 0.00371651 0.00815063 0.00821614 0.0075039 0.0057732 0.00753553 0.00917456 0.00233524 0.000287091 0.00117842 0.00196679 -0.0013066 -0.00656207 -0.00676478 -0.00254612 -0.00541347 -0.00970639 -0.00436366 0.00514322 -0.00235354 -0.000955155 -0.006148 -0.00741157 0.000760113 0.0011146 0.00896151 0.00841632 0.00585431 0.00773902 -0.000263999 -5.32185e-05 0.00401689 0.00628866 0.00371409 0.00841159 0.00676815 0.00258082 -0.00301216 0.00360509 -0.00605602 -0.00190745 -0.00783264 -0.00197595 -0.00130959 2.11464e-05 -0.00763257 0.00188589 0.00258669 -0.00272282 -0.000146386 0.00367967 -0.00520303 0.0046076 0.00482493 0.00638854 0.0022601 0.0019176 0.00757072 0.00881065 0.00101107 0.000309278 0.00258121 0.00493317 0.00500765 0.00110191 -0.00569351 0.000295474 -0.00299025 -0.00422339 -0.00876341 -0.0063554 -0.00434847 0.00111713 -0.00066381 -0.00322071 -4.11511e-06 -0.00585687 -0.00237824 -0.00485285 -0.00273406 0.00371728 0.00469689 0.00836885 0.000666404 0.00300566 0.00813032 0.00866202 0.00708056 0.00989691 0.00804183 0.000988873 0.00326759 0.00182032 -0.00240011 -0.00938348 -0.00249879 1.32323e-06 -0.00478536 -0.012208 -0.00199304 -0.00172968 -0.00361736 0.00319785 -0.00210185 -0.00375002 0.00251355 -0.000422541 -0.00324219 0.00785684 0.00201588 0.0059927 0.00268729 0.0026184 0.00171849 0.00813395 0.00128723 0.00948454 0.00237113 0.00169953 0.00954369 -0.00339245 -0.00291316 -0.00909209 -0.0038849 -0.000882328 -0.00124276 -0.00811129 -0.00908417 -0.00388811 -0.00213248 -0.00288787 -0.00382183 -0.00226501 -0.00268934 0.00150673 -0.00111557 0.00176377 -0.00228176 -0.003032 -0.000493737 0.00363033 0.000817494 0.00487238 0.00658829 0.00515464 0.00682907 0.00220789 0.00277343 0.00322442 -0.00356921 -0.00395129 -0.00535389 0.000580669 -0.00314338 -0.00421951 -0.00228428 -0.0092281 -0.00810626 0.00276077 -0.00511636 -0.00103842 -0.00218084 0.0027819 -0.00574678 -0.00264521 -0.00590043 0.000755381 0.00318864 0.00576087 0.00822668 0.00681792 0.00886962 0.00175258 0.00948271 0.00282757 0.00296576 0.000850976 0.00360146 -0.00128249 -0.0109931 -0.0107548 -0.00244152 -0.00317342 -0.00947226 -0.0079028 -0.00832001 -0.00565765 -0.00801674 0.00149297 0.00330399 0.00169214 0.00204675 -0.00390415 -0.00347152 -0.00147816 0.00761669 0.011033 0.00900983 0.010086 0.00505155 0.00134197 0.0050521 3.36178e-05 0.00300572 0.00830456 0.00186633 -0.00561655 -0.00663312 -0.0119111 -0.0110219 -0.00479489 -0.00876389 -0.00541282 0.00070299 -0.0034402 -0.00352766 -0.00080778 0.000972734 -0.00388296 -0.00657421 -0.000648006 -0.0014302 -0.000349714 0.00585273 0.00690227 0.00439322 0.00267694 0.00329897 0.00185739 0.0092789 0.00216517 0.000437238 0.00425871 0.00365837 0.00205901 -0.00477363 -3.76163e-05 -0.00451915 -0.00749675 -0.00551015 -0.00681434 -0.00963811 -0.00552099 0.00208696 0.00373038 0.00839788 0.00433498 0.00391802 0.00331064 0.00496972 0.00155115 0.00709953 0.0109505 0.00588234 0.0081575 0.00793814 0.00546392 0.00556701 0.00414999 0.00343195 0.00672813 0.00128279 0.00190804 0.00305058 -0.00232298 -0.00475603 0.00310538 0.00121111 0.00322347 -0.00079685 0.000665645 -0.00268396 0.00740468 0.00489063 0.00502037 0.00678797 0.0077824 0.00329888 -0.00241195 0.000224194 0.0108379 0.00165501 0.00291302 0.0014433 0.00391753 0.00845361 0.00989729 0.00728862 0.000912583 0.00170261 0.0100405 0.00730221 0.000649504 0.00860522 0.00583287 0.00183407 0.00215401 0.00764386 0.00300752 0.00527949 0.00312951 0.00567567 0.0023057 0.00364893 0.000614631 0.00226955 0.00665343 0.0077699 0.00383325 0.00188196 0.00782921 0.00814433 0.01 0.0071134 0.00535573 0.00258177 0.00150294 0.00235278 0.00710329 0.00541564 0.00138338 0.000782261 0.00245407 0.00489813 0.0126965 0.00123422 0.00206825 0.00833367 0.00942814 0.00839751 0.00516374 0.00828837 0.0021802 0.00470175 0.00554585 0.00483865 0.00497765 0.00484017 0.00349895 0.00597938 0.00948454 0.00948454 0.00886598 0.00381423 0.00968601 0.00730026 0.00604889 0.00399991 0.00652126 0.00524417 0.00339897 0.00963518 0.00908959 0.00930556 0.00601295 0.00653317 0.00733686 0.0096232 0.00792874 0.0024919 0.00564068 0.00991296 0.00368684 0.0102387 0.000204567 0.00742268 0.00969072 0.00690722 0.0042268 0.00680412 0.0057732 0.00701031 0.00484536 0.00237299 0.0101102 0.00460314 0.00383768 0.0102217 0.00949688 0.00100063 0.00303782 0.00392417 0.00336495 0.00252671 0.0102378 0.0101786 0.00967035 0.00393327 0.00537764 0.00613369 0.00424768 0.0090418 0.00216495 0.00783505 0.00958763 0.00865979 0.00206186 0.00989691 0.0057732 0.000721649 0.00876289 0.00278351 0.00154639 0.01 0.00494845 0.000412371 0.00536082 0.00608247 0.00291199 0.00283909 0.00587629 0.00865979 0.00484536 0.01 0.00381443 0.00329897 0.000515464 0.01 0.0042268 0.0043299 0.000309278 0.00103093 0.00752577 0 0.00896907 0.00350515 0.00319588 0.00721649 0.00515464 0.00443299 0.000739793 0.000953772 0.00935352 0.0032058 0.00840056 0.00208406 0.00549262 0.00125947 0.00617116 0.00321261 0.00344527 0.00818963 0.00526823 0.0019622 0.00413047 0.00525351 0.00444071 0.00455977 0.0057732 0.0101031 0.00649485 0.00958763 0.00391753 0.00298969 0.00278351 0.00184451 0.00958339 0.00694616 0.00529904 0.00165232 0.000434369 0.00802729 0.000309356 0.00797989 -0.000882742 0.00611124 -0.000338547 0.00177795 -0.00261903 0.00730505 0.00719409 -0.00166852 0.00111415 0.00563166 0.000939587 0.00203942 0.000589413 0.00175669 0.00556701 0.00113402 0.00793814 0.00608247 0.00690209 0.009462 0.00449104 0.0061685 0.00893138 0.00654023 0.00977625 0.00716918 0.00408902 0.00410545 0.00594868 0.00380836 0.0048638 0.00200392 0.000643816 0.00441669 0.0118913 0.00738565 0.00874735 0.00830645 0.0112335 0.00875313 0.00178161 0.00363897 0.00284506 0.00237113 0.00938144 0.00113402 0.00544617 0.00372631 0.00192667 0.0077688 0.00939849 0.00435011 0.000420516 0.00277361 0.00512662 0.00546656 0.0119253 0.00981107 0.00767781 0.000920431 0.00667754 0.00701168 0.00585275 0.0109349 0.0090462 0.00803043 0.00724355 0.0114481 0.00446627 0.00714275 0.0015441 0.00462156 0.00618557 0.00938144 0.00578729 0.00597114 0.00243361 0.00559887 0.000989796 0.00645192 0.00474392 0.0131478 0.00664476 0.0103836 0.0151343 0.00468726 0.00946652 -0.00280696 0.00397271 0.0060152 -0.00411037 0.00182614 0.00118489 0.0117321 0.00742889 0.014801 0.00988896 0.00377075 0.00481045 0.00255658 0.00639175 0.00433046 0.00914371 0.00264507 0.00739511 0.00969882 0.0110817 0.00961188 0.0126204 0.0124654 0.0154847 0.014947 0.00551216 0.00353763 -0.00807483 -0.00608726 -0.00714348 -0.00670335 -0.010171 -0.00276813 0.00612424 0.00746759 0.00595831 0.011555 0.00531944 0.00927361 0.00575268 0.0102135 0.000824742 0.00446135 0.000364403 0.000630183 0.0100467 0.0142003 0.0041661 0.000672455 0.00378728 0.0120052 0.00917237 -0.00104295 -0.00952753 -0.0166998 -0.0194333 -0.0212243 -0.0157681 -0.0121228 -0.0150897 -0.011787 -0.00586557 0.00396412 0.00624207 0.011338 0.00763903 0.00726287 0.0034445 0.00227692 0.00424651 0.0059388 0.00838362 0.00755985 0.0018663 0.00409432 0.00308304 0.00165682 0.00546183 0.00163506 -0.00750309 -0.00681645 -0.0130439 -0.01289 -0.0195956 -0.0142236 -0.0140677 -0.0214651 -0.0141929 -0.0094293 -0.00546663 -0.00866074 0.000929442 0.00743987 0.0104067 0.00407486 0.00793754 0.00885784 0.00536082 0.00860078 0.00709369 0.00895019 0.00644576 0.000440045 0.0054273 -0.00134617 0.00478128 -0.0116134 -0.0164454 0.00393739 -0.00606032 -0.00865407 -0.0120109 -0.00554219 -0.00629086 -0.0149633 -0.0153464 -0.00778902 -0.0131191 -0.00550718 0.00535148 0.0057935 0.00297734 0.00475482 0.00818225 0.00307265 0.00773196 0.0102232 0.00656624 0.00276391 0.0087025 0.00506866 0.00485982 -0.00404455 -0.00394283 -0.0074567 -0.00983235 0.0054879 0.00475625 0.00210547 -0.00357733 -0.00757719 -0.0153906 -0.0206842 -0.0147479 -0.0162313 -0.0135897 -0.00510432 0.00202994 -0.000429729 0.00871981 0.00281918 0.00399083 0.00446747 0.00505155 0.00926513 0.00784979 0.0016018 0.00723941 0.000132339 -0.00211172 -0.00288979 -0.00906046 -0.00856941 0.000403415 0.00572259 0.00548858 0.00978132 0.00128383 -0.00164096 -0.00943955 -0.0100011 -0.0145887 -0.0202657 -0.0164609 -0.00611686 0.00339186 0.001143 0.00351799 -0.000564044 0.00514728 0.00825363 0.00123711 0.00771543 0.00073254 0.00683863 0.0013112 0.00302575 -0.00544824 -0.00247644 0.000823092 -0.0103136 0.00283863 0.0091488 0.00552549 0.00973443 0.00187706 0.00844826 -0.00280513 -0.00912544 -0.0113105 -0.0091402 -0.00275674 0.00143506 0.00343012 0.00133623 -7.63848e-05 0.00171575 0.00089501 0.00391339 0.00453608 0.00765035 0.004318 0.00130064 0.00250887 0.00244074 -0.00302051 -0.000337059 0.00147664 -0.00276793 0.00704358 0.00169169 -0.00211099 0.00550878 -0.00146323 -0.00136225 -0.00794666 -0.0110378 -0.013232 -0.00139955 -0.00403018 0.000248722 0.00446311 0.00849177 0.00484588 0.00367909 0.00296987 0.000285993 0.00494845 0.000524329 0.00685308 0.00360955 0.00429679 -0.001132 -0.00370137 -0.00526875 -0.00891939 0.00258742 0.00105122 -0.00757674 -0.00243742 -0.0086354 -0.00311185 0.000867434 -0.00759578 -0.0129255 -0.000888373 0.00569861 0.00433464 0.00476751 0.00277508 0.00668947 0.00212412 0.00529218 0.000720938 0.00834813 0.00690722 0.00319872 0.00302773 0.00337228 0.00262077 0.000535907 -0.00405744 -0.00105353 -0.0123528 -0.00688287 -0.00460361 -0.00708453 -0.00174724 0.00194427 0.00560995 0.0016751 -0.00767615 -0.00564052 0.00968835 0.00966984 0.0019558 0.00432444 0.00343106 0.00174173 0.0090164 0.0063059 0.00113463 0.00742377 0.000824742 0.00411713 0.00170885 0.000688097 -0.000193013 -0.00644345 0.00222963 -0.00623181 -0.0114359 -0.0057174 -0.00753094 -0.00844479 0.00400441 0.000923432 -0.000521562 -0.00299049 -0.0192051 -0.00853629 0.00563325 0.0111648 0.00899235 0.00741638 0.00823108 0.00933525 0.0039616 0.00379265 0.0027992 0.00896366 0.00525773 0.00391756 0.00696264 0.00843359 0.00835207 0.00274856 -0.00211323 0.000861032 -0.00702383 -0.0071154 -0.0037935 -0.00336938 0.00240556 0.0026072 -0.00661974 -0.00922764 -0.0091711 0.000358748 0.00838117 0.00118222 0.0147955 0.00872053 0.00832411 0.00908814 0.0028873 0.00365848 0.00829235 0.00760081 0.00329897 0.00824742 0.00562353 0.00122881 0.00806302 0.00306158 0.00246577 -0.00425922 -0.00640271 -0.00457328 -0.000873797 0.00543769 -0.00471743 -0.0108663 -0.00393549 -0.0144072 -0.00355791 0.000673925 0.00438605 0.00677899 0.00893027 0.0128849 0.00932707 0.00409499 0.00793943 0.000784585 0.00834964 0.00821749 0.00134021 0.00103884 0.00548866 0.00969197 0.00220504 0.00432631 0.00417813 -0.000119083 -0.00259704 0.00146181 0.00474409 -0.00258541 -0.00239954 -0.0140168 -0.0109616 -0.0162106 -0.00934371 -0.00376276 -0.00383074 0.000829817 0.00950489 0.00688045 0.00352671 0.0030907 0.00760548 0.00591676 0.00860217 0.00215039 0.00989691 0.00904525 -1.32917e-05 0.00835184 0.00593105 -0.00161347 0.00855289 0.00161147 0.00745103 0.00121311 -9.6315e-05 -0.00601156 -0.00650381 -0.00511391 -0.0103852 -0.00472629 -0.00118475 -0.00311294 0.00877795 -0.000278374 0.00751034 0.000190663 0.00243786 0.00518562 0.00473575 0.00188208 0.00785677 0.00762887 0.000719917 0.0051541 0.00514969 0.00682699 0.00645451 0.00409096 0.00565097 0.00684146 0.00320517 -0.000765185 0.000855972 -0.00272521 0.00749033 0.0107748 0.00606286 -0.00248352 0.00599858 0.0107464 0.00461245 0.00832674 0.000797561 0.00740795 -0.000445597 0.0105134 0.00321115 0.00809835 0.00627472 0.00402062 0.00484367 0.00989636 0.00833682 0.00235834 0.0102645 -0.000381222 0.00385733 0.00264509 -0.00403966 -0.00668087 -1.14332e-06 -0.00405861 0.00195431 -0.00348176 -0.00316917 0.00102575 -0.000135146 0.00561859 -0.00206688 0.0024906 0.00703701 0.00479012 -0.000229586 0.00426356 0.00733941 0.00703578 0.00277521 0.00783505 0.00309278 0.00360825 0.00990963 0.000287002 0.00759736 0.00617265 0.00604176 -0.00258128 -0.0028654 0.004382 -0.00404713 -0.00218129 -0.00674812 -0.00511948 -0.0043009 -0.00329045 -5.59438e-05 -0.0065868 -0.000884135 0.0079557 0.0100198 0.00970091 0.0023385 0.00772401 0.00837517 0.00758353 0.00264299 0.000206186 0.00907216 0.00505155 0.00663992 0.00156916 0.00223187 0.00967558 0.00189742 0.00269186 0.00389555 -0.0015347 -0.00291726 -0.00100608 -0.00226699 -0.0027909 -0.00488389 -0.00540935 0.0040528 0.00385923 0.000275077 0.00271985 0.000668338 -0.00144337 0.00593109 0.00535832 0.00575004 0.00835999 0.0017532 0.00247423 0.00247423 0.00257732 0.00998302 0.00330137 0.0015011 0.00452795 0.00058734 0.00206056 -0.00217107 -0.000101991 -0.00323308 0.00525542 0.000597151 -0.00281113 -0.00620128 -0.00265085 0.00471139 -7.89308e-05 0.00148981 -0.000922365 0.00165893 0.000833263 0.00743358 0.00665806 0.00197066 5.52198e-07 0.00484602 0.00278351 0.00690722 0.00298969 0.0057732 0.00340185 0.00176491 0.00422883 0.00300739 0.00679253 0.00382366 -0.00097591 0.0075451 0.00198413 0.00602317 0.00112572 -0.00156517 0.00525459 0.00221427 0.00264517 0.00142861 0.00340522 0.00442469 0.00319937 0.00832059 0.00298431 0.00246832 0.00525773 0.00556701 0.00443299 0.00835052 0.00309278 0.00618557 0.00690722 0.00896907 0.0056728 0.00309244 0.00713596 0.00192933 0.00788684 0.000727544 0.0100859 0.00346093 0.00642652 0.0056127 0.00254708 0.00278157 0.00140275 0.00417942 0.0011432 0.00815462 0.00393618 0.00861228 0.00859842 0.00113402 0.00670103 0.00154639 0.00474227 0.00938144 0.00257732 0.00793814 0.00618557 0.00505155 0.00680412 0.0043299 0.00402062 0.0014433 0.00731959 0.00268041 0.0057732 0.00102108 0.00251113 0.00731959 0.0057732 0.00484536 0.000927835 0.0043299 0.00628866 0.00773196 0.00154639 0.000309278 0.00762887 0.01 0.00876289 0.00515464 0.00175258 0.00412371 0.00587629 0.00154639 0.00226804 0.00639175 0.00237113 0.000716417 0.00223012 0.00519999 0.00357348 -0.0053042 0.00854947 0.00188336 0.00129523 0.000336931 0.00366054 0.00231141 0.00696215 0.00198953 0.00817815 0.0102531 0.00534364 0.00202563 0.000517737 0.00659794 0.00824742 0.00773196 0.000927835 0.00412371 0.00587629 0.00195876 0.00369561 0.00329277 0.00716895 0.00960707 0.00449713 -0.0013619 -0.00812588 -0.00805699 -0.0036347 0.00221072 -0.000769216 0.00877628 0.0044065 0.0105594 0.0069974 0.00222465 0.0104511 0.00959902 0.00627969 0.00626547 0.00713388 0.0023827 0.00881128 0.00989691 0.00659794 0.00752577 0.00319588 0.00904957 0.00986967 0.000841009 0.00624483 0.00451572 0.00197697 0.0013951 -0.0173008 -0.0194273 -0.00100893 -0.00554676 -0.00494208 0.00149617 0.00904883 -0.00166542 -0.00166677 -0.00363444 0.00213056 0.00430268 -0.000774761 0.00601123 0.011352 0.0059824 0.000800244 0.00174 0.00793814 0.00690722 0.00618557 0.00878853 0.008656 0.00263673 0.00922322 0.00788643 0.00353322 0.0037762 -0.0200364 -0.019484 0.00163997 0.0152007 0.0218044 -0.000248559 -0.015298 -0.0176465 -0.0141861 -0.00614452 0.00644164 -0.00340581 0.00768627 0.0103638 0.0198597 0.0108159 0.00790067 0.00460259 0.00997947 0.00113402 0.00969072 0.00608158 0.00706387 0.0132782 0.0113112 0.00598157 0.00419359 0.00229164 0.00767482 0.0139106 0.0153352 0.0036474 -0.0334051 -0.0338398 -0.0293084 -0.0437229 -0.04027 -0.0256558 -0.0142754 -0.00270222 0.00545382 0.0210967 0.0248943 0.0152071 0.00774068 0.00384938 0.00764372 0.00484536 0.00731948 0.0077811 0.00306955 0.00463972 0.0129064 0.00554917 -0.00160491 0.00660924 0.0383616 0.0204636 0.0268576 0.0195923 -0.023361 -0.0635955 -0.0823374 -0.0625746 -0.0428181 -0.0661331 -0.0428834 -0.00670524 0.0258076 0.0266551 0.034544 0.00666966 0.000603932 0.00570269 0.00696259 0.00670103 0.00608244 0.00807701 0.00299778 0.00490812 0.015372 -0.00564889 -0.0167514 0.019413 0.0076215 0.020228 0.0298689 0.0289702 -0.0267961 -0.0764517 -0.0778139 -0.0640417 -0.0436589 -0.0624121 -0.0397877 0.0110433 0.0330252 0.043322 0.0265669 0.00655443 -0.00112512 0.00133816 0.00505549 0.00913899 0.000731961 0.00738678 0.00889472 0.00130695 0.00623667 -0.0193918 -0.00484591 0.00960971 0.025067 0.00545928 0.0167646 -0.0129738 -0.0469781 -0.0657306 -0.0760807 -0.0605566 -0.0557586 -0.0642075 -0.0172842 0.0533646 0.0363629 0.0132784 0.00780843 -0.0057949 0.00754987 0.00604883 0.000302763 0.0102062 -0.000187393 0.00920255 0.00391836 -0.00229003 -0.00831861 -0.00937447 0.00628611 -0.00993384 -0.000160628 0.00475211 -0.0063473 -0.0286303 -0.0292171 -0.0472429 -0.0655811 -0.059208 -0.053671 -0.0449276 0.0156945 0.0568083 0.0334299 -0.00915964 -0.00525874 0.00217034 0.00951126 0.00564314 0.00902043 0.00876289 0.00078397 0.00190624 0.00246333 0.000374721 -0.015623 -0.0139726 -0.011729 -0.00552251 -0.00485263 -0.00861934 -0.0014126 4.27502e-05 -0.0157264 -0.0459571 -0.0359575 -0.0381998 -0.0435403 -0.00626457 0.0286168 0.0216751 0.0027186 0.00232128 -0.0152269 0.00366653 0.0023356 0.00194816 0.0099724 0.00412371 0.00632062 0.00686903 -0.00334564 -0.00459139 -0.0104359 -0.000156445 -0.017498 0.00823834 0.00670297 0.00228415 0.0217384 0.00639579 -0.0254302 -0.0286895 -0.0296371 -0.0319532 -0.0509293 -0.0127448 0.01907 -0.00788592 -0.0107661 -0.00629499 -0.0114389 -0.0136189 -0.00329302 -0.00182776 0.00529242 0.00185567 0.00764209 0.00794953 -0.00365555 -0.0118498 -0.0192461 -0.00614109 -0.00164342 0.0269314 0.0232167 0.0183362 0.0244179 -0.00241143 -0.00855522 -0.0216773 -0.0249129 -0.0472982 -0.0297943 -0.00682758 0.0144395 0.00469563 -0.0125256 0.00282788 -0.0263689 -0.00492628 0.000182757 0.00387628 0.00525988 0.00206186 0.0074253 0.00560382 -0.00275007 -0.00143993 -0.00814559 0.00632082 0.0238248 0.0393992 0.0210814 0.0109605 0.00908488 -0.00148542 -0.020457 -0.0209609 -0.0208349 -0.0179517 -0.00274764 0.0242469 0.0187893 -0.00296659 0.00989989 -0.000463461 -0.0173119 -0.0104577 0.000664735 0.00301543 0.00336495 0.00948454 0.00959168 0.00717604 0.012685 0.00903776 0.0171356 0.00169774 0.0159594 0.0338402 0.0264882 -0.009121 0.00122519 -0.0130088 -0.011985 -0.0135989 -0.00436932 0.0138526 0.0139636 0.0264608 0.0307003 0.000492762 0.0200737 0.00238226 -0.012142 -0.0225806 0.00278552 0.00507972 0.00936583 0.0043299 0.00454228 0.00986836 0.011216 0.0106755 -0.000882828 -0.012215 0.0182393 0.0232922 0.016972 0.0165503 0.00444697 0.00522659 0.000861841 0.00359765 0.00546901 -0.0090141 0.0237658 0.0391663 0.03431 0.0196794 0.00495445 -0.0106801 -0.0200379 -0.0176386 0.00171538 0.00669327 0.00835173 0.00721649 0.00486231 0.00991065 0.0169466 0.00754851 0.00961075 0.00448961 -0.00632395 0.0221777 0.0095794 0.00613662 0.00336582 -0.0235192 -0.0246783 -0.024981 -0.000149113 -0.00508188 0.0252738 0.0316217 0.0149547 0.00786288 -0.021299 -0.0264259 -0.0285159 -0.00820594 0.00175017 0.00551513 0.00202051 0.00742268 0.00948631 0.00290311 0.00622876 -0.000203408 -0.00249422 0.010642 0.0250459 0.024731 0.00470814 0.0043789 0.00490444 -0.0089235 -0.00563491 0.0129965 0.00387239 0.0160683 0.026035 0.0328054 0.00335976 -0.0318445 -0.0241327 -0.021044 -0.0226358 -0.000742699 0.00476933 0.00939467 0.00291178 0.00989691 0.00329897 0.00331934 0.0103088 0.00957553 0.00354705 -0.00761446 0.0117563 0.00356353 -0.000396296 -0.00221806 0.00833323 0.00813883 0.00932526 0.022975 -0.000440115 0.0247145 0.033793 0.0198776 -0.00165368 -0.0327205 -0.0118075 -0.0198713 -0.0175563 -0.00380089 0.00424131 0.00375143 0.00444868 0.000824742 0.0010055 0.00478701 0.00700238 -0.000147692 -0.00333947 -0.0146997 -0.00285364 -0.00474281 -0.0048164 -0.0238584 -0.0216521 -0.0308022 -0.0251261 0.0194516 -0.00667887 -0.0121937 0.0085059 0.00329953 -0.0299666 -0.0398427 -0.0100659 -0.0104626 -0.0157131 0.00181337 0.000805822 0.00392203 0.00484159 0.00938144 0.0011326 0.00377221 0.00856465 0.000170925 0.000437465 -0.00973539 -0.00649489 -0.031415 -0.027061 -0.0353863 -0.0421354 -0.036515 -0.012628 0.00461759 0.00809552 -0.00620949 -0.0138929 0.00412999 -0.012895 -0.00626224 -0.000589564 -0.00231504 -0.00639517 -0.00233263 -0.000907583 0.00724067 0.00814433 0.00896817 0.00865951 0.00538904 0.00693075 -0.000735454 -0.00176788 -0.0136242 -0.0189639 -0.0261927 -0.0366345 -0.0424918 -0.0288508 -0.0359875 -0.0127339 -0.00331949 0.0161405 -0.0124942 -0.00164558 -0.00165723 -0.00552219 -0.00272578 -0.00702768 -0.00268008 0.00693756 -0.00546564 -0.00617185 0.00882709 0.00587629 0.00721561 0.00989662 0.00287916 -0.00046324 0.00244434 0.00334127 -0.00496904 -0.0173902 -0.0210886 -0.0346729 -0.0270768 -0.0193164 -0.0242168 -0.0007347 -0.000386353 0.00755563 -0.00750757 -0.0162497 -0.00724146 -0.00555086 -0.00157621 -0.00427036 0.00441419 0.00649644 0.00277732 -0.0059772 0.00904982 0.00103093 0.00515464 0 0.00797952 0.00957613 0.00849876 0.0088778 0.00413531 0.00374017 -0.00968218 -0.0173196 -0.0118632 -0.0152561 -0.00857541 -0.000330224 0.0116311 0.0301162 -0.00785742 -0.0285525 -0.0110922 -0.00601772 -0.00288697 0.0168197 -0.00443286 0.0104643 0.00483468 0.00487173 0.00431758 0.00670103 0.00597938 0.00742268 0.00930753 0.00460954 0.00651233 0.00674001 0.00646502 0.00395312 -0.0050959 0.0104148 0.00459217 0.00467613 0.00464721 0.00187279 0.00707893 0.025532 0.0130607 -0.00556243 -0.0339719 -0.0290997 -0.00524093 0.0100883 0.00165879 0.0075223 0.00600552 0.00955087 0.00339469 0.00329897 0.00484536 0.000824742 0.00838812 0.00124853 0.0104286 0.00501789 -0.00101994 0.00128101 0.0102131 0.0180883 0.0158017 0.00884787 0.0042674 -0.00171975 -0.0100777 0.0146424 0.0122448 0.00278373 -0.00119652 -0.0107817 -0.0146474 -0.0168689 -0.0156823 0.000451131 0.000712415 0.00844706 0.00638392 0.0014433 0.00979381 0.00556701 0.00865979 0.00505209 0.00217715 0.00719848 0.000571657 0.000502799 0.00667612 0.00177949 0.0113117 0.00417732 0.0058575 -0.00456049 -0.00592061 -0.0128397 -0.0133511 -0.00922199 -0.00798825 -0.00247827 0.00039737 0.00706459 0.00775881 0.000414436 0.00525008 0.00948454 0.00814433 0.00494845 0.0085567 0.00958763 0.00494845 0.000721649 0.00319588 0.00886942 0.00219583 0.00789492 0.00214772 0.00861783 0.0012698 0.00765301 0.00263576 0.00573986 0.0063857 0.00753466 0.00661263 0.00483706 0.00168169 0.0086969 0.00297583 0.00255907 0.00617255 0.00380601 0.000824742 0.00309278 0.00783505 0.00443299 0.00206186 0.00443299 0.00536082 0.00134021 0.00412371 0.00185567 0.00113402 0.00268041 0.00164948 0.00536082 0.0014433 0.00876289 0.00589581 0.00282624 0.00515464 0.000412371 0.00237113 0.00762887 0.00721649 0.00536082 0.00154639 0.00556701 0.00340206 0.01 0.00639175 0.00587629 0.00948454 0.00463918 0.00494845 0.00309278 0.00494845 0.00175258 0.00505155 0.01 0.00323224 0.00551589 0.00145445 0.001569 0.00688675 0.00641502 0.000964483 0.000319255 0.00649063 0.00780915 0.00951321 0.0052071 0.00568536 0.00090147 0.00705173 0.00572853 0.0037618 0.00836176 0.00268041 0.0085567 0.00247423 0.0085567 0.00340206 0.0042268 0.00649485 0.00145604 0.00619002 0.000957172 0.00942429 0.00100914 0.00530148 0.00996318 0.00771634 0.0095619 0.00627237 0.00141674 0.00626121 0.000994209 0.00736335 -0.000121811 0.00830094 0.00721442 0.0024495 0.00474834 0.0080295 0.0052053 0.00321448 0.000322965 0.00762887 0.00546392 0.00680412 0.00123711 0.000399192 0.00209603 0.00939703 0.00805601 0.00867797 0.00450169 0.00656386 0.00411081 0.0105928 0.00388258 -0.00147214 0.00244042 0.00430891 -0.0015703 0.0018973 0.00256827 -0.00175224 0.00551272 0.000645833 0.00203936 0.00335094 0.00385872 0.00906413 0.00701092 0.00478262 0.00412371 0.00298969 0 0.00954359 0.00327724 0.00380918 0.00954117 0.00413849 0.00746101 0.00894336 0.00217588 0.00349957 0.000457487 -0.000414168 -0.00730641 -0.00596965 0.00411895 0.00601384 0.00109152 0.00386426 0.00687381 0.00699014 0.00248996 -0.00319196 -0.00352957 -0.000731396 0.00626582 -0.000136228 0.00428563 0.00463918 0.00680412 0.00318042 0.00941255 0.00193721 0.00794573 0.00261866 0.00366446 -0.000688623 -0.00138457 -0.0038777 -0.00731978 -0.00571967 -0.00174968 -0.00676139 0.00512929 0.00624314 0.00853023 0.00630477 0.000925243 0.0011212 -0.00599635 -0.00404721 -0.000702565 0.00187343 0.00279712 0.00110218 0.00523476 0.00618557 0.00639181 0.00548257 0.00118625 0.0058581 0.0102317 0.00604274 -0.000282569 0.00177591 -0.00509031 -0.00303927 -0.00873372 -0.00676209 0.00167444 0.00675265 0.00722953 0.0108448 6.9855e-05 0.000749592 -0.00178266 -0.00748345 -0.00319667 -0.00286937 0.00254061 0.00649742 0.00611875 0.0081158 0.00675608 0.000721649 0.00660027 0.00599667 0.00125581 0.0001194 0.00181745 0.00270913 0.00594418 0.00349359 -0.00855034 0.000495884 0.000427494 -0.00068974 0.00270071 0.0105054 0.00466265 0.00506808 -0.00461504 -0.00711082 -0.000760009 -0.00265993 -0.000645833 0.00359743 0.00717523 0.00285787 0.00928568 0.00693044 0.00487368 0.00914405 0.0100863 0.00620963 0.00792201 -0.000745277 0.00812883 -0.00108113 0.00319468 -0.00588822 -0.00139239 -0.00112299 -0.00152749 0.01051 0.0129295 0.0105149 0.00494603 0.00170854 0.000511821 -0.00428928 0.00195509 0.00397837 -0.00189928 0.00592823 0.00254569 0.00544577 0.00122724 0.00490966 0.0101099 0.00783505 0.00113057 0.00667295 0.00209456 0.00424754 0.00318042 0.00039715 4.04186e-05 -0.00833454 -0.00556388 -0.00304503 0.00191644 0.000619847 0.00494108 0.00578617 -0.00348058 -0.00863522 -0.0060839 -0.00248791 0.0106869 0.00536407 0.000189489 0.00704191 0.00809103 0.010152 0.00713943 0.00343109 0.00156322 0.00804124 0.00731896 0.0050676 0.00345919 0.00744392 0.00575079 0.00662135 -7.90773e-05 0.00312069 -0.00333247 0.00108111 0.00207631 0.00127472 0.00874186 0.00331679 -0.00371407 -0.00329103 0.0031296 0.000438422 0.00172292 0.0106092 0.00624502 0.00164489 0.0136846 0.0140512 0.00873742 0.00687261 0.00347618 0.00319588 0.000500907 0.00669175 0.00169417 0.00378437 0.00490569 -0.00380168 0.00916138 0.00818006 -0.00356759 1.05816e-05 0.00259148 -0.00034832 0.0005039 -0.0075095 0.000336117 -0.00439092 -0.00614618 0.00368337 0.00116745 0.00571982 -0.00371726 -0.00304483 0.0116204 0.0132774 0.00243212 0.000526127 0.00483649 0.000721649 0.0102293 0.000449395 0.00489256 0.000805718 -0.000597553 0.00835798 0.0121715 0.00856123 0.00347555 -0.0106593 -0.000629486 0.0009245 0.00293175 -0.0025219 0.000126137 -0.00636574 0.00241665 0.00642304 0.000700009 -0.00197124 -0.00822936 -0.000842881 0.00847356 0.00892047 0.00670873 0.00105551 0.000103481 0.00164948 0.00505971 0.00607095 0.00848688 0.00655606 0.00428769 0.0158063 0.00467443 -0.00648581 -0.00237216 -0.00495818 -0.00240737 0.000613083 -0.00356216 0.00504166 0.00220691 -0.0110625 -0.00538026 -0.0060321 0.00229477 -0.00655469 -0.00342205 -0.00661429 0.0100482 0.0109504 0.00595576 0.0027156 0.00245153 0.00474227 0.0059782 0.00357308 0.00967632 0.00159416 0.0139645 0.0150671 0.00515891 -0.00586826 -0.00756968 -0.00794171 0.00137751 -0.00399791 -0.00131864 -0.00916021 -0.0138086 -0.0205366 -0.0100796 0.00191771 2.51146e-05 -0.00222421 -0.00932229 0.00236045 0.0051654 0.00980118 0.00334038 0.00405044 0.00989113 0.00185567 0.00484325 0.00776433 0.00480391 -0.000113685 0.0190216 0.0129339 0.00407222 -0.0108352 -0.0088472 -0.0102192 -0.00728651 -0.00440885 -0.00430909 -0.0138972 -0.0149558 -0.0192742 -0.00310957 0.0035888 -0.00394957 0.00208731 -0.00967797 0.00383133 0.0133044 0.00814178 0.00148433 0.00360697 0.00967796 0.00268041 0.00886384 0.00941308 0.00122749 0.00633647 0.014632 0.0110281 -0.0022195 -0.00772372 -0.00346771 -0.0030031 0.00379828 5.11092e-05 -8.33527e-05 -0.00852713 -0.0131296 -0.0143076 -0.00685888 0.00288246 -0.00611345 -0.00425304 -0.00611178 0.00888151 0.00601777 0.00434638 0.00497203 0.0063732 0.00626167 0.0071134 0.00608207 0.00681101 0.00541176 0.00552819 0.016422 0.0111083 0.00177605 -0.00558812 -0.00842862 0.00371217 0.00452393 -0.000834222 -0.0018003 -0.00303657 -0.00544143 -0.0115117 -0.000644924 -0.00139402 -0.00369572 -0.00892917 -0.00287624 0.00700973 0.00465329 -0.000859218 0.00693605 0.000327926 0.00505514 0.0056701 0.00113402 0.00381116 0.00914557 0.010615 0.00863369 0.00675783 0.00612124 0.00180796 -0.000444017 0.00702345 0.00554214 0.00404201 -0.0016171 -0.0147083 -0.00857068 -0.0136321 0.00523972 0.00151934 0.000460963 -0.00265657 -0.00353634 0.00511943 -0.00164939 0.000911213 0.00910725 0.00853847 0.00088628 0.00484536 0.0070326 0.00924955 0.00417388 0.00893391 0.0109654 0.005599 0.0116309 0.00339753 0.00971519 0.00682101 0.00629828 0.00779417 0.00493529 -0.00114153 -0.0103051 0.00408525 0.00927959 -0.00115668 0.00453746 0.00490312 0.000300409 0.00567937 0.00224656 0.00403332 0.00182642 0.00872871 0.00885904 0.00329897 0.00259526 0.0061967 0.00370615 0.0069867 0.00508722 -0.00107659 0.00777385 0.00719605 0.00341847 0.00604586 0.00248922 0.00935869 0.00671071 -0.000575636 0.000415893 0.00482987 0.00773003 -0.00896327 -0.00713016 -0.00681323 -0.00136797 0.000752821 -0.00155872 0.00534231 0.00874427 0.00434455 0.00783505 0.00133961 0.00154621 0.0066841 0.00704483 0.00468171 0.00545282 -0.0011704 0.00536068 0.00294796 0.00455046 0.00380565 0.00700319 0.00670979 -0.00342882 0.00547343 0.003536 0.00945704 0.00122261 -0.00180236 -0.00610957 -0.000888205 -0.00735741 -0.00579831 0.00227017 -0.00422751 0.00990542 0.00309324 0.00494845 0.00948396 -1.8558e-07 0.00573231 0.000995432 0.00813426 0.0021178 0.00235017 0.00932307 0.00398118 0.0119476 0.00717506 0.0060799 0.0099804 0.00953028 0.00295109 0.00256156 0.00618235 0.00422696 0.000416322 0.00192019 -0.00693714 -0.00620229 0.00448859 -0.00409972 0.000109283 0.00114109 0.00104344 0.00907216 0.00927835 0.00721649 0.00865661 0.00265483 0.00198848 0.00797622 0.00433238 0.00375144 -0.0012379 0.00163182 0.00656953 0.00360242 0.00594475 0.0108531 0.00317402 0.00840286 0.00800949 0.00127832 0.000788637 -0.00344916 -0.00368597 0.00231529 0.00169563 0.00767749 0.00356107 0.00649525 0.00545362 0.00907216 0.00865979 0.00443299 0.00487111 0.00888226 0.00677719 0.00373509 0.00352843 0.00339455 0.00478131 -0.00165673 0.00805476 0.00718794 0.00600271 0.00826513 -0.00440931 0.00572687 0.00568514 -0.0035793 -0.000323175 -0.0012119 0.00295538 -0.0023928 0.00555114 0.00140509 0.00756246 0.00297034 0.00628627 0.00773196 0.0028866 0.0056701 0.00288866 0.00258147 0.00864604 0.00053298 0.00424662 0.0103245 0.00273491 0.00875222 0.00211563 0.00194891 0.00787012 -0.0021871 -0.00400928 0.00316876 0.00420501 -0.00414782 -0.00300884 0.000921908 0.000425798 0.00427633 0.00490758 0.00250203 0.00633073 0.00381231 0.000306738 0.00134021 0.00958763 0.00185567 0.00845361 0.00690735 0.0091146 0.00687022 0.00385543 0.00617939 0.00664771 9.30966e-05 0.0101254 0.00968483 0.00625507 0.00214518 0.010355 0.00331584 0.00730722 -0.000667893 0.00689357 0.000473465 0.0101821 -1.33709e-05 0.00891448 0.00782874 0.0073195 0.00257732 0.00670103 0.00123711 0.00907216 0.00659794 0.00329897 0.0028866 0.00185567 0.00587782 0.00794681 0.00210508 0.001995 0.00869296 0.00112957 0.00856649 0.00731045 0.00643294 0.00103541 0.00855278 0.0057947 0.00623691 0.00448144 0.00360734 0.00163642 0.000484461 0.00596141 0.00990573 0.00927835 0.000824742 0.00628866 0.00886598 0.00628866 0.00927835 0.00412371 0.00814433 0.00948454 0.00360825 0.0102062 0.00628866 0.00752577 0.00639175 0.00938144 0.000412371 0.00103013 0.00587454 0.00103093 0.00525773 0.00247423 0.00350515 0.00814433 0.00536082 0.00164948 0.00175258 0.00597938 0.00257732 0.00876289 0.00917526 0.00680412 0.00773196 0.00175258 0.00226804 0.00206186 0.00216495 0.00113402 0.00350515 0.0053051 0.00749039 0.00878715 0.00405624 0.00373488 0.000615134 -3.12011e-05 0.00718198 0.00628211 -0.000454537 0.00567727 0.00706191 0.000698822 0.000627893 0.00028758 0.00938855 0.00899963 0.00464218 0.00989691 0.00268041 0.00474227 0.00319588 0.0057732 0.00969072 0.00752577 0.00672678 0.0089784 0.007435 0.00193873 0.000943535 0.00272415 0.00212138 0.00377151 0.00776911 -0.00143718 -0.00652251 -0.00704327 1.81493e-05 0.00479181 0.000586511 0.00497739 0.00462047 -0.000872613 -0.000370317 0.00865 0.00236581 0.000743564 0.00698732 0 0.00298969 0.00587629 0.0028866 0.00823309 0.000480125 0.0061696 0.0084435 0.000740145 0.0073936 0.00721429 0.00408016 0.00364324 0.00144164 0.0138097 -0.0120495 -0.00338279 -0.00780132 -0.00293708 -0.0048542 -0.0122404 -0.0181145 0.00285749 -0.00449024 -0.0179329 -0.0151429 -0.0166389 0.00402811 0.00416118 0.00164948 0.00917526 0.00876289 0.00222027 0.00160572 0.00583862 0.00525174 1.67793e-05 0.00891981 0.00369059 -0.00830461 -0.0170095 0.00503629 0.0245935 0.0311823 -0.00949312 -0.00962098 -0.0383048 -0.039524 -0.0134829 -0.0144776 -0.0408571 -0.0394381 -0.040225 -0.0280543 -0.012654 0.00245667 0.000709876 0.0045281 0.00556701 0.00371134 0.00417176 0.00441282 -0.00225868 -0.00452336 -3.58648e-05 -0.0047354 -0.0188883 -0.023368 -0.032281 -0.00847229 -0.00164972 0.0141467 -0.00661225 0.0109345 0.0179679 -0.013319 -0.0039862 -0.0151506 -0.024911 -0.0504821 -0.0332296 -0.0228243 0.00501478 0.0177964 0.0121979 0.00255628 0.00742268 0.00594256 0.00942894 0.00997177 -0.00167505 0.00237848 -0.000963119 -0.00523249 -0.0146989 -0.0179466 -0.00339556 0.00190774 -0.0101449 0.0107875 0.00643939 0.0181109 0.0219561 0.0208783 0.0117263 0.0109747 0.0272944 0.00659236 0.012399 0.0136292 0.0496584 0.0174805 0.00916587 0.00447647 0.00587629 0.00384411 0.00815931 0.00510879 0.00482177 0.00405083 -0.00266481 -0.00929418 -0.0101202 -6.23969e-05 -0.00209021 -0.00134755 -0.0540765 -0.0345766 0.0056345 0.0559451 0.0452227 0.0608564 0.0350184 0.0258149 0.0240592 0.013438 0.0519826 0.0318277 0.0144622 0.014161 0.00814619 0.00344363 0.00304313 0.00882095 0.00371132 0.00242455 0.00316641 -0.0041894 -5.16803e-05 0.00201039 -0.00317254 -0.00442578 0.00179394 -0.0316128 -0.0346704 -0.00516484 0.00398023 0.0223337 0.0095594 0.0351398 0.00967016 -0.0288533 0.0192942 0.0428307 0.0460809 0.0224877 -0.015232 -0.0154752 -0.000152103 0.00176933 0.00804124 0.00641879 0.00581352 0.00387607 0.00680895 -0.00795213 -0.00157375 -2.86638e-05 -0.0123512 -0.00118918 -0.0319228 -0.0635394 -0.0720988 -0.0390684 0.00906703 -0.031589 -0.0399412 -0.0186461 -0.0205673 -0.025202 0.00224777 -0.0228873 0.0183247 -0.0162224 -0.000159801 0.011637 -0.000850221 0.000471267 0.0042268 0.00401441 0.00699584 0.00607523 -0.00467487 -0.010864 -0.00622002 -0.0154243 -0.010173 -0.0135336 -0.0206419 -0.0657626 -0.0545655 -0.030387 0.0234111 -0.00226139 -0.0223176 -0.0549073 -0.0376404 0.0107066 -0.00410526 -0.020932 0.0065134 0.0075946 0.0108001 0.0104647 0.00721902 0.0057483 0.00587629 0.00558879 -0.000111801 0.00497643 -0.00510579 -0.00669846 -0.00591395 -0.00391004 0.00487793 -0.0265387 -0.0406364 -0.0542942 -0.0318514 0.0287298 0.0631238 0.0404782 -0.04635 -0.0717569 -0.0275005 -0.0481039 -0.0670141 -0.0430555 -0.00871162 -0.00800538 -0.00767961 0.00118077 0.00352252 0.000229796 0.00216495 0.00183551 0.00569826 -0.00221102 0.00534888 -0.00504351 -0.00944726 0.00853396 0.0117687 -0.0198904 -0.0204124 -0.00479144 0.0443205 0.0389657 0.0620142 0.0308308 -0.069536 -0.0369368 -0.00457332 -0.0570789 -0.0612663 -0.0563609 -0.0118664 -0.0182188 -0.00608416 -0.000541495 0.00636575 0.00766044 0.00793814 0.00194001 -0.00121169 0.00835077 0.00471625 0.0127488 0.000460418 0.00967795 0.00124966 0.00235429 0.00297515 0.0307577 0.0535778 0.0256612 -0.0331596 -0.0533091 0.00905069 -0.0318588 -0.0239929 -0.0608396 -0.0527362 -0.0359181 -0.0193421 -0.0189057 -0.00102884 -0.000499809 0.00589884 0.00423627 0.00917526 0.00586502 0.00155524 0.0126097 0.0079166 -0.00497784 -0.00866865 -0.000484558 0.0176772 0.030107 0.0102076 0.0303386 0.0753594 0.0112477 -0.0384777 -0.0208961 0.00815267 -0.023071 -0.0497955 -0.0650994 -0.0454411 -0.0195524 -0.0140324 0.00263214 0.003531 0.0070185 0.0088633 0.00700485 0.00226804 0.00847613 0.00940931 -0.00340848 0.0022587 -0.00608135 -0.0122248 -0.0251596 -0.0269571 -0.0093495 -0.00949939 0.0309584 0.0561283 0.00142618 -0.0616937 0.0229846 0.0364963 0.0431947 -0.0343308 -0.0539392 -0.0253818 -0.00829954 -0.000954841 0.00668436 -0.00294472 0.00243118 0.00229237 0.00592127 0.00556701 0.00981474 0.00512156 0.00353652 0.00313897 -0.00945418 -0.0312457 -0.0495588 -0.0438681 -0.077088 -0.0532843 -0.0395092 -0.0102182 -0.0406988 -0.0847272 0.00512526 0.0446337 0.0275903 -0.00823686 -0.0043784 -0.0129311 -0.00600421 0.00683279 -0.0019485 -0.00428594 -0.00396561 0.00318013 0.0066921 0.00804124 0.00392177 0.00428712 0.00434474 0.00949658 -0.0168333 -0.0481718 -0.0727643 -0.0818885 -0.115698 -0.128586 -0.097935 -0.0853852 -0.101554 -0.077783 0.0518226 0.0532605 0.0481116 -0.0340517 -0.0134056 -0.0213818 -0.0122997 -0.00665166 -0.0186752 -0.00934735 -0.00266065 0.00397866 0.0103637 0.00319588 0.00206186 0.00108117 0.0125944 0.0262699 -0.00813286 -0.0510565 -0.0667218 -0.0537235 -0.0729728 -0.0861087 -0.0741086 -0.041397 -0.0374573 0.0245661 0.056317 0.0407146 -0.00510556 -0.0493775 -0.0184109 -0.0268922 -0.0258035 -0.0166459 -0.0245892 -0.00397124 0.00467692 0.00129442 0.00161877 0.00257732 0.00217801 0.00615372 0.0386371 0.0245267 0.0320976 0.0129606 -0.0332038 0.00435749 -0.0380469 -0.054369 -0.0419404 0.0139306 0.0531647 0.0277399 0.0498243 -0.0135593 -0.0610907 -0.035677 -0.0390226 -0.0354109 -0.0414327 -0.028743 -0.00328984 0.00361504 0.000907212 0.00843007 0.00277861 0.000824742 0.000458959 -0.000832452 0.0253364 0.0279718 0.0614843 0.0306626 0.00399158 0.00765117 0.0148562 -0.00305545 0.0207829 0.0314852 0.0333027 0.0503503 0.0366598 -0.0813922 -0.0842568 -0.0488324 -0.0452272 -0.0394218 -0.0402529 -0.0175213 -0.00262851 0.002942 0.00327595 0.00818168 0.0056701 0.00649394 0.00536054 -0.00324758 0.00653711 0.0055273 0.0548202 0.010767 0.055228 0.0391014 0.0310978 0.0156278 0.0398339 0.051757 0.0275244 0.0239753 -0.058522 -0.0981661 -0.0700125 -0.0285019 -0.0309438 -0.0262851 -0.0178066 -0.0148705 -0.0088169 0.00613773 0.00240509 0.00884139 0.00989691 0.00185479 0.00855642 0.00693668 0.00259829 0.00777731 0.0261259 -0.00539173 -0.0206396 -0.0179121 0.0297942 0.0785299 0.0485373 0.00338509 0.00842389 -0.0235469 -0.0269756 -0.0503492 -0.0257298 -0.0287121 -0.0246688 -0.0127031 -0.0202901 -0.00914115 0.000861902 0.00125021 0.00765309 0.00276144 0.00814433 0.00845361 0.00463918 0.00281946 0.0130515 0.0246691 0.0406678 -0.00612984 -0.00336895 0.0175681 0.0505532 0.0472225 0.0210462 -0.0316828 -0.0305577 -0.0290262 -0.0329959 -0.0271211 -0.0144652 -0.0149902 -0.00625387 -0.00406851 -0.00321033 0.00177796 0.00549063 0.00894648 0.00537924 0.00405166 0.00649485 0.00783505 0.00907216 0.0011639 0.00880306 0.0014357 0.0194828 0.000856892 0.000818462 0.00337961 0.0263818 -0.00934449 -0.0488818 -0.021026 -0.0264258 -0.0239618 -0.00670549 0.00123433 0.0119516 0.00397842 0.00105181 0.0113061 0.00713216 0.00257111 0.00578404 0.00207248 0.00761255 0.00969346 0.00690722 0.00649485 0.00154639 0.00527122 0.00350537 0.010969 -0.00742845 -0.00605416 -0.00101665 -0.00238262 0.00412285 -0.0141137 -0.0182845 -0.00855035 -0.0159076 -0.0159106 0.00431891 0.0076391 0.00541852 0.00832928 0.0123031 0.00512392 0.00639088 0.000749633 0.00453239 0.00873606 0.00412614 0.00577611 0.00412371 0.00309278 0.00371134 0.00402062 0.00082378 0.00809179 -0.00977107 0.00133647 -0.00205727 -0.00813412 -0.010476 -0.0104072 -0.00284902 -0.00080559 0.000336417 0.00460824 0.00929537 0.00396959 0.0103547 0.00833942 0.00480307 0.00995836 0.00157197 0.0095438 0.00369876 0.00793591 0.00309278 0.00556701 0.01 0.00298969 0.00319588 0.00402062 0.00525773 0.00690722 9.81113e-05 0.0067938 0.00741717 0.00785778 0.00891562 0.00173203 0.00230438 0.00447323 0.005719 0.00671332 0.00387856 0.00172792 0.00307906 0.00582815 0.000206064 0.0095352 0.00385014 8.60677e-05 0.0044727 0.00773196 0.00340206 0.00783505 0.0071134 0.00268041 0.0085567 0.00360825 0.00608247 0.00103093 0.00113402 0.00278351 0.00587629 0.000515464 0.000309278 0.00989691 0.00556701 0.00853549 0.00397418 0.0028866 0.00319588 0.00804124 0.0071134 0.00103093 0.0028866 0.00938144 0.000721649 0.00989691 0.00762887 0.00742268 0.00948454 0.00453608 0.00783505 0.00762887 0.0056701 0.0102062 0.000412371 0.00309278 0.000824742 0.000889967 0.00530669 0.00482004 0.0115557 0.00291776 0.00791568 0.00115784 0.0101579 0.00994943 0.00832126 -0.000259269 0.00565679 0.000764095 0.00068105 0.00955331 0.00871684 0.00440145 0.00813721 0.00402062 0.00938144 0.00649485 0.00350515 0.00917526 0.00742268 0.00618557 0.00339429 0.000409941 0.00231338 0.00318644 0.0038998 0.0116289 0.00988066 0.00951677 0.0079584 -0.00131834 0.00411556 0.00244597 0.0023694 -0.00249356 0.00336305 0.00417798 0.000538356 0.00249883 0.00377508 0.00074439 0.00508151 0.00914413 0.00420236 0.00907216 0.00742268 0.00443299 0.00206186 0.00185821 0.00422592 0.00904214 0.010606 0.00441088 0.0103841 0.0103046 0.00665811 0.00282973 -0.0012559 -0.00563426 -0.00188604 -0.00292919 -0.0035258 0.00124896 -0.00133869 -0.000986428 0.00578188 0.00893497 0.00799754 0.0123341 0.0128616 0.00991312 0.00403463 0.00867402 0.00948454 0.00463918 0.00536082 0.00891812 0.00336116 0.00843864 0.00570702 0.00889232 0.00290223 0.00451001 0.00606872 -0.00436054 -0.00477266 -0.0077179 -0.0205717 -0.00646991 -0.00469873 -0.00372515 0.00368152 0.000646117 0.0157925 0.0156577 0.0265741 0.0319242 0.030564 0.0252531 0.0115459 0.00244315 0.00381228 0.00814433 0.0101031 0.00899111 0.000856301 0.00409794 -0.000955499 0.00300261 -0.00355063 -0.0104884 0.00110561 -0.00444626 -0.0168029 -0.0229061 -0.0507916 -0.0378784 -0.0206874 0.00845582 0.0303907 0.00817391 0.0270547 0.0128051 0.0257594 0.0211261 0.0197019 0.0191939 0.0156686 0.0109037 0.000932171 0.00226804 0.008041 0.00932164 0.00638011 0.00913836 -0.00588322 -0.00395583 0.000742221 -0.00355225 0.000680706 -0.0152056 -0.0339938 -0.0242971 -0.00738163 0.0286982 0.034474 0.0331685 0.0155975 0.00772546 0.0111967 -0.0151909 0.00581707 0.0368953 0.0367474 0.00936444 0.0107446 0.00475999 0.00329536 0.000103093 0.00297195 0.00615319 0.00381011 0.0102072 0.00523521 -0.00355215 0.0105114 0.00751387 0.00352302 -0.0271206 -0.017905 0.00635148 0.034649 0.0371374 0.0377158 0.022734 -0.00903486 0.0210808 -0.00707965 -0.0226652 -0.00865767 0.0276861 0.0261578 0.00782272 0.00897729 0.00638864 0.00973026 0.00683808 0.00888261 0.0066444 0.00441254 0.0139442 0.0107623 0.0218455 0.0201204 0.0158127 0.00197965 -0.0125005 0.00449826 0.00801499 0.0173948 -0.0258139 -0.0136155 0.00679412 -0.0241227 -0.00815367 -0.00526114 -0.00645432 0.00399065 -0.0050864 0.00982093 0.00845409 0.0132656 0.00325321 0.00300616 0.000412371 0.0011246 0.00548634 0.00497826 0.00681462 0.0147778 0.0249928 0.014059 0.00826226 0.0113909 -0.00116559 0.0208499 0.00920933 -0.0131468 -0.0571119 -0.0436774 -0.00696112 -0.0254204 -0.0128532 -0.0208889 -0.0197884 -0.00241747 -0.000680886 0.00248015 0.00748725 0.00648812 0.00573153 0.00132139 0.000927835 0.00365281 0.00331177 0.00295911 0.00866652 0.00966663 0.0148462 0.0162126 0.0160803 -0.00520767 0.0198942 0.0444298 0.0276326 -0.0377134 -0.0751014 -0.0414149 -0.00171437 -0.0449755 -0.0220858 -0.0595528 -0.0233544 -0.0151222 0.00483721 0.00720119 0.00830304 0.00628359 0.0126107 0.000574099 0.00329897 0.00821753 0.000863875 0.0072415 0.0095205 0.00862693 0.00655276 0.00681155 -0.0306073 -0.0175635 0.0214091 0.057704 0.0586528 0.0128949 -0.0581573 -0.0215701 -0.017094 -0.0447893 -0.0415745 -0.0428942 -0.0233969 -0.0151597 -0.00311313 0.00227662 0.00901098 0.0153711 0.0077115 0.00138485 0.00948454 0.00965522 0.00320773 -0.000128528 0.00318651 0.00697177 -0.000377423 -0.0174123 -0.0358981 -0.0582675 -0.0134308 0.036677 0.0856792 0.058391 0.00739136 -0.000356078 -0.0323788 -0.0129594 -0.0224436 -0.0243293 -0.0159612 -0.00506819 -0.00530656 -0.0076535 -0.00188138 0.0109797 0.010305 0.00147704 0.000515464 0.00593996 0.00939366 0.00431727 0.00518963 0.00460904 -0.0166145 -0.0110087 -0.0260511 -0.0506136 -0.0546491 -0.0225906 0.067215 0.0778161 0.034305 -0.00976089 -0.0189553 0.00327989 -0.010049 0.00173783 0.00282596 0.00845634 0.0116576 0.00260362 0.00640628 0.0110241 0.0103722 0.00320608 0.000721649 0.00203374 0.00689479 -0.000136842 0.00632743 -0.0129451 -0.00873868 -0.0236301 -0.0265293 -0.0512311 -0.0572936 -0.0603361 -0.035554 0.0364943 0.037058 -0.00625224 0.00190576 0.0112226 -0.00197888 0.00321964 0.0106953 0.00839866 0.0144853 0.0110099 0.00172301 0.00201848 0.0106612 0.00568362 0.00752577 0.00597298 0.00785793 0.00229261 -0.00199231 -0.0121313 -0.0066956 -0.0186473 -0.017743 -0.0301888 -0.0441382 -0.0570053 -0.0537708 0.0354177 0.0467774 0.0120492 -0.011273 -0.0259861 -0.0136362 -0.00408507 -0.00520686 -0.00874759 -0.00543607 -0.00866941 0.000772335 0.000536751 0.000840219 0.00889554 0.000721649 0.000592729 0.000712915 0.0061443 -0.00302707 -0.0121072 -0.00823236 -0.0103757 -0.0189544 -0.0222249 -0.0292879 -0.0434238 -0.0155953 0.0363902 0.0475565 0.0268991 -3.60403e-05 -0.027426 -0.0219769 -0.0161565 -0.0184217 -0.0175791 -0.0114812 -0.00900573 -0.00133066 0.00634877 0.00793887 0.00883285 0.00164948 0.00958534 0.00446169 0.00352419 -0.00083601 -0.0134982 0.000634309 -0.00508203 0.00564343 0.0151182 -0.0161668 -0.00441483 0.0119082 0.0395833 0.0137592 0.0172004 -0.0157455 -0.028931 -0.0306945 -0.0202978 -0.0101248 -0.0132791 -0.0046374 -0.00833522 0.00548283 -0.000410265 0.00798732 0.00124448 0.0071134 0.00886598 0.00807715 0.00235924 -0.00714588 0.00147121 -0.00556477 -0.0149053 0.0129677 0.0245348 0.00107702 -0.00454366 -0.00244312 0.0236288 -0.0049245 -0.0198732 0.00295025 -0.0148009 -0.0160029 -0.0216117 -0.0137371 -0.0100569 -0.00485629 0.00449286 0.00831015 0.00426871 0.00369073 0.00516482 0.00175258 0.00843697 0.00722926 -0.00381965 -0.00872411 -0.0126758 -0.0113696 0.00836316 0.0241815 0.0172987 -0.00926051 -0.0409298 -0.00242472 -0.00439174 -0.00813991 0.00135282 0.0189993 -0.00698013 -0.00690397 -0.0189193 -0.0244503 -0.016852 -0.0108441 0.0106149 0.00705381 0.00384166 0.0036278 0.0027729 0.000309278 0.00451749 0.00924872 0.000126966 -0.00374749 -0.0151932 0.00952722 0.01583 0.0125158 0.0115294 0.00442445 -0.0160133 0.00239184 -0.0122617 0.0019661 0.0147728 0.00903106 -0.0151083 -0.0147881 -0.0142039 -0.0136733 -0.0149534 1.03196e-05 0.00727504 0.00972812 0.00481784 0.00724333 0.00381443 0.00494693 0.00783457 0.00258416 0.00779845 -0.00488265 -0.0118079 0.0334054 0.0233536 0.0153576 0.0275395 0.00431698 0.0111201 -0.00142914 0.0100284 0.00297632 -0.00370206 -0.0094245 -0.0265553 -0.0103973 -0.0155096 -0.014325 -0.0144453 0.00448197 0.00856388 0.0157387 0.00826585 0.00273316 0.000309278 0.00340058 0.00938097 0.00740277 0.00663503 0.00542675 -0.00771717 0.0228816 0.0264739 -0.00123629 -0.00107129 -0.000146908 0.0142824 0.00895931 0.0270619 -0.00297436 -0.0179355 -0.0272817 -0.0203014 -0.00437502 -0.0186313 -0.00771838 0.00183875 -0.00277713 0.0164028 0.00816957 0.00573283 0.0100217 0.000412371 0.00793814 0.000412371 0.00347578 0.00626009 0.00449407 -0.00895102 0.00914115 0.0140096 0.00513599 -0.00976428 -0.0268427 -0.0120246 0.00746337 0.0346718 -0.00493094 -0.0156101 -0.0189532 -0.0196286 -0.00479993 -0.00273139 0.00523742 0.00201099 0.00908013 0.0170561 0.00794639 0.0106365 0.000414179 0.00907216 0.000206186 0.000618557 0.00760329 0.00472873 0.0021749 -0.00377586 -0.00829112 0.00791526 0.0025764 -0.0059986 -0.0239249 -0.0112764 0.0334105 0.0257448 0.00334236 -0.0204306 -0.0155377 -0.00149693 0.00609328 0.00671878 0.00916893 0.00463665 0.00918682 0.00410417 0.0015529 0.00587743 0.00875775 0.0028866 0.000103093 0.00185567 1.32491e-05 0.00648523 0.00511551 -5.55809e-05 0.00989672 0.00417187 -0.00359233 -0.000390579 -0.00523083 -0.012651 0.00621963 0.0272779 0.0153019 0.0055253 0.01811 0.0126525 0.0121555 0.0147742 0.00351496 0.00398188 0.0082079 0.0101248 0.00866741 0.00844905 0.00442753 0.00381443 0.00773196 0.00690722 0.00371134 0.00165021 0.00526237 0.00675582 0.00396409 0.00515582 0.0101072 0.00585674 0.00552929 0.0110746 0.0108247 -0.000621042 0.00718599 0.00284823 0.0123124 0.00900322 0.00812454 0.00454255 0.0107567 0.00673143 0.00984496 0.0072192 0.00865705 0.00340206 0.0014433 0.00185567 0.00639175 0 0.00917526 0.00505155 0.00917526 0.00896723 0.000909336 0.011561 0.00592022 0.00511863 0.00959412 0.0136346 0.0103541 0.00273736 0.0068066 0.0129312 0.00325882 0.00829758 0.00473333 0.00108134 0.00456076 0.00338384 0.00580205 0.00336638 0.00257732 0.0057732 0.00546392 0.00587629 0.0042268 0.00494845 0.00505155 0.00731959 0.00556701 0.00773196 0.00329897 0.0101031 0.00463918 0 0.000412371 0.0056701 0.00546506 0.00556951 0.00309278 0.00134021 0.00350515 0.00298969 0.0102062 0.00896907 0.00237113 0.00309278 0.00329897 0.01 0.0057732 0.00340206 0.0085567 0.00969072 0.00226804 0.00989691 0.0043299 0.01 0.00639175 0.00896907 0.00813721 0.00957745 0.00300216 0.00547211 0.00188434 0.00278718 0.00209501 0.00242082 0.0109726 0.00702289 0.00550719 0.00930191 0.00969289 0.000904235 0.00410764 0.00258128 0.00237955 0.00680428 0.00113402 0.00896907 0.00505155 0.00340206 0.00670103 0.000618557 0.00525773 0.00742887 0.00763115 0.000137451 0.00242551 0.00339889 0.00264233 0.00277815 0.000447419 0.00137587 0.00798565 0.0112081 0.0044193 0.0102101 0.00644138 0.00317737 0.00143821 0.00299558 0.00754778 0.00756794 0.00672748 0.00672 0.00804986 0.00587333 0.00319588 0.00237113 0.0042268 0.00835052 0.00361442 0.00506742 0.00302051 0.00241268 0.00159946 0.00699265 0.000257146 0.0093898 0.00781491 0.00248552 0.00127021 0.00365374 0.00488621 0.00595443 0.00992257 0.00148859 0.00602285 0.00977466 0.0067892 -0.00014967 0.00155066 0.00525657 0.00681817 0.00639858 0.00615868 0.00319588 0.00257732 0.00134021 0.00868077 0.0101046 0.00556444 0.00468892 0.00612058 0.000337048 0.00631139 0.00509358 -0.002 0.0044093 0.00113898 0.00311795 0.000593096 0.00136858 0.00266066 8.90531e-06 0.00322664 0.00461617 0.00395188 0.00396454 0.00268984 0.00908849 0.0074686 0.00506362 0.00974294 0.00526669 0.00216495 0.00896907 0.00474271 0.00196816 0.00113496 0.00387324 0.00563747 -0.000158902 0.004169 -0.00242888 0.00380543 -0.00378677 -0.00309087 0.00474074 -0.00497321 0.00091479 -0.00949473 -0.00596041 -0.000346771 0.00331754 0.00125425 -0.00208109 0.00300791 -0.000312453 0.00851579 0.00300211 0.00374871 0.00124715 0.00185567 0.00247368 0.00452545 0.000339193 0.00951764 0.0041814 0.00412444 0.00347493 -0.00642563 -0.00059113 0.000649516 0.00183292 -0.00477184 -0.00077127 -0.000787358 -0.000897043 -0.00347184 -0.00106708 -0.0103715 0.00155579 0.00177312 0.000581513 0.00258961 0.00288891 0.00231261 0.00872306 0.00937501 0.00750875 0.00278351 0.00596067 0.000239015 0.00588456 0.00703554 0.000778799 0.00541 -0.00213017 -0.00524224 -0.00370675 -0.00393828 -0.00182672 -0.000938768 0.000736081 0.00186629 0.000273982 0.00275031 0.00118084 -0.0106898 -0.00535524 -0.00553435 0.00180087 0.00704378 0.00847676 0.00424411 0.00158339 0.00559492 0.00937966 0.00174983 0.000718891 0.00445955 0.00461499 0.00907479 0.0075201 0.00149536 0.00181662 -0.00409118 -7.35938e-05 -0.00259729 -0.0056254 -0.00291073 -0.00591767 0.00158909 -6.63154e-05 0.00341535 0.00157551 -0.00295374 0.00307953 -0.00667727 0.0040551 -0.00238034 -0.000756109 0.00198216 0.000448247 0.00372505 0.0057635 0.00680412 0.00383528 0.0070487 0.00288082 0.00924695 0.00352989 0.00273529 0.00474404 0.00283967 -0.00639214 0.00112093 -0.000353672 0.000987054 -0.00507783 0.0057925 -0.000809507 -0.000550272 0.000367346 7.12737e-05 -0.000849418 -0.00246663 0.000991666 0.00518588 0.00518547 -0.00184798 0.00834666 0.00865 0.00892884 0.00505155 0.00363601 0.0052321 0.00164155 0.00965245 0.000514627 0.00719654 0.00755291 0.00621948 -0.00479312 -0.00436307 -0.00372196 0.00153753 0.00175966 -7.5683e-05 -0.00084494 0.0067204 -0.00114124 0.00626777 -0.000673084 0.00366018 0.00470604 0.00134768 -0.000902248 0.00623264 0.00643962 0.0057662 0.00979127 0.00298969 0.00852574 0.00298238 0.00851736 0.000913266 0.00903264 0.00806365 0.000526749 -0.00374741 -0.00292183 0.00422615 -0.00256702 -0.00471966 -0.00281935 -0.00372544 0.00448714 0.00138881 0.00277362 0.00400769 0.00403183 0.00582314 0.0039811 0.00330243 0.00152176 0.00170825 0.00229101 0.00332003 0.00689649 0.00639175 0.000290741 0.00869191 0.00870979 0.00977267 0.00445026 -0.00121146 -0.0046599 0.00436748 0.00160434 -0.00247655 -0.00303933 -0.00429014 -0.00529765 -0.00220317 -0.00498112 -0.00626692 0.000320169 0.00267772 0.00102723 0.000541205 0.00267563 0.00574041 -0.000132392 0.0027011 0.00292357 0.00303791 0.00949035 0.00319588 0.000325394 0.00650872 0.00923462 0.00559757 0.00829445 0.00180659 -0.000619043 0.00791256 0.000529582 -0.004052 -0.00474721 -0.00109704 -0.0114388 -0.00281724 -0.00492208 0.001807 -0.00317231 -7.64894e-05 0.00571165 0.00866114 0.00606183 0.00319217 0.00745193 0.00492816 0.00957938 0.00198627 0.00835246 0.00680412 0.00184949 0.00356602 0.00896518 0.0124004 0.00458005 0.00495047 0.00739345 -0.00286677 -0.00011484 -0.00997748 -0.0116543 -0.013065 -0.00462277 -0.00761585 -0.00380614 -0.00125802 -0.00417767 0.00517599 9.63164e-05 0.0033402 0.00659415 0.00180322 0.00678464 0.00421461 0.0097968 0.00573119 0.00165033 0.00793814 0.0082457 0.00897619 0.0124544 0.0103138 0.0071637 0.0037031 -0.000128541 -0.00241139 -0.000451922 0.000248145 -0.00663531 -0.00837055 -0.0118364 -0.00480197 -0.00189903 0.00221222 -1.17669e-05 0.00424968 0.00114908 0.00210472 0.00222846 0.000953827 -0.000391218 0.00546113 0.00345175 0.00480008 0.00804092 0.00670103 0.00422657 0.00918189 0.00800675 0.00398023 0.00602056 0.00221699 0.00189967 0.00426549 0.00337246 -0.00317236 0.00205893 -0.00287883 -0.00162994 0.00487186 0.00517256 0.00315951 0.00290002 -0.00604893 -0.00199399 0.000707345 0.00120309 0.00524071 0.00320535 0.00570844 0.00180263 0.00879362 0.00659083 0.00907216 0.00886573 0.00545947 0.00541852 0.00211962 0.00895148 9.23651e-05 0.00601672 0.00649075 -6.69437e-05 0.00191152 -0.0029425 0.0065551 0.00380258 0.0107335 0.0108314 0.00859124 0.00154475 -0.00266349 -0.0087248 -0.0031993 -0.0063817 -0.00219839 0.00513015 0.00186772 0.00427905 0.00589405 0.00227584 0.0085567 0.00989691 0.00464653 0.00075434 0.00524974 0.00736248 0.00308532 5.10054e-05 3.25128e-06 -0.00301242 0.00717324 -0.000928838 -0.00220829 0.00549827 0.00272526 0.00760411 -0.00331727 -0.000793608 -0.0106424 -0.00467951 0.000449332 0.000330837 0.00431945 0.0054098 0.00480357 0.00486613 0.00589549 0.00125932 0.0071134 0.00979233 0.0044942 0.00272565 0.00409922 0.00375626 0.00330534 -0.00412177 0.00279642 -0.00221812 -0.00043925 -0.00241813 0.00402924 0.000934633 0.00933092 -0.00157142 -0.00700456 -0.00400573 -0.00554367 -0.0065267 -0.0013173 -0.00292169 0.00256157 0.00688949 0.00851493 0.00387471 0.000507743 0.00392911 0.00886598 0.00061558 0.00561102 0.00718462 0.00659055 0.00207881 -0.000124309 -0.00624417 -0.00840867 -0.00151877 -0.00169874 0.00121098 0.00466737 0.00326808 -0.00185208 -0.0095085 -0.00657658 -0.00658245 -0.00387012 0.00331856 -0.00186278 -0.00267444 -0.00204706 0.00790087 0.00699521 0.00507144 0.00918201 0.00391753 0.00567144 0.000515883 0.000967591 0.00814242 0.000589541 0.00452947 -0.00545364 -0.00480359 -0.00404763 -0.00459267 -0.0091657 -0.00827415 -0.00433688 -0.00403463 -0.0128407 -0.0105763 -0.00725817 0.000634056 0.00128518 -0.0040168 -0.000516928 0.00767457 -0.0019145 0.000350612 0.00412076 0.00719757 0.00686033 0.00536082 0.00773326 0.00659836 0.00700562 0.00550659 0.00405974 0.00244584 0.00438189 -0.00030173 -0.00128901 -0.0058009 -0.0075473 -0.000245039 -0.00283808 -0.00813647 -0.0125319 -0.00245013 -0.0047045 -0.00120113 -0.000765214 0.00379137 -0.00249172 0.00385332 0.00583028 0.00928727 0.00243962 -0.000264463 0.00522506 0.00670103 0.00721649 0.00927835 0.00759315 0.00212064 0.00527017 -0.000156955 0.000536656 0.00673435 -0.0016667 0.0039011 0.00209239 0.00315504 -0.00698931 -0.001087 -0.0086304 0.000884117 -0.000732078 0.00210988 0.00725146 0.00126108 0.00684641 0.00600542 0.00378946 0.00256321 0.0101698 0.00851722 0.00728643 0.00618557 0.00618557 0.00597938 0.00765112 0.00304859 0.00329925 0.00442015 0.00383637 0.00328713 0.00412757 0.0065137 0.00208823 0.00660719 0.00579028 0.00348622 0.00340497 0.00157584 0.00249743 0.000372509 0.0100208 0.000899862 0.00634859 0.00539788 0.00643051 0.00689985 0.00150953 0.00896765 0.00371306 0.00783505 0.00618557 0.00319588 0.000421536 0.00247699 0.00371433 0.0055207 0.00730385 0.00479649 0.0100602 0.00391713 0.00228289 0.00236001 0.00265368 0.00622116 0.00287287 0.00634841 0.000980998 0.00887854 0.0094581 0.00885727 0.00406751 0.00904262 0.00183838 0.01001 0.00256984 0.00742421 0.0031977 0.00979381 0.0042268 0.00680412 0.00556701 0.003299 -4.95857e-05 0.00682654 0.00192063 0.00757464 0.00740083 0.00302006 0.00617876 0.000824171 0.00670588 0.00729507 0.00824955 0.0103829 0.000888241 0.00179495 0.00415429 0.00821452 0.00819528 0.00156502 0.000802432 0.00753078 0.00639321 0.00391753 0.00536082 0.00474227 0.00546392 0.00154639 0.00474227 0.00371134 0.00319588 0.00691058 0.00897836 0.00645417 0.00418027 0.00184822 0.00239514 0.00509529 0.00656523 0.00902037 0.000727029 0.00867288 0.00432116 0.0032955 0.00579349 0.00372721 0.00344454 0.00533987 0.00989217 0.000548668 0.00989691 0.00206186 0.00391753 0.00556701 0.00845361 0.00762887 0.00257732 0.00391753 0.00185567 0.00278351 0.0056701 0.00381443 0.00938144 0.00969072 0.0014433 0.00752577 0.0072251 0.00300854 0.00247423 0.00680412 0.00762887 0.00597938 0.00247423 0.00494845 0.0102062 0.00185567 0.00979381 0.00123711 0.00443299 0.00195876 0.00412371 0.0014433 0.00175258 0.00659794 0.00731959 0.00340206 0.00391753 0.000103093 0.00928812 0.00290056 0.00743192 0.00742635 0.00177917 0.000851519 0.00418506 0.000384575 0.00254715 0.00437709 0.00331417 0.000796476 0.00146359 0.00968057 0.000906941 0.00876928 0.00206673 0.00206526 0.00773196 0.00762887 0.00525773 0.00639175 0.00835052 0.00989691 0.00927835 0.00598095 0.00299014 0.000275687 0.00382604 0.000351038 0.0065587 0.00939953 0.000460338 0.00212601 0.000608547 0.00280234 0.00172853 0.00136155 0.0011181 0.000206006 0.00762555 0.00197543 0.00972304 0.00964725 0.00297871 0.00539691 0.00696415 0.00768877 0.0014433 0.00814433 0.0102062 0.00195876 0.00494507 0.00206768 0.00872758 0.00688547 0.00857739 0.000405543 0.0055464 -5.73814e-05 0.00216704 0.00610085 0.00311331 0.00599851 0.00553089 0.00290258 0.00877032 -0.000584402 0.00193305 0.00134963 0.00412735 0.009335 0.00709249 0.00964055 0.00279325 0.00189571 0.00831546 0.00783505 0.00309278 0.00175258 0.00287532 0.00453276 0.000899218 0.0081548 0.00526165 0.00913505 0.00471733 0.00689022 0.00738762 0.00376908 -0.000250415 -0.000922902 0.00633611 0.00279312 0.00139038 0.00805562 0.00414035 -0.00149389 0.0032957 0.00579112 0.00310436 0.00730239 0.00579722 0.00949123 0.00532865 0.00282653 0.00226804 0.00309278 0.00175457 0.0033126 0.00585194 0.00519059 0.00287112 0.00423787 0.00272982 0.00559806 0.00176906 0.00014549 0.00490661 -0.00371977 0.000761277 0.00328225 0.00089568 0.00554575 0.00519384 -0.000200983 -0.000732905 0.00373648 -0.000981368 0.00137342 0.00357111 0.00569339 0.00112337 0.00902859 0.00206186 0.000515806 0.00378929 0.0098848 0.00688651 0.00302099 0.00679314 0.00367208 0.00625956 0.00108842 0.00243166 0.00212043 -0.00167421 -0.00181687 0.00357982 -0.00109428 -0.00128791 0.00152692 -0.0089051 -0.00616226 -0.00469943 -0.000983011 0.00133679 0.006207 0.00478402 0.00717234 0.00719139 0.00150246 0.0043299 0.00784127 0.00114025 0.00756092 0.0012798 0.00795984 0.00649078 -0.000367599 -0.00409411 -0.00308287 0.000286065 -0.00460476 -0.00607587 -0.00051808 -0.00347284 -0.00372812 -0.000996535 -0.0104205 -0.00435066 -0.0035978 -0.00485447 -0.00211401 -0.00179877 -0.00144854 -0.000627875 0.00203819 0.0057706 0.0019956 0.00539863 0.00439788 0.00594012 0.00102771 0.00210555 0.00742701 0.0030248 0.00491841 -0.00437276 -0.00673211 -0.00950373 -0.00598954 -0.000598906 -0.00497508 -0.00257683 -0.00773472 -0.00770236 -0.00628508 -0.00267429 -0.00758144 0.00122036 -0.000972127 0.0042875 0.00394371 0.00352521 0.00704326 0.00288496 0.0030931 0.0071134 0.00946064 0.0024 0.00760158 0.00378433 0.00570731 0.0025214 -0.0053595 -0.00107479 -0.00951849 -0.00443804 0.00122811 -8.68783e-05 -0.00211425 -0.00687122 -0.00476655 -0.00193931 -0.00623952 -0.00709553 -0.000549954 -0.00636435 -0.00457044 -0.00267969 0.00312486 0.0046026 0.00813726 0.00258676 0.00382565 0 0.00358773 0.000697433 0.00764518 -0.000962206 -0.00114312 0.000288841 -0.00298158 0.00277874 -0.00403907 -0.0102927 -0.00494169 0.00412502 -0.00308916 -0.00364565 0.00300447 -2.37984e-05 -0.00566579 -0.00626685 0.000320003 -0.00145326 -0.000695088 -0.00165548 0.00764102 0.00840709 0.0025176 0.0036412 0.010061 0.00247423 0.0033536 0.00527261 0.00913553 0.00162596 0.000463547 -0.00361277 0.00239807 -0.00484266 -0.0102543 -0.00541722 0.00236079 -0.0047222 -0.00652081 -0.00139196 0.000640969 0.00158663 -0.00847811 -0.00416789 -0.00336144 -0.00213032 -0.000184753 0.00482416 0.00253482 0.0111714 0.00487266 0.00428305 0.00606445 0.00195876 0.0101642 0.00135604 -0.000279931 -0.00101712 0.000891592 0.00586606 -0.000518457 0.00329343 -0.00337974 -0.00225258 0.00390435 0.0043926 -0.00201809 0.00734316 0.000577002 -0.00237905 -0.00928783 0.00123224 4.2904e-05 -0.00287895 -8.04579e-06 0.000632594 0.00239357 0.00707246 0.00804356 0.006665 0.00966583 0.00103093 0.00864972 0.00858706 0.000639593 -0.000313565 0.00189653 -0.00127266 0.00120728 0.00151713 -0.00231417 -0.00274178 -0.00523664 0.000536504 0.0061593 -0.00196797 -0.00326487 -0.00828442 -0.00665944 -0.00235028 -0.00116094 0.000382715 -0.00313149 0.00551826 0.00890558 0.00296956 0.00354017 0.00459572 0.0080341 0.00628866 0.00628988 0.00974191 0.000925216 -0.000371068 0.00120192 0.00995634 0.00748519 0.00307051 -0.00204576 -0.00486286 -0.00180224 -0.00364307 -0.00382795 -0.00355925 -0.010091 -0.0044308 -0.00599124 -0.00110264 0.000772501 0.000157474 -0.00164013 0.00247813 0.000848842 0.0077796 0.00931483 0.00499952 0.00113379 0.00597938 0.00783961 0.00875691 0.00998032 0.0090704 0.00587757 0.00392325 -0.000109725 -0.00196218 0.00204135 0.000831486 0.00151774 -0.0011612 -0.00722373 -0.00549517 -0.00641474 