0.00391753 0.00319588 0.00268041 0.00927835 0.00329897 0.00525773 0.0056701 0.00154639 0.00123711 0.0071134 0.00814433 0.00381443 -0.00058657 -0.00138144 0.00958763 0.00979381 0.00690722 0.00484536 0.00278351 0.00948454 0.00979381 0.0057732 0.01 0.0057732 0.00371134 0.00773196 0.00958763 0.0042268 0.00525773 0.00608247 0.00195876 0.00865979 0.0057732 0.000103093 0.0057732 0.00278581 0.00953243 0.00509944 0.0044086 0.00453854 0.00242512 0.00189601 0.00970912 0.0135947 0.00286436 0.00957408 0.00678052 0.00697643 0.00644871 -0.00109294 -0.00134883 0.00580943 0.00649485 0.00391753 0.00453608 0.0042268 0.00257732 0.00164948 0.00649485 0.00329897 0.00371134 0.00319588 0.00628866 0.00298238 0.00432594 -0.00372104 -0.0199832 -0.0291657 -0.047128 -0.036076 -0.0271636 -0.0126548 -0.00605563 -0.00837968 0.000785393 0.00829703 -0.00805965 -0.00638753 0.00407586 0.00471462 0.00491635 0.00597067 0.000412371 0.0043299 0.0043299 0.00216495 0.00969072 0.00328342 0.010293 0.00619427 -0.00125857 -0.0184394 -0.0350017 -0.0828929 -0.112095 -0.161866 -0.1557 -0.122044 -0.0904724 -0.0568864 -0.0659682 -0.0576605 -0.0342913 -0.0225477 0.000893106 -0.0051697 -0.0110197 -0.0154226 -0.00876601 0.0122903 0.00262557 0.00536082 0.00175258 0.00783505 0.00948454 0.00338277 0.000777522 -0.00230215 -0.0195016 -0.051252 -0.116096 -0.18146 -0.203491 -0.208948 -0.279942 -0.303733 -0.284949 -0.253576 -0.283219 -0.258591 -0.191944 -0.0883739 -0.065563 0.0540665 0.0648273 0.0432558 0.0202606 0.00963831 0.00728566 0.00742268 0.00845361 0.000309278 0.00247423 0.00245882 -0.0125663 -0.015949 -0.0656769 -0.145589 -0.19672 -0.252233 -0.26455 -0.316001 -0.452014 -0.515508 -0.573366 -0.591844 -0.663753 -0.501342 -0.354176 -0.253677 -0.0676327 0.048076 0.118807 0.0767124 0.080596 0.0221697 0.00250081 0.00403158 0.0071134 0.000618557 0.00979691 0.000935717 -0.0178126 -0.0462427 -0.09555 -0.151648 -0.280997 -0.405666 -0.34235 -0.391776 -0.549815 -0.531032 -0.438526 -0.450832 -0.487401 -0.440938 -0.240595 -0.107447 -0.040447 0.06342 0.160788 0.163099 0.165948 0.0558349 0.0190938 0.010762 0 0.00639175 0.00627836 -0.0156972 -0.0776906 -0.11005 -0.163338 -0.256603 -0.43045 -0.444081 -0.340446 -0.355771 -0.296604 -0.236176 -0.125659 -0.148577 -0.0414664 -0.081082 -0.0868915 -0.0392721 -0.0189075 -0.0188435 0.10981 0.193614 0.160475 0.11641 0.0398424 0.0029713 0.00839229 0.0048468 0.00631211 -0.0158451 -0.0993833 -0.139509 -0.211919 -0.347128 -0.445187 -0.430981 -0.401816 -0.275623 -0.18028 -0.105722 0.160304 0.115729 0.0817517 -0.0360073 -0.0724535 -0.226312 -0.14735 -0.0369596 0.0268036 0.151362 0.20718 0.167891 0.0526129 0.00863603 0.00731959 0.00589974 0.00987473 -0.00742585 -0.0654327 -0.11517 -0.199974 -0.310541 -0.373639 -0.331191 -0.237809 -0.062761 -0.0232029 0.0947066 0.22754 0.200677 0.0678545 -0.0562704 -0.247539 -0.383987 -0.370491 -0.225456 -0.0967041 0.0698857 0.223164 0.155095 0.0492486 0.00331461 0.00206186 0.0101502 0.00567649 -0.00196884 -0.0156673 -0.0848147 -0.136627 -0.303195 -0.259154 -0.191989 -0.0662664 -0.017513 0.033224 0.147582 0.265126 0.216638 0.0273178 -0.268129 -0.51434 -0.578113 -0.473446 -0.338121 -0.241038 -0.0659823 0.146903 0.138535 0.0300962 0.00331767 0.00113402 0.0111126 0.0154627 0.00241221 0.0056089 -0.0520231 -0.106144 -0.235793 -0.24083 -0.285091 -0.11692 -0.0791295 -0.171659 -0.108511 0.049659 0.0169126 -0.220071 -0.493124 -0.638988 -0.713712 -0.54645 -0.468583 -0.361355 -0.223835 -0.0388071 0.0577271 0.0126503 0.00440184 0.00680412 0.00414255 0.010156 0.0149321 0.0352967 -0.0285723 -0.0509737 -0.104598 -0.172918 -0.276087 -0.150817 -0.323785 -0.461987 -0.366656 -0.201774 -0.287004 -0.540113 -0.691593 -0.655865 -0.628186 -0.515634 -0.505626 -0.407034 -0.299501 -0.176743 -0.0038304 0.0119068 0.0103196 0.000309278 0.00531209 0.00899357 0.0245092 0.0603962 0.0137444 -0.0488155 -0.0169483 -0.0766758 -0.152806 -0.280785 -0.571886 -0.598654 -0.560658 -0.509905 -0.712834 -0.833435 -0.759782 -0.620318 -0.475531 -0.316867 -0.309451 -0.292183 -0.28804 -0.18145 -0.0124842 0.00645623 0.00638236 0.0042268 0.000610921 0.00374181 0.0166737 0.0414675 0.0361922 0.00275689 -0.00650819 0.0143468 -0.110258 -0.416969 -0.79168 -0.709345 -0.722221 -0.719417 -0.763458 -0.815303 -0.728754 -0.52618 -0.328169 -0.163649 -0.173507 -0.138544 -0.157107 -0.118961 -0.0265114 0.000429163 0.00947846 0.00804124 0.00865356 0.00587173 0.00625071 0.0160666 -0.0231179 -0.0378294 -0.0842783 -0.141351 -0.296014 -0.542345 -0.6952 -0.707979 -0.814749 -0.802133 -0.749935 -0.666056 -0.63012 -0.411074 -0.289488 -0.181392 -0.163766 -0.112145 -0.062449 -0.0701812 -0.0438447 -0.00783123 0.00474122 0.00463918 0.00499437 0.00557746 0.000791932 0.00824408 -0.0274416 -0.108279 -0.215114 -0.381112 -0.585639 -0.764056 -0.81175 -0.840229 -0.772996 -0.658015 -0.600799 -0.550446 -0.620745 -0.517919 -0.388002 -0.203642 -0.154762 -0.0989791 -0.0706079 -0.0481019 -0.0527942 0.000193788 0.00185118 0.000309278 0.00486121 0.000649411 0.00232032 0.0127988 0.0170394 -0.0414586 -0.260497 -0.531886 -0.785969 -0.876973 -0.882743 -0.78061 -0.609244 -0.399482 -0.264162 -0.356773 -0.476718 -0.502765 -0.402445 -0.272176 -0.203906 -0.141733 -0.07337 -0.0192603 -0.0535521 0.00180724 0.0045384 0.00335408 0.00969072 0.005393 -0.0101689 0.0108204 -0.00348036 -0.0480866 -0.238177 -0.506854 -0.726298 -0.827737 -0.733801 -0.687457 -0.407646 -0.141402 -0.129226 -0.271779 -0.400809 -0.512833 -0.401993 -0.232057 -0.212288 -0.150664 -0.0444082 -0.0222623 -0.0215865 0.000317984 0.00644126 0.00886598 0.00351343 0.00511093 -0.0137575 -0.00149331 -0.0408044 -0.0480825 -0.233908 -0.357384 -0.463009 -0.580127 -0.494928 -0.433101 -0.178549 -0.134016 -0.217924 -0.307762 -0.453499 -0.503672 -0.387916 -0.230733 -0.22037 -0.141326 -0.00653511 0.0169574 0.000352771 -0.000426354 0.00593055 0.00360825 0.00546866 0.000885872 -0.0235615 -0.0219184 0.00521357 -0.0530296 -0.20731 -0.220503 -0.256248 -0.342143 -0.291664 -0.30482 -0.238124 -0.272989 -0.353676 -0.301124 -0.355806 -0.365087 -0.341062 -0.24495 -0.189308 -0.0431314 -0.000103682 0.0154307 0.0111676 0.00917628 0.00257732 0.00237113 0.00123711 -0.000841239 -0.00919141 -0.00182966 0.0587187 0.0451134 -0.0401091 -0.140706 -0.163678 -0.18755 -0.316721 -0.449929 -0.486837 -0.458171 -0.434445 -0.408666 -0.439659 -0.378056 -0.298245 -0.175476 -0.065982 -0.0119696 0.010731 0.0347862 0.0203516 0.010731 0.00536082 0.00412371 0.00247423 -0.00491046 -0.00263798 0.0193423 0.0707832 0.0430757 -0.0211598 -0.04278 -0.047917 -0.204388 -0.29499 -0.516704 -0.511222 -0.505141 -0.482202 -0.421165 -0.310354 -0.21837 -0.185739 -0.107207 -0.0492866 0.00604696 0.0551343 0.0328189 0.0222717 0.00561371 0.00927835 0.00948454 0.00381443 0.00360404 -0.00388644 0.014095 0.0521351 0.0601352 -0.00811882 -0.0973242 -0.0635312 -0.0276962 -0.104661 -0.266527 -0.452069 -0.474914 -0.388251 -0.262899 -0.200354 -0.225724 -0.144111 -0.0717632 -0.0201379 0.0175179 0.034929 0.0290679 0.0175919 0.0135346 0.00701031 0.00896907 0.00329897 0.00433247 0.00336058 -0.00424593 0.0316362 0.0503996 0.034977 -0.0719779 -0.0910175 -0.109075 -0.144015 -0.190578 -0.222773 -0.224056 -0.161491 -0.180734 -0.0817193 -0.0835002 -0.0353282 0.0313578 0.0486259 0.0505399 0.0302153 0.0137904 0.00618653 0.00515464 0.00381443 0.01 0.000103093 0.00146946 0.00900704 0.0048744 0.00548692 0.00973255 0.0415903 0.0396036 0.05169 0.0100813 0.0153717 0.00620813 0.00336529 0.00604413 0.0299395 0.0395638 0.0690993 0.048477 0.0568215 0.0449555 0.0495669 0.0459938 0.0333967 0.0225643 0.000515464 0.00195876 0.00329897 0.00814433 0.00701031 0.00639175 0.00691328 0.00292007 0.0051303 0.0102756 0.00532301 0.00706252 0.0175996 0.0179421 0.0263401 0.0422946 0.0400961 0.0504034 0.0558834 0.0560205 0.0433647 0.0324416 0.0356444 0.0295736 0.0122444 0.00388787 0.00432243 0.00940168 0.00154639 0.000927835 0.00608247 0.00845361 0.00979381 0.00979381 0.00907216 0.00659794 0.00236413 -0.000242969 0.00334631 0.00667235 -0.00325808 -0.00164756 0.00271149 0.00713429 0.00322503 0.0142948 0.0028074 0.00507801 0.00749042 0.0115077 0.00638469 0.00359295 0.00754032 0.00880515 0.00123178 0.00556701 0.00701031 0.00164948 0.00608247 0.00783505 0.000206186 0.00319588 0.000824742 0.000618557 0.00319588 0.00876289 0.00371134 0.000412371 0.00742268 0.00628866 0.00443299 0.00454246 0.00356691 0.00257732 0.00948454 0.00680412 0.00762887 0.00896907 0.00226804 0.00680412 0.0085567 0.00804124 0.00154639 0.00360825 0.00731959 0.00804124 0.00164948 0.00680412 0.0028866 0.00536082 0.00948454 0.0028866 0.00876289 0.0101031 0.00352483 0.0103288 0.00455557 0.00839865 -0.000997429 -0.0177887 0.00176708 0.00998739 -0.00207223 -0.00443484 0.00506074 -0.00285122 0.0028088 0.00138562 0.00176373 -0.00148164 -0.000643279 0.00164948 0.00546392 0.000309278 0.00268041 0.00835052 0.00329897 0.00443299 0.00463918 0.00546392 0 0.00298969 -0.00655358 -0.0223987 -0.00590656 -0.030127 -0.0532052 -0.0606822 -0.0522867 -0.0563716 -0.0515269 -0.0109012 -0.00809888 -0.0132616 -0.00573418 -0.00653917 -0.00494938 -0.00330833 0.00274407 0.00670809 0.00490436 0.00474227 0.00917526 0.00206186 0.000412371 0.00154639 0.00289784 0.00124361 0.00191843 0.00797648 -0.0126757 -0.0396575 -0.0506646 -0.0815601 -0.130496 -0.128249 -0.172735 -0.132525 -0.131736 -0.0871894 -0.0500764 -0.00814216 0.0323004 0.0219329 0.00654034 0.00931138 0.0024169 0.00826078 0.00965796 0.00383536 0.00226804 0.00917526 0.00783505 0.00443299 0.00830763 0.0103041 0.00408102 0.00590983 -0.0204115 -0.0622347 -0.0976756 -0.108215 -0.129541 -0.187329 -0.292298 -0.320031 -0.358673 -0.273101 -0.207499 -0.0994966 -0.0474884 -0.0573056 0.010916 0.0330151 0.0732376 0.0598533 0.0260976 0.00733857 0.00402062 0.00237113 0.000515464 0.00762887 0.0082859 0.00437047 0.00643066 0.00448804 0.0153723 -0.000218181 -0.0222613 -0.0438089 -0.101431 -0.243254 -0.389286 -0.491394 -0.502641 -0.461395 -0.349574 -0.286094 -0.202567 -0.0681949 -0.0384904 0.0711249 0.157666 0.122263 0.0438871 0.0113475 0.00252126 0.00371134 0.00608247 0.00111944 -0.0150743 -0.0168793 -0.000406627 0.000395573 0.0119459 -0.0644977 -0.0961494 -0.156125 -0.242565 -0.342871 -0.419301 -0.512342 -0.549211 -0.553656 -0.547807 -0.397667 -0.197349 -0.0754365 -0.0258312 0.11965 0.285651 0.259691 0.107427 0.0461306 0.00947357 0.00371134 0.01 4.88388e-05 -0.0357862 -0.0735357 -0.0241494 -0.0403874 -0.133432 -0.188794 -0.232222 -0.289832 -0.327557 -0.396389 -0.462757 -0.481174 -0.54493 -0.527884 -0.526715 -0.466517 -0.319175 -0.185752 -0.0812834 0.134595 0.249062 0.278135 0.190358 0.0572527 0.0126854 0.00620891 -0.00395587 -0.0143908 -0.0574505 -0.095199 -0.0393794 -0.101477 -0.248602 -0.238322 -0.32401 -0.426606 -0.388899 -0.560145 -0.597004 -0.554275 -0.725332 -0.657232 -0.597894 -0.528875 -0.474888 -0.255012 -0.13547 -0.0261337 0.146676 0.250839 0.21078 0.0516672 0.00685698 0.000824742 -0.00191793 -0.00998519 -0.0706862 -0.103524 -0.0787947 -0.166044 -0.22991 -0.257876 -0.273956 -0.277581 -0.252082 -0.355331 -0.47102 -0.673758 -0.620108 -0.581218 -0.569942 -0.543711 -0.579625 -0.48373 -0.334568 -0.206885 -0.0590575 0.1435 0.141605 0.0439013 0.00338999 0.000721649 -0.00584786 -0.0170986 -0.0641003 -0.0876801 -0.119919 -0.178045 -0.268875 -0.243427 -0.18448 -0.0922219 -0.118122 -0.199191 -0.453556 -0.642266 -0.497448 -0.412 -0.489326 -0.659726 -0.666065 -0.662927 -0.553424 -0.487711 -0.272267 0.0454138 0.12653 0.0364605 0.00092227 0.00164948 -0.00511446 -0.0305811 -0.0623762 -0.0451361 -0.0576472 -0.158216 -0.291215 -0.256687 -0.157499 -0.0776661 -0.146098 -0.269831 -0.646466 -0.73258 -0.428169 -0.228894 -0.414115 -0.659714 -0.693887 -0.738891 -0.725291 -0.710282 -0.490189 -0.151157 0.0541407 0.00901565 0.00168999 0.0102062 -0.0105633 -0.0354973 -0.0621887 -0.0449666 -0.0410115 -0.123334 -0.147117 -0.107746 -0.0762368 0.016312 -0.0749368 -0.291555 -0.545343 -0.569536 -0.291857 -0.237985 -0.477213 -0.572414 -0.552486 -0.639729 -0.716056 -0.697266 -0.560623 -0.27705 -0.00704755 -0.000586892 0.0057626 0.00979381 0.00583088 -0.0174914 -0.040831 -0.0104391 -0.0221395 -0.0917476 -0.0196623 0.077987 0.132814 0.14998 0.0224447 -0.121578 -0.353567 -0.354488 -0.22057 -0.256362 -0.260264 -0.316581 -0.288041 -0.340432 -0.458087 -0.543174 -0.5427 -0.274736 -0.0112106 0.013142 0.0115455 0.00927835 0.00590082 -0.00553438 0.00453411 0.0521769 -0.00916331 0.0459961 0.0308412 0.157236 0.204649 0.179361 0.00420934 -0.167842 -0.230773 -0.15752 -0.0927782 -0.0579077 -0.18984 -0.128032 -0.111454 -0.213464 -0.332296 -0.382891 -0.461782 -0.255405 -0.0354586 0.0150258 0.00482016 0.00639175 0.00642526 -0.000811 0.0340916 0.0658882 -0.0261675 0.0293925 -0.0226369 0.0747268 0.0899451 -0.0302527 -0.121457 -0.173521 -0.118042 -0.125672 -0.0666295 -0.0434955 -0.107921 -0.0655065 -0.0785484 -0.304451 -0.330197 -0.336099 -0.277569 -0.188875 -0.0319681 0.020419 0.00992354 0.000618557 0.00990744 0.00122553 0.0420108 0.0285185 -0.0574106 -0.0110189 -0.104746 -0.186693 -0.24713 -0.355108 -0.358475 -0.244886 -0.154893 -0.12734 -0.0820763 -0.0559308 -0.0381067 -0.0841872 -0.21316 -0.253796 -0.275412 -0.243529 -0.165956 -0.0690531 0.00759771 0.0121724 0.006161 0.000927835 0.00220418 0.00169314 0.0321991 0.0184839 0.0188431 0.0391962 -0.129962 -0.346135 -0.575543 -0.697409 -0.636016 -0.398125 -0.190929 -0.108618 -0.0565129 0.010063 -0.0691581 -0.0790072 -0.224383 -0.238107 -0.216979 -0.212365 -0.0823882 -0.0119588 0.0085106 0.000860738 0.00429824 0.00532105 0.00752577 0.000715009 0.031835 0.0429927 0.0494947 0.0794089 -0.190249 -0.49988 -0.673339 -0.777817 -0.627923 -0.470469 -0.209152 -0.104 -0.148806 -0.0718707 -0.181739 -0.218464 -0.223644 -0.102324 -0.14425 -0.12651 0.0258894 0.0601711 0.0154069 0.00416629 0.0092786 0.00969072 0.00247131 0.0122836 0.0516532 0.0524254 0.00113248 -0.0182978 -0.254511 -0.509093 -0.674328 -0.74818 -0.629654 -0.585475 -0.347761 -0.269172 -0.222244 -0.231077 -0.28842 -0.297312 -0.225113 -0.0798947 -0.119272 -0.0379358 0.0818083 0.0707682 0.0240467 0.00550589 0.00238783 0.00670103 -0.000655667 0.0108984 0.0375374 0.0410636 -0.00185917 -0.0982462 -0.313204 -0.478571 -0.575247 -0.730882 -0.642232 -0.669081 -0.55227 -0.463207 -0.426462 -0.285021 -0.238058 -0.152838 -0.122985 -0.0454647 0.00910279 0.0953065 0.145372 0.0695162 0.0233967 0.00697107 0 0.00154639 0.0085567 0.00388577 0.0100056 0.0111904 -0.0316417 -0.137553 -0.287577 -0.361934 -0.434769 -0.583228 -0.688911 -0.768725 -0.719859 -0.644169 -0.597904 -0.464465 -0.212441 -0.135611 -0.0108118 0.102716 0.19062 0.201611 0.170479 0.0670164 0.0103203 -0.00350034 0.00463918 0.000721649 0.00907216 0.00661804 0.00919364 0.0285259 -0.084828 -0.231809 -0.332059 -0.323609 -0.403599 -0.597559 -0.726479 -0.855492 -0.827444 -0.727354 -0.599218 -0.357414 -0.136075 0.0173547 0.159357 0.267125 0.276199 0.211664 0.137763 0.0472962 0.010348 0.00251997 0.00742268 0.00257732 0.0028866 0.00391995 0.0146727 0.0152426 -0.0666549 -0.207636 -0.314192 -0.279389 -0.338843 -0.39959 -0.518561 -0.677852 -0.785268 -0.632141 -0.483838 -0.232816 -0.0598795 0.139004 0.213986 0.278308 0.222031 0.160959 0.065605 0.028194 0.00883884 0.00209889 0.00463918 0.00938144 0.00597938 0.00756569 0.0110327 -0.0141142 -0.0562908 -0.0850545 -0.102246 -0.145992 -0.206055 -0.260122 -0.236179 -0.378247 -0.41892 -0.348866 -0.251073 -0.0834534 0.0604385 0.137284 0.116235 0.1408 0.125706 0.11302 0.0516658 0.026465 0.007851 0.00618557 0.0101031 0.0042268 0.00556701 0.00863709 0.00456279 0.00128407 -0.00539136 -0.0219686 -0.0149819 -0.00419677 -0.0234733 -0.0691342 -0.102314 -0.172722 -0.160521 -0.131874 -0.0914691 -0.0991916 -0.0416412 -0.0173495 -0.0324546 0.0234982 0.0447772 0.0439443 0.0337712 0.0106052 0.00948454 0.00164948 0.0042268 0.00278351 0.00639175 0.0028866 0.00163603 0.0103124 0.0130341 0.0140238 -0.0254233 -0.04956 -0.0424787 -0.0290279 -0.048733 -0.0450478 -0.0570685 -0.0708403 -0.0814418 -0.0948536 -0.0659029 -0.0449824 -0.0364087 -0.000350495 0.0185784 0.0165558 0.00561812 0.00867237 0.000927835 0.00793814 0.0102062 0.00752577 0.01 0.00917526 0.0102062 0.00164948 0.00370543 0.000777219 0.00224647 0.00594382 -0.00290753 -0.0121566 -0.00198273 -0.0130052 -0.0170632 -0.00510208 -0.00864589 -0.0205812 -0.0141074 -0.0170934 -0.00564308 0.0109787 0.00614354 0.0114558 0.00709321 0.00845361 0.00639175 0.0101031 0.0028866 0.00360825 0.00597938 0.00597938 0.00649485 0.00721649 0.00329897 0.00958763 0.00474227 0.00989691 0.00474227 0.00824742 0.0014433 0.00638462 0.000249707 0.00463918 0.00814433 0.00226804 0.00649485 0.00525773 0.000103093 0.00381443 0.00845361 0.00195876 0.00659794 0.00597938 0.00226804 0.00989691 0.00195876 0.00639175 0.000103093 0.000309278 0.000309278 0.000618557 0.00824742 0.00865979 0.00602582 0.0164426 0.0155148 0.0148512 -0.0024233 -0.0654814 -0.0235214 0.0103722 -0.00467138 -0.00647016 -0.00159611 -0.00524932 -0.0022862 0.00218271 -0.00283633 -0.00456768 -0.00438203 0.0014433 0.00587629 0.0028866 0.00824742 0.0043299 0.00175258 0.00123711 0.00309278 0.00721649 0.00484536 0.00958763 -0.00684533 -0.0406033 0.029772 0.00667694 -0.0923508 -0.141506 -0.138456 -0.0623438 -0.0046072 0.0385799 0.0637199 0.0871116 0.0674588 0.0283898 0.0264709 0.00187956 0.00734037 0.0029008 0.00339341 0.000515464 0.00206186 0.000927835 0.00340206 0.00649485 0.0025374 0.0140003 -0.0187836 -0.0274598 -0.126126 -0.221426 -0.234731 -0.319944 -0.567642 -0.616268 -0.690753 -0.665593 -0.533724 -0.274868 -0.142262 0.161991 0.258323 0.183616 0.199895 0.156195 0.0784268 0.0425024 0.0101421 0.00407325 0.00340206 0.00412371 0.00123711 0.00113402 -0.000703451 -0.0130448 -0.0857457 -0.171318 -0.350775 -0.60257 -0.852777 -1.03599 -1.22027 -1.14163 -1.37031 -1.10867 -1.10463 -0.721788 -0.276563 0.102503 0.42801 0.49828 0.612548 0.530209 0.515577 0.271841 0.0723321 0.0126822 0.00927835 0.00948454 0.00515464 0.00917526 -0.015718 -0.060779 -0.197291 -0.363194 -0.511992 -0.586164 -0.938238 -1.01573 -0.91621 -1.16548 -1.04411 -0.933907 -0.941163 -0.841889 -0.128428 0.0880923 0.102541 0.490188 0.677702 0.847317 0.921596 0.471476 0.130365 0.0217541 0.00456371 0.00742268 0.00835052 0.00719097 -0.0667421 -0.190238 -0.325984 -0.594706 -0.610099 -0.827997 -1.10041 -1.18836 -1.10115 -0.981168 -1.1846 -1.76376 -1.78854 -1.7558 -1.04067 -0.333888 0.3454 0.474175 0.651741 1.06561 1.41627 0.892336 0.358815 0.127762 0.0250171 0.00257732 0.00690722 0.00275822 -0.146476 -0.463593 -0.436131 -0.636504 -0.644554 -0.780252 -0.925283 -0.744036 -0.870965 -1.08673 -1.43736 -1.77356 -1.94746 -1.84476 -1.37737 -0.73106 -0.216998 0.110006 0.642188 1.20328 1.60777 1.11961 0.544754 0.177838 0.0223163 0.00392137 -0.0115803 -0.0372075 -0.193614 -0.575628 -0.418144 -0.602598 -0.716938 -0.67457 -0.497418 -0.463791 -0.500151 -0.820165 -1.21682 -1.6896 -2.06859 -1.65709 -1.09543 -0.862022 -0.552143 -0.279295 0.388826 0.616699 1.2651 1.18055 0.616897 0.128086 0.0183598 0.00701031 -0.0157848 -0.072944 -0.296554 -0.641186 -0.498926 -0.494904 -0.294041 -0.0964753 0.231135 0.495018 0.775699 0.270108 -0.772361 -1.78718 -1.71472 -1.38821 -1.16309 -0.78251 -0.839152 -0.780654 -0.120368 0.192175 0.630927 0.847387 0.472531 0.115795 -0.00830664 0.00237113 -0.011625 -0.0736119 -0.301029 -0.380559 -0.301209 -0.185441 0.189488 0.430673 1.13907 1.6689 1.41412 1.20411 -0.596463 -1.40034 -0.96039 -1.14208 -1.30887 -1.48339 -1.51426 -1.35566 -0.77757 -0.36219 0.0450039 0.433567 0.3611 0.0993139 0.00298726 0.00443299 -0.0202891 -0.103999 -0.227847 -0.115441 0.137929 0.207117 0.386607 0.812652 1.31651 1.48718 1.05542 0.819119 -0.769358 -1.41992 -0.804941 -0.544955 -1.17964 -1.44488 -1.77077 -1.80186 -1.04084 -0.864296 -0.48025 -0.0493156 0.133616 0.0470999 0.00490747 0.00670103 -0.0137399 -0.102734 -0.182166 -0.037115 0.260775 0.398004 0.589073 0.788466 0.866143 0.913271 0.647496 0.333228 -0.603894 -1.25072 -0.188211 -0.201972 -0.803746 -1.16602 -1.36176 -1.30273 -0.916658 -0.910691 -0.786337 -0.47764 -0.0590635 -0.0204753 -0.00690823 0.000309278 -0.00263324 -0.059672 -0.14436 -0.0170046 0.36265 0.411146 0.5768 0.865958 0.884313 0.707661 0.684135 0.510801 -0.449277 -0.521859 0.48124 -0.0521606 -0.568559 -0.750497 -0.662623 -0.837574 -0.72004 -0.67034 -0.953743 -0.563921 -0.147486 -0.0360481 0.00337061 0.00773196 -0.00197812 -0.022866 -0.0243518 0.141891 0.293613 0.452326 0.470513 0.98055 0.773314 0.726686 0.486526 0.0244272 0.0247515 0.541958 0.946422 0.761113 -0.418092 -0.588176 -0.702892 -0.928124 -1.0963 -0.913101 -1.00222 -0.581509 -0.195578 -0.0403489 0.00290071 0.00762887 -0.00548147 -0.0159819 0.0327699 0.0143743 -0.073745 0.0991975 0.248848 0.755676 0.85529 0.232043 0.145147 0.415914 0.727159 1.16419 1.31061 0.586122 -0.35068 -0.587273 -0.847819 -1.50499 -1.32794 -1.22228 -0.870989 -0.613222 -0.210559 -0.0228534 0.000101048 0.00731959 0.000383106 -0.0602114 -0.0970644 -0.359957 -0.434013 -0.121385 -0.16757 -0.0470787 0.113144 -0.272429 -0.258237 0.595203 1.0439 1.42638 1.40532 0.545894 -0.63601 -1.08075 -1.48184 -1.43209 -1.38085 -1.26826 -0.815846 -0.423052 -0.159988 -0.0661042 0.0128235 0.00463918 0.00228739 -0.0748646 -0.255093 -0.553208 -0.31155 -0.115827 -0.0938622 0.0429795 0.0658668 -0.160316 0.364308 1.11145 1.5274 1.78566 1.1517 0.171611 -0.913584 -0.950201 -1.51553 -1.24101 -1.24228 -1.26031 -0.641372 -0.234945 -0.213311 -0.0766851 -0.0146873 0.000133925 0.00412371 -0.0655548 -0.389795 -0.698637 -0.496137 -0.174653 -0.28176 -0.265594 0.129644 -0.0829676 0.702155 1.32154 1.38394 1.15865 0.276407 -0.456947 -1.05545 -1.31608 -1.35665 -1.04443 -1.26064 -1.15155 -0.360649 0.0115353 -0.130692 -0.0235529 0.00403404 0.000515464 -0.00416822 -0.0483276 -0.424626 -0.726829 -0.818408 -0.436257 -0.657394 -0.720294 -0.43345 -0.365957 0.0843285 0.276884 0.174338 0.0486308 -0.314373 -0.799492 -1.19007 -1.29921 -1.17207 -1.10928 -1.18721 -0.804237 -0.115803 0.100583 -0.0207121 0.0135388 0.00654529 0.00804124 -0.00132416 -0.0637935 -0.422049 -0.758888 -0.80122 -0.506158 -0.817725 -1.06923 -1.04357 -0.967282 -0.640756 -0.47692 -0.660991 -0.565275 -0.555391 -0.819988 -0.914144 -0.715338 -0.815821 -0.88577 -0.393605 -0.0227234 0.290503 0.112375 0.00304425 -0.0105012 0.00690722 0.00618557 0.00175258 -0.0429583 -0.325145 -0.624981 -0.67301 -0.604506 -0.56949 -0.507819 -0.704687 -1.06871 -1.31166 -1.18798 -1.09953 -0.969324 -0.933975 -1.09555 -0.47623 -0.547765 -0.563391 -0.188781 0.394963 0.506921 0.371131 0.109761 -0.000995939 -0.0135335 0.00680412 0.00412371 0.00907216 -0.011885 -0.22488 -0.387316 -0.626784 -0.759507 -0.797759 -0.420811 -0.61127 -1.10336 -1.52103 -1.40434 -1.20664 -1.00457 -0.914177 -0.678988 -0.261186 -0.153967 0.14778 0.589288 0.841847 0.489452 0.219407 0.0442661 -0.015997 0.000518704 0.00752577 0.00907216 0.00515464 -0.0126337 -0.134545 -0.24128 -0.497451 -0.885674 -1.2078 -0.498432 -0.24492 -0.402331 -0.560303 -0.68528 -0.780122 -0.416925 -0.199049 0.401263 0.344112 0.538179 0.860108 0.857694 0.643131 0.36617 0.12908 0.0401527 -0.00289723 0.00260156 0.00835052 0.00257732 0.00195876 -0.024131 -0.0817564 -0.192607 -0.3326 -0.577747 -0.754685 -0.684643 -0.514986 -0.398873 -0.33493 -0.666779 -0.612698 -0.266585 0.123571 0.255535 0.321601 0.728892 0.595738 0.429041 0.291492 0.198552 0.0877332 0.0327364 0.00958466 0.00474227 0.00515464 0.00206186 0.01 0.000342671 -0.0103353 -0.0501139 -0.0830104 -0.135025 -0.251473 -0.356639 -0.388339 -0.593154 -0.705959 -0.747244 -0.486399 -0.250978 -0.226006 -0.40791 -0.219589 -0.158746 -0.167794 0.0161906 0.0859388 0.0923146 0.0427985 0.0154496 0.00670103 0.00494845 0.000824742 0.00113402 0.00443299 0.00463918 0.000589567 0.010653 0.0241908 -0.000234676 -0.0823193 -0.159667 -0.192623 -0.181499 -0.191294 -0.221515 -0.230825 -0.274091 -0.294733 -0.342293 -0.236868 -0.230425 -0.193679 -0.043793 0.00890876 0.0114031 0.0117929 0.0033536 0.00360825 0.0101031 0.00793814 0.0057732 0.00494845 0.000103093 0.00278351 0.00474227 0.00736454 0.00485191 -0.0092641 -0.000564614 0.000884459 -0.0168214 -0.011008 -0.0328702 -0.0382582 -0.0396515 -0.0306247 -0.0410663 -0.0432762 -0.0462945 -0.0132264 0.0142839 0.00921436 0.0110597 0.0122172 0.00391753 0.00938144 0.00958763 0.00237113 0.00237113 0.00134021 0.00670103 0.00876289 0.00134021 0.00123711 0.00216495 0.00443299 0.00412371 0.000721649 0.00876289 0.00381443 0.0103836 0.00560961 0.00309278 0.00762887 0.00206186 0.00783505 0.000824742 0.00298969 0.00154639 0.0057732 0.00948454 0.00618557 0.00773196 0.0071134 0.00185567 0.00742268 0.00670103 0.000618557 0.000927835 0.00639175 0.00979381 0.00206186 0.00494845 0.000958217 0.00117209 -0.00233306 0.00101729 -0.000173314 0.00112706 0.00681754 -0.00442798 0.000781504 -0.00247628 0.0028076 0.0111819 0.0156917 0.00996843 0.0265018 0.00928943 0.0120065 0.00762887 0.00309278 0.00721649 0.00731959 0.00773196 0.00907216 0.00195876 0.000206186 0.00649485 0.00701031 0.00793814 0.00220518 0.00246359 0.017052 0.0411119 0.0743449 0.110978 0.115571 0.0792544 0.0559276 0.0669194 0.0808726 0.062116 0.0186448 0.0363987 0.0458613 0.0253741 0.00935493 0.00666633 0.00908013 0.00587629 0.00206186 0.00896907 0.00474227 0.00494845 0.0103809 0.00359838 0.0113711 0.0177727 0.017245 0.0648172 0.115701 0.139441 0.191789 0.233028 0.201502 0.162933 0.112631 0.210213 0.146216 0.148229 0.135436 0.113761 0.104417 0.0874998 0.0659737 0.0349802 0.00500214 0.0122264 0.00701031 0.0028866 0.00597938 0.000103093 0.0112974 0.0064681 0.0195675 0.00999195 -0.00136088 0.0481476 0.132929 0.139106 0.0884713 0.132651 0.00660776 0.00584124 0.0463189 0.151271 0.130517 0.204108 0.167356 0.171054 0.138217 0.0563833 0.0453401 0.00190851 -0.00356119 0.000236277 0.00886598 0.00402062 0.00226804 0.00927835 0.00540047 0.00660172 0.0130977 0.0310321 0.037546 0.119171 0.15017 0.123324 -0.0623017 -0.0940285 -0.204111 -0.160187 -0.147586 -0.041671 -0.0101432 -0.0074306 0.0225478 -0.0173122 -0.00763913 -0.0571581 -0.0219749 -0.00816838 -0.0137995 0.00684986 0.00262437 0.0101031 0.00649485 0.00453561 0.000497649 -0.00311735 -0.00547782 -0.00316359 -0.0163435 -0.0125315 -0.0508043 -0.189317 -0.18359 -0.136477 -0.193035 -0.110119 -0.0354328 -0.0687934 -0.173009 -0.155529 -0.171547 -0.166563 -0.297325 -0.25949 -0.0812765 0.0347256 0.0284108 0.0185422 0.0118618 0.000927835 0.00123711 -0.00380315 -0.0145505 -0.0192732 -0.0240547 -0.111594 -0.183987 -0.206663 -0.204807 -0.240427 -0.137087 -0.0825063 0.0269309 0.159416 0.0815266 -0.0419173 -0.30013 -0.398684 -0.470289 -0.364944 -0.431498 -0.336278 -0.195093 -0.0255476 0.0301863 0.0240494 0.0042918 -0.00118265 -0.00409028 -0.0176427 -0.039535 -0.0196417 -0.0493978 -0.186428 -0.274378 -0.239245 -0.229303 -0.0895276 -0.0592488 -0.125823 0.0287071 0.0412088 -0.0564106 -0.278626 -0.48359 -0.716972 -0.692378 -0.607041 -0.575715 -0.443913 -0.303565 -0.141582 0.010163 0.00724019 0.00335312 0.00701031 -0.00319416 -0.00697898 -0.0629998 -0.0172617 -0.082586 -0.211067 -0.19276 -0.195046 -0.0460447 0.0474695 0.0860627 0.0183899 -0.0240868 -0.0908065 -0.203705 -0.438018 -0.705003 -0.781752 -0.860799 -0.733861 -0.593632 -0.446375 -0.381759 -0.188201 -0.0424418 0.00245029 0.00409221 0.00164948 0.00403574 -0.00250007 -0.0451543 -0.0648248 -0.106652 -0.136891 -0.175185 -0.121998 -0.134381 0.0132742 0.0442495 -0.144531 -0.201721 -0.241258 -0.345182 -0.368584 -0.551322 -0.632062 -0.717103 -0.674571 -0.454652 -0.479536 -0.36821 -0.170571 -0.0533706 -0.000300078 -0.00564884 0.00731959 0.00475987 -0.000379729 -0.0464419 -0.043646 -0.0313255 -0.102401 -0.144352 -0.15368 -0.115008 -0.112517 -0.243329 -0.344827 -0.343269 -0.299991 -0.205259 -0.0441622 -0.152895 -0.306656 -0.421743 -0.444971 -0.322524 -0.343633 -0.273979 -0.150173 -0.0146207 -0.0186722 -0.000591395 0.00556701 0.00226821 1.78701e-05 -0.0399231 -0.0555848 -0.0273356 -0.0475502 -0.112223 -0.0478629 -0.0119698 -0.11782 -0.308509 -0.374158 -0.16568 -0.00229024 0.0791063 0.174992 -0.0595254 -0.201993 -0.226013 -0.298879 -0.198059 -0.236653 -0.186091 -0.0752376 0.00901257 -0.00178574 0.00592442 0.00639175 -0.000348044 -0.000638239 -0.020893 -0.0474089 -0.092108 -0.0655472 -0.0570277 0.0977155 0.0794948 0.0095825 -0.225477 -0.235001 0.0545937 0.146197 0.226879 0.184432 0.124489 -0.10632 0.0331886 -0.103634 -0.0799421 -0.165115 -0.0976113 -0.00733418 0.00295041 0.0138656 0.00732242 0.00525773 0.00468003 0.00264976 0.0086571 -0.0520754 -0.137929 0.0115429 0.0515236 0.12279 0.123952 0.0708392 -0.0925689 -0.137788 0.0822829 0.166769 0.165731 0.182738 -0.0263988 -0.115491 -0.097278 -0.0346481 -0.0246956 -0.10959 -0.209059 -0.0405669 0.0344953 0.0216512 0.00117873 0.00896907 0.000936303 0.00497832 0.0115804 -0.0608724 -0.0626948 0.140828 0.0849184 0.0759576 0.00585183 -0.00408498 -0.0223213 0.0274161 0.233047 0.158752 0.0440238 0.0371631 -0.0903369 -0.142649 -0.0221171 0.0241246 -0.00407895 -0.169171 -0.194066 -0.0348265 0.0402392 0.00256083 0.00989345 0.00103093 0.0025057 0.00469186 0.0148966 -0.0696834 -0.0666657 0.0870336 0.0936141 -0.0914677 -0.0782224 -0.0122124 0.12327 0.0906799 0.229449 0.101818 -0.0588083 -0.000221575 -0.0653844 -0.00678317 0.0768704 0.0599764 -0.0220431 -0.106019 -0.0384839 0.0497687 0.0753121 0.0091299 0.00492183 0.000721649 0.00242127 0.00979277 0.0361037 -0.0281786 -0.00157657 0.027407 0.030986 -0.0627091 -0.19543 -0.0346523 -0.00410967 0.050304 0.0930728 0.0472181 0.0163484 -0.0299485 0.0139726 0.213802 0.118568 0.108364 0.055991 -0.0100809 0.044914 0.0806395 0.0962502 -0.0044331 -0.00229346 0.00472978 0.00556701 0.000471805 0.0508929 0.0936771 0.016961 0.0060573 0.027572 -0.107283 -0.110872 -0.0907528 0.0393595 0.136421 0.131236 0.125851 0.0752461 0.152367 0.201508 0.19551 0.171492 0.185901 0.12613 0.0576378 0.0713265 0.118901 0.068675 -0.00365482 0.00618936 0.00618557 0.00658184 0.00522479 0.048887 0.115314 -0.0353551 -0.0835077 -0.0580228 -0.116788 -0.146551 -0.040966 0.159256 0.131731 0.22318 0.266354 0.26909 0.225729 0.173437 0.182642 0.196618 0.186455 0.0568522 0.091744 0.10388 0.102904 0.0317131 -0.0103967 0.00666859 0.00453608 -0.00161018 0.023822 0.0553222 0.0953119 -0.00185639 -0.0787178 -0.0889117 -0.128886 -0.113544 -0.116733 -0.0303376 0.035225 0.145581 0.300643 0.182899 0.186148 0.128555 0.268339 0.186953 0.189156 0.156351 0.133835 0.179794 0.121725 0.0341796 0.00461002 0.00525773 0.00278351 0.00649485 0.0203176 0.039825 0.0464004 -0.00381291 -0.132063 -0.195165 -0.114568 -0.0800556 -0.133117 -0.117753 -0.043953 0.178548 0.149967 -0.141077 -0.0417996 0.210655 0.21039 0.198831 0.141798 0.179277 0.188268 0.178212 0.086411 0.0152698 -0.000710931 0.00443299 0.00268041 0.00752577 0.0147105 0.0290491 0.0621365 -0.0476082 -0.198185 -0.274133 -0.261399 -0.281655 -0.345221 -0.416218 -0.342121 -0.283021 -0.356262 -0.352907 -0.149489 -0.0682427 0.0132099 0.122392 0.199299 0.203412 0.135246 0.0911782 0.0482865 0.0151962 0.00677384 0.00402062 0.00340206 0.00680412 0.00777991 0.012351 0.048464 -0.00513878 -0.140765 -0.275765 -0.352658 -0.459761 -0.538404 -0.636064 -0.713534 -0.710696 -0.675654 -0.535529 -0.355678 -0.224736 -0.0139744 0.0902623 0.156061 0.175346 0.129449 0.0557767 0.0320218 0.00854676 0.0024242 0.000927835 0.00329897 0.01 0.00740979 0.00841775 0.00363889 -0.0235271 -0.0330382 -0.0737596 -0.215673 -0.286416 -0.331956 -0.344806 -0.476981 -0.502122 -0.471397 -0.309963 -0.136485 -0.0521323 -0.014864 -0.0239545 0.06706 0.120023 0.104805 0.0545287 0.0246833 0.00628403 0.00680412 0.000103093 0.0028866 0.0085567 0.0101059 0.0078584 -0.013502 -0.0175416 -0.025291 0.00178207 0.016142 0.00581393 -0.0104352 -0.0154767 -0.0631659 -0.0878353 -0.0327709 0.0233652 0.0455416 0.0751847 0.0354681 -0.0121965 0.0506045 0.0629264 0.0464462 0.0319038 0.0161731 0.000309278 0.00329897 0.00731959 0.00701031 0.00206186 0.00298969 0.0106446 0.00651742 0.0014056 0.00576417 -0.00745136 -0.000318982 0.0158091 0.0162544 0.0322037 0.0537144 0.0433925 0.0506642 0.0117068 0.00465905 0.0272472 0.0341531 0.00602089 0.0214333 0.0185837 0.0176606 0.0107629 0.00488518 0.00154639 0.00360825 0.00525773 0.00515464 0.01 0.00237113 0.00546392 0.00896907 0.00713314 -7.72215e-05 0.0042132 0.00458496 0.00609854 -0.00144849 -0.00245964 0.00736697 0.0137158 0.0125322 -0.00177677 -0.00535653 0.00117354 0.0116418 0.000651876 0.0125553 0.00145292 0.00789742 0.00429905 0.00206186 0.00319588 0.00546392 0.00134021 0.000721649 0.00907216 0.0028866 0.00175258 0.00453608 0.00164948 0.00164948 0.00360825 0.00886598 0.0057732 0.00721649 0.000206186 0.00183349 -0.00780431 0.00226804 0.00752577 0.00484536 0.00391753 0.00814433 0.0085567 0.00391753 0.00907216 0.00639175 0.00752577 0.00927835 0.00721649 0.000515464 0.00329897 0.00278351 0.00329897 0.00804124 0.00226804 0.00474227 0.00350515 0.00690722 0.00802857 0.0103737 0.018415 0.0111836 -0.00611675 -0.0601886 -0.01262 0.0299364 0.0171252 0.00779572 0.00770421 -0.00627258 0.00169027 -0.000587794 -0.0197369 -0.00450466 0.00134481 0.00329897 0.0056701 0.00247423 0.00381443 0.00412371 0.0102062 0.00649485 0.000309278 0.00680412 0.00876289 0.000309278 0.00146361 -0.0385594 -0.0230747 -0.0362876 -0.0813667 -0.151597 -0.18181 -0.0909105 -0.0536114 0.00318562 0.016248 0.0276228 -0.00212521 -0.0400609 -0.0377675 -0.0228419 -0.00374798 0.00678024 0.0067762 0.00556701 0.00237113 0.00381443 0.00453608 0.00793814 0.00356997 0.0133428 0.0169952 0.0101264 -0.0106015 -0.0876799 -0.100276 -0.127739 -0.290767 -0.297536 -0.36302 -0.314475 -0.267669 -0.203194 -0.137746 0.0447442 0.0567701 0.0268656 -0.012877 0.00766618 0.00528138 0.0184435 0.02561 0.00549446 0.0101031 0.00505155 0.0101031 0 0.000901083 0.012793 0.0380882 0.0321873 0.0645196 0.041975 -0.14598 -0.213867 -0.258546 -0.108033 -0.146807 0.00763169 -0.0373602 -0.0153398 -0.081771 0.197936 0.261656 0.0200659 0.153159 0.0671761 0.173808 0.243871 0.0832091 0.0192915 0.00896907 0.00340206 0.00804124 0.00670103 0.0107414 0.0121127 0.00540467 0.0291855 0.181094 0.168614 -0.149724 -0.204238 -0.0711494 -0.0495258 -0.165915 -0.0716266 -0.0192552 0.227376 0.430153 0.411026 0.504182 0.465409 0.333683 0.367672 0.494182 0.320479 0.124623 0.0175915 0.00135423 0.00154639 0.00783505 -0.0115381 -0.0601762 -0.0757712 -0.00994638 -0.08029 0.116084 0.0673919 -0.115128 -0.406815 -0.60085 -0.271448 -0.586947 -1.13682 -0.881597 -0.798605 -0.550394 -0.183179 0.372728 0.500963 0.450101 0.614708 1.01596 0.704489 0.347794 0.145935 0.0082425 0.00587629 0.00123711 -0.0355923 -0.132982 -0.148204 0.0151241 -0.0518903 0.0769345 0.193485 -0.280264 -0.617535 -0.824093 -0.975351 -1.40879 -1.31684 -1.12841 -1.41575 -1.09985 -0.653303 -0.115743 0.0130394 0.421443 0.810924 1.22818 0.969481 0.529009 0.17982 0.010779 -0.00105434 -0.0345457 -0.114116 -0.195692 -0.223579 0.0336657 0.0252947 -0.106418 -0.155985 -0.344538 -0.366576 -0.528443 -0.967898 -1.35291 -1.69605 -1.7532 -1.32907 -0.942923 -0.740209 -0.221223 -0.0168449 0.346365 0.433999 1.12827 1.21754 0.676126 0.193399 0.0300722 0.00721649 -0.0461398 -0.0854557 -0.26993 -0.310154 -0.142558 -0.254884 -0.111085 0.0684212 0.116104 -0.166488 -0.140697 -0.619378 -1.30277 -2.08386 -1.60139 -1.31501 -1.13378 -0.734488 -0.57532 -0.419378 -0.0578631 0.288518 0.770185 1.02702 0.551796 0.155641 -0.0239029 0.00113402 -0.0284577 -0.0774255 -0.243454 -0.286798 -0.260622 -0.234435 0.0957166 0.131364 0.371528 0.389466 0.172445 0.202234 -1.02853 -1.57572 -0.912813 -0.952694 -0.860485 -0.920015 -0.942253 -1.01063 -0.787213 -0.492527 0.172914 0.556635 0.468742 0.140271 0.0119863 0.00391753 -0.0366344 -0.143553 -0.23325 -0.244957 -0.0754638 0.0214475 -0.0821359 0.19951 0.580167 0.44157 0.28617 0.586824 -0.375542 -0.68988 -0.186372 -0.116884 -0.559868 -0.81245 -1.24217 -1.62529 -1.42311 -1.11779 -0.586135 0.044496 0.280138 0.0990065 0.0125931 0.00690722 -0.0364974 -0.146589 -0.294574 -0.37547 -0.129602 -0.0379395 -0.0918053 0.135633 0.525935 0.535936 0.453371 0.951528 0.651653 0.136003 0.584357 0.264395 -0.233662 -0.789368 -0.970986 -1.2416 -1.28415 -1.34426 -1.08171 -0.530897 0.0516317 0.024115 -0.0127184 0.00340206 -0.00685244 -0.0779639 -0.263167 -0.376319 -0.308336 -0.290913 -0.256715 0.402471 0.74541 0.483697 0.719209 1.35429 1.13682 0.628533 1.00255 0.529951 0.0190745 -0.448568 -0.578323 -0.880241 -1.17996 -1.2947 -1.45568 -0.74958 -0.0933892 -0.0128423 0.000457077 0.00463918 0.00353334 -0.0253748 -0.0995062 -0.128388 -0.372926 -0.364642 -0.475708 0.16152 0.356435 0.579567 0.828482 1.04671 1.41844 1.41939 1.22697 0.87997 -0.143293 -0.349577 -0.730231 -1.08651 -1.39646 -1.50312 -1.46318 -0.710794 -0.164356 -0.0123837 0.00247209 0.00134021 0.00109108 0.000682988 0.0564647 -0.0199673 -0.461602 -0.605531 -0.56398 -0.0939795 0.17976 -0.018089 0.271757 1.16374 1.80988 1.63102 1.20336 0.428407 -0.453577 -0.591638 -0.723998 -1.45269 -1.45474 -1.3294 -0.99425 -0.608337 -0.11677 0.0151286 0.0039519 0.00329897 0.00201474 0.001419 0.099022 -0.121593 -0.585092 -0.615238 -0.874621 -0.912907 -0.656645 -0.475191 -0.120738 1.02389 1.49749 1.14042 0.911707 0.155644 -0.607866 -0.797577 -1.07696 -1.16052 -1.14786 -0.901992 -0.558417 -0.333172 -0.0313858 -0.00907306 0.0090203 0.000824742 0.00449159 0.00229007 0.0446794 -0.0797037 -0.281515 -0.250195 -0.555801 -0.588631 -0.661076 -0.811137 -0.12935 0.706089 0.731413 0.535516 0.277117 -0.00159914 -0.702124 -0.736761 -0.868685 -0.616315 -0.482313 -0.59582 -0.186334 -0.154886 -0.122006 -0.0176787 -0.00876385 0.00402471 0.00329897 -0.00270755 0.0463189 -0.0609118 0.0597411 0.285477 -0.128737 -0.365765 -0.327081 -0.690212 -0.0554377 0.552124 0.304003 -0.091637 -0.188769 -0.339586 -0.866638 -0.661419 -0.537349 -0.201579 -0.228119 -0.244714 0.0535351 0.07178 -0.111746 -0.00401856 -0.00414082 0.00938144 -0.0111179 -0.0060086 0.0456445 -0.0217439 0.141723 0.34238 0.0416386 -0.271029 -0.575516 -0.768178 -0.720606 -0.450647 -0.88517 -0.882451 -0.491895 -0.651001 -0.570411 -0.341269 -0.384128 -0.225515 -0.0612211 0.0509668 0.175046 0.104487 -0.0543372 0.0181211 0.00482479 0.00206186 -0.00786478 0.00888054 0.00607236 -0.064976 0.128859 0.45602 0.134632 -0.290866 -0.797515 -1.20747 -1.08602 -0.998667 -1.12544 -1.03116 -0.671304 -0.448327 -0.17943 0.040674 0.0556963 0.0253092 0.307199 0.460182 0.410684 0.0904167 -0.014654 0.00335053 0.000515464 0.00618557 0.00917526 0.0264256 0.000556723 -0.0590585 0.0490243 0.168488 0.137513 -0.0891527 -0.590046 -1.2148 -1.36639 -1.13795 -0.855993 -0.652932 -0.437097 -0.542491 0.0592347 -0.00541908 0.218249 0.353855 0.675127 0.658644 0.382212 0.0522989 0.0140676 -0.00577207 0.00969072 0.00907216 0.00247423 0.0160119 -0.00171976 0.0374559 -0.259233 -0.295214 -0.463601 -0.473733 -0.309811 -0.682893 -0.945289 -0.831122 -0.517232 -0.302386 -0.316188 -0.330444 0.0130655 0.26771 0.517579 0.79737 0.817987 0.462832 0.169364 0.0173888 0.0221933 0.00949904 0.00927835 0.00319588 0.00309278 0.0233312 0.0372028 -0.0408965 -0.337747 -0.691603 -0.931135 -0.402673 -0.0478032 0.0889664 0.0501393 0.0345013 0.201353 0.338177 0.313464 0.406012 0.252308 0.627096 0.88002 0.74435 0.454984 0.263285 0.124272 0.0115811 0.0211892 0.0107152 0.00350515 0.000309278 0.00381443 0.0218771 0.0308367 -0.0714547 -0.370355 -0.550948 -0.497954 -0.343673 -0.148206 -0.0422555 0.0847562 -0.0940016 0.0552012 0.201415 0.274717 0.444295 0.282896 0.623451 0.394899 0.177586 0.100048 0.127251 0.0792202 0.0276448 0.0162338 0.00876289 0.00216495 0.00845361 0.00247423 0.0104154 0.0093454 -0.034913 -0.108403 -0.182402 -0.279131 -0.277602 -0.19008 -0.174724 -0.272677 -0.35726 -0.355507 -0.344234 -0.232035 -0.344597 -0.251005 -0.231831 -0.186762 -0.0450705 -0.00612769 0.0688354 0.0359192 0.0153722 0.00134021 0.00216495 0.00938144 0.00907216 0.00278351 0.00350515 0.0025526 0.0035755 0.0245 0.00234314 -0.0581055 -0.151364 -0.152151 -0.158981 -0.195862 -0.318492 -0.369849 -0.414526 -0.389059 -0.355768 -0.228253 -0.265681 -0.230874 -0.0667667 -0.0255095 0.0128753 0.0155364 0.00654883 0.00185567 0.00195876 0.00587629 0.00350515 0.0057732 0.00412371 0.0042268 0.00917526 0.00334293 0.0018472 -0.00217246 -0.0106382 0.00408065 -0.0181857 -0.0108358 -0.0298711 -0.0302964 -0.0470467 -0.0546497 -0.0690017 -0.060963 -0.0903281 -0.0317356 0.0172698 0.00717651 0.0194406 0.00630183 0.000824742 0.00278351 0.00247423 0.00154639 0.00845361 0.00701031 0.00268041 0.0102062 0.00618557 0.00381443 0.00835052 0.00412371 0.00876289 0.00443299 0.0085567 0.00670103 0.00318069 0.00292631 0.00391753 0.00824742 0.00639175 0.000515464 0.01 0.00670103 0.0085567 0.000927835 0.00556701 0.000412371 0.00659794 0.00628866 0.00546392 0.00164948 0.00927835 0.00298969 0.00123711 0.00742268 0.00680412 0.0043299 0.00103093 0.00424207 0.00739699 0.00945885 0.0124551 0.00746698 -0.00987811 0.000523965 0.0114345 0.00696879 -0.00878264 -0.000878975 0.00448158 0.00272121 0.0025277 -0.00607888 0.00350135 -0.00107281 0.00608247 0.0057732 0.000618557 0.00804124 0.00474227 0.0042268 0.000309278 0.00268041 0.00237113 0.000206186 0.00412371 -0.00620817 -0.0142447 -0.00621454 -0.0282945 -0.0532214 -0.0632004 -0.0458679 -0.0333149 -0.0219516 0.002126 -0.00748615 -0.00629609 0.00586729 -0.00601578 -0.00550629 -0.00460762 -0.000428876 0.0105725 0.0101157 0.00195876 0.00793814 0.00381443 0.00257732 0.000927835 0.000226878 0.0105339 -0.00167783 0.00138667 -0.0171852 -0.0480045 -0.0972505 -0.148127 -0.206253 -0.213645 -0.218362 -0.185983 -0.152213 -0.108607 -0.0992223 -0.0374892 0.00341435 0.00864219 0.00717789 0.00238512 -0.0106001 9.13947e-05 0.00619317 0.00893354 0.000618557 0.00268041 0.00556701 0.000824742 0.00766939 0.00747471 0.00462711 -0.010567 -0.0564274 -0.136516 -0.243621 -0.287215 -0.326369 -0.394499 -0.496076 -0.473549 -0.49683 -0.43461 -0.371175 -0.228697 -0.09622 -0.05817 0.0445672 0.0841167 0.0999031 0.0629251 0.0170988 0.00395387 0.00247423 0.0043299 0.00701031 0.00783505 -0.000556249 -0.00740298 -0.00107952 -0.0625287 -0.135916 -0.203186 -0.31035 -0.367848 -0.394802 -0.536813 -0.627646 -0.706968 -0.747915 -0.803744 -0.637652 -0.486857 -0.335204 -0.123235 0.00227663 0.140634 0.185916 0.141612 0.0335641 0.00670766 0.0104806 0.00257732 0.00948454 0.00579206 -0.00991415 -0.0345724 -0.0561988 -0.1216 -0.176602 -0.339782 -0.439439 -0.451111 -0.462816 -0.530661 -0.563276 -0.559774 -0.577173 -0.559165 -0.553151 -0.372696 -0.180671 -0.0681793 -0.0077493 0.161712 0.304068 0.259683 0.0911729 0.0333692 0.00624509 0.00556701 0.00515464 0.00131583 -0.0320378 -0.12121 -0.137302 -0.211809 -0.329404 -0.4964 -0.499331 -0.425091 -0.381005 -0.324922 -0.281481 -0.237037 -0.285125 -0.251601 -0.32221 -0.290701 -0.194516 -0.11213 -0.028724 0.151544 0.301139 0.267451 0.171485 0.0522048 0.0043445 0.00701347 -0.00421243 0.00212188 -0.0609909 -0.150294 -0.164108 -0.282456 -0.448664 -0.451844 -0.44305 -0.425649 -0.283171 -0.313662 -0.254399 -0.147405 -0.350503 -0.373748 -0.397092 -0.32044 -0.365 -0.275758 -0.0905604 -0.00310273 0.171638 0.269044 0.199199 0.0539546 0.0066564 0.00896907 -0.000143401 -0.0106108 -0.0774277 -0.158279 -0.184531 -0.255822 -0.326738 -0.306176 -0.235165 -0.0971722 0.0537278 -0.0519786 -0.183025 -0.323541 -0.31287 -0.424999 -0.424644 -0.445387 -0.55483 -0.519356 -0.328225 -0.176975 -0.0218261 0.157563 0.131954 0.0429777 0.00166294 0.00835052 -0.000703397 -0.0127049 -0.0710409 -0.0922524 -0.122536 -0.173249 -0.232983 -0.123061 -0.00552018 0.220485 0.210927 0.0726759 -0.22878 -0.378383 -0.246519 -0.295972 -0.456375 -0.68015 -0.697936 -0.666559 -0.496959 -0.392416 -0.228865 0.023679 0.107158 0.0323709 0.00822932 0.00793814 -0.00146633 -0.0236463 -0.0442251 0.00851239 0.0165539 -0.0587473 -0.11127 -0.0172773 0.0379562 0.20759 0.0777546 -0.163595 -0.495922 -0.449921 -0.173323 -0.106883 -0.352126 -0.653566 -0.766044 -0.651164 -0.588548 -0.559577 -0.447777 -0.161231 0.0385427 0.0078291 0.00942864 0.000412371 -0.00470799 -0.0225019 -0.0221899 0.0565532 0.0612817 0.0271649 0.0450766 0.0698286 0.0352416 0.0507045 -0.209223 -0.424578 -0.515049 -0.369456 -0.0696903 -0.110736 -0.412093 -0.543017 -0.546631 -0.529043 -0.552203 -0.559042 -0.510995 -0.297631 -0.0171798 -0.00368588 0.00877783 0.00268041 0.00634381 -0.0147195 -0.00666679 0.115717 0.103812 0.0137279 0.140247 0.183206 0.105615 -0.0609849 -0.34371 -0.388738 -0.399582 -0.236121 -0.0891889 -0.232654 -0.330879 -0.406714 -0.323454 -0.299177 -0.399985 -0.487927 -0.538743 -0.324573 -0.0403452 -0.00810698 0.00325676 0.00134021 0.00546323 -0.00196416 0.0381662 0.136055 0.0769316 0.113327 0.0990151 0.199332 0.0646616 -0.172499 -0.45226 -0.412391 -0.325871 -0.166809 -0.0724292 -0.0779798 -0.320054 -0.359571 -0.291557 -0.305355 -0.414539 -0.422393 -0.49394 -0.298465 -0.0634804 -0.00100958 0.000147034 0.00195876 0.00606008 -0.00364478 0.0455998 0.0807862 -0.0243539 -0.00717539 -0.0785564 0.000391324 -0.116894 -0.307828 -0.388623 -0.305883 -0.225887 -0.1405 -0.0492415 -0.0535808 -0.259511 -0.323699 -0.327276 -0.482936 -0.481383 -0.448595 -0.373682 -0.277803 -0.0749352 -0.000238722 0.00397774 0.00639175 0.00512727 -0.00739335 0.00980702 -0.0108541 -0.115425 -0.146756 -0.250223 -0.313195 -0.438615 -0.549812 -0.509617 -0.354388 -0.198791 -0.0506331 -0.0199281 -0.0844277 -0.306489 -0.463914 -0.580116 -0.491729 -0.494276 -0.405802 -0.313254 -0.185245 -0.0570802 -0.0161581 0.00162793 0.00608247 0.00359143 -0.0076037 -0.0175631 -0.0784575 -0.12403 -0.142357 -0.327272 -0.485808 -0.650452 -0.741014 -0.636858 -0.359579 -0.0906154 0.0724843 0.0633263 -0.0804508 -0.330506 -0.480435 -0.60283 -0.501498 -0.468913 -0.420727 -0.262325 -0.128637 -0.0748718 -0.01006 -0.00215212 0.00149816 0.00752577 -0.007609 -0.0309543 -0.114388 -0.175066 -0.185601 -0.422144 -0.648885 -0.780273 -0.851317 -0.626304 -0.436221 -0.134219 0.0710741 -0.0766486 -0.197137 -0.454611 -0.583211 -0.561121 -0.379515 -0.422073 -0.396433 -0.192378 -0.0636379 -0.0393958 -0.00157492 0.0037057 0.00793814 0.000231845 -0.00316239 -0.0270093 -0.121808 -0.256481 -0.272394 -0.511914 -0.736719 -0.854908 -0.905755 -0.710337 -0.595895 -0.312202 -0.22155 -0.293459 -0.39551 -0.590586 -0.648168 -0.500221 -0.357285 -0.404294 -0.312706 -0.0856624 0.00391551 0.000454943 0.00641872 0.00168649 0.00731959 -0.000137187 -0.00557064 -0.0446345 -0.112411 -0.20331 -0.288481 -0.559735 -0.716245 -0.829267 -0.915483 -0.797499 -0.757971 -0.587376 -0.515689 -0.566956 -0.446979 -0.489635 -0.43326 -0.367969 -0.311251 -0.248302 -0.103994 0.0362529 0.0345277 0.0146895 0.000263785 0.00587629 0.00164948 0.00783505 -0.00646489 -0.0344356 -0.0791142 -0.118233 -0.217263 -0.394574 -0.501533 -0.598581 -0.724547 -0.840685 -0.914106 -0.855372 -0.820119 -0.743136 -0.627302 -0.468799 -0.391766 -0.286375 -0.112526 0.0146411 0.0645777 0.0855525 0.0580475 0.00838291 -0.00116769 0.00195876 0.00309278 0.00773196 0.000507935 -0.0227233 -0.03018 -0.0981889 -0.23388 -0.378578 -0.388899 -0.453351 -0.607712 -0.743624 -0.934389 -0.92955 -0.806821 -0.727443 -0.516088 -0.290639 -0.136887 -0.0598932 0.131133 0.162916 0.128347 0.108796 0.0520938 0.00795827 0.00297342 0.00443299 0.00463918 0.00123711 0.00473483 -0.00496892 -0.00346596 -0.0560873 -0.158223 -0.297636 -0.276823 -0.283274 -0.276487 -0.381435 -0.5332 -0.686911 -0.599947 -0.466084 -0.205618 -0.0697841 0.0281481 0.16634 0.258954 0.2091 0.141997 0.0764938 0.0434946 0.0109207 0.00491421 0.000103093 0.00494845 0.00113402 -0.00257468 -0.00307234 -0.0275124 -0.0309424 -0.0385702 -0.0713532 -0.110661 -0.105915 -0.0923275 -0.104649 -0.289357 -0.318067 -0.267001 -0.125337 -0.0373805 0.128385 0.170934 0.215786 0.238902 0.198298 0.139672 0.0740156 0.0159007 0.00339494 0.00969072 0.00360825 0.00350515 0.00835052 0.000573677 0.00654852 -0.00640581 0.000302246 0.00897343 0.0428378 0.0559177 0.0658412 0.0191699 -0.0122716 -0.0647283 -0.00709281 0.0577072 0.0475635 0.017403 0.0830084 0.0970501 0.0868462 0.119102 0.114588 0.0696473 0.0454219 0.0180088 0.000103093 0.00536082 0.00824742 0.00690722 0.00979381 0.00371134 0.00258853 0.00371944 0.0122347 0.0333805 -0.00288829 -0.0181884 0.0102826 0.0163447 0.0166229 0.0278728 0.0386816 0.0590505 0.0281429 -0.00648189 -0.0209083 -0.000381182 0.0121943 0.035292 0.0401016 0.0128345 0.00744639 0.00118793 0.00824742 0.00752577 0.00701031 0.00814433 0.00907216 0.000927835 0.0071134 0.00247423 0.000422354 0.00541368 0.00115449 0.000520272 0.0018047 -0.00910116 -0.00411916 -0.00698675 -0.00134359 0.00362712 0.00791409 -0.00990467 -0.00978692 -0.0116044 0.00500439 0.00857108 0.00909984 0.0147571 0.00990523 0.00907216 0.00917526 0.00278351 0.00154639 0.00597938 0.00670103 0.00113402 0.00371134 0.000206186 0.00505155 0.00123711 0.0014433 0.00123711 0.00649485 0.0043299 0.00134021 0.00606548 0.00650793 0.0085567 0.000206186 0.0056701 0.00237113 0.00525773 0.00773196 0.00494845 0.00546392 0.00752577 0.00628866 0.00185567 0.00154639 0.00360825 0.000103093 0.00845361 0.0071134 0.00443299 0.00670103 0.000103093 0.00556701 0.00515464 0.0012012 0.00664268 0.00901382 0.00278283 -0.00341963 -0.0136632 0.00435666 0.0158322 0.00987803 -0.000699371 0.00730562 0.000886923 0.00143357 0.00593646 0.00545619 -0.00255368 0.000621637 0.00690722 0.00185567 0.00381443 0.00206186 0.00226804 0.000515464 0.000412371 0.00494845 0.00948454 0.00381443 0.00164948 -0.00326752 -0.00638556 -0.0114382 -0.0214688 -0.0301454 -0.0306703 -0.0125938 -0.00699682 0.0160565 0.0213238 0.00269749 -0.00164501 0.0158887 0.00961045 0.00707817 -0.00102327 0.0048449 0.00760155 0.00467006 0.000721649 0.000721649 0.0071134 0.00783505 0.00659794 0.00541188 0.00301591 0.00885283 0.00123069 -0.0164066 -0.0504333 -0.0723194 -0.10452 -0.165151 -0.145563 -0.128772 -0.0836725 -0.0471394 -0.0286825 -0.031743 0.00706894 0.0408557 0.0484223 0.040106 0.0250351 0.00319 0.00347328 0.00999204 0.00334167 0.00938144 0.0043299 0.00814433 0.00268041 0.00261118 0.0119558 0.0121157 -0.00632471 -0.0416107 -0.114569 -0.180317 -0.206603 -0.242203 -0.262277 -0.295227 -0.193508 -0.200736 -0.176747 -0.169382 -0.0282546 0.0810032 0.0666746 0.150364 0.141056 0.114569 0.0512935 0.00974426 0.00851706 0.00907216 0.00865979 0.00371134 0.00742268 0.0090472 -0.00236296 0.00835795 -0.016655 -0.0749405 -0.126226 -0.19954 -0.258375 -0.342434 -0.503322 -0.588162 -0.568035 -0.553852 -0.525901 -0.351693 -0.185926 -0.0515859 0.121183 0.215326 0.29363 0.255668 0.147235 0.0313465 0.00841756 0.00926197 0.00412371 0.00247423 -0.00212681 -0.000761899 -0.0235715 -0.017828 -0.045993 -0.0941079 -0.225494 -0.356044 -0.451092 -0.586008 -0.758115 -0.855255 -0.949656 -0.982611 -1.00159 -0.889242 -0.53888 -0.182292 0.0296468 0.172639 0.333337 0.401182 0.304604 0.104144 0.0399537 0.0106716 0.00762887 0.00670103 0.00594685 -0.0207053 -0.0612093 -0.0559436 -0.124015 -0.226855 -0.386391 -0.572975 -0.654862 -0.762399 -0.862285 -0.9887 -0.978744 -1.09615 -1.01377 -0.901285 -0.691939 -0.39623 -0.192599 0.0178347 0.248462 0.363807 0.305355 0.182086 0.0566328 0.00645759 0.00903658 0.0032977 -0.00329614 -0.0382837 -0.0862539 -0.0800499 -0.177043 -0.348798 -0.535768 -0.685407 -0.791132 -0.797483 -0.843027 -0.863891 -0.778614 -0.827654 -0.757201 -0.662119 -0.617163 -0.599446 -0.403968 -0.154312 -0.00727041 0.191156 0.286343 0.223228 0.0627085 0.00829747 0.000309278 -0.000310421 -0.0087635 -0.0421291 -0.0943569 -0.120731 -0.276466 -0.353836 -0.509809 -0.640183 -0.641754 -0.500003 -0.470615 -0.479723 -0.470415 -0.309366 -0.342891 -0.496319 -0.648187 -0.75138 -0.695059 -0.436967 -0.252366 -0.0260998 0.180647 0.164346 0.0461011 -0.000987792 0.00329897 0.00310624 -0.00794255 -0.0376896 -0.0587991 -0.157342 -0.288184 -0.385047 -0.461756 -0.473405 -0.330866 -0.201445 -0.0759979 -0.155903 -0.137867 0.073113 -0.124776 -0.520559 -0.894665 -0.955785 -0.923265 -0.706754 -0.544288 -0.254805 0.0643852 0.140545 0.0421496 0.00749325 0.0071134 0.00117063 -0.0122014 -0.0241887 -0.0370973 -0.11357 -0.250442 -0.410875 -0.451278 -0.431023 -0.300423 -0.165996 -0.0385683 -0.206085 -0.101912 0.124489 -0.0682093 -0.650161 -0.987472 -1.15959 -1.07581 -0.879984 -0.712013 -0.423172 -0.126024 0.0561502 0.0108883 0.0050134 0.000824742 -0.00425923 -0.0163671 -0.0350533 -0.0426443 -0.120967 -0.205554 -0.289025 -0.320916 -0.363578 -0.254958 -0.193379 -0.156022 -0.184514 -0.0499276 0.0746953 -0.22474 -0.762025 -0.997092 -1.07521 -0.952795 -0.807604 -0.695819 -0.504739 -0.252327 0.00426935 0.00143172 0.00977657 0.00340206 0.00622918 -0.00567028 -0.0304486 -0.0484099 -0.123812 -0.18518 -0.230819 -0.19094 -0.192523 -0.265975 -0.309593 -0.18674 -0.226226 -0.146677 -0.112092 -0.403392 -0.717902 -0.924303 -0.80843 -0.625774 -0.545644 -0.536886 -0.484544 -0.25243 -0.0236168 0.00237615 0.00480151 0.00371134 0.00835116 -0.00305866 -0.000772039 -0.0121089 -0.118451 -0.117012 -0.208382 -0.10499 -0.183075 -0.30995 -0.458169 -0.251706 -0.187618 -0.00312719 -0.0139699 -0.327748 -0.810911 -0.785748 -0.550353 -0.443918 -0.414698 -0.369369 -0.393842 -0.197617 -0.0358204 0.000579083 0.00786007 0.000103093 0.00462058 0.0114711 0.0181692 -0.015986 -0.142909 -0.142768 -0.207801 -0.20534 -0.290041 -0.501929 -0.415527 -0.217203 -0.0542501 0.143274 -0.00931735 -0.344359 -0.786291 -0.628582 -0.461653 -0.489485 -0.366141 -0.350139 -0.2387 -0.154397 -0.0375718 0.000948883 0.0082847 0.00206186 0.00191713 0.00623708 0.0202767 -0.0343847 -0.148643 -0.183622 -0.329709 -0.487694 -0.550913 -0.650804 -0.501117 -0.280128 0.0104369 0.23735 0.00221577 -0.357262 -0.765979 -0.640458 -0.565798 -0.46606 -0.356307 -0.298015 -0.175885 -0.0731632 -0.0193748 -0.00581492 0.00840728 0.00474227 0.000600503 0.00126393 0.00735447 -0.0418184 -0.0903551 -0.156804 -0.372269 -0.581098 -0.796141 -0.810501 -0.631432 -0.292314 0.0288789 0.273451 0.0634137 -0.324112 -0.691941 -0.596867 -0.592421 -0.447628 -0.340026 -0.297957 -0.12769 -0.0394259 -0.0426055 -0.0030414 -0.000537518 -0.000455888 0.00948454 0.00221768 -0.0037824 -0.0347758 -0.102565 -0.156605 -0.387656 -0.613058 -0.71964 -0.809483 -0.536813 -0.26737 -0.00931425 0.146998 -0.0873141 -0.384491 -0.63213 -0.644883 -0.603524 -0.351653 -0.320968 -0.270898 -0.0746796 -0.00748713 -0.0154408 -0.00187217 0.00605891 0.00103093 -0.000436603 0.00147121 -0.00937268 -0.0352926 -0.160531 -0.166608 -0.341364 -0.526223 -0.555476 -0.616807 -0.421515 -0.379733 -0.164105 -0.154612 -0.248941 -0.414385 -0.588555 -0.608978 -0.526914 -0.336453 -0.32052 -0.205541 -0.0211695 0.0340287 0.0100583 -0.00227595 0.0113715 0.00762887 0.00234516 -0.000224231 -0.0164941 -0.0547809 -0.125275 -0.121043 -0.287164 -0.383008 -0.418379 -0.494106 -0.355924 -0.384329 -0.376489 -0.375713 -0.423196 -0.377514 -0.345111 -0.297702 -0.326873 -0.257307 -0.173445 -0.0476257 0.051388 0.0412557 0.0175085 0.00365944 0.00927835 0.00226804 0.00515464 0.00120866 0.00261729 -0.0132487 -0.00685676 -0.044433 -0.161708 -0.260301 -0.357221 -0.394816 -0.52395 -0.62124 -0.644751 -0.578368 -0.511288 -0.509163 -0.269668 -0.221145 -0.188149 -0.0906159 0.0452411 0.0675654 0.0564004 0.033568 0.0152296 0.000468046 0.00701031 0.00845361 0.00474227 0.00655756 0.0034295 0.0329807 0.0189172 -0.0758313 -0.187677 -0.260382 -0.330615 -0.541858 -0.685557 -0.921585 -0.885268 -0.732647 -0.592535 -0.428313 -0.17293 -0.0442628 -0.000121703 0.0826106 0.118097 0.0639822 0.0365768 0.0231799 0.0107422 0.00345161 0.00865979 0.00515464 0.0056701 0.00559984 0.00806803 0.0195091 0.000115386 -0.0708622 -0.227235 -0.276863 -0.28653 -0.441574 -0.543194 -0.697999 -0.816292 -0.704349 -0.497898 -0.2618 -0.116563 -0.00608381 0.0550385 0.104453 0.0577483 0.0254518 -0.000781391 0.0129647 0.0222567 0.0108485 0.00484536 0.00896907 0.00804124 0.00793171 0.00677236 -0.0203765 -0.0534841 -0.0754055 -0.139541 -0.230239 -0.240818 -0.326168 -0.390724 -0.536815 -0.562261 -0.459566 -0.336403 -0.223721 -0.0632965 0.019128 -0.0137801 0.00461003 0.00720102 0.0149823 0.00259932 0.016595 0.0040682 0.0028866 0.00494845 0.00257732 0.00329897 0.0047843 0.00584511 -0.00397156 -0.0323221 -0.0538625 -0.0679267 -0.0787118 -0.114321 -0.208332 -0.224998 -0.228833 -0.230391 -0.231714 -0.169897 -0.166772 -0.113415 -0.102022 -0.0970135 -0.0470578 -0.00953537 0.0163599 0.0100631 0.0110901 0.01 0.00195876 0.00783505 0.00103093 0.00484536 0.00371134 0.00527354 0.00484868 -0.00232513 -0.0035726 -0.0167633 -0.0401711 -0.0578235 -0.0621839 -0.0832949 -0.0984247 -0.118472 -0.141992 -0.102401 -0.10474 -0.0673698 -0.0632825 -0.0451398 -0.0192367 -0.00226669 0.0095957 0.00764169 0.00180138 0.00731959 0.00164948 0.01 0.000824742 0.00752577 0.00443299 0.00917526 0.00752577 0.00901253 0.00197515 0.000435419 0.0060966 0.00159845 -0.00312254 0.00233738 -0.0125049 -0.00763009 -0.0116727 -0.00485715 0.00110401 -0.00217516 -0.00739631 -0.00565901 0.0070477 0.0069927 0.00500883 0.00186292 0.00247423 0.00876289 0.00391753 0.000412371 0.00742268 0.00546392 0.00649485 0.00969072 0.00690722 0.00649485 0.00226804 0.00164948 0.00360825 0.0085567 0.00113402 0.00917526 0.00205083 0.00285997 0.00958763 0.00443299 0.00195876 0.00298969 0.00381443 0.00680412 0.0028866 0.0101031 0.00175258 0.0014433 0.00226804 0.000927835 0.00907216 0.00484536 0.00381443 0.00103093 0.00505155 0.00515464 0.00123711 0.00649485 0.000824742 0.00294377 0.0113553 0.0123862 0.00805213 -0.0106307 -0.026023 0.00570361 -0.0422689 -0.0262133 -0.0226867 -0.00311749 0.0111874 0.0161535 0.0118405 0.0293032 0.00740041 -0.00215775 0.00628866 0.00917526 0.00896907 0.00453608 0.00350515 0.00402062 0.0014433 0.00969072 0.00969072 0.00515464 0.00298969 -0.000630855 -0.0366753 0.00415136 0.0380115 0.0580505 0.0905849 0.0815565 -0.0326673 -0.0604128 0.0188896 0.0923088 0.0632367 0.00256928 0.0340406 0.0453199 0.0273718 0.00465782 0.011308 0.00826877 0.00329897 0.00154639 0.00948454 0.00731959 0.0102062 0.010475 0.00929486 0.00325176 0.00716419 0.00642305 -0.020882 0.0854464 0.0661563 0.141321 0.211203 0.0450988 0.0797873 0.0249534 0.188997 0.131034 0.0979223 0.187945 0.169774 0.133667 0.0915623 0.0512242 0.0236343 -0.0129425 0.0128556 0.00546392 0.00979381 0.00597938 0.000206186 -0.000331779 -0.0134613 -0.018559 -0.0278309 -0.0450495 -0.061047 0.0466033 0.0742664 0.0118909 -0.000917986 -0.206502 -0.214726 -0.342813 0.00725805 0.270032 0.377403 0.3689 0.261814 0.0700884 0.016813 0.0589652 -0.0535846 -0.0556352 -0.00967762 0.00298969 0.00690722 0.00164948 0.0071134 -0.00238053 0.00775976 -0.040443 0.0408719 0.0973202 0.0469674 0.14966 0.12694 -0.227968 -0.331198 -0.335696 -0.29178 -0.319842 -0.179102 -0.0303003 0.209218 0.0621359 -0.0143237 -0.142636 -0.131864 -0.0303992 -0.133523 -0.140008 -0.000382322 0.00655861 0.00969072 0.00463918 0.00400839 0.00312176 -0.00519667 -0.0760168 -0.0660393 -0.202922 -0.298087 -0.316142 -0.428345 -0.580168 -0.663661 -0.504601 -0.588653 -0.618997 -0.583838 -0.592176 -0.545786 -0.281199 -0.232515 -0.351216 -0.308673 -0.315266 -0.182134 -0.0944842 -0.00511355 0.0198289 0.0057732 0.0057732 -0.00424393 -0.0263025 -0.0632458 -0.120204 -0.183549 -0.41539 -0.479841 -0.318855 -0.493137 -0.590562 -0.713993 -0.479759 -0.406523 -0.470857 -0.425799 -0.744806 -1.06012 -0.885233 -0.453384 -0.524904 -0.323821 -0.570348 -0.372631 -0.085138 0.0290159 0.00960701 0.00710937 -0.00375924 -0.0313481 -0.101089 -0.10777 -0.0801345 -0.344935 -0.51726 -0.495727 -0.568008 -0.75524 -0.729425 -0.804672 -0.537882 -0.248542 -0.194986 -0.248976 -0.597077 -1.03889 -1.10557 -0.850411 -0.764499 -0.738149 -0.812413 -0.716501 -0.268578 -0.0502668 0.00659409 0.00154639 -0.00966673 -0.0394813 -0.14346 -0.168587 -0.264254 -0.439994 -0.470895 -0.603781 -0.628883 -0.515777 -0.326295 -0.0569323 0.112573 0.113665 0.151916 0.0520535 -0.551231 -0.835853 -1.15539 -1.08549 -0.95486 -0.93792 -0.96426 -0.837674 -0.411641 -0.0998396 0.00760136 0.00494845 -0.00600842 -0.0247028 -0.0863064 -0.236058 -0.29361 -0.380412 -0.630701 -0.749837 -0.715746 -0.526888 -0.146357 -0.0818311 -0.223963 -0.374449 -0.118119 0.0964646 -0.452295 -0.946748 -1.10215 -1.27582 -1.0368 -1.12401 -1.04719 -0.754628 -0.402704 -0.0948928 -0.0177582 0.00154639 -0.00213462 -0.0425921 -0.0992656 -0.169572 -0.213971 -0.508206 -0.786964 -0.961141 -0.781167 -0.685049 -0.730076 -0.727021 -1.10865 -1.13809 -0.332378 0.173756 -0.311081 -0.66841 -0.613185 -0.888806 -0.71031 -0.9435 -0.746291 -0.498633 -0.210622 -0.110466 -0.00630842 0.00721649 -0.00184604 -0.0470352 -0.148477 -0.17019 -0.216741 -0.239704 -0.544472 -0.481554 -0.604779 -0.483374 -0.416579 -0.857629 -1.20005 -0.997008 -0.0996763 0.139538 -0.438581 -0.503703 -0.475463 -0.69147 -0.508492 -0.43087 -0.287034 -0.0956416 -0.0427797 -0.0125379 0.0140339 0.00536082 0.00615543 -0.0164283 -0.118597 -0.171445 -0.133531 0.0695017 0.0642963 0.14909 -0.118842 0.147504 0.0845865 -0.42905 -0.666618 -0.478053 -0.00314788 0.0357574 -0.149239 -0.316521 -0.133052 -0.36742 -0.0498483 0.0327768 0.0760574 0.159192 0.131331 0.0891397 0.0323578 0.00618557 0.00335207 -0.00495475 -0.00413088 -0.0388439 0.00428154 0.382018 0.629249 0.666944 0.710913 0.616424 0.353497 -0.222117 -0.398392 -0.103919 0.174571 0.162627 -0.53592 -0.136803 0.152502 0.0822196 0.250625 0.233798 0.113417 0.12924 0.198457 0.0932326 0.0138869 0 0.00789817 0.000707861 0.0453928 0.133188 0.29648 0.716957 0.71715 0.764411 0.541377 0.361435 0.254217 -0.0713981 -0.0283728 0.0429118 0.297206 0.299649 -0.307899 -0.00469538 0.210111 0.0377894 0.227719 0.00727619 0.0263711 0.155599 0.19504 0.0902297 0.0224313 0.00701031 0.000843959 0.00268581 0.0739777 0.105714 0.296978 0.76692 0.740902 0.509259 0.314121 0.149557 0.283105 0.107523 0.137436 0.37293 0.447665 0.408362 0.273012 0.2383 0.143584 0.0987902 0.256847 0.0126855 0.109524 0.308279 0.345183 0.109896 0.0397775 0.00463918 0.00925308 0.000706005 0.0985897 0.13716 0.423055 0.568568 0.514671 0.221556 -0.248732 -0.0935342 0.0689497 0.156333 0.564271 0.768682 0.610736 0.34762 0.276156 0.744847 0.186894 0.0624368 0.160056 0.114093 0.185059 0.332553 0.416503 0.0644819 -0.00262902 0.00348904 0.00865979 -0.00701889 0.119283 0.322596 0.426346 0.386437 0.370942 0.0192322 -0.222786 -0.0339552 0.313105 0.380222 0.842636 0.803824 0.663682 0.491386 0.400311 0.409434 0.18759 0.281248 0.267713 0.0893015 0.246324 0.434956 0.289216 0.0358579 0.00462401 0.00195876 0.00127397 -0.00172055 0.116024 0.394638 0.27417 0.0943294 0.0327047 -0.311003 -0.187657 0.211532 0.625855 0.442118 0.812 1.13864 0.787717 0.661643 0.360541 0.140381 0.0913332 0.191021 -0.00172224 0.0049595 0.301746 0.300381 0.208123 0.0352082 0.00105545 0.00752577 0.000644852 0.00862469 0.124446 0.31053 0.234111 0.0115625 -0.136327 -0.324958 0.0666536 0.141185 0.410079 0.331451 0.493085 0.814921 0.539129 0.363927 0.0484685 0.223726 0.103807 0.166881 0.284668 0.150237 0.332902 0.295005 0.0767319 0.00491889 0.00896907 0.00412371 0.00412371 0.0170352 0.0319078 0.144177 0.107513 -0.189896 -0.439775 -0.0990888 0.0199065 -0.165328 -0.224929 -0.389705 -0.0324293 0.173411 -0.356774 -0.354718 0.0134846 0.0817554 0.166482 0.166101 0.393714 0.329675 0.408188 0.20805 -0.00280721 -0.00613413 0.00298969 0.00824742 0.00721649 0.0274162 0.0155629 0.110992 0.0726326 -0.3137 -0.534467 -0.209192 -0.390068 -0.765718 -1.0581 -1.20169 -1.15331 -1.13815 -0.973665 -0.56462 -0.307622 -0.0720923 0.233236 0.311131 0.439254 0.350922 0.207926 0.0959285 -0.0277741 -0.0117488 0.0057732 0.00350515 0.00505155 0.00918191 -0.010525 0.0433108 0.0475018 -0.316623 -0.526467 -0.529144 -0.821519 -1.23234 -1.58222 -2.00058 -2.32815 -1.87386 -1.42878 -1.03769 -0.587228 0.00823742 0.072766 0.169526 0.391743 0.318377 0.0415878 0.00280909 -0.0388618 -0.00433319 0.00804124 0.0056701 0.00793814 -0.00683493 -0.0251971 -0.0233885 -0.0150966 -0.0709225 -0.329952 -0.613811 -0.916018 -1.23192 -1.44106 -1.74035 -1.70998 -1.42527 -1.09513 -0.864252 -0.366639 -0.0595114 -0.201949 -0.0442245 0.211825 0.202333 0.027242 0.0215852 0.0233061 0.000412371 0.00793814 0.00257732 0.00628866 0.00623047 0.000605166 0.00538184 -0.0105671 -0.0432944 -0.0388736 -0.141518 -0.32932 -0.455486 -0.545293 -0.686673 -0.695493 -0.692846 -0.674612 -0.610974 -0.365378 -0.23098 -0.259439 -0.0672614 0.0246962 0.00155968 -0.0325946 -0.0156039 0.00494845 0.00927835 0.00896907 0.00556701 0.00206186 0.00164948 0.00760471 0.0162204 0.0264342 0.0374002 -0.0429169 -0.0773297 -0.0468929 -0.0368989 -0.0855575 -0.0894837 -0.110155 -0.130507 -0.164153 -0.157637 -0.134627 -0.103467 -0.105141 -0.0215363 0.0174865 0.00981991 0.00379692 0.000188303 0.00618557 0.00804124 0.00515464 0.00247423 0.00690722 0.00865979 0.00278351 0.00381443 0.00695905 0.00548739 0.00205841 0.00240699 -0.0127929 -0.0285811 -0.0233362 -0.0200271 -0.0203597 0.000188102 -0.00459706 -0.0196441 -0.0130192 -0.0122755 -0.0157258 0.00839298 0.00279248 0.0108903 0.00277604 0.000618557 0.0042268 0.00360825 0.000515464 0.00298969 0.0028866 0.00340206 0.00628866 0.00453608 0.01 0.000824742 0.0028866 0.000412371 0.00731959 0.00484536 0.0057732 0.00116367 0.00646481 0.00556701 0.00371134 0.00639175 0.00412371 0.00680412 0.00453608 0.00298969 0.00484536 0.00804124 0.00907216 0.00329897 0.00175258 0.00226804 0.00371134 0.00773196 0.00907216 0.00731959 0.00329897 0.00247423 0.00762887 0.000103093 0.00350234 0.0112811 0.0113842 0.0087264 0.0102739 0.0149631 0.0100148 0.00466359 0.00643762 0.0159505 0.0125053 0.00643409 0.00467719 0.00744123 0.00716994 0.00466583 0.00785119 0.00474227 0.00123711 0.0085567 0.00845361 0.00268041 0.00876289 0.00474227 0.00247423 0.0028866 0.00773196 0.00649485 0.00989761 0.0256903 0.0152991 0.0161061 0.0159816 -0.00687553 -0.0219038 -0.012144 0.00318162 0.00205269 0.0238426 0.045297 0.0358185 0.0067105 0.00874241 0.008834 0.0140931 0.00776651 0.00814834 0.000721649 0.00670103 0 0.00690722 0.00278351 0.00451664 0.00553954 2.64516e-05 -0.00689877 -0.0107119 -0.0280006 -0.0496844 -0.0787466 -0.115488 -0.116549 -0.0966445 -0.126548 -0.0905778 -0.0506934 0.0234056 0.0619998 0.0181971 0.018102 0.0185379 -0.00442664 -0.00991797 0.0037525 0.0124285 0.0068363 0.00340206 0.0042268 0.0102062 0.000618557 0.00699976 -0.00484129 -0.0247618 -0.042474 -0.0820527 -0.135134 -0.148687 -0.168661 -0.170343 -0.255301 -0.307599 -0.287693 -0.190358 -0.196572 -0.141566 -0.119043 -0.0832271 -0.0320752 0.0807787 0.0250479 0.0102374 0.0237609 0.0274158 0.00975279 0.00494845 0.000927835 0.00247423 0.00340206 0.00610677 -0.0126361 -0.0363151 -0.122849 -0.193884 -0.159832 -0.188263 -0.159034 -0.188307 -0.310874 -0.399977 -0.421632 -0.438245 -0.499303 -0.342992 -0.28426 -0.220173 -0.0565543 -0.00719926 -0.00527939 -0.0373751 0.0349982 0.0372692 0.00530929 0.00535378 0.00556701 0.00628866 0.00372315 0.00828075 -0.0138681 -0.0582856 -0.0822177 -0.118482 -0.131408 -0.197033 -0.0989961 -0.13449 -0.279975 -0.28855 -0.223081 -0.267423 -0.37309 -0.279918 -0.172427 -0.122994 -0.0739631 -0.00509654 0.0292187 0.0598536 0.108081 0.069216 0.0276596 0.0147819 0.00309278 0.00762887 0.0127186 0.0105566 -0.0453176 -0.0786715 -0.0498404 -0.0321133 -0.141602 -0.079693 0.111961 0.0443668 0.00987039 -0.0423566 -0.0322332 -0.0679353 0.0376089 0.0685338 0.0420895 -0.0334741 0.0370933 0.0244396 0.0788097 0.207156 0.173581 0.123491 0.0411806 0.00879064 0.00569256 0.0205369 0.0312026 0.0257134 -0.0227177 -0.0635859 -0.0558804 -0.046304 -0.107615 0.0105587 0.126772 0.171128 0.213888 0.189104 0.367882 0.314431 0.258813 0.141503 0.0708164 -0.0779945 0.00442999 0.0720311 0.147094 0.251267 0.27018 0.178994 0.0547376 0.0100128 0.00134021 0.0183849 0.0207173 0.0552203 0.0491239 0.0227711 0.0345092 -0.0102456 -0.0732613 0.0414602 0.174089 0.303944 0.293777 0.351613 0.458637 0.307896 0.212391 0.149789 -0.0212288 -0.147429 -0.137303 -0.00771072 0.123611 0.216802 0.329218 0.191189 0.0562117 0.0156899 0.00680412 0.0167711 0.0278559 0.0716597 0.0936799 0.0886003 0.136063 -0.00646772 0.0347626 0.12426 0.278287 0.172838 0.20207 0.380674 0.455512 0.183736 0.046166 -0.142444 -0.26429 -0.384155 -0.203767 -0.0329256 0.0220341 0.103247 0.246808 0.169416 0.043221 0.009113 0.0057732 0.0148319 0.0486867 0.0549683 0.061121 0.0348338 0.0717376 -0.0152285 0.0314404 0.021955 0.14041 0.0362001 -0.0675275 0.146947 0.184871 -0.0553562 -0.288764 -0.397046 -0.423046 -0.511643 -0.325905 -0.178936 -0.0741911 -0.0456169 0.0547448 0.0575327 0.0157568 0.00900724 0.0057732 0.0205992 0.0506131 0.0659071 0.0602445 0.0241035 0.0231135 -0.0506618 -0.052789 -0.125199 -0.0589353 -0.273893 -0.394979 -0.254407 -0.13496 -0.318125 -0.479206 -0.478707 -0.448884 -0.472891 -0.352237 -0.314269 -0.219727 -0.151363 -0.0980751 0.0122374 0.0177876 0.00375511 0.00618557 0.011825 0.0259692 0.0403192 0.00925415 -0.000697544 -0.0656112 -0.155338 -0.225847 -0.180964 -0.306949 -0.564679 -0.639589 -0.637609 -0.547383 -0.738226 -0.754169 -0.586855 -0.41414 -0.33448 -0.205789 -0.187236 -0.126716 -0.11735 -0.0712877 0.00818608 0.00884729 -0.00240713 0.00701031 0.0018975 0.0135143 -0.00321345 -0.0671184 -0.0313419 -0.173726 -0.194914 -0.177861 -0.19302 -0.431607 -0.792026 -0.856622 -0.847476 -0.789177 -0.787812 -0.722365 -0.453073 -0.272982 -0.17194 -0.0597657 -0.0641537 0.0201375 0.0181254 -0.0245271 -0.01272 0.018817 0.00985643 0.00876289 0.00269329 0.00448943 -0.0412897 -0.112185 -0.127598 -0.212584 -0.212382 -0.234546 -0.292458 -0.502136 -0.742439 -0.817758 -0.832429 -0.846973 -0.655355 -0.522347 -0.330033 -0.144123 -0.110462 0.0139166 0.0115707 0.0958351 0.0606895 0.000336483 -0.0278693 -0.00388563 0.00324681 0.00938144 1.68092e-05 -0.000133167 -0.0480781 -0.0905617 -0.133651 -0.280726 -0.231925 -0.290049 -0.410281 -0.628915 -0.798789 -0.759206 -0.714005 -0.671729 -0.501101 -0.406163 -0.446595 -0.301464 -0.121336 0.0130784 0.0266492 0.0772037 0.029835 -0.0509603 -0.0673135 0.00290384 0.00365423 0.00649485 0.00869751 -0.00429876 -0.0369475 -0.053406 -0.0489798 -0.162497 -0.236736 -0.33716 -0.474334 -0.570499 -0.543254 -0.513274 -0.526954 -0.376986 -0.212355 -0.326708 -0.391191 -0.401364 -0.232738 -0.052091 -0.0377367 0.00801885 0.0230392 -0.00488433 -0.0267811 0.00237828 0.00366949 0.0023086 0.00824742 -0.000913261 -0.0470784 -0.0319121 -0.054368 -0.099879 -0.166302 -0.28845 -0.390851 -0.440154 -0.332452 -0.330266 -0.281849 -0.103169 -0.0753117 -0.261552 -0.272979 -0.394206 -0.229626 -0.0794714 -0.0801052 -0.0315012 0.0166185 -0.00203971 0.00031235 0.00039861 0.00501892 0.000927835 0.0113822 0.0091448 -0.0529614 -0.0428674 -0.0509007 0.019029 -0.145579 -0.0785544 -0.101618 -0.170721 -0.126826 -0.0245891 0.00929338 -0.00339052 -0.10488 -0.274189 -0.349948 -0.371686 -0.262538 -0.149524 -0.128738 -0.0447148 0.00668969 0.0278143 0.00451193 0.00430313 0.00610696 0.00515464 0.00270446 -0.00173408 -0.0475684 -0.0805965 -0.0161166 -0.0376119 -0.0384443 0.0406216 0.0605146 0.0754064 0.0654125 0.112356 0.0636246 -0.0596069 -0.181506 -0.246777 -0.349368 -0.353688 -0.336981 -0.266583 -0.177605 -0.0163746 0.00128298 0.0125952 0.0174665 0.00435452 0.000618557 0.00298969 0.00793814 -0.0038407 -0.0327383 -0.0818836 -0.0532273 -0.0193124 0.00400174 0.0466732 0.0365831 0.0548466 -0.0172942 -0.0608511 -0.125969 -0.189728 -0.184053 -0.219577 -0.376567 -0.371662 -0.332825 -0.258591 -0.109162 -0.0143662 -0.0172431 0.0184499 0.034634 0.0130336 0.00329897 0.00134021 0.00989691 -0.000533941 -0.0236258 -0.0433455 -0.0323632 -0.00502538 0.00779385 0.0613283 0.0842776 -0.0340136 -0.0974496 -0.119365 -0.0908917 -0.179288 -0.147937 -0.180652 -0.258094 -0.292756 -0.302619 -0.257904 -0.147683 -0.0458947 0.0147368 0.017157 0.0212623 0.0150866 0.00979381 0.00927835 0.0085567 -0.00435379 -0.0177541 -0.00903658 0.0154736 0.0250242 -0.0159685 -0.0504651 0.0116391 0.0878652 0.0663986 -0.00159989 -0.03964 -0.0931607 -0.0437779 -0.0269272 -0.137181 -0.286488 -0.281781 -0.24004 -0.116367 -0.0396929 0.0164137 0.0294713 0.0160496 0.00469826 0.00175258 0.00814433 0.01 0.00159679 -0.014805 -0.00346743 0.0497982 0.0367392 0.021907 -0.0494517 -0.0534446 -0.0303613 -0.00203956 0.0867291 0.0524962 0.0813999 0.122252 0.016034 -0.0231452 -0.14156 -0.135849 -0.0566481 -0.0333077 -0.0118431 0.00556785 0.018785 0.00508144 0.000206186 0.0085567 0.00484536 0.00268041 0.000827144 -0.000116083 0.0109873 0.0169098 0.0126861 0.0537326 0.0504367 0.099856 0.104679 0.138004 0.187385 0.183757 0.180765 0.223264 0.229083 0.179622 0.101172 0.0485975 0.0136013 0.0279554 0.0267724 0.0183736 0.0195414 0.00206186 0.00216495 0.00402062 0.0042268 0.0071134 0.00824742 0.00018585 -0.0013296 -0.00982302 -0.00826 0.0248114 0.0644125 0.0726231 0.0614416 0.0760212 0.106255 0.119827 0.137869 0.157033 0.150473 0.126944 0.0862675 0.0704208 0.0173662 0.00474333 -0.000984896 0.00295804 0.00430951 0.000309278 0.00865979 0.00979381 0.00154639 0.00381443 0.00525773 0.00783505 0.0014433 0.00848774 0.0049308 0.00855518 0.0103387 0.00999565 0.0118431 0.0170545 0.0291777 0.0214642 0.026874 0.0246792 0.0328773 0.0264373 0.036173 0.0116941 -0.00038614 0.00421345 -0.00824015 0.00623036 0.00639175 0.00298969 0.00762887 0.00721649 0.00505155 0.000103093 0.00164948 0.00103093 0.00762887 0.00329897 0.00783505 0.00340206 0.0056701 0.00989691 0.00824742 0.00298969 0.00843552 0.00659164 0.0043299 0.00391753 0.0056701 0.00206186 0.00752577 0.00958763 0.00876289 0.000206186 0.00742268 0.00360825 0.000515464 0.0043299 0.00969072 0.00969072 0.00804124 0.00505155 0.00175258 0.000412371 0.000103093 0.0102062 0.00546392 0.00290462 0.0134774 0.0110032 0.0206911 0.0163087 0.00947766 -0.00180896 -0.0215163 -0.0138721 -7.67638e-05 0.00694825 0.00400168 0.000769983 0.00776775 0.00301262 0.0100964 0.0102634 0.00484536 0.00814433 0.00989691 0.00443299 0.00402062 0.00680412 0.00226804 0.00783505 0.00845361 0.00824742 0.00989691 0.0151744 0.0174698 0.0246037 0.0414106 0.048448 0.0454326 0.0344898 0.0147289 -0.00322381 0.0133385 0.0413217 0.0548557 0.000220685 0.0113303 0.0197201 0.0175092 0.0172623 0.0117379 0.0104331 0.00917526 0.00556701 0.0056701 0.00340206 0.00257732 0.00316429 0.00314939 -0.0213231 -0.0222491 -0.0531268 -0.0293303 0.0690318 0.0403169 0.0755563 0.147733 0.140158 -0.0363937 -0.0808095 -0.025593 0.0517014 0.0162197 -0.0740464 -0.0983501 -0.0389364 -0.0010449 0.00792645 0.0101637 0.015781 0.00195245 0.00690722 0.00443299 0 0.00494845 -9.88819e-06 -0.022369 -0.0718826 -0.112731 -0.175073 -0.220501 -0.134321 -0.151765 -0.0816526 -0.0938365 -0.305049 -0.397401 -0.337298 -0.246848 -0.0660826 -0.0888325 -0.152477 -0.0812149 -0.0363278 -0.10062 -0.0610874 -0.0318145 0.000452271 0.00627636 0.00670103 0.00391753 0.00587629 0.00175258 -0.00602907 -0.0381188 -0.142069 -0.22425 -0.242888 -0.163547 -0.123636 -0.0107725 -0.110785 -0.234968 -0.437061 -0.440749 -0.545418 -0.62009 -0.499493 -0.379345 -0.529132 -0.356394 -0.207043 -0.238732 -0.215209 -0.0833502 -0.0190277 0.0067361 0.00022555 0.00773196 0.00278351 0.0205004 0.0215469 -0.0727017 -0.200586 -0.18699 -0.24939 -0.224976 -0.298584 -0.139676 -0.0775469 -0.126706 -0.0474635 0.000103148 -0.0256726 -0.148482 -0.107137 -0.0406749 -0.145929 -0.217435 -0.28419 -0.306858 -0.221787 -0.0619433 0.00453886 0.0179339 0.00907639 0.00134021 0.00226804 0.0291833 0.0250812 -0.128424 -0.245203 -0.16949 -0.159352 -0.30489 -0.156997 0.21612 0.302634 0.374095 0.413061 0.281599 0.108417 0.338192 0.211099 0.135061 -0.0407953 0.0839287 -0.110597 -0.108134 -0.152037 -0.0704862 -0.00181848 0.00919765 0.0117525 0.000798969 0.0198666 0.0488548 0.0379163 -0.0661908 -0.196343 -0.191448 -0.138386 -0.0969286 0.146305 0.498755 0.605928 0.600389 0.642786 0.75818 0.532875 0.210636 0.0816301 -0.0329162 -0.290215 -0.221936 -0.160493 -0.0365706 -0.0513559 -0.0423543 -0.0167999 0.00547743 0.00359531 0.00927835 0.0305905 0.0322799 0.0507249 -0.0155422 0.00483141 0.063907 -0.0422607 -0.0239936 0.492188 0.910724 1.07758 0.918709 0.721426 0.662012 0.221614 0.0601928 -0.0207997 -0.126281 -0.549509 -0.431293 -0.114213 0.0334519 -0.0656329 -0.0471459 -0.0233452 -0.000843113 0.0125974 0.00979381 0.0154758 0.0362171 0.0767304 0.0578368 0.160703 0.259798 -0.00621453 0.231926 0.46801 0.890572 0.712617 0.357099 0.204175 0.154804 -0.172152 -0.119572 -0.338534 -0.426025 -0.747317 -0.412097 0.0964933 0.000783915 -0.146843 -0.087227 -0.00594012 0.00642487 0.00794308 0.00134021 0.0155331 0.0580602 0.0492726 0.0924315 0.143639 0.091662 -0.0390724 0.14682 0.145021 0.166758 -0.172671 -0.684114 -0.639575 -0.54263 -0.618753 -0.436684 -0.451189 -0.376577 -0.524099 -0.199168 0.109848 0.0673014 -0.193411 -0.136487 -0.0139549 -0.00952067 -0.000285923 0.000206186 0.0221117 0.0575928 0.0849699 0.130921 -0.0177764 -0.173735 -0.265104 -0.0614331 -0.304764 -0.596013 -1.01426 -1.41689 -1.37975 -1.01717 -0.822969 -0.570634 -0.497429 -0.269251 -0.274239 -0.308823 -0.0539519 -0.0314117 -0.224308 -0.128091 0.0429089 0.0398166 0.0053733 0.00257732 0.0139567 0.0345962 0.0530103 0.0208413 -0.124423 -0.417279 -0.418898 -0.43557 -0.548298 -0.774701 -1.12814 -1.49206 -1.32339 -0.805056 -0.847309 -0.686562 -0.478378 -0.341502 -0.287115 -0.226372 -0.128797 -0.0859217 -0.158078 0.00348326 0.113044 0.0659409 0.0168085 0.000721649 -0.00227826 0.0167741 -0.011875 -0.14169 -0.241292 -0.369627 -0.287557 -0.288265 -0.356533 -0.628961 -1.13244 -1.41662 -1.04326 -0.689966 -0.620745 -0.470269 -0.394464 -0.213741 -0.242769 -0.0930432 -0.122415 -0.0200875 -0.0795329 0.0344918 0.138639 0.0907342 0.00483352 0.00917526 -0.00523719 -0.00441503 -0.0386481 -0.18855 -0.215092 -0.197543 -0.277465 -0.227458 -0.225189 -0.380249 -0.71254 -0.833833 -0.597177 -0.464466 -0.248413 -0.108721 -0.111564 -0.146826 -0.238265 -0.20292 -0.0917858 -0.0927721 -0.0906086 0.113323 0.133182 0.0583693 0.00964425 0.00391753 -0.00254292 -0.00727541 -0.0476924 -0.108526 -0.13698 -0.154585 -0.121817 -0.029114 -0.0203321 -0.190222 -0.530774 -0.455143 -0.302967 -0.281237 -0.174884 0.0936591 -0.0986375 -0.188961 -0.247862 -0.129437 -0.0216244 -0.0466015 -0.0877203 0.0926297 0.20282 0.0914069 0.0158207 0.00587629 0.00784202 -0.0127769 -0.0341252 0.00580156 0.0359516 -0.0493474 -0.103819 -0.0639787 0.0870177 0.0531098 0.025974 0.248841 0.180965 0.144566 0.239883 -0.129525 -0.277861 -0.312425 -0.541826 -0.30413 -0.134296 -0.119804 -0.0742128 0.23813 0.307639 0.0953711 0.00991308 0.00853723 0.00175258 -0.005731 -0.0600049 0.100494 0.0424306 -0.0753233 -0.069947 -0.0965226 -0.00303928 0.0360563 0.31334 0.442726 0.431853 0.372988 0.00962233 -0.338359 -0.238718 -0.448778 -0.302523 -0.114876 -0.173858 -0.236159 0.0254856 0.318025 0.219709 0.0531759 0.0127613 0.0042268 0.00478034 -0.0057888 -0.130934 0.0322291 -0.0626132 -0.0553282 -0.111352 -0.0541776 0.0303705 0.17735 0.410224 0.58251 0.636154 0.479158 0.030238 -0.353945 -0.471278 -0.512523 -0.231696 -0.169527 -0.283302 -0.11319 0.226951 0.297812 0.140095 0.0297019 0.00667595 0.00804124 0.00414451 -0.00699917 -0.0929006 -0.0471041 0.0538848 -0.057295 -0.161182 -0.145194 -0.131087 0.0223664 0.282846 0.362614 0.27723 0.112423 -0.272226 -0.498376 -0.732887 -0.523446 -0.324999 -0.243569 -0.0411384 0.111603 0.283437 0.288508 0.0767361 0.00355194 0.00701031 0.00762887 0.00257732 -0.0155972 -0.103121 -0.127031 -0.0627259 -0.0809225 -0.127437 -0.112958 -0.0881769 -0.199004 -0.138107 -0.163072 -0.0972977 -0.329891 -0.615076 -0.567024 -0.556736 -0.527593 -0.39745 -0.261568 0.0924577 0.25209 0.328172 0.215948 0.0527947 0.00881248 0.000618557 0.00350515 0.000515464 -0.00276398 -0.0773657 -0.133368 -0.163943 -0.212089 -0.215197 -0.05408 -0.0347156 -0.210125 -0.428638 -0.36343 -0.466361 -0.60001 -0.533554 -0.505412 -0.493126 -0.382095 -0.241788 -0.0561162 0.142096 0.192647 0.190771 0.111819 0.0414399 0.00963017 0.0085567 0.00845361 0.00515464 -0.0206818 -0.0882985 -0.0749066 -0.092606 -0.185058 -0.340463 -0.272143 -0.132544 -0.109754 -0.256636 -0.334672 -0.642902 -0.606614 -0.460884 -0.352853 -0.323363 -0.251775 -0.0974441 -0.082014 0.120978 0.152967 0.106214 0.0700808 0.017172 0.0081185 0.00103093 0.000103093 0.0071134 -0.0288124 -0.059969 -0.0401973 0.0496574 0.00399517 -0.136143 -0.205332 -0.206124 -0.323173 -0.378222 -0.267554 -0.280025 -0.269102 -0.0195464 -0.186956 -0.125939 -0.102371 -0.0587449 0.0253762 0.0895009 0.0792392 0.0392626 0.0452103 0.010163 0.00154639 0.00969072 0.00608247 0.00896907 -7.62436e-05 -0.00868437 0.00396318 0.0419785 0.0683814 0.123154 0.110004 0.150234 0.0731804 0.0841099 0.105457 0.157518 0.275612 0.300654 0.280729 0.238421 0.167007 0.12026 0.0653877 0.071733 0.0322648 0.0168474 0.016503 0.00556701 0.0102062 0.00247423 0.00649485 0.00247423 0.00680412 0.00720135 -0.000118074 0.00323774 0.0115244 0.0425588 0.0907965 0.11882 0.11726 0.165134 0.234473 0.233395 0.321982 0.316052 0.238934 0.128625 0.120743 0.146638 0.0664352 0.0459704 0.0098285 0.00112822 0.00816172 0.00845361 0.00278351 0.00226804 0.00340206 0.00515464 0.00938144 0.0057732 0.00783505 0.0073536 0.0119825 0.0114222 0.0154436 0.00750561 0.0107969 0.0205731 0.0276065 0.0312282 0.0601451 0.0574101 0.0659239 0.0373808 0.0378897 0.0209705 -0.0037398 0.00605162 0.0208317 0.00724259 0.000618557 0.000721649 0.00721649 0.000309278 0.00556701 0.00979381 0.00103093 0.00649485 0.0085567 0.00453608 0.00752577 0.00989691 0.00257732 0.00195876 0.00597938 0.00340206 0.00229348 0.00221815 0.00402062 0.00268041 0.00793814 0.00443299 0.00793814 0.00474227 0.00979381 0.00907216 0.00721649 0.00536082 0.00845361 0.00443299 0.0028866 0.00865979 0.000618557 0.00463918 0.00134021 0.00742268 0.00340206 0.00247423 0.00814433 0.000818746 0.00449896 0.0096536 0.00966128 -0.00203471 -0.011559 -0.00745828 0.00268819 0.00101257 -0.0011966 0.000592516 0.00653871 0.00720502 0.00763246 0.00246376 -0.00305406 0.00243963 0.00835052 0.0101031 0.00463918 0.00515464 0.00195876 0.00257732 0.00927835 0.00865979 0.00443299 0.00639175 0.00175258 0.0054026 0.0075925 -0.00507518 -0.0179555 -0.0390082 -0.0534733 -0.0398331 -0.031927 -0.0128372 -0.000400939 -0.0185959 -0.00611249 0.0116028 -0.000498968 -0.00236063 -0.00553796 -0.00190525 0.00310212 0.00331707 0.00278351 0.00783505 0.000824742 0.00804124 0.00484536 0.00730877 0.0107653 0.00790203 -0.00220032 -0.0171172 -0.038465 -0.0726139 -0.106406 -0.169008 -0.168419 -0.156938 -0.126578 -0.103185 -0.0894838 -0.0732993 -0.0385957 0.00107003 0.0209847 0.0184805 -0.000293767 -0.00679088 -0.00294589 0.0103416 0.0072806 0.00938144 0.000824742 0.0043299 0.00195876 0.00240058 0.0110624 0.00507626 -0.00388193 -0.0385269 -0.0934383 -0.158834 -0.191592 -0.220958 -0.29589 -0.360691 -0.35362 -0.363736 -0.353785 -0.311182 -0.187584 -0.0592333 -0.0448209 0.0891875 0.0930286 0.072337 0.0355743 0.0128853 0.0086063 0.00154639 0.00907216 0.00958763 0.00835052 0.0100128 -0.0037394 0.0172876 -0.0177319 -0.067234 -0.104756 -0.157575 -0.237594 -0.352038 -0.522045 -0.672199 -0.760193 -0.785125 -0.812023 -0.658193 -0.467487 -0.292187 -0.0891295 0.0372274 0.151919 0.163592 0.117783 0.0269884 0.00380018 0.00747325 0.00340206 0.00927835 0.00231549 0.0134338 0.00230118 0.0147479 0.0292084 -0.00829016 -0.11575 -0.243474 -0.304872 -0.457356 -0.656583 -0.776843 -0.84502 -0.897899 -0.914434 -0.842719 -0.572369 -0.287207 -0.096029 0.035492 0.201209 0.270451 0.240783 0.0864754 0.0264208 0.00748162 0.00690722 0.00814433 0.00662714 0.0189391 -0.0157141 0.00524909 0.00635099 -0.0661137 -0.227533 -0.350638 -0.362457 -0.479545 -0.570224 -0.699072 -0.728858 -0.771583 -0.684164 -0.592308 -0.489163 -0.286936 -0.103097 -0.0107706 0.173791 0.27726 0.24217 0.149183 0.051703 0.00665928 0.00377148 0.0115776 0.019918 0.0204907 -0.0177575 -0.0067667 -0.0547776 -0.15051 -0.283689 -0.380826 -0.483021 -0.452321 -0.520711 -0.55683 -0.375246 -0.417357 -0.381666 -0.349385 -0.286308 -0.375333 -0.231592 -0.0585564 0.053582 0.195288 0.247706 0.194129 0.048966 0.00265196 0.00597938 0.0137023 0.0146718 0.01141 0.00260966 0.0042706 -0.103971 -0.187187 -0.337256 -0.421558 -0.413946 -0.298149 -0.28206 -0.223693 -0.111615 -0.0101099 -0.0417428 -0.129731 -0.290631 -0.452648 -0.438794 -0.238977 -0.110126 0.0189052 0.177104 0.155542 0.0462694 0.00388006 0.00257732 0.0109477 0.00789565 0.0227053 0.0412101 -0.00317479 -0.108088 -0.268575 -0.292006 -0.32591 -0.2258 -0.163174 -0.0815513 -0.00602387 0.0765482 0.196017 0.0906281 -0.216792 -0.543174 -0.650012 -0.612842 -0.45727 -0.347385 -0.213642 0.0592401 0.126529 0.0326208 0.0028637 0.000309278 0.0115101 0.0246723 0.0353695 0.0394893 -0.0173308 -0.151732 -0.287396 -0.310932 -0.343405 -0.217078 -0.162504 -0.15619 -0.212833 -0.0367926 0.154458 0.00402695 -0.419787 -0.68417 -0.879839 -0.770291 -0.669359 -0.552243 -0.401747 -0.139807 0.052504 0.0106158 0.00703074 0.00814433 0.0141788 0.018583 0.0374022 0.0500467 -0.0534909 -0.154331 -0.212929 -0.241768 -0.34185 -0.249211 -0.308509 -0.411548 -0.435146 -0.209559 -0.051489 -0.236295 -0.571552 -0.716802 -0.832983 -0.731365 -0.672767 -0.585292 -0.490896 -0.25577 0.0057098 0.00835254 0.0078976 0.00206186 0.0100217 0.0170877 0.028046 0.0208756 -0.0661187 -0.16087 -0.198341 -0.230884 -0.245933 -0.334761 -0.513993 -0.599532 -0.643455 -0.437097 -0.38649 -0.444422 -0.556244 -0.649122 -0.61277 -0.439259 -0.429067 -0.445773 -0.452232 -0.241747 -0.0107096 0.000964967 0.00557607 0.00226804 0.00550447 0.00510975 0.0233894 0.00972977 -0.0815129 -0.140398 -0.209273 -0.16318 -0.280494 -0.470903 -0.738878 -0.687768 -0.629827 -0.41467 -0.304367 -0.352119 -0.530144 -0.466668 -0.277181 -0.231204 -0.259157 -0.245174 -0.302113 -0.18807 -0.0350884 0.00495021 0.00510798 0.00340206 0.0033544 0.0126406 0.0142725 -0.0130422 -0.141823 -0.171772 -0.259635 -0.290983 -0.418954 -0.643614 -0.707357 -0.620339 -0.481227 -0.270335 -0.192491 -0.283657 -0.428449 -0.307406 -0.207908 -0.228249 -0.173377 -0.172067 -0.141266 -0.124901 -0.0414344 -0.000987396 0.000701037 0.00391753 0.00142071 0.00102648 0.00665834 -0.0247226 -0.133855 -0.21999 -0.350477 -0.495975 -0.665855 -0.863344 -0.825866 -0.589197 -0.314479 -0.0711185 -0.0976265 -0.274866 -0.466681 -0.395959 -0.355971 -0.245602 -0.183816 -0.161261 -0.129822 -0.0834968 -0.0388631 0.00400663 -0.000410406 0.000927835 0.00133241 0.00497706 -0.00070898 -0.0270936 -0.0778806 -0.189683 -0.418295 -0.676002 -0.956944 -1.06819 -0.903172 -0.534854 -0.167869 0.100408 0.0529494 -0.234674 -0.480879 -0.471295 -0.480573 -0.338651 -0.252391 -0.214873 -0.118871 -0.0526243 -0.0342437 0.000495141 -0.00110852 0.00500731 0.00268041 0.00695208 0.00157728 -0.0188981 -0.0952837 -0.202194 -0.466179 -0.7587 -0.972638 -1.06273 -0.779186 -0.48261 -0.10335 0.118469 -0.062695 -0.339375 -0.512545 -0.600628 -0.548434 -0.314909 -0.278582 -0.267092 -0.111005 -0.0282682 -0.0196645 -0.000903788 0.00955521 0.00164948 0.00588694 0.0109196 -8.39207e-05 -0.0126281 -0.132606 -0.195418 -0.4466 -0.657188 -0.768658 -0.848618 -0.632112 -0.465368 -0.14214 -0.101822 -0.250792 -0.450878 -0.60369 -0.668287 -0.538422 -0.346926 -0.349476 -0.262398 -0.0659232 0.0238995 0.00522949 0.0021393 0.0110843 0.00969072 0.00162469 -0.00352881 -0.0110822 -0.0374609 -0.0990952 -0.179797 -0.404703 -0.51266 -0.600986 -0.647023 -0.501889 -0.457099 -0.358227 -0.340348 -0.46855 -0.467075 -0.483031 -0.466616 -0.43443 -0.352408 -0.27703 -0.131796 -5.35993e-05 0.0274687 0.00887759 0.00333852 0.00268041 0.00814433 0.000206186 -0.000643822 -0.0106382 -0.0176318 -0.0230071 -0.0901526 -0.24173 -0.343659 -0.445979 -0.491345 -0.581758 -0.655672 -0.664615 -0.629919 -0.574823 -0.543217 -0.45771 -0.413834 -0.339445 -0.212499 -0.0747369 -0.0339672 0.0171151 0.0325246 0.0134488 -0.00276366 0.00443299 0.00752577 0.00237113 0.000136466 -0.00536184 0.0172479 0.011327 -0.0748265 -0.182793 -0.247468 -0.318786 -0.502613 -0.632353 -0.833263 -0.825288 -0.722171 -0.579948 -0.448831 -0.299941 -0.199986 -0.140268 -0.0546216 0.00130552 0.00839652 0.0265665 0.0191407 0.0154797 0.00913452 0.0056701 0.00752577 0.00319588 0.00306232 -0.00267775 0.0268156 0.0331758 -0.000322265 -0.109789 -0.225445 -0.246421 -0.314976 -0.427292 -0.576487 -0.682765 -0.577838 -0.394353 -0.234151 -0.145417 -0.11925 -0.0717075 -0.0071241 -0.00221515 0.00467908 0.00258972 0.0220531 0.0125623 0.00818601 0.00195876 0.00103093 0.00618557 0.0022453 0.00143072 -0.000834587 0.0364724 0.0519527 0.0051893 -0.0972733 -0.138493 -0.185521 -0.212363 -0.276374 -0.282265 -0.221749 -0.136336 -0.119428 -0.0104555 -0.0352011 -0.0407923 -0.00439306 0.0133152 0.0179386 -0.00336579 0.0103823 0.00768065 0.00216495 0.00412371 0.00268041 0.00670103 0.000312046 0.000494562 0.0080941 0.01739 0.0236052 0.0459118 0.0432484 0.0280668 -0.0269344 -0.0134761 0.00538914 0.0286298 0.011219 0.0350697 0.0298461 0.0278065 -0.0064992 -0.0245664 -0.00763466 0.0173164 0.019878 0.0160866 0.0102934 0.00731959 0.00206186 0.00371134 0.00463918 0.00608247 0.00927835 0.00436765 0.000625495 0.000528996 0.0051909 0.00179534 0.00483546 -0.00228655 -0.0102112 -0.0101319 -0.00300748 -0.000832817 -0.00760256 0.0247022 0.0128558 0.0239659 0.00809006 0.0148099 0.00110366 0.0117809 0.0136371 0.00490031 0.00877587 0.00597938 0.00164948 0.000721649 0.00463918 0.000927835 0.00824742 0.00175258 0.0057732 0.00213115 0.00680447 0.0023078 0.0019062 -0.00199396 0.00243277 0.00362917 0.00101628 -0.002217 0.00263675 0.0203187 0.0248327 0.0192285 0.0100877 0.00689339 0.00512234 0.00363392 0.0182937 0.00550499 0.0085567 0.000721649 0.000927835 0.00360825 0.000103093 0.00773196 0.00494845 0.00164948 0.000206186 0.000412371 0.00474227 0.0071134 0.00360825 0.00268041 0.00268041 0.00360825 -0.00151628 -0.00484855 0.00103093 0.00917526 0.00309278 0.00886598 0.00752577 0.00381443 0.000927835 0.00515464 0.00206186 0.00587629 0.01 0.00989691 0.00587629 0.00113402 0.00752577 0.00298969 0.00154639 0.00896907 0.000515464 0.00350515 0.00886598 0.00254579 0.0144074 0.0140982 0.00266848 -0.0129856 -0.0168403 -0.0156514 -0.020306 -0.0204678 -0.00774337 0.0022249 0.00560879 -0.00188009 0.00614211 -0.000368971 -0.00360448 -0.000839463 0.00752577 0.00948454 0.00917526 0.00628866 0.00298969 0.00103093 0.00608247 0.00443299 0.00123711 0.00484536 0.000206186 0.00373202 0.035522 -0.0093128 -0.0340484 -0.0680458 -0.152153 -0.162728 -0.161916 -0.129332 -0.0671379 -0.0124162 0.0193487 0.0312943 0.00772855 -0.0181323 -0.00689547 0.000934905 0.0154212 0.0127431 0.00391753 0.00762887 0.00103093 0.00154639 0.00371134 0.000258085 0.0135613 0.00183392 -0.00926357 -0.0273428 -0.0934776 -0.114039 -0.202666 -0.337251 -0.293445 -0.371685 -0.376677 -0.347963 -0.223553 0.011831 0.0691299 0.0148322 0.0378821 -0.00451735 -0.047615 -0.0441102 -7.92263e-05 0.0213159 -0.00136182 0.00938144 0.00804124 0.00175258 0.00381443 0.00689348 -0.00845433 -0.04475 -0.0631414 -0.0990898 -0.154237 -0.113803 -0.173682 -0.12293 -0.211182 -0.418185 -0.497131 -0.384293 -0.292936 -0.175549 -0.167216 -0.217728 -0.192695 0.0587794 -0.0501512 -0.0100434 0.0630874 0.027248 0.0110298 0.00670103 0.00608247 0.000927835 0.000309278 0.00733944 -0.00847012 -0.0431351 -0.0495139 -0.0165868 0.0283826 0.0567829 0.0130583 0.066656 -0.0604228 -0.436899 -0.580327 -0.635505 -0.539064 -0.354232 -0.476656 -0.409876 -0.104699 -0.137729 -0.0603185 -0.00207259 0.0925996 0.0816916 0.0108244 0.00315315 0.00804124 0.00103093 0.0115233 0.031867 0.0578243 0.0381359 0.212322 0.22861 0.284696 0.2908 0.342322 0.0777316 -0.154351 -0.445648 -0.753606 -0.909807 -1.05708 -0.750858 -0.466203 -0.113995 0.00389922 0.113848 0.206959 0.322648 0.339856 0.19299 0.0651823 0.00336012 0.00402062 0.00329897 0.0211711 0.0776007 0.0950108 0.152044 0.416371 0.479114 0.470297 0.295414 0.344743 -0.0113877 -0.314467 -0.747514 -1.06148 -0.984371 -0.828224 -0.387148 -0.151989 -0.0367269 0.281585 0.245116 0.480443 0.551006 0.447289 0.262719 0.0666168 0.00932419 0.00665835 0.0270726 0.0580475 0.133199 0.153157 0.259662 0.471442 0.596309 0.339427 0.303634 0.1791 0.121795 -0.0598049 -0.412588 -0.426606 -0.401389 -0.246028 0.100405 0.286307 0.0646368 0.419694 0.43929 0.554848 0.633549 0.582204 0.353178 0.0973416 0.0105558 0.00608247 0.03116 0.0442353 0.160611 0.271452 0.403517 0.491643 0.473573 0.170879 0.0578287 0.00283707 0.131958 0.0598848 -0.00776732 0.00221259 -0.0649125 0.142604 0.317198 0.313992 0.11954 0.226742 0.429869 0.484681 0.45702 0.584615 0.392894 0.119723 0.0157123 0.00701031 0.0246232 0.0684372 0.20853 0.310014 0.447957 0.56467 0.381467 0.199826 0.127524 0.100084 0.0850455 0.0770483 0.144758 0.204692 0.114304 0.103934 -0.0815819 -0.114965 -0.249916 -0.110838 0.0636217 0.0564314 0.0767337 0.376448 0.35843 0.0979914 0.0188775 0.00164948 0.0383841 0.121972 0.202452 0.224831 0.162632 0.165363 0.0860223 0.0562884 0.0124382 -0.0437903 -0.167712 -0.147842 -0.15011 -0.0299756 -0.00563809 -0.195009 -0.582098 -0.693296 -0.697234 -0.650259 -0.57534 -0.400094 -0.292669 0.0182041 0.207115 0.0578845 0.00679391 0.00886598 0.0440415 0.136737 0.205375 0.131319 -0.0703004 -0.225872 -0.185405 -0.0875212 -0.212633 -0.102326 -0.353181 -0.542122 -0.581112 -0.287855 -0.235119 -0.359191 -0.63905 -0.781113 -1.0587 -0.898713 -0.82994 -0.710033 -0.718375 -0.342959 0.0714494 0.0433191 0.0106276 0.00731959 0.0130152 0.0839212 0.109403 -0.118632 -0.305382 -0.398259 -0.530108 -0.635182 -0.372355 -0.386222 -0.399141 -0.757187 -1.06142 -0.762315 -0.737339 -0.590702 -0.460283 -0.450437 -0.68434 -0.53459 -0.541909 -0.564459 -0.694809 -0.332896 0.0700903 0.0573538 0.00130307 0.000412371 -0.000909543 0.0397768 0.00677298 -0.202328 -0.391081 -0.587624 -0.665609 -0.598955 -0.625376 -0.580285 -0.769934 -1.13481 -0.992355 -0.718519 -0.565221 -0.314783 -0.0628496 0.0928021 0.119336 -0.0998079 -0.268363 -0.259908 -0.362955 -0.266329 0.0478793 0.056668 0.00415304 0.00969072 -0.0014956 0.0141725 -0.042544 -0.214601 -0.507407 -0.565984 -0.611892 -0.567225 -0.590286 -0.947568 -1.14909 -1.13598 -0.667103 -0.463555 -0.0786606 0.00448188 0.144689 0.228117 0.236232 0.036344 -0.0469864 -0.0280236 -0.0830439 -0.118907 0.0107921 0.0468529 0.00991066 0.00443299 -0.000638697 0.0136084 -0.0374635 -0.175916 -0.484289 -0.506727 -0.483343 -0.621826 -0.819101 -1.19741 -1.37667 -0.726543 -0.291824 -0.141696 0.158649 0.0296986 -0.211903 -0.036482 0.132289 0.0827352 0.0788574 0.064708 -0.0221004 -0.0833305 0.0165265 0.0426499 0.00677528 0.00402062 0.00613198 0.00329031 0.00341302 -0.0669788 -0.179331 -0.177613 -0.369241 -0.754442 -1.13628 -1.53064 -1.15103 -0.49307 -0.108246 0.100849 0.209671 -0.169328 -0.541542 -0.290726 -0.138183 -0.0832645 -0.0553372 -0.0557222 0.0701837 0.102244 0.0856887 0.0392644 0.00229066 0.0141383 0.000206186 0.00680673 0.00411662 0.0372185 0.00622766 -0.0419054 -0.331446 -0.603399 -0.890594 -1.12054 -0.764846 -0.294677 0.00120355 0.0396951 -0.143121 -0.487807 -0.480267 -0.426077 -0.254273 -0.00618549 -0.10766 -0.153908 0.149919 0.230869 0.0792195 0.0233407 0.0078398 0.00474227 0.0114654 0.00769959 -0.0310814 0.103896 0.0770728 0.162545 -0.284569 -0.358571 -0.392369 -0.553144 -0.491039 -0.183424 0.0263933 -0.199853 -0.340584 -0.659475 -0.56774 -0.567187 -0.402951 -0.272974 -0.280169 -0.164534 0.18569 0.2658 0.0793586 0.0310131 0.00914945 0.00474227 0.00146829 -0.0081679 -0.0176833 0.02813 0.0964894 0.111307 -0.0396819 -0.0508368 -0.119057 -0.186289 -0.132013 -0.0355448 -0.164958 -0.437039 -0.533526 -0.716347 -0.649194 -0.357446 -0.377066 -0.431528 -0.184564 0.112382 0.208605 0.196469 0.0528868 0.0105486 0.00907216 0.000618557 0.00907216 -0.0134374 -0.0352891 -0.0664891 -0.0497386 0.0501456 0.0590545 0.0603007 -0.104052 -0.319803 -0.424293 -0.283659 -0.451466 -0.474791 -0.4548 -0.494944 -0.484289 -0.332911 -0.259922 -0.223701 0.0725202 0.181904 0.137788 0.109692 0.0545063 0.00403326 0.00628866 0.00505155 0.0101031 -0.00930117 -0.0165023 -0.0384566 -0.127089 -0.073327 0.165667 0.308892 0.132014 -0.287334 -0.507658 -0.445134 -0.364957 -0.496928 -0.282766 -0.192037 -0.12767 -0.100581 -0.0773059 -0.0915344 0.0779649 0.103852 0.0378838 0.0480224 0.046129 0.00976443 0.00195876 0.00237113 0.00402062 -0.00670343 -0.0271986 0.0175721 -0.0143139 -0.0648222 0.0247799 0.100075 0.0300537 0.00828383 -0.15047 -0.329765 -0.284288 -0.198034 0.00776726 0.109037 0.150597 0.0440242 -0.0987928 -0.178143 -0.0273997 -0.0211056 -0.0493205 0.0235296 0.0251926 0.00306323 0.00484536 0.00350515 0.00360825 -0.00207141 -0.0106475 0.0129647 0.055074 -0.0539101 -0.0422004 -0.115405 -0.168746 -0.0708365 0.0528782 0.122842 0.0544996 0.166507 0.215375 0.166173 0.0730601 -0.0497368 -0.203487 -0.190868 -0.0552766 -0.0495428 -0.0891749 -0.0081136 -0.000688578 0.00371134 0.00845361 0.00350515 0.00113402 0.00332706 0.0022927 0.0322942 0.00415903 -0.0334148 -0.0257709 0.00798911 -0.0212924 0.102521 0.130951 0.250895 0.190942 0.127702 0.234195 0.222442 0.161345 0.0314124 -0.13112 -0.124481 -0.020008 0.0211061 -0.0274569 0.0117651 0.00907216 0.000618557 0 0.00206186 0.00474227 0.00670103 0.00940116 0.00153549 -0.0472926 -0.0944421 -0.0494748 0.030492 0.0140343 -0.0455966 -0.0883584 0.00471119 0.039306 -0.0230167 0.0514 0.100865 0.165602 0.0827239 0.0165779 -0.049959 -0.00708211 0.0195826 0.00282385 0.00264158 0.00783505 0.00896907 0.00402062 0.00721649 0.0042268 0.00484536 0.00608247 0.00536082 0.0114414 0.00728306 0.00532137 0.00570022 -0.00255555 0.0213989 0.00522089 0.00808207 0.0207203 0.0124603 0.0481534 0.0809184 0.0748906 0.085096 0.00865416 -0.00666914 0.00274506 0.0266704 0.0066423 0.00412371 0.0102062 0.00979381 0.00391753 0.00721649 0.00123711 0.00195876 0.000618557 0.00463918 0.00329897 0.00484536 0.00185567 0.00350515 0.00876289 0.000618557 0.00773196 -7.9201e-05 0.00633847 0.0085567 0.00989691 0.00474227 0.00958763 0.00649485 0.00391753 0.00752577 0.00175258 0.0056701 0.000309278 0.00927835 0.00969072 0.00721649 0.00804124 0.0028866 0.00195876 0.00927835 0.000824742 0.00845361 0.000927835 0.00329897 0.0054773 0.00271431 0.0084875 0.000584161 -0.00152326 -0.00291868 -0.0125132 0.00159916 -0.00363684 0.00105275 0.00745774 -0.00125826 0.00729757 0.00945288 -0.00119664 -0.00178294 0.00437486 0 0.00536082 0.00907216 0.00701031 0.00701031 0.00474227 0.00979381 0.00762887 0.0085567 0.00494845 0.00257732 0.00323079 0.015449 -0.0019874 -0.021828 -0.0462008 -0.0611488 -0.0476141 -0.0327608 -0.0156809 -0.00703745 -0.018897 0.000578499 0.0234929 0.00986613 -0.00696971 -0.00311313 0.00400608 0.00650952 0.000330941 0.00608247 0.00865979 0.00206186 0.00907216 0.000721649 0.00703128 0.00185501 0.00232713 0.00432213 -0.0157776 -0.0341718 -0.0883774 -0.132164 -0.201994 -0.215077 -0.215433 -0.170221 -0.123492 -0.113922 -0.0788792 -0.0224979 0.0201078 0.0484599 0.0380122 0.0163138 -0.00143924 0.00149564 0.00786942 0.00742477 0.00793814 0.00680412 0.00608247 0.00649485 0.00219735 0.0110414 0.00317398 -0.0114848 -0.0479147 -0.108929 -0.19686 -0.243143 -0.290524 -0.395667 -0.469512 -0.47877 -0.46956 -0.442232 -0.372416 -0.235915 -0.0742481 -0.0133431 0.122175 0.124068 0.0924213 0.0549426 0.0178225 0.00958741 0.01 0.00505155 0.00876289 0.0056701 0.00434648 0.0040169 0.0141916 -0.0337647 -0.102872 -0.139293 -0.205889 -0.32899 -0.454057 -0.620363 -0.76914 -0.891835 -0.901825 -0.923297 -0.741383 -0.535671 -0.318299 -0.137872 -0.00355431 0.125695 0.152403 0.114136 0.0324834 0.00933393 0.00475244 0.00134021 0.00917526 0.00781443 0.0171066 0.0211674 0.0293681 0.0414043 0.00933517 -0.0911695 -0.251248 -0.301883 -0.46966 -0.6807 -0.844613 -0.897242 -0.954159 -0.933766 -0.799034 -0.557522 -0.316146 -0.14833 0.0210722 0.183359 0.248149 0.198736 0.0697149 0.0214401 0.0105241 0.000721649 0.00371134 0.0144945 0.0395154 0.0106612 0.0261895 0.0394059 0.00234165 -0.181728 -0.284883 -0.279254 -0.434198 -0.561964 -0.735089 -0.771073 -0.784552 -0.649294 -0.49131 -0.387103 -0.23036 -0.0508276 0.0173412 0.194305 0.293211 0.206695 0.124082 0.0438366 0.0083793 0.00624748 0.0159678 0.0274165 0.0564931 0.0161518 0.0143968 -0.0279687 -0.0732663 -0.18942 -0.259042 -0.378017 -0.360679 -0.440766 -0.513934 -0.34115 -0.330822 -0.273034 -0.219101 -0.12421 -0.227903 -0.120784 0.0359711 0.1694 0.25841 0.234157 0.143043 0.0413099 0.00764557 0.00463918 0.0144559 0.0230478 0.0470676 0.0522546 0.0416518 -0.0342723 -0.125373 -0.247927 -0.342574 -0.339505 -0.240769 -0.195351 -0.139079 -0.00171717 0.0652802 0.0812353 0.0360802 -0.0994981 -0.194335 -0.210751 -0.0340914 0.0518914 0.108412 0.169605 0.124386 0.0321344 0.00769296 0.00175258 0.00961772 0.0254186 0.0616054 0.0806012 0.0621042 -0.0263079 -0.163116 -0.182496 -0.190723 -0.109172 -0.0669533 0.0434299 0.156594 0.202087 0.267633 0.193666 -0.0271642 -0.30718 -0.384179 -0.343432 -0.207803 -0.122799 -0.113388 0.0781048 0.109201 0.0277031 0.00564247 0.00649485 0.0174952 0.0467049 0.0667054 0.078829 0.0391629 -0.0466791 -0.106602 -0.133264 -0.142771 0.0216212 0.0877855 0.0690716 -0.00691063 0.0630472 0.191575 0.0552055 -0.230072 -0.451813 -0.623965 -0.507455 -0.410594 -0.318973 -0.26274 -0.0895124 0.0272193 0.0130425 0.0122626 0.00463918 0.0215474 0.0447314 0.0853702 0.094501 0.0538543 0.00232298 0.0070738 -0.0163387 -0.113726 0.0239922 -0.0169546 -0.211687 -0.394481 -0.265945 -0.0692747 -0.151757 -0.356242 -0.452884 -0.640372 -0.519759 -0.449215 