0.00402062 0.000309278 0.00948454 0.00701031 0.000721649 0.00896907 0.000618557 0.00927835 0.00329897 0.00917526 0.00814433 0.000206186 0.0415728 0.0815704 0.0038843 0.00773055 0.00443299 0.0042268 0.00216495 0.00463918 0.00164948 0.00164948 0.00989691 0.0085567 0.00969072 0.00938144 0.00804124 0.0085567 0.00783505 0.00701031 0.00536082 0.00453608 0.00206197 0.0110922 0.0154225 0.0794746 0.271076 0.296934 0.561442 0.699977 0.962235 0.802315 0.398573 0.208638 -0.105278 0.522282 0.43357 0.282408 0.255922 0.186034 0.158841 0.0547818 0.0057732 0.00298969 0.0102062 0.00134021 0.00958763 0.00113402 0.0101031 -0.00356476 0.0712537 0.0754969 0.121585 0.313042 0.773092 0.949106 2.04805 3.19352 3.65076 3.81055 3.1619 3.20902 4.32858 4.71191 4.69801 4.21208 2.76218 1.55454 1.00187 0.363807 -0.115752 -0.131323 0.00309278 0.00494845 0.00639175 0.0057732 0.0089529 0.00829317 0.185085 0.359161 0.380163 -0.0991673 -0.540239 -2.88675 -1.23128 0.640981 3.08231 5.44613 11.8245 14.6198 14.6366 17.7309 20.9912 20.433 16.9635 11.1376 7.26599 3.58333 1.79002 0.34531 0.0980056 0.000824742 0.00618557 0.00753128 0.012787 0.0347722 0.16884 0.63385 0.30835 -1.69712 -4.18928 -5.82537 -4.6755 -11.5334 -24.7853 -40.3508 -49.6713 -47.0812 -36.022 -17.5687 6.07975 18.9302 22.3186 29.9016 26.7219 18.9141 10.0859 2.61082 0.389554 0.0399233 0.01 0.00979381 -0.00306985 0.309598 1.05656 2.17225 1.49867 -1.28408 -5.89224 -12.6057 -23.6744 -53.0958 -91.4696 -126.815 -155.308 -162.881 -149.101 -114.3 -65.5289 -20.4971 14.146 35.3373 41.6515 33.7688 21.0558 6.55677 1.47882 0.14992 0.00154639 0.00819399 0.256893 1.03044 2.72507 4.54575 4.83588 -3.40272 -12.5219 -27.1296 -45.169 -72.3913 -98.0766 -111.931 -116.072 -120.965 -123.673 -115.031 -84.7776 -51.9051 -8.46774 19.4786 35.0762 38.9177 31.8511 14.2916 2.98243 0.411487 0.00424579 0.117456 0.145033 1.91925 3.43303 5.38629 1.34529 -8.58557 -25.2371 -45.2568 -55.8838 -58.2687 -52.9281 -42.0143 -17.1572 -18.4814 -38.395 -69.9072 -98.3178 -85.9921 -51.0516 -17.1352 13.2586 36.7622 39.6595 21.843 3.82944 0.306003 -0.00942584 0.214445 0.86684 3.22987 4.50013 0.914531 -8.47898 -24.8406 -38.8569 -61.1868 -68.5988 -48.1407 -30.4277 -3.30774 38.4994 43.7794 2.49296 -69.701 -132.224 -147.048 -108.998 -62.3569 -19.1442 22.8317 38.3055 23.8296 4.25885 0.183645 0.0202642 0.402892 1.85087 5.42131 5.0594 -3.47169 -17.127 -32.8591 -46.2788 -68.1912 -70.8256 -40.5655 -13.9081 27.6555 74.6568 69.4266 -0.12945 -90.1041 -167.287 -189.385 -156.688 -103.333 -51.4204 -2.04119 28.8042 19.4573 2.90986 0.51078 0.0205738 0.321566 2.24698 6.60052 3.26846 -7.20605 -22.3811 -36.8702 -50.99 -61.3204 -55.4116 -24.889 7.47421 63.2993 92.8409 66.0295 -22.3342 -123.071 -197.08 -217.387 -186.383 -137.556 -81.559 -26.4942 8.3254 10.7339 2.34955 -0.0760559 0.00980911 0.416754 2.61942 5.51082 1.43062 -8.3608 -17.3162 -30.3698 -38.0559 -40.8067 -19.1253 12.9258 42.9357 83.2632 79.3276 22.9413 -64.6097 -141.227 -197.002 -220.54 -195.522 -146.808 -90.7799 -40.3559 -11.5206 0.56467 -0.281461 0.0707233 0.00623199 0.385168 1.70459 3.96129 2.53989 -2.6005 -5.4603 -12.1785 -13.3535 -8.47132 23.3793 47.9234 52.6826 41.7698 10.2939 -41.2604 -88.6455 -121.13 -149.845 -174.258 -157.698 -121.936 -71.9245 -35.7311 -15.9891 -4.30829 -1.47142 -0.0801147 0.00884224 0.166048 1.04406 2.41636 3.01253 1.43588 -3.31627 -9.36038 -4.40477 7.31137 29.8711 27.3015 -0.307997 -46.9171 -77.5589 -97.4246 -89.7899 -77.1686 -75.5889 -84.4738 -82.0921 -64.6579 -40.7683 -21.5525 -8.36275 -4.47807 -2.02487 -0.462913 0.0148386 0.189392 0.568868 1.54992 -0.666658 -6.79226 -18.1631 -29.2854 -23.8448 -12.4991 -12.5378 -48.3675 -96.5094 -148.652 -150.019 -122.324 -89.2394 -45.2869 -8.39355 -1.02599 -3.10299 -4.86152 -5.83422 -7.19447 -5.32154 -4.6663 -2.47228 -0.0637996 0.00757187 0.164454 0.570346 0.333976 -5.9291 -21.2484 -39.1234 -57.5006 -69.7735 -72.5632 -92.25 -144.256 -207.023 -236.325 -201.909 -154.531 -102.168 -32.4165 24.8962 47.6187 47.9739 32.3126 15.8722 -0.294514 -7.06641 -8.4216 -3.97805 -0.452463 0.0108392 0.133215 1.23491 0.260646 -7.35294 -26.9222 -52.0926 -82.9929 -117.664 -145.995 -190.287 -250.523 -296.726 -266.385 -198.811 -149.808 -114.656 -50.5152 21.6678 55.2948 54.5515 35.4959 17.6888 -3.70846 -12.3573 -13.5962 -4.78248 -0.563463 0.00773196 0.0970256 1.17581 0.755781 -6.55172 -18.123 -35.8303 -83.3085 -141.95 -200.616 -259.54 -311.753 -313.013 -236.272 -150.297 -109.957 -86.0337 -32.2319 15.2141 44.1942 42.5061 26.5026 8.4231 -12.2315 -20.5236 -14.4572 -3.39854 -0.275574 0.0423828 0.0512958 1.86133 3.23998 0.479943 -4.21526 -11.2395 -63.0336 -132.842 -205.658 -264.849 -280.624 -240.381 -147.637 -74.771 -52.1252 -40.9273 -5.28878 16.195 27.6351 30.0157 16.0856 -5.65801 -25.807 -25.4804 -12.0618 -1.55016 -0.242988 0.00716163 0.143671 2.36239 4.63037 5.81194 8.86339 7.17854 -35.6376 -90.4855 -152.753 -187.387 -174.21 -118.253 -45.1301 -5.92709 -10.4292 -9.73342 5.58834 8.35627 9.95778 9.43115 -7.77371 -23.6123 -31.1411 -21.1676 -9.36845 -1.73707 -0.0744381 0.00237113 0.0465806 1.48032 4.29891 3.58037 12.0496 10.673 -15.8746 -41.0708 -74.7026 -91.3679 -65.7986 -22.944 21.2682 29.8323 12.9808 6.79077 4.71894 -10.0559 -20.6243 -23.2424 -34.1151 -34.7666 -30.7724 -18.7594 -5.22027 -0.930149 0.0150825 0.0106101 0.032511 0.701272 3.0016 5.15298 4.89074 5.11074 -7.1383 -21.3709 -38.0442 -44.5685 -34.3824 -15.6268 0.576894 3.59036 -3.98599 -13.862 -30.674 -47.4458 -51.5946 -46.6258 -40.5901 -36.4351 -26.1983 -11.3979 -3.13334 -0.513583 0.0100566 0.00396531 0.00576709 0.609797 2.31169 5.88398 3.97031 -4.93811 -12.9383 -24.1122 -31.4487 -49.4788 -71.5097 -81.5954 -76.4187 -69.264 -60.4925 -58.9399 -64.3886 -65.7847 -55.767 -46.9949 -39.5432 -27.62 -14.7217 -5.27756 -1.03831 0.127174 0.00187305 0.00556701 0.00979381 0.444799 2.73113 8.30869 13.0623 11.9028 5.56699 -10.3939 -25.6679 -46.5887 -83.054 -115.081 -119.049 -104.21 -90.6141 -77.805 -64.031 -55.1741 -43.9771 -32.3975 -25.0735 -14.4057 -6.25383 -1.22343 -0.407527 0.143631 0.00989691 0.00206186 0.00721649 0.351539 2.43874 7.34321 14.7782 24.131 31.9249 27.9995 19.7129 3.25752 -21.6716 -41.1512 -46.1081 -47.4207 -40.8019 -32.9733 -17.3509 -15.5252 -11.625 -6.78946 -4.69976 -2.42693 -0.59709 -0.37389 -0.685805 -0.0698659 0.00391753 0.00628866 0.00628866 0.036025 0.733862 3.10806 6.0104 12.4994 23.5953 31.8985 36.475 37.7526 40.1198 41.971 38.9022 29.724 25.3575 23.317 19.5662 13.4623 9.84836 5.53268 4.1455 2.763 1.22874 0.688694 -0.0736926 -0.0719355 0.00814433 0.00597938 0.00680412 0.00319588 0.00561784 0.217533 0.722497 1.96978 3.90597 6.4686 8.86509 10.7624 13.0507 14.2754 17.6409 16.9336 15.2784 13.7983 10.9504 7.70003 5.21578 3.216 1.73184 0.628871 0.00686608 0.00210796 0.0057732 0.00134021 0.00226804 0.00360825 0.00546392 0.000515464 0.000412371 0.00931713 0.0187917 0.026217 -0.100523 0.124758 0.184374 0.482087 0.481831 0.643795 0.941189 0.941778 0.381357 0.850943 0.906426 0.947226 0.361235 0.112318 0.126677 0.0987645 0.0171602 0.00278351 0.00680412 0.00845361 0.00412371 0.0028866 0.00927835 0.00556701 0.00783505 0.00958763 0.00505155 0.00247423 0.00896907 0.00103093 0.00649485 0.00453608 0.00701031 -0.323517 -0.695211 0.0182943 0.00906133 0.0028866 0.00360825 0.000618557 0.000103093 0.00381443 0.00865979 0.00721649 0.00927835 0.00824742 0.00938144 0.00391753 0 0.00814433 0.00876289 0.00690722 0.00742268 -0.00379006 -0.0111832 -0.0724033 -0.325338 -1.69862 -1.86315 -3.95275 -4.27162 -3.3708 -6.80825 -3.59953 -2.38534 -2.08436 -4.7465 -2.76868 -2.47004 -1.74644 -1.11577 -0.770766 -0.224453 0.0085567 0.00257732 0.00443299 0.00381443 0.0057732 0.000515464 0.0028866 0.00259868 -0.287121 -0.214784 -0.697105 -1.85851 -4.23078 -12.338 -20.7037 -24.6634 -37.3585 -41.5776 -42.0077 -34.5872 -34.4664 -33.4419 -35.0491 -28.0906 -18.1123 -14.276 -8.63981 -3.04538 0.422631 0.714443 0.00195876 0.00814433 0.00226804 0.00865979 0.0767331 -0.00610439 -0.488491 1.07428 -0.174775 0.526339 -4.83523 -17.2777 -22.7647 -28.0098 -22.2145 -27.786 -33.8436 -46.0412 -76.8552 -103.457 -112.104 -85.3544 -55.9488 -40.141 -25.8149 -15.2458 -7.05444 0.276139 -0.376712 0.00402062 0 0.0067397 0.227023 0.35035 2.44984 14.2895 29.6154 44.3112 58.4633 81.2702 109.609 146.38 146.897 135.958 100.612 54.1802 -7.07387 -46.8621 -40.268 -11.2579 4.49776 13.3342 8.1158 -2.57264 -5.19564 -2.77812 -0.755658 -0.20131 0.00463918 0.0085567 0.0294001 3.89936 16.7704 53.9146 97.8192 143.447 179.61 229.94 260.207 231.031 156.253 104.755 31.3043 10.3052 24.9276 40.916 95.6609 142.352 157.007 120.74 87.5349 36.73 4.90442 -3.20407 -1.76102 -0.202803 0.000515464 0.00903335 0.723198 11.2004 43.6688 99.1425 170.203 218.492 248.85 253.379 217.625 91.9047 -62.5174 -223.04 -389.187 -451.539 -339.396 -167.066 56.3102 161.99 212.485 181.806 111.191 46.1896 5.14573 -6.10699 -1.37124 -0.840992 0.00834142 1.03744 1.73274 21.8892 74.0539 141.386 201.958 201.279 156.305 91.2843 -36.9958 -189.08 -380.268 -570.83 -692.666 -676.984 -461.679 -180.809 42.2344 189.281 210.175 161.753 84.7833 -4.91313 -30.4849 -7.77069 -2.42211 -0.484925 0.108675 1.34393 4.94403 31.344 90.8327 142.573 142.047 79.1102 -52.3857 -180.664 -346.411 -467.889 -583.999 -628.851 -524.817 -316.671 -95.9253 101.01 187.073 214.327 180.609 81.3358 1.41435 -72.5153 -66.824 -15.6929 -2.22498 -0.744452 0.0418469 1.63646 8.61655 35.8005 81.0939 90.6531 7.34998 -129.835 -318.439 -478.612 -639.142 -697.989 -596.612 -364.11 -100.966 216.648 382.583 382.332 282.888 168.841 54.8557 -45.5547 -103.326 -137.472 -87.1755 -21.3082 -4.82209 -0.0679523 0.0756493 1.49465 10.3945 37.9015 43.5322 -4.71282 -166.421 -356.813 -568.761 -683.096 -771.773 -664.79 -414.516 -72.1444 253.532 504.282 519.005 394.068 171.625 -27.5252 -133.786 -216.076 -217.551 -173.009 -92.5807 -21.4526 -3.24791 -0.706536 0.0293902 1.69892 10.9292 27.6312 4.91697 -115.397 -308.064 -509.779 -672.464 -713.289 -618.441 -413.452 -208.885 -4.8699 258.938 435.684 325.829 98.6615 -133.512 -287.511 -354.133 -351.227 -287.524 -194.565 -96.9258 -18.9778 -3.74182 0.315345 0.0239062 1.24873 6.80866 10.6736 -31.6814 -155.767 -328.073 -461.456 -512.947 -477.666 -286.273 -150.064 -125.164 -109.798 45.0139 82.8556 -51.1397 -243.316 -348.457 -403.455 -390.121 -350.582 -263.483 -185.48 -77.516 -11.0968 -0.435654 0.12549 0.00941063 0.858714 2.79632 2.03813 -39.9333 -138.573 -245.462 -310.404 -300.656 -219.126 -81.6349 -55.4081 -162.14 -227.909 -223.814 -318.658 -372.139 -370.34 -332.793 -282.198 -195.942 -177.398 -165.571 -123.023 -56.3563 -2.57494 3.46427 0.684973 0.00854331 0.91649 0.97153 0.310335 -19.0666 -74.5942 -119.383 -119.143 -84.1576 -55.8777 -58.9642 -160.156 -252.987 -337.911 -407.914 -439.57 -441.955 -314.572 -107.804 42.5325 107.082 65.5032 -19.3059 -36.3127 -19.1133 2.45503 7.57537 0.146925 0.00374892 0.906551 2.03815 10.8472 18.4465 32.6363 41.2134 21.3204 -8.27688 -82.9621 -227.857 -348.355 -412.544 -414.448 -348.543 -344.638 -347.398 -216.842 47.907 250.579 296.325 214.644 103.871 37.7931 15.2205 13.7196 12.7639 1.26683 0.0096976 0.744215 6.43078 28.6368 73.289 136.44 164.841 87.788 -59.2617 -256.548 -494.534 -636.251 -610.688 -430.658 -189.638 -146.454 -220.1 -155.238 62.7198 284.246 307.482 276.038 157.464 72.4604 37.0882 24.6331 14.4012 1.72583 0.00896907 0.428763 9.17105 51.4826 137.054 217.927 218.783 123.784 -121.191 -465.325 -753.577 -857.104 -703.634 -375.048 -66.7405 -28.7399 -127.991 -143.661 -28.4328 150.221 199.936 224.383 155.569 83.9178 50.4079 29.0387 9.78858 0.760474 0.0188972 0.0610724 11.0433 79.9623 184.027 257.913 242.814 136.221 -89.1766 -440.857 -739.821 -788.196 -589.503 -229.294 -10.7846 24.5806 -77.7739 -128.5 -77.9868 39.1608 115.068 169.586 131.347 84.2398 55.4485 27.0207 5.26425 1.09711 0.0161002 0.621677 12.5337 91.2731 204.54 281.151 274.118 184.016 13.9127 -239.397 -484.493 -523.234 -360.587 -78.5159 47.444 33.7373 -37.8674 -57.3617 -33.8438 17.5071 97.452 139.029 97.348 59.0542 43.3716 22.4478 4.54104 0.312232 0.0085567 0.514814 10.3969 83.8004 190.171 258.979 292.476 250.25 180.533 20.931 -182.132 -226.289 -181.343 -41.8022 40.5708 55.8787 28.5503 21.0952 16.0674 21.8503 90.5413 99.6508 49.9497 31.7151 25.574 8.25639 3.10452 0.0460416 0.0308614 0.295926 8.65364 62.6318 154.737 231.888 285.695 289.839 273.122 188.905 48.5629 -84.5616 -138.648 -102.542 -12.2341 59.9173 60.0113 37.1817 11.7678 26.4353 30.6855 34.4606 -5.76217 3.53462 10.5677 6.50775 1.41641 0.00386785 0.0313644 0.0212673 8.08181 40.5828 111.237 188.153 242.466 276.342 270.849 250.551 135.804 -11.1202 -160.835 -162.495 -96.1381 -7.69473 -1.93765 -6.57301 -32.8543 -45.3769 -60.7421 -47.4854 -34.3255 -15.4145 -1.67572 0.219085 0.462343 0.00287994 0.00381443 0.000824742 3.4087 20.4568 68.0674 125.959 175.489 195.709 166.949 155.528 94.9418 -25.5194 -139.179 -171.885 -139.543 -108.065 -122.968 -140.066 -158.549 -165.724 -134.953 -90.7775 -59.5905 -28.7974 -5.63015 -0.0592868 1.08095 0.00381443 0.0056701 0.00515464 1.68324 8.17739 28.1249 53.4659 78.343 67.4644 30.0644 -11.9995 -72.2296 -129.496 -194.1 -208.78 -202.795 -206.754 -209.524 -212.027 -223.123 -208.012 -160.032 -90.2806 -49.7865 -25.0634 -4.28434 0.244609 0.353386 0.00639175 0.0071134 0.00597938 0.110688 0.591911 2.60605 -1.47803 -4.24261 -19.0092 -36.8115 -59.7893 -103.185 -110.126 -124.786 -140.701 -146.907 -137.403 -163.469 -179.445 -173.788 -148.42 -115.303 -69.0234 -29.4831 -10.4526 -1.86446 -0.183117 0.349446 0.00268041 0.00226804 0.00494845 0.00917526 -0.0797314 -0.822443 -1.65474 -6.51807 -7.91299 -12.5749 -22.5335 -32.6244 -39.8527 -51.5647 -47.2174 -54.1829 -44.8479 -39.8979 -36.2336 -37.4771 -43.4588 -40.2211 -18.1441 -4.22243 -0.484852 -0.0632563 0.00206186 0.00793814 0.00525773 0.00793814 0.00824742 0.00474227 0.00505155 0.0121309 0.0513441 -0.145981 -2.06505 -1.09929 0.385571 0.163565 -1.11997 -2.23532 1.04689 -2.6328 -0.159122 1.26952 1.35787 0.411309 -2.0673 -1.72699 -0.475077 -0.147479 0.0517291 0.00412371 0.00463918 0.00206186 0.00958763 0.00113402 0.00979381 0.00515464 0.00783505 0.00494845 0.00123711 0.00639175 0.000309278 0.000515464 0.00226804 0.00824742 0.00804124 -0.00945123 -0.0299286 0.00540791 0.00345988 0.00360825 0.00412371 0.00350515 0.00938144 0.00175258 0.00597938 0.00268041 0.0028866 0.00371134 0.00618557 0.00680412 0.000618557 0.00979381 0.00979381 0.00917526 0.00721649 0.00672032 -0.00145112 0.0191189 0.00309126 -0.0506422 -0.0655763 -0.17871 -0.384237 -0.797174 -0.63101 -0.31237 -0.132408 -0.263653 -0.459768 -0.200193 -0.133189 -0.125204 -0.0561365 -0.0502339 -0.0175716 0.0071134 0.00463918 0.0042268 0.00484536 0.00948454 0.00979381 0.0056701 -0.0239736 -0.041573 -0.0556441 -0.0440364 -0.153441 -0.517343 -0.85257 -1.60601 -2.41841 -3.04715 -2.79275 -2.98606 -1.78752 -1.72049 -1.74064 -1.45227 -1.48689 -1.36704 -0.867297 -0.456419 -0.0710555 0.0156886 0.00101672 0.00701031 0.0028866 0.00701031 0.00268041 0.0174316 -0.0525123 0.0448326 -0.6748 -0.770528 -1.79581 -3.45505 -5.16538 -8.64864 -15.8023 -17.8107 -19.2559 -22.2004 -23.9675 -25.3653 -24.6351 -17.2049 -9.61249 -2.22266 2.73191 4.91064 2.86964 1.30726 0.400561 0.0402673 0.000103093 0.00690722 0.00462886 0.0148845 -0.0958122 -1.06562 -3.68651 -5.56292 -10.3101 -19.7178 -27.4376 -33.4736 -43.354 -51.6565 -63.0632 -63.4813 -55.5329 -37.9868 -15.7131 8.52207 32.2566 47.2181 56.0724 46.703 33.8639 16.741 4.18741 0.680838 -0.0430678 0.00484536 0.00721649 -0.0884239 -0.912849 -5.05577 -12.5765 -18.9891 -24.6795 -32.5738 -39.3723 -47.5948 -62.2486 -89.8237 -119.571 -136.722 -140.818 -111.836 -46.7462 21.7283 77.9588 120.928 136.53 121.38 84.9384 44.9161 12.6263 2.51594 0.130957 0.00391753 -0.00191961 -0.513372 -3.49552 -12.7851 -24.1989 -34.2148 -41.1617 -58.187 -72.0948 -81.3693 -93.5458 -117.122 -141.405 -156.396 -163.328 -147.107 -94.0344 -17.6187 55.6147 104.301 134.816 144.193 121.344 76.9878 29.4921 5.84597 0.671926 0.00136188 -0.288783 -0.848575 -6.97062 -23.7946 -38.1865 -49.7555 -61.7226 -76.0892 -97.0379 -100.237 -106.82 -118.446 -132.45 -136.853 -149.194 -132.497 -107.222 -81.1089 -38.3806 10.2736 69.0143 111.051 124.104 96.3754 43.7861 7.59895 0.396329 -0.0583772 -0.279283 -1.29663 -10.4261 -32.3363 -47.3039 -61.6066 -74.1302 -80.5219 -96.1314 -98.132 -82.8248 -91.0884 -102.378 -112.214 -109.988 -109.014 -119.432 -153.678 -152.494 -108.851 -28.8863 39.6327 97.6436 94.8831 47.7455 8.61892 0.546398 -0.0104251 -0.4463 -1.94227 -12.7319 -30.7214 -43.8679 -52.8097 -55.6131 -52.1666 -52.5991 -42.1291 -12.6875 -30.6733 -54.8221 -70.9205 -72.5473 -103.876 -159.011 -213.91 -238.019 -201.739 -110.404 -20.3097 47.1455 71.5378 39.3826 6.48783 0.418174 -0.0160844 -0.306552 -2.44734 -12.2715 -21.2918 -30.9833 -28.7955 -22.5017 -7.67397 6.58507 18.1547 29.2431 0.814541 -32.4295 -40.2754 -56.4931 -130.196 -224.186 -293.648 -306.13 -263.212 -173.889 -85.1454 -7.25014 32.3317 24.2805 5.1328 0.0291563 -0.006333 -0.564317 -2.69938 -8.93362 -11.6476 -12.608 -5.46396 1.62002 19.0696 23.9196 28.4123 25.3022 -2.48628 -23.5158 -38.2493 -83.9933 -174.617 -281.6 -334.977 -331.11 -283.335 -200.951 -124.051 -52.6113 -6.33473 7.5348 1.70306 0.24432 0.00230686 -0.453735 -1.77915 -4.17672 -4.12634 -5.21414 5.18629 13.7981 26.6195 22.2894 29.5735 25.9312 -3.06265 -26.9951 -50.6164 -109.207 -205.595 -270.971 -286.148 -276.067 -237.789 -182.563 -125.855 -70.0797 -25.5388 -2.17541 0.182444 -0.0199085 0.000777586 -0.201597 -0.943852 -1.72812 -0.178814 -3.47656 3.64451 15.2656 25.0723 29.8106 37.7605 18.1521 -12.0606 -25.2857 -42.3314 -107.092 -179.447 -199.491 -192.393 -182.769 -173.084 -144.462 -106.134 -67.1139 -26.2673 -2.61238 0.289003 0.143368 0.0240578 -0.218275 -0.468101 -0.54653 0.256096 -8.60541 -3.76681 -2.18479 5.26464 7.35187 4.02427 -24.3093 -33.5113 -22.0642 -33.9784 -74.5954 -122.782 -149.309 -131.445 -129.482 -128.862 -117.396 -89.3563 -59.0345 -22.059 -2.59668 0.746148 0.0223249 0.0160495 -0.218772 -0.703827 -0.856726 -4.19166 -13.107 -11.2456 -23.6739 -41.4261 -60.7734 -78.6441 -93.6433 -83.6452 -58.4169 -42.9386 -49.7585 -75.0916 -106.327 -95.6384 -99.8855 -106.871 -96.511 -79.5198 -48.9732 -16.9492 -0.285392 0.915317 0.140027 0.00765122 -0.164597 -2.03037 -2.88407 -8.18251 -10.057 -9.52689 -48.74 -105.335 -149.34 -163.975 -157.298 -122.767 -66.7145 -10.9563 -11.2223 -51.1308 -93.4613 -93.6643 -87.5477 -79.4331 -72.1863 -58.3968 -32.5316 -9.00572 2.28747 1.41178 0.150239 0.00917526 -0.124436 -2.70558 -6.02786 -8.44796 7.72293 19.1821 -42.9034 -129.019 -188.209 -201.451 -175.295 -125.627 -51.2826 10.1206 2.62189 -45.6992 -95.1146 -99.564 -85.2763 -59.0566 -49.2953 -41.8979 -14.2476 2.89195 3.70502 0.775677 -0.0584089 -0.0274125 -0.064481 -3.5479 -11.0782 -7.53655 21.1816 46.4824 -12.1327 -114.449 -179.701 -194.316 -150.544 -78.4686 -6.12897 25.0327 -9.51479 -74.1984 -108.46 -114.948 -86.6467 -46.628 -33.0792 -16.8337 7.52584 14.9005 4.57231 0.591601 0.20197 0.00577046 -0.222892 -3.53306 -15.5155 -12.8732 16.5634 55.6103 21.984 -54.9485 -124.054 -137.916 -90.1237 -34.0014 10.5694 0.954673 -50.6898 -110.647 -131.013 -109.444 -66.161 -27.4378 -11.8517 10.7725 26.5927 18.5693 5.00519 0.783385 0.0820636 0.0056701 -0.260293 -2.84262 -15.6751 -21.7715 5.08312 47.221 43.3353 12.5136 -37.6831 -66.7309 -44.6549 -28.401 -24.3831 -62.4191 -105.865 -125.383 -107.259 -65.0326 -22.5268 3.3592 17.9861 37.3948 33.2754 16.0812 3.83433 0.492475 0.0232739 0.00793982 -0.0687932 -2.35366 -11.8149 -20.6989 -11.9302 16.3992 32.754 33.0077 9.99112 -29.9197 -51.6075 -76.45 -94.8232 -120.204 -131.782 -110.083 -59.0969 -22.0816 13.6602 35.4148 49.2201 41.5317 26.7957 11.5138 3.27047 0.0292378 0.00708983 0.00713153 0.00471706 -2.13374 -9.03059 -15.7796 -22.41 -24.6127 -17.5812 -4.38679 -8.20235 -43.7143 -90.8644 -131.073 -152.722 -154.913 -128.326 -74.9369 -24.7942 20.4685 41.9032 48.8677 42.1661 26.9867 15.7014 5.97543 2.09108 0.191256 0.000346694 0.00659794 0.00896907 -0.743136 -4.9009 -12.2809 -21.7844 -39.6168 -58.72 -54.298 -62.6873 -81.2633 -112.579 -144.835 -159.063 -142.501 -100.185 -42.1375 -7.10145 15.1998 30.9451 33.6584 21.7109 12.8596 6.86708 2.78452 1.31819 0.299478 0.000721649 0.00329897 0.00597938 -0.492972 -2.36023 -8.76896 -17.7283 -33.4623 -51.7603 -69.2069 -80.3695 -101.527 -117.137 -123.593 -116.043 -92.1808 -60.5839 -36.5038 -8.89039 12.8356 15.4193 12.2239 9.31234 6.42313 3.69841 2.0093 0.54 0.0628486 0.0071134 0.00154639 0.00360825 -0.0456791 0.116283 -1.92809 -5.93131 -12.454 -18.6355 -24.5692 -25.6061 -30.8206 -34.3722 -35.2232 -31.6113 -27.4056 -20.7653 -12.6194 -2.9182 1.66542 2.00558 3.14837 3.87175 3.31341 2.02798 0.950964 0.0883254 0.0591054 0.01 0.00938144 0.0085567 0.0102062 0.00582431 -0.100396 -0.485868 -1.55341 -3.56512 -4.53612 -4.31147 -4.374 -4.08168 -3.75111 -7.386 -7.84013 -5.34671 -5.10516 -3.36782 -2.03036 -0.122183 1.30167 0.796964 0.290104 0.0395996 0.00905505 0.000515464 0.00278351 0.00865979 0.00938144 0.0057732 0.00824742 0.00989691 0.00495739 -0.00768697 -0.00472983 -0.177206 -0.483423 -0.723502 -0.608488 -0.167028 -0.214727 -1.00094 -0.920136 -0.673561 -0.619106 -0.688021 -0.762982 -0.15107 0.0484584 -0.136445 -0.0560403 0.0112524 0.00845361 0.0057732 0.00597938 0.00268041 0.00814433 0.00484536 0.00969072 0.00814433 0.000927835 0.00546392 0.00762887 0.00505155 0.00608247 0.00309278 0.0057732 0.00742268 -0.0484971 -0.102961 0.000667581 0.00949517 0.00742268 0.0071134 0.00319588 0.00989691 0.00360825 0.00701031 0.00505155 0.00103093 0.00731959 0.00731959 0.000721649 0.00546392 0.00865979 0.00350515 0.00628866 0.0085567 0.00304472 0.00257391 -0.00743969 -0.0422335 -0.219148 -0.232392 -0.466082 -0.587861 -0.946601 -1.46182 -1.2219 -1.02839 -0.696291 -0.846464 -0.375973 -0.312001 -0.222437 -0.133838 -0.0990821 -0.0354092 0.00505155 0.00762887 0.000515464 0.00938144 0.00917526 0.000824742 0.00597938 -0.00121172 -0.0235358 0.12567 0.0513208 -0.145973 0.292253 -0.817644 -2.59852 -4.22785 -6.64648 -8.11863 -8.47519 -7.6999 -6.79866 -4.89715 -3.43304 -2.59284 -1.60497 -1.93607 -1.12905 -0.379446 -0.128243 -0.0298027 0.00618557 0.00948454 0.00340206 0.00319588 0.00926259 -0.0175121 0.18404 -0.271462 -0.69769 -2.07244 -2.83024 -6.16924 -10.6169 -17.2071 -21.1236 -26.4875 -30.9086 -33.7201 -34.3375 -29.7853 -21.3008 -13.8034 -5.66582 -0.576576 2.06111 0.861928 0.340669 0.302471 0.0120106 0.00938144 0.00773196 0.00459779 -0.00641435 -0.0510481 -0.567251 -3.00409 -4.65962 -9.42175 -16.7497 -24.0537 -32.8641 -42.7884 -56.9901 -72.3135 -76.5451 -72.9334 -61.1556 -42.9654 -22.8617 -5.03588 9.66914 24.4758 25.5496 20.3252 11.3207 3.12946 0.506661 -0.0477226 0.0085567 0.00639175 -0.0727433 -0.470078 -3.03901 -8.22862 -13.9074 -21.9545 -29.663 -37.5134 -53.1456 -71.8415 -100.429 -132.177 -153.097 -160.455 -139.157 -92.8655 -42.3257 -0.413136 40.3829 63.8375 67.7349 52.096 29.4072 9.26461 1.78126 0.0453733 0.00773196 0.000458059 0.0856954 -0.846318 -5.6604 -10.7172 -13.5896 -18.8401 -22.4042 -29.7309 -41.2518 -64.7144 -100.31 -139.413 -167.71 -185.67 -173.48 -127.982 -68.3972 -6.68956 43.8627 77.1142 91.94 81.3685 52.8061 20.8078 4.05783 0.422323 0.00463341 -0.149582 0.357376 0.0354819 -6.3403 -3.94955 1.18139 4.03698 4.6075 -1.35865 -4.70692 -28.542 -59.6439 -96.2192 -127.928 -147.722 -131.197 -97.5242 -62.8337 -25.2449 19.0827 59.0155 88.9403 97.4544 71.2974 31.928 5.52256 0.295486 -0.0246631 0.571317 2.51564 3.27782 -0.869776 4.60779 14.2534 25.3205 28.9402 25.3124 17.3024 12.2547 -10.2827 -38.9959 -53.7083 -63.6288 -62.1623 -60.4015 -70.4982 -66.4284 -33.7393 15.857 61.3348 92.0302 76.6448 36.4483 6.28655 0.354612 0.0476871 0.958328 4.19163 8.42592 9.08946 17.7379 22.6436 30.1477 40.8809 37.9272 34.7694 49.4328 34.3785 13.648 4.46657 -8.56689 -26.7496 -53.4015 -90.3493 -106.304 -82.5265 -24.1217 27.2673 59.8724 61.821 31.5366 5.4776 0.860709 0.0659476 0.834733 5.57106 10.9191 16.2306 22.8674 23.6044 29.8393 36.2986 47.2589 54.2474 67.4781 53.8988 38.5996 21.8298 0.819258 -32.47 -82.0345 -125.551 -146.49 -122.341 -70.0985 -20.3401 14.7788 30.8445 20.4369 4.49526 0.315721 0.0253958 1.08542 6.64879 10.4004 14.8016 15.755 19.568 22.6433 31.3547 39.1998 56.1082 71.5435 61.6706 36.7935 -6.83751 -44.5778 -77.8819 -119.386 -161.18 -185.503 -159.231 -107.225 -59.8547 -25.8229 -0.24776 6.68921 1.50712 0.164923 0.0183563 1.00343 4.83392 9.58413 11.8169 9.79961 7.47468 6.87861 14.5332 14.1351 35.4765 47.6481 22.2313 -33.895 -92.3129 -111.357 -116.95 -127.499 -157.24 -178.684 -153.515 -113.408 -74.7206 -44.2967 -16.9019 -0.84171 0.604923 0.113595 0.0014054 0.404094 2.51408 5.31914 6.10068 0.298279 -12.4805 -20.2915 -23.6401 -18.1848 -3.0403 -15.3858 -64.4969 -132.055 -166.286 -148.458 -113.124 -96.4452 -110.91 -124.032 -109.004 -85.9406 -62.3597 -41.3666 -16.3679 -2.11718 -0.184459 -0.140776 0.0225511 0.105158 1.01063 2.04425 -0.288211 -13.2428 -32.7941 -50.3245 -62.8875 -68.414 -68.536 -99.0559 -144.598 -184.088 -170.433 -107.557 -58.8875 -42.5334 -48.477 -56.0165 -53.1211 -44.6828 -35.5041 -26.214 -13.0403 -2.65638 -0.466619 -0.0128992 0.0159758 -0.101236 -0.0212829 -0.0978367 -7.52923 -24.7225 -43.3237 -71.2187 -98.3949 -116.605 -130.917 -155.455 -181.263 -183.347 -124.851 -44.4263 -2.31734 2.41543 -5.13235 -10.1827 -12.9748 -15.2794 -17.4443 -15.6729 -9.58277 -4.12209 -0.996674 -0.0747207 0.0139959 -0.122921 -1.00892 -2.89721 -9.97832 -25.1653 -40.6183 -76.0336 -117.618 -153.014 -175.254 -188.524 -177.098 -132.452 -52.6699 17.6418 18.8563 -9.01426 -16.4032 -8.96302 -6.23271 -9.87197 -15.2326 -12.6573 -9.17786 -6.06965 -1.2449 -0.101947 0.00731959 -0.0510632 -1.69022 -6.10199 -11.4811 -11.2575 -15.737 -60.7947 -118.604 -164.753 -198.139 -192.168 -153.979 -77.6505 6.18632 34.8076 1.20703 -41.5986 -49.9462 -39.7313 -23.7815 -22.5643 -22.76 -12.8444 -5.17949 -4.93404 -0.595314 -0.0636442 0.0781028 -0.0149264 -1.79003 -9.58689 -12.8104 -1.73352 5.87266 -37.5256 -107.727 -166.174 -199.728 -174.044 -110.685 -23.7486 30.6433 11.3321 -49.947 -79.9471 -88.6577 -70.1782 -41.7917 -34.7923 -24.9834 -13.291 -4.79213 -4.29175 -0.0643457 -0.0423964 0.0080338 0.155824 -1.60758 -12.6458 -16.6191 -1.96026 17.4646 -14.1418 -72.7106 -134.627 -161.133 -129.738 -61.3276 0.853414 10.5586 -38.8004 -97.3966 -116.178 -110.388 -81.0051 -52.2819 -38.9937 -21.15 -7.70173 -2.69863 -2.59344 -0.489665 -0.0155374 0.000412371 -0.138978 -1.91014 -13.5097 -24.8521 -9.07378 12.104 1.37325 -27.2602 -73.8591 -97.6877 -76.4462 -38.5582 -18.8949 -42.8205 -84.279 -115.508 -112.809 -98.5251 -71.5909 -48.086 -28.6672 -8.31216 -3.70433 -3.38475 -1.22488 -0.396862 0.0165612 0.00450795 -0.0644688 -2.0562 -11.1495 -22.8171 -22.1183 -8.36672 -1.21923 -8.85945 -28.1247 -51.5999 -53.8275 -54.1602 -66.9236 -81.7809 -91.9063 -89.4279 -79.8211 -72.136 -53.2275 -29.0003 -8.68905 -4.33442 -4.85893 -2.56449 -0.512474 -0.175271 0.00523692 0.00359069 0.00462606 -1.73924 -8.16461 -16.8753 -24.5106 -28.0604 -20.403 -16.0273 -18.343 -34.7819 -52.2864 -67.1532 -78.1782 -71.1146 -56.0361 -43.9655 -40.38 -35.2538 -26.2415 -17.4758 -10.6257 -7.22439 -4.52215 -1.38214 0.0231534 0.155532 0.00432388 0.00463918 0.00206186 -0.714925 -3.80605 -7.95762 -13.978 -20.2803 -22.6995 -26.3287 -29.6719 -33.2063 -42.534 -52.565 -48.802 -27.1809 -13.6552 -7.52644 -11.9931 -22.9802 -22.4099 -15.4627 -13.3622 -8.27461 -4.04363 -0.564786 -0.0280454 0.0644677 0.00587629 0.00876289 0.00278351 -0.324826 -0.64457 -0.810485 -0.495955 0.401504 1.96481 -4.06648 -12.2351 -23.5684 -28.9883 -27.6944 -13.5444 -0.0849525 8.74832 4.83349 0.642802 -8.36315 -11.1423 -11.0878 -8.8313 -4.70926 -2.73069 -0.361707 -0.487699 -0.00841736 0.00608247 0.00969072 0.0085567 -0.060828 0.83449 2.2943 3.67137 9.63591 17.9872 21.3749 22.3355 20.9962 26.036 28.5623 36.3229 36.8789 36.648 26.5123 17.0761 3.03041 -3.88344 -6.20508 -3.19477 -0.426609 -0.0430427 0.528282 -0.0560363 -0.014603 0.00206186 0.00206186 0.000927835 0.00216495 -0.00571671 0.092537 0.376961 1.58481 5.11764 8.71987 11.2108 13.8678 17.1576 17.6344 24.1398 22.2122 18.9911 16.4361 11.8101 6.0979 1.24698 -1.63895 -0.299658 0.192321 -0.0851214 -0.00761088 0.0056701 0.00360825 0.000309278 0.00670103 0.00206186 0.00381443 0.00824742 0.0128131 0.0338267 0.0133793 -0.0544721 0.602665 1.10189 1.61844 1.3749 1.46374 2.61782 1.8318 1.41492 1.9317 1.98652 1.85792 0.32968 -0.117149 0.193089 0.137711 0.0287997 0.00597938 0.00979381 0.00649485 0.00597938 0.00969072 0.00154639 0.00474227 0.00628866 0.00340206 0.00804124 0 0.00865979 0.00783505 0.00865979 0.00546392 0.00742268 -0.094078 -0.19308 0.0237556 0.00930619 0.00494845 0.00608247 0.00618557 0.00835052 0.00298969 0.00927835 0.00731959 0.00793814 0.00804124 0.00474227 0.00804124 0.00886598 0.00412371 0.0071134 0.00762887 0.00525773 -0.00324646 -0.0115714 0.0532953 -0.0367305 -0.929867 -1.17325 -2.26439 -2.35532 -1.47373 -0.0934602 1.33718 3.7399 3.0253 -1.01338 -0.802728 -0.314023 -0.355551 0.144626 0.108717 -0.125078 0.00360825 0.00927835 0.00103093 0.00443299 0.00164948 0.00814433 0.00453608 -0.00248174 -0.177501 -0.167651 -0.297576 -1.57669 -3.75937 -6.95251 -9.63994 -7.86862 -5.0673 -0.932394 -1.85134 8.65339 8.69371 -1.47273 -12.44 -17.5721 -15.9121 -10.1055 -4.44762 -0.851002 1.15283 0.870302 0.00762887 0.00701031 0.00556701 0.00701031 0.0510199 0.0463281 -0.290582 -0.13123 -0.730067 0.389289 -0.238959 4.40178 4.12641 1.24318 18.124 28.8994 24.476 18.6747 -11.4168 -50.7827 -70.9894 -63.9627 -44.2644 -29.3286 -15.3621 -8.42309 -3.04599 0.489291 -0.210473 0.0071134 0.00494845 0.00557877 0.108005 0.197013 -0.00232123 2.53513 8.37914 13.4962 17.5713 23.7143 38.1474 63.7229 88.4156 117.488 122.81 107.039 60.5335 23.5471 11.4852 29.3604 47.9958 46.3499 26.1935 9.50278 -0.0220036 -0.735259 -0.104162 -0.184766 0.00773196 0.00113402 -0.0838479 0.604864 0.301118 7.30281 18.278 29.2773 25.2769 21.8244 39.0408 9.57361 -49.9796 -61.9648 -100.654 -127.345 -163.455 -139.472 -60.5955 18.9901 84.3421 99.9815 60.726 10.9785 0.0063802 -2.77534 0.189581 0.0302691 0.00587629 0.00421427 -0.703318 0.656802 -1.73013 -3.55591 9.00198 3.94351 -35.817 -78.8532 -114.422 -171.421 -194.956 -150.578 -126.363 -134.46 -147.482 -149.964 -66.2557 -21.5116 20.1999 35.0643 -2.00365 -32.6874 -10.4936 -0.376961 0.0815888 0.127868 0.00409125 -0.210912 -0.0651433 -0.960291 -11.5426 -16.5609 -12.793 -66.2428 -140.516 -212.905 -236.556 -200.544 -122.766 -10.9764 109.059 128.964 101.938 2.90403 -92.279 -105.832 -102.341 -74.1834 -73.4577 -81.1105 -34.4242 -1.13721 -1.26266 -0.147871 -0.0499365 0.0109179 -0.0134794 -5.37986 -20.5859 -31.992 -61.7187 -132.984 -204.409 -282.999 -253.138 -159.491 -77.7271 55.084 236.441 357.227 275.965 84.0187 -154.833 -288.015 -286.389 -212.066 -166.013 -125.746 -59.595 -6.11584 -1.09085 -0.286782 0.00438564 -0.329768 -0.179626 -4.66829 -21.8245 -40.7195 -86.7426 -171.623 -260.552 -294.318 -250.965 -182.7 -132.81 19.5994 247.873 451.691 363.839 56.8091 -251.755 -448.904 -449.785 -344.248 -235.077 -171.374 -73.3246 -13.8757 -4.32561 -0.766547 0.00486901 -0.0628831 0.335441 -0.892805 -21.382 -48.6432 -105.947 -209.187 -281.348 -315.941 -330.423 -331.63 -322.484 -150.692 205.366 425.577 262.179 -130.502 -462.834 -581.024 -530.543 -404.38 -282.748 -183.52 -85.6547 -21.1859 -2.95292 -1.07223 0.0127534 -0.0134382 0.490918 -3.34392 -13.8327 -54.4851 -144.65 -245.151 -322.482 -402.055 -456.494 -546.401 -586.434 -312.154 116.238 267.049 -26.2582 -431.007 -624.86 -603.822 -504.706 -391.412 -291.056 -188.289 -91.324 -18.0383 -3.43424 0.323234 0.0131792 -0.0432794 -0.191913 -2.65012 -1.16862 -63.2294 -158.15 -243.048 -303.294 -393.593 -498.825 -642.851 -678.827 -393.388 -38.018 -56.8695 -376.377 -609.222 -588.044 -485.768 -396.349 -338.58 -265.761 -186.26 -81.0148 -10.5271 1.43592 0.398594 0.00824972 0.0369865 -0.657032 0.503844 2.83618 -66.3404 -148.486 -206.768 -233.231 -306.607 -429.875 -590.799 -601.794 -373.258 -175.64 -327.187 -513.95 -541.636 -421.408 -306.789 -268.665 -255.599 -230.817 -159.475 -60.6667 2.16648 6.8014 2.25327 0.0259481 0.0128452 -0.705266 0.682173 -3.40584 -70.3899 -120.65 -141.976 -124.926 -166.892 -316.789 -485.648 -471.835 -316.41 -264.908 -371.661 -488.804 -435.066 -250.941 -184.8 -178.55 -202.835 -184.513 -129.319 -42.3515 12.4369 13.6819 0.516955 0.00798318 0.0202638 -1.54925 0.626924 4.07077 -29.0876 -69.8875 -93.635 -107.544 -174.908 -307.621 -455.112 -468.524 -352.216 -283.332 -348.109 -416.104 -335.826 -177.938 -127.508 -156.551 -166.369 -152.465 -91.9063 -13.1337 32.3118 19.3391 2.68696 -0.00180882 -0.0275375 -1.8825 8.06268 32.9374 16.77 -20.1449 -105.754 -206.17 -300.555 -406.209 -528.61 -510.307 -338.396 -170.811 -249.924 -320.673 -290.456 -185.762 -127.908 -118.545 -90.7 -63.9188 -24.1263 29.3946 59.1242 26.0449 2.83067 0.000618557 -0.131018 -2.64056 22.1648 67.4677 86.0934 42.767 -113.922 -300.999 -425.689 -489.431 -532.172 -424.595 -178.555 -15.8015 -98.3901 -244.711 -260.35 -202.374 -139.767 -73.6963 -20.5423 12.8904 44.5929 84.5666 71.7204 18.5517 1.15956 0.059652 -0.234246 -3.6373 28.7065 97.1989 132.968 101.685 -50.4165 -268.069 -405.173 -453.099 -409.474 -232.125 33.8016 97.3024 -52.7715 -206.333 -213.664 -185.608 -109.136 -28.0322 30.9605 74.5294 112.476 121.47 65.1712 10.188 1.53622 0.00636925 -0.313103 -2.91154 25.9758 97.7201 142.179 147.221 56.5097 -106.386 -240.935 -293.109 -207.17 -59.025 109.312 75.6925 -88.1764 -205.039 -204.523 -136.364 -38.4896 40.1362 77.4384 115.129 141 115.682 55.9264 9.99398 0.568694 0.00597938 -0.364438 -0.902888 23.4624 91.4119 134.558 168.387 132.261 75.5727 -13.7331 -104.405 -83.8403 -63.438 1.69393 -47.8858 -166.445 -197.595 -157.726 -59.4028 46.2631 110.21 128.949 137.135 136.28 96.3618 31.1817 5.9414 0.0225181 0.0223397 -0.0662103 0.82503 20.6051 73.9035 117.473 155.976 157.11 164.878 114.028 -0.766069 -119.223 -211.66 -224.498 -239.761 -245.421 -201.205 -120.688 -13.523 83.7139 120.22 140.18 115.087 100.559 61.4428 20.8247 2.25139 0.00632128 0.0242267 0.00462657 0.110469 10.8008 50.8944 88.3591 108.112 120.057 139.513 107.867 -20.2334 -210.001 -404.128 -468.588 -448.014 -393.936 -282.378 -148.742 -28.8952 43.6397 81.005 83.5658 72.8988 57.1202 27.2852 8.89798 0.415555 0.00851979 0.00505155 0.00206186 -0.715104 0.663501 19.1794 45.6317 49.9136 27.3918 27.0537 -8.06594 -118.649 -296.984 -468.982 -573.729 -562.208 -478.751 -338.713 -196.908 -97.6696 -16.3516 24.4748 32.4876 31.5376 22.3674 10.9251 4.82739 1.28479 0.00680412 0.00484536 0.00175258 -0.82801 -3.47699 -0.921001 5.60045 -5.25701 -33.133 -77.82 -128.933 -210.346 -311.191 -376.524 -403.795 -367.377 -289.481 -212.16 -95.6552 -30.6121 -5.65874 12.3558 22.3024 16.2863 11.565 8.0084 3.65032 0.578298 0.00804124 0.00979381 0.00484536 -0.0658977 -0.945166 -2.65094 -4.41853 -9.52175 -9.91974 -6.98278 -3.40049 -7.68313 -8.91194 0.444711 -4.7808 1.77289 5.18547 28.1431 47.86 55.2815 46.4356 37.5781 23.511 9.29883 3.06128 1.39375 0.758341 0.579956 0.00371134 0.01 0.00556701 0.000206186 0.0143307 0.127084 0.590104 -0.317903 -0.78682 5.15041 13.9026 18.4464 23.4586 29.4 35.0161 42.2123 40.7232 37.5551 32.8777 28.7512 24.6239 19.8766 7.7958 2.01201 0.211258 0.0208564 0.000824742 0.00886598 0.00402062 0.00927835 0.00278351 0.00463918 0.0042268 0.0103108 0.00888262 0.111185 -0.801512 -0.512387 -0.87639 -0.944794 -0.575266 0.202995 -0.43662 2.2115 0.0948095 1.11574 1.40787 1.71839 1.77059 0.949281 0.563405 0.324338 0.0109984 0.00474227 0.00123711 0.00814433 0.00907216 0.0028866 0.00938144 0.00412371 0.00525773 0.00340206 0.00309278 0.00597938 0.00989691 0.000412371 0.00257732 0.00206186 0.00185567 -0.00114649 -0.00597215 0.00308569 0.00610366 0.0043299 0.00443299 0.0057732 0.00731959 0.00536082 0.00123711 0.00391753 0.00402062 0.00680412 0.00917526 0.00948454 0.00195876 0.00226804 0.00773196 0.00896907 0.01 0.00318347 0.00439519 0.001091 -0.00680342 -0.075033 -0.0796717 -0.134236 -0.215186 -0.318022 -0.553299 -0.375075 -0.296825 -0.208986 -0.267856 -0.0841642 -0.0696696 -0.0554363 -0.0303538 -0.0220756 -0.0021465 0.00113402 0.00865979 0.000515464 0.00350515 0.00103093 0.00546392 0.0085567 -0.00203539 -0.0173984 0.0121366 -0.00491866 -0.0889867 -0.0962057 -0.472682 -0.954958 -1.48456 -2.5237 -2.502 -2.60084 -1.88064 -1.66549 -1.51415 -1.36708 -1.04955 -0.728106 -0.712554 -0.37559 -0.116376 -0.0265655 -0.00205467 0.000309278 0.00340206 0.00701031 0.00814433 0.00585765 -0.0239042 0.0644201 -0.191139 -0.32083 -0.975562 -1.92809 -3.45047 -5.29365 -8.99869 -9.68461 -10.7309 -11.5957 -12.3455 -13.5941 -13.051 -9.30756 -5.27908 -1.29419 1.23204 2.26192 1.17909 0.519196 0.23269 0.0104191 0.00103093 0.00587629 0.00460985 0.0169683 -0.0257231 -0.351798 -1.27346 -1.94207 -4.32046 -8.34108 -11.7931 -14.931 -20.0778 -25.6124 -32.3202 -33.2979 -30.177 -22.5511 -12.0498 0.995064 13.3841 21.0088 26.8185 22.8736 16.3108 8.27325 2.11394 0.353479 -0.0300493 0.00443299 0.00690722 -0.0351736 -0.228223 -1.54297 -3.71968 -5.53634 -7.59146 -10.6591 -12.8212 -18.7842 -29.1366 -45.7398 -63.8878 -74.9554 -77.575 -60.8455 -28.1238 8.34259 37.7696 60.6046 67.9799 61.189 42.8437 22.8673 6.65935 1.31506 0.0589622 0.000515464 0.00825637 -0.0753301 -0.724505 -3.21107 -5.47735 -6.40129 -7.68972 -11.8911 -17.9243 -25.5376 -39.1655 -61.1752 -86.168 -105.203 -114.736 -103.831 -69.2118 -19.7646 25.8123 57.0109 73.7115 76.9267 63.6715 40.0238 15.3557 3.07545 0.328745 0.00964524 -0.0538478 -0.0728612 -1.09296 -4.93716 -5.73397 -5.34124 -6.46667 -12.1698 -23.6561 -31.7849 -47.9399 -69.351 -93.7231 -110.073 -120.182 -104.744 -76.1032 -45.7531 -13.0154 17.6461 46.6012 65.2376 68.2381 50.7685 23.0377 4.1208 0.214038 -0.0111643 0.118308 0.471053 -0.711341 -4.95157 -5.64301 -6.9057 -8.81711 -16.4367 -28.6919 -40.8352 -44.898 -58.5996 -71.88 -77.1341 -73.6148 -66.5834 -61.2967 -66.9476 -59.8535 -36.3661 0.222009 32.8759 56.601 50.8221 25.4593 4.77806 0.312835 0.0184226 0.176726 0.868066 0.0270829 -2.15833 -3.451 -7.48217 -11.1223 -15.3855 -25.7954 -33.7712 -23.9854 -27.1978 -28.4834 -25.5496 -22.9304 -35.8776 -60.8836 -88.1286 -100.042 -83.9589 -40.5714 1.06057 30.61 39.1867 21.5959 3.79773 0.356885 0.0204148 0.191452 1.10519 0.807552 0.647103 -2.91079 -7.98973 -11.5839 -15.0779 -15.4364 -14.6209 -1.33798 2.89463 7.70259 11.8191 2.42115 -35.927 -84.764 -123.683 -138.937 -121.552 -79.9026 -36.6418 0.425211 18.9321 14.0289 3.03343 0.126818 0.00638488 0.181151 1.34823 1.24303 0.74067 -4.93129 -9.48519 -15.1256 -15.125 -13.2604 -2.41439 15.3969 22.4396 22.6482 13.4635 -13.3413 -61.1636 -116.199 -152.296 -165.074 -146.368 -104.361 -62.4921 -25.5442 -1.65245 4.89014 1.14681 0.169915 0.00657019 0.180013 0.977146 1.54019 -0.698663 -7.70641 -13.042 -17.5456 -14.7097 -11.5852 9.02527 25.6465 20.8903 5.12517 -12.375 -41.4622 -85.6468 -121.749 -142.901 -150.796 -132.199 -100.677 -67.1749 -36.6288 -12.4295 -0.447746 0.353738 0.0359798 0.00775967 0.0714116 0.503933 0.713815 -2.50333 -11.077 -18.6333 -22.8192 -20.0942 -9.51984 9.32044 12.0639 -4.69062 -21.772 -35.1087 -59.7098 -85.6586 -98.5349 -104.799 -104.958 -93.6396 -76.1924 -54.6028 -33.695 -12.3579 -1.07277 0.128499 0.0276429 0.0158791 -0.00432136 0.200245 0.10156 -3.44421 -14.674 -23.9387 -31.8875 -31.4399 -26.0744 -18.5418 -29.0462 -37.8012 -39.3807 -40.3438 -44.7593 -60.7444 -73.5216 -66.566 -60.4459 -54.6035 -46.8133 -36.9546 -25.0376 -9.56605 -1.27361 0.136886 0.00317088 0.00658677 -0.0508318 -0.0669918 -0.0387718 -4.9758 -15.2296 -22.9901 -38.5719 -52.7163 -61.978 -68.5692 -73.9815 -69.573 -53.4585 -30.4078 -21.9896 -35.107 -51.1512 -40.1911 -30.5065 -27.7698 -25.2261 -23.8848 -16.7412 -6.50127 -0.834339 0.0847373 0.0159491 0.00578824 -0.042596 -0.503761 -0.473254 -4.11835 -9.40901 -15.1975 -41.6794 -76.7146 -101.772 -113.43 -110.565 -87.6052 -47.2366 -4.44964 2.10173 -25.3664 -48.4606 -38.4519 -20.7256 -14.3053 -12.9908 -14.6307 -9.7317 -3.9582 -0.739075 0.139948 0.0116756 0.00185567 -0.0350905 -0.731188 -1.19272 -1.51399 3.8618 4.7391 -30.2354 -79.4426 -117.397 -132.879 -120.306 -86.5989 -33.8899 10.9817 5.97814 -26.0187 -52.0522 -46.3258 -27.8813 -13.6255 -9.61557 -11.1263 -4.2674 0.0456816 -0.455481 0.0358081 -0.0377051 0.0207481 -0.0193257 -0.891594 -2.197 0.755373 13.2906 21.7997 -9.92696 -63.4538 -104.552 -121.965 -101.013 -57.2023 -6.46819 17.5735 -1.34847 -41.3512 -58.6733 -56.9421 -38.7885 -16.8038 -9.68887 -5.48111 0.994479 3.17378 -0.0122431 0.110642 0.0843003 0.00279288 0.0101348 -0.729752 -3.90655 -0.753289 13.7482 30.498 11.4316 -28.2167 -67.1433 -81.9392 -60.8756 -24.4246 8.50031 6.67928 -22.1614 -57.1675 -67.1607 -57.5135 -36.618 -15.5925 -7.15214 1.10783 6.50858 4.27865 0.436392 0.101935 0.0251621 0.00360825 -0.0769544 -0.718157 -4.55061 -5.93265 8.40835 28.7296 26.2784 10.6221 -17.6951 -36.3081 -25.6151 -11.4119 -5.21204 -22.2929 -44.9345 -60.8059 -55.1302 -39.9585 -22.6138 -7.88962 0.559395 9.14425 8.00394 2.74804 0.369774 0.0636945 0.0165964 0.00512625 -0.0151182 -0.71321 -3.6229 -6.09732 -0.0882029 15.3668 24.2218 23.0481 9.43004 -11.2065 -21.9739 -30.1836 -38.1145 -47.2669 -52.6439 -48.3526 -31.785 -22.103 -8.63425 2.81366 11.6408 9.29105 4.74415 1.5856 0.64951 -0.0568338 -1.1686e-05 0.0100284 0.00658676 -0.601207 -2.83117 -4.12882 -4.5621 -2.85468 3.52402 8.02913 5.60154 -12.6321 -35.6932 -54.8166 -62.7678 -59.2951 -45.4517 -28.7383 -14.5677 -2.65035 3.73993 6.63707 6.39909 2.97621 1.24694 0.494527 0.435376 0.111958 0.000542439 0.00958763 0.000824742 -0.168211 -1.31795 -2.21432 -3.91739 -8.1115 -12.888 -13.3505 -17.4341 -27.2939 -42.6431 -57.0286 -59.4029 -48.5028 -31.2536 -13.9149 -7.44916 -5.7519 -2.94112 -0.381489 -2.2511 -2.23765 -1.20668 0.0144595 0.313145 0.148783 0.00618557 0.0085567 0.00443299 -0.103581 -0.313994 -1.58285 -3.32527 -6.57977 -11.9989 -19.5999 -25.6799 -37.1191 -44.0799 -47.0833 -40.9922 -30.1203 -19.7334 -15.4956 -11.17 -8.39764 -8.60161 -8.32459 -5.35347 -2.80665 -1.40373 0.156426 -0.000141107 0.0317704 0.0101031 0.0102062 0.000618557 -0.0128034 0.315781 -0.0102343 -1.42421 -2.29018 -3.58724 -6.30134 -8.23887 -12.6969 -12.6789 -13.2143 -10.8009 -9.10683 -6.02344 -7.63469 -7.98402 -9.99382 -10.0776 -8.40567 -4.3417 -1.10711 -0.116737 0.328977 -0.0108801 0.0266568 0.00762887 0.00123711 0.0056701 0.00752577 -0.0029917 -0.123663 -0.355822 -0.652767 -0.523453 -0.547754 -0.847651 -1.09229 -0.760693 -1.51835 -1.10939 -2.20964 -1.22625 -1.10779 -1.17032 -2.11944 -2.92451 -2.80828 -1.07701 -0.150122 -0.0448817 0.00219798 0.00835052 0.00762887 0.000206186 0.000927835 0.00257732 0.00773196 0.01 0.00181429 0.0128933 0.000210274 -0.118168 0.00340306 0.145805 0.302403 0.326123 0.233394 0.432462 -0.0518428 0.131448 0.305148 0.322579 0.170196 -0.136037 -0.153253 -0.0524098 -0.0281516 0.0119536 0.00969072 0.00494845 0.00979381 0.00226804 0.00865979 0.0101031 0.00412371 0.0071134 0.00721649 0.000721649 0.000927835 0.00773196 0.0085567 0.0085567 0.00752577 0.00907216 0.0782618 0.165414 0.00780749 0.00962945 0.00958763 0.00340206 0.00494845 0.0102062 0.000103093 0.01 0.00319588 0.00989691 0.00216495 0.000927835 0.00969072 0.00463918 0.00814433 0.00463918 0.0102062 0.00329897 0.007678 0.0124436 0.0274941 0.0809514 0.203957 0.211334 0.556403 0.607578 0.814592 1.14295 0.832259 0.58543 0.878497 0.982176 0.564934 0.420694 0.317329 0.216386 0.192736 0.0633436 0.00701031 0.00731959 0.00329897 0.00113402 0.00175258 0.00680412 0.00938144 -0.0151086 0.0162108 0.0368169 0.119153 0.316942 1.012 2.21435 3.83228 5.15682 7.11693 8.97613 9.34024 8.87074 9.15337 7.31799 5.88764 4.54624 2.92531 2.1099 1.27404 0.477366 0.220417 0.0732078 0.00896907 0.00164948 0.00742268 0.00525773 0.00271361 -0.029263 0.071262 -0.0162834 0.491544 1.54777 3.63268 8.02081 11.482 13.3205 17.5478 22.2403 27.7865 30.8919 32.9465 33.8096 29.8866 24.7075 17.3328 11.1123 6.65568 3.162 1.8206 0.338415 0.0946275 0.000103093 0.000515464 0.00291306 -0.0176743 -0.0234552 -0.269653 -0.239666 0.805111 2.48214 5.05295 9.12785 13.4335 13.9277 13.7362 9.93861 9.17797 11.9987 24.1189 34.807 42.2716 41.0548 33.7172 29.0113 20.5326 13.7551 6.09765 1.37386 0.173239 0.0306631 0.00412371 0.0056701 0.00631505 -0.351652 -1.32463 -1.45626 0.650964 5.50463 11.2619 14.5309 13.3876 -4.16184 -28.9884 -53.4159 -66.8758 -70.7379 -57.7509 -29.9466 0.783068 22.4308 39.357 45.5464 39.9075 27.4805 14.6674 3.96532 0.852636 0.116908 0.00793814 0.00728117 -0.0314619 -0.54914 -2.67168 -2.18825 2.91919 10.5112 10.5362 5.61209 -10.4189 -37.1645 -65.7082 -93.0832 -107.697 -116.547 -115.848 -97.2221 -64.4156 -27.4481 5.14381 29.6334 37.7658 31.2087 22.6488 9.51717 1.89258 0.348121 0.0108228 -0.0689758 0.283595 -0.420436 -3.50527 0.582254 8.80321 10.6338 5.30984 -9.89471 -24.8295 -43.6196 -68.5453 -85.2258 -85.8372 -97.5021 -102.762 -104.583 -103.292 -80.3768 -44.136 -5.0366 19.4189 24.8895 24.5745 13.279 2.28522 0.208085 -0.0331013 0.268884 1.1265 0.0754301 -2.56543 1.51065 4.06747 5.35215 -2.82946 -22.0431 -34.7896 -38.4546 -54.7836 -55.5226 -36.0541 -36.347 -61.0225 -89.2834 -128.324 -132.089 -101.96 -54.9866 -18.1569 9.87661 17.2931 12.0809 2.11062 0.0450665 0.0154655 0.332358 1.64252 1.53749 0.230879 1.79882 -1.48043 -8.59687 -21.2127 -37.2243 -42.781 -37.5207 -36.8021 -17.4309 5.67892 3.60377 -32.4001 -89.1626 -141.45 -166.212 -145.986 -97.6012 -50.6988 -16.2743 6.17398 7.5585 0.579171 0.123402 0.0242464 0.306396 1.97589 2.82623 0.546066 -2.49616 -10.367 -26.7488 -40.8722 -51.0652 -52.4982 -43.6301 -34.8421 -9.11582 5.11117 -6.9773 -47.4206 -108.586 -164.31 -189.804 -169.576 -124.631 -78.8231 -36.7131 -7.15648 1.61636 0.240853 -0.25789 0.0114081 0.348958 2.3465 2.35438 -0.787137 -11.0282 -26.189 -46.3435 -59.9218 -67.0058 -62.6681 -51.7712 -43.7621 -33.6496 -37.3929 -51.9063 -80.119 -133.236 -175.95 -189.395 -170.022 -125.433 -83.2368 -43.3754 -15.7762 -1.74921 -0.91103 -0.00606893 0.00491463 0.324557 1.70021 1.75645 -3.54529 -18.9721 -37.0498 -54.002 -61.6904 -68.2389 -55.9433 -44.0942 -53.3271 -75.0815 -86.2541 -86.3318 -101.2 -128.389 -148.204 -154.056 -134.469 -101.332 -66.6095 -36.9492 -12.5853 -1.40008 -0.264463 -0.0377437 0.0068987 0.110169 0.975928 0.673962 -6.63657 -23.5113 -40.3112 -54.4863 -57.3186 -50.5223 -33.7214 -35.8122 -69.4167 -100.156 -101.072 -99.3798 -97.0965 -95.7176 -101.594 -94.1673 -82.1145 -61.766 -39.1432 -19.6941 -2.03408 1.8166 0.915368 0.335301 0.0190506 0.0110593 0.439772 -0.147713 -8.24017 -26.1091 -37.3663 -46.1858 -43.894 -34.4744 -28.5683 -48.4904 -84.1858 -104.018 -92.1115 -75.2189 -66.584 -69.9137 -53.8351 -38.2306 -28.7392 -24.3853 -12.7717 -6.28829 2.3714 4.2386 1.69865 0.0661434 0.0124652 -0.0600163 -0.0758264 -0.415584 -8.06251 -19.3925 -25.1615 -37.2925 -44.8442 -45.2797 -50.0801 -73.8722 -102.227 -96.9823 -64.0519 -44.0448 -44.5019 -43.1907 -21.6836 -0.589447 5.3708 4.33714 1.04369 2.43279 8.30981 7.72399 2.6033 0.342238 0.00535796 -0.0722982 -0.609618 -0.149509 -2.59393 -6.79439 -8.8681 -30.5716 -59.2176 -70.6927 -81.8232 -96.2374 -100.71 -65.3456 -22.9325 -17.4427 -33.9041 -35.6009 -6.65871 18.1297 23.861 21.8722 14.7747 12.1842 14.0085 12.4162 3.73412 0.32426 0.00371134 -0.0395329 -0.791355 1.00741 4.86481 11.6172 12.4624 -19.7251 -61.5858 -88.4147 -96.0091 -91.4691 -73.8845 -23.5293 11.7115 -0.0235863 -27.9156 -30.2644 -4.19709 15.2239 27.0475 28.0058 21.1986 21.1611 20.8187 13.9681 2.74585 0.0580431 0.0293606 -0.028789 -1.16374 1.38773 11.3978 22.9051 28.8323 0.0165822 -50.2069 -75.4774 -73.3752 -51.397 -10.5315 31.281 39.4525 9.20432 -18.9243 -15.5348 -5.61007 5.70619 21.0988 26.855 25.7627 29.6198 26.0122 11.3187 1.1681 0.152788 0.00836421 0.00410873 -0.971015 -0.293721 11.7714 23.8451 34.95 15.2703 -19.3207 -38.7855 -22.9654 16.7918 47.7583 66.635 50.7723 14.0267 -13.7981 -14.468 -10.1379 2.35293 18.8366 22.577 27.8417 31.3579 23.5333 8.66073 1.16977 0.050095 0.00773196 -0.142378 -0.610551 -0.225128 7.2946 17.3834 29.0288 21.0851 8.56319 2.03287 13.5165 49.1638 66.5872 67.5706 43.2274 9.07034 -12.573 -17.6 -9.08447 4.6053 17.0403 23.3972 30.3045 30.1927 19.3832 5.31188 0.826219 0.0121646 0.00895723 -0.0218595 -0.270145 0.0955679 3.13588 5.85662 11.8092 12.4509 8.73421 6.09039 4.74802 16.7013 22.6179 17.6357 -2.53288 -25.5891 -33.3081 -25.7619 -16.999 0.264059 11.7044 26.0059 26.691 22.2186 11.7444 3.71369 0.366061 0.0041895 0.00557278 -0.00120963 -0.39014 -0.555175 2.40813 -0.302915 -5.84519 -8.56015 -13.4926 -24.5852 -46.2119 -69.7556 -83.3617 -94.8918 -99.7295 -90.5401 -75.7039 -57.46 -30.1194 -7.54536 7.7079 15.5291 14.2454 9.64087 4.95272 1.4806 0.0167043 0.00152616 0.00845361 0.00958763 -0.305678 -0.951983 0.0808805 -0.89813 -7.72251 -21.6417 -36.7693 -58.916 -91.628 -132.185 -167.328 -177.552 -157.905 -126.238 -91.4751 -62.4193 -36.472 -17.5768 -4.77789 -0.350388 1.7819 1.11702 1.11368 0.814241 0.0317778 0.00278351 0.00134021 0.00701031 -0.269432 -0.690286 -1.2219 -2.38111 -7.12978 -16.8762 -32.4931 -49.3427 -72.8209 -92.8368 -104.042 -100.118 -83.4008 -63.8008 -49.2268 -32.2499 -23.2701 -19.8573 -13.7121 -6.91145 -2.90233 -1.42845 0.955118 0.588039 0.108932 0.00298969 0.00381443 0.00896907 -0.0384589 0.192814 0.195133 -0.689862 -1.51645 -1.94297 -4.02628 -5.45873 -9.27479 -9.12077 -9.42726 -7.51117 -6.26461 -3.19617 -4.50347 -5.25057 -8.59393 -10.0152 -8.23615 -4.44413 -1.53894 -0.722498 0.186092 0.0701922 0.108465 0.00371134 0.00783505 0.0101031 0.000824742 0.00426615 -0.0807875 -0.166361 0.0377951 0.611969 1.69156 2.63088 3.36674 4.11408 3.91527 5.99411 5.06694 4.44185 3.72327 2.41464 0.431047 -1.48391 -2.2568 -1.0437 -0.163462 -0.043241 -0.000315493 0.000824742 0.00360825 0.00793814 0.00546392 0.00360825 0.00824742 0.00969072 0.00354928 0.0205447 0.00437709 -0.152486 0.051637 0.243358 0.44558 0.343409 0.341438 0.767584 0.409598 0.347652 0.6609 0.692255 0.58478 0.0228567 -0.119109 -0.0323358 -0.0131056 0.0175603 0.00113402 0.00896907 0.00463918 0.0042268 0.00958763 0.00731959 0.00814433 0.00474227 0.00876289 0.000721649 0.00505155 0.00329897 0.00896907 0.00886598 0.00938144 0.000206186 -0.0495881 -0.103883 0.00767283 0.00103708 0.00319588 0.00371134 0.00618557 0.00845361 0.00835052 0.000927835 0.00639175 0.0042268 0.00680412 0.00989691 0.00536082 0.00494845 0.00896907 0.00134021 0.0043299 0.0042268 -0.00202942 -5.34414e-05 -0.0134566 -0.0823098 -0.295541 -0.312474 -0.656509 -1.05939 -1.45246 -1.20895 -0.319183 -0.115231 -0.545017 -1.00312 -0.527906 -0.356973 -0.321405 -0.224589 -0.195969 -0.0568696 0.00628866 0.000309278 0.00618557 0.00103093 0.000824742 0.00319588 0.00773196 -0.0332215 -0.0876045 -0.0982172 -0.152994 -0.492081 -1.19054 -2.01596 -3.4835 -4.4207 -5.63536 -5.55494 -5.0799 -3.5332 -4.02261 -4.70798 -5.15647 -4.3351 -3.04541 -1.88729 -1.18528 -0.388886 0.176245 0.139012 0.00484536 0.00226804 0.00237113 0.00690722 0.017403 -0.101898 -0.132287 -0.0679717 -0.130393 -0.0980224 -1.50318 -2.17198 -4.13754 -7.68244 -7.00358 -7.54794 -8.96031 -10.7777 -14.2712 -18.387 -17.4738 -11.7079 -5.95775 -2.73993 -0.419119 -0.389288 -0.154651 0.255838 -0.024818 0 0.00670103 0.00494037 0.0410469 0.00813781 -0.0701139 1.01663 2.94568 4.08455 3.77747 4.19723 5.58856 5.65512 3.57513 -1.55939 -7.5136 -12.2673 -10.5662 -6.14394 4.74149 19.0151 27.5722 29.2637 21.7258 13.7087 6.25424 1.39199 0.214849 -0.0509233 0.00824742 0.00247423 -0.00729722 0.126048 0.555253 3.37428 8.22599 15.0077 17.7452 21.1658 21.4427 11.2395 -10.2464 -32.2926 -50.3848 -57.7531 -45.8615 -17.4552 23.2638 58.642 79.9262 79.9673 65.0895 41.8023 20.4543 4.9198 0.859022 0.0559065 0.0071134 0.00904346 -0.266599 -0.234909 0.405499 3.39954 9.39182 14.2857 9.17563 3.25784 -8.3743 -26.7868 -51.2867 -76.0697 -98.7804 -107.632 -92.525 -56.9791 1.67041 48.728 74.2909 82.9767 75.5406 56.1445 33.3348 11.4463 2.39911 0.249512 0.00839755 -0.00353796 -0.238484 -1.12165 -1.67172 -1.25384 0.18228 -6.91351 -20.2562 -43.1071 -62.2608 -78.8289 -98.5482 -116.349 -125.57 -128.184 -103.683 -70.8929 -39.3853 -2.42696 23.9151 47.8021 55.441 45.7708 33.6303 16.1273 2.93278 0.0989376 -0.078855 -0.216384 -0.8424 -3.49275 -5.86344 -8.11435 -17.6149 -35.5588 -57.4628 -85.7013 -106.149 -111.019 -124.127 -125.025 -117.698 -91.6284 -72.1035 -55.4037 -63.6456 -60.7307 -44.7214 -12.111 7.55201 20.3234 24.1904 14.9813 2.92486 0.150523 -0.0107248 -0.421476 -1.6007 -6.37502 -9.58866 -16.5157 -32.0759 -54.4628 -81.7389 -102.936 -120.48 -115.283 -111.854 -95.8352 -71.027 -25.0291 -18.9702 -45.0299 -82.4172 -111.518 -107.867 -73.0863 -38.1672 -13.5621 8.1334 10.0233 1.47991 -0.0832801 -0.0127973 -0.315415 -2.4661 -6.71756 -11.1843 -23.184 -41.6201 -67.1404 -89.4677 -105.272 -114.11 -104.368 -88.5947 -66.4161 -18.9608 22.1449 -1.65156 -62.4985 -126.663 -158.204 -158.15 -125.865 -86.3258 -43.6405 -7.5621 4.70961 0.951097 -0.229116 0.00290165 -0.569928 -2.83356 -5.42118 -9.12579 -24.0376 -48.3825 -75.6573 -90.6662 -99.8216 -95.9222 -84.6888 -74.8187 -51.4757 6.7673 36.874 -11.9101 -100.678 -160.478 -182.559 -180.604 -152.469 -113.847 -66.5777 -21.7466 0.0337552 -0.0318152 0.0730789 -0.00117587 -0.482968 -1.99193 -4.03034 -7.23755 -25.4973 -46.4209 -62.1702 -64.1826 -65.5373 -50.7813 -43.2316 -47.9564 -21.8356 33.1709 29.082 -43.4812 -116.692 -145.383 -154.094 -156.072 -143.083 -115.591 -74.713 -27.5608 -2.07103 0.192956 -0.00650508 0.00362826 -0.24897 -1.1746 -2.09753 -3.99638 -22.477 -33.6725 -35.6215 -26.9454 -17.9819 -2.75271 -1.98388 -3.55867 32.1609 60.6035 12.7317 -54.766 -87.6143 -95.4184 -96.5278 -105.702 -112.421 -100.266 -70.01 -27.858 -0.859223 1.19109 0.371408 0.0106674 -0.089985 -0.556502 0.148988 1.26917 -15.7338 -15.5498 -12.9282 -1.60072 3.51352 6.50347 3.85041 25.7741 64.2884 59.5223 9.58383 -43.7245 -70.9089 -53.4762 -51.3145 -65.6932 -81.6635 -79.7144 -59.4029 -23.5498 -0.0956989 2.17297 0.0523119 0.00212018 0.00118744 -0.166676 2.58787 4.71196 -1.161 5.30086 -1.47672 -12.6955 -31.5531 -44.1829 -33.7527 1.30659 42.9753 48.7946 14.0509 -29.0161 -54.2509 -34.9788 -30.103 -47.0727 -56.7677 -59.0344 -43.6086 -15.2922 3.89453 3.67397 0.395275 -0.000215718 0.00989714 -0.112212 4.65274 9.67375 14.364 20.6961 -7.90602 -57.1683 -95.0009 -110.651 -91.1749 -40.6142 18.9257 56.8031 27.5984 -18.3441 -43.0327 -34.516 -26.4416 -29.6079 -29.6572 -32.5847 -23.2024 -3.93134 9.06057 4.32709 0.534318 0.0101031 -0.0131026 0.151536 7.12415 18.6716 31.2012 33.1605 -10.8526 -82.4969 -139.956 -153.182 -121.565 -61.0036 9.42057 50.5874 26.7749 -16.8903 -47.2952 -46.1695 -33.9465 -21.7195 -12.4519 -14.6769 -3.06625 8.38822 10.7535 2.85316 0.0662496 -0.041701 -0.0254395 -0.209918 9.609 25.8783 41.7986 42.9954 -3.94605 -81.7814 -136.578 -150.058 -111.699 -47.6135 15.6268 34.3791 8.05877 -30.6493 -55.7156 -58.2484 -39.853 -14.6806 -1.28857 4.7719 16.8964 20.3722 10.5437 1.54395 0.400344 0.00824243 -0.188968 -0.0595575 9.10977 25.796 41.0247 47.9194 14.7439 -47.2042 -97.0176 -111.089 -79.4674 -39.1276 6.69081 6.31602 -17.4472 -47.6663 -60.5377 -48.7266 -24.728 1.46914 13.6797 22.2218 29.5829 22.2786 9.43188 1.7426 0.125273 0.00381443 -0.181223 0.286272 7.75585 21.299 34.6146 49.503 35.4054 5.23627 -32.6372 -63.6636 -55.4603 -46.1331 -29.2756 -32.7726 -47.7253 -51.4054 -41.9799 -16.1819 8.63717 27.1199 32.6765 36.6657 33.2412 19.5814 5.69755 1.10822 0.014182 0.00439703 0.0160973 0.533272 5.80373 16.2015 28.0731 40.5605 40.2905 32.5501 7.37288 -30.7171 -59.7742 -77.3721 -75.84 -74.324 -69.5192 -52.5869 -17.9952 9.48698 35.5363 43.4674 46.3919 36.6862 26.3358 13.0523 4.15248 0.228491 0.000388428 0.00728861 0.00824941 0.414682 3.1324 12.5949 18.2694 21.6704 22.8065 21.9624 8.90188 -28.29 -76.2402 -116.265 -127.624 -119.466 -92.2563 -52.1744 -8.91921 26.9029 41.5655 44.4193 37.4278 24.6559 14.9404 6.05616 1.85421 0.0749214 0.00811031 0.01 0.00494845 0.16544 0.894921 4.989 8.18072 5.82848 -4.15603 -7.09876 -22.6009 -51.2654 -91.3756 -126.971 -141.542 -129.121 -93.9345 -47.1112 -12.3182 11.958 23.6897 25.414 18.1219 10.254 5.28703 2.45854 1.13711 0.294625 0.00226804 0.00484536 0.00309278 -0.00476185 -0.433529 -1.65763 -3.56501 -9.48825 -20.819 -33.7193 -45.9192 -66.8797 -86.0754 -103.482 -104.329 -87.553 -65.8111 -43.5841 -21.5592 -4.32049 -0.786743 1.04857 4.20634 3.26059 1.69976 1.32434 0.711335 0.106188 0.00690722 0.00154639 0.00402062 0.00593695 -0.149535 -1.5711 -4.4011 -9.94386 -17.3424 -23.5188 -26.7534 -32.6717 -37.1571 -39.7181 -42.2303 -40.8901 -37.4246 -32.3602 -24.7507 -16.4165 -11.8443 -6.33883 -2.38761 -0.209339 0.368168 0.228215 0.0857955 0.104951 0.00670103 0.00329897 0.00690722 0.00247423 0.00402683 -0.149633 -0.410708 -1.95419 -4.45063 -6.73427 -8.35413 -10.4218 -12.4922 -13.8077 -17.7733 -18.2026 -15.1136 -14.0288 -10.7499 -7.8786 -5.28699 -2.79152 -1.08078 -0.298673 -0.00101865 0.00649039 0.00536082 0.000206186 0.00845361 0.00381443 0.00350515 0.00927835 0.00556701 0.00613434 -0.00135803 -0.0212798 -0.336802 -0.720648 -0.918577 -1.00759 -0.748191 -0.939085 -1.44632 -1.56375 -0.926895 -0.925428 -0.983049 -1.12732 -0.457238 -0.105323 -0.144379 -0.0519902 0.0135405 0.00690722 0.00731959 0.00948454 0.00175258 0.00824742 0.00701031 0.00845361 0.00680412 0.00938144 0.00350515 0.00824742 0.00804124 0.000206186 0.00494845 0.000927835 0.00804124 -0.109016 -0.244554 0.00592479 0.00748058 0.00793814 0.00608247 0.000515464 0.00752577 0.00680412 0.0043299 0.00123711 0.00814433 0.00329897 0.00690722 0.0057732 0.00185567 0.0102062 0.00206186 0.00381443 0.00608247 0.000444747 0.0014942 -0.0166488 -0.108919 -0.629131 -0.707602 -1.27147 -1.65134 -2.07118 -3.24596 -2.42486 -1.83315 -1.38677 -2.42722 -1.03377 -0.976765 -0.632332 -0.352751 -0.192057 -0.0547576 0.0042268 0.000927835 0.00463918 0.00340206 0.00886598 0.00804124 0.0014433 -0.0500533 -0.156419 -0.093295 -0.191259 -0.719049 -1.68704 -4.33807 -9.58013 -13.0412 -19.1871 -23.4185 -23.8964 -21.2626 -18.6895 -14.9447 -13.0032 -11.6532 -8.84245 -6.87282 -4.05386 -1.26765 -0.0554765 0.125285 0.00742268 0.00701031 0.00969072 0.0014433 -0.00293159 -0.148268 0.105336 -0.653389 -1.45818 -2.80593 -6.05032 -14.0513 -21.8604 -35.9188 -44.0627 -59.3692 -71.3891 -84.3979 -91.5909 -85.8742 -65.5563 -45.2949 -23.0432 -9.19484 2.05044 2.56564 1.4212 1.29692 0.0545997 0.00113402 0.00402062 0.00866599 -0.0492579 -0.141702 -1.46488 -4.42045 -3.44292 -7.26525 -20.9048 -26.7821 -31.5535 -42.0253 -72.5015 -119.729 -140.5 -144.356 -117.731 -75.5598 -22.8493 18.316 49.1622 83.5241 80.8698 66.368 40.0168 11.8341 2.10529 -0.178202 0.00278351 0.00185567 -0.237521 -0.713884 -5.75087 -11.7572 -10.6107 -4.85066 -1.96104 7.20449 4.75062 -19.5862 -90.8629 -176.725 -254.304 -290.47 -236.503 -109.536 21.5582 138.565 240.973 275.26 254.485 183.824 103.882 34.3847 6.95348 0.290825 0.00762887 0.000596995 -0.488192 -3.91392 -13.8086 -18.9544 -14.3312 -4.77908 -1.32451 5.29984 5.39394 -18.9297 -84.7973 -165.636 -239.135 -294.779 -281.775 -181.178 -19.6498 140.381 261.788 329.08 344.432 292.83 191.078 78.3328 16.0382 1.85159 0.00111565 -0.216352 -1.37046 -7.98184 -26.7274 -31.2863 -23.378 -18.6464 -13.2539 -27.4929 -16.9777 -35.1894 -90.4956 -163.586 -216.878 -282.248 -271.186 -217.807 -148.299 -40.7421 89.0739 222.395 306.494 327.987 256.024 120.615 21.2186 1.10168 -0.126625 -0.241249 -1.76817 -11.1516 -36.9054 -41.6486 -43.3172 -48.9948 -43.8339 -55.887 -55.3716 -45.1509 -107.86 -185.026 -230.646 -249.408 -245.303 -257.362 -304.979 -277.552 -153.641 25.5568 171.503 289.316 270.587 137.167 25.1015 1.79743 -0.0169211 -0.372968 -1.48415 -12.602 -32.0442 -39.5966 -47.0257 -52.4263 -34.2905 -31.3537 -27.5611 5.87056 -79.4016 -156.7 -199.076 -215.815 -251.75 -322.704 -427.088 -462.587 -366.586 -163.007 30.4402 172.786 219.901 118.509 20.5842 1.81104 -0.0177837 -0.274727 -1.85538 -9.90184 -19.6786 -36.6971 -38.3374 -35.0216 -12.2628 22.2404 35.3685 56.4569 -21.4263 -88.636 -126.836 -175.691 -285.19 -434.98 -573.106 -627.514 -547.665 -370.035 -172.022 16.7528 110.534 77.2651 17.0748 0.813129 -0.00376755 -0.669356 -2.07349 -7.68945 -12.496 -30.9302 -30.8227 -33.0957 3.67188 31.6168 66.9823 99.8081 70.2122 11.9477 -93.7243 -222.352 -368.363 -532.868 -669.973 -735.322 -680.688 -521.399 -326.062 -134.118 -5.31459 28.3791 7.38437 0.789203 0.0019596 -0.558378 -1.73284 -3.41629 -8.48018 -32.0986 -38.0835 -36.1692 9.47852 38.3716 120.445 179.204 151.604 35.0991 -120.209 -276.851 -412.294 -491.032 -576.41 -642.416 -620.129 -519.453 -365.372 -206.77 -72.8425 -2.01811 2.82666 -0.106165 0.00310087 -0.153618 -1.13687 -1.60079 -7.70686 -42.4265 -61.7926 -51.7572 -5.67798 56.3897 147.337 185.953 132.321 0.567853 -144.3 -288.805 -337.466 -313.281 -339.654 -409.522 -441.549 -410.082 -320.625 -208.117 -82.0995 -6.32651 2.05695 0.349173 0.035279 -0.153516 -0.704775 -0.977132 -8.7311 -63.707 -97.2706 -109.414 -71.817 -15.4215 47.3799 46.805 10.1941 -74.2644 -165.647 -212.895 -191.662 -166.626 -159.183 -225.816 -279.49 -287.377 -253.829 -179.896 -71.8103 -9.53775 2.67461 0.0760941 0.0175847 -0.16483 -1.0401 -0.0921121 -14.8749 -70.0696 -112.093 -171.692 -210.405 -217.204 -204.65 -203.69 -212.377 -238.28 -244.749 -173.842 -74.718 -60.9576 -54.9408 -108.683 -171.541 -192.708 -184.078 -131.547 -52.0987 -3.93351 3.34154 0.54794 0.00241747 -0.0886346 -2.14379 1.3746 -11.7066 -47.3169 -89.6026 -222.852 -377.94 -477.942 -505.095 -482.14 -422.084 -352.575 -251.453 -103.388 -35.7546 -46.5164 -50.8406 -60.1811 -87.3752 -106.39 -103.534 -68.1547 -26.033 3.14878 4.45611 0.460785 0.00783505 -0.060246 -2.61931 1.57085 5.03056 28.6422 25.0231 -165.987 -423.695 -612.716 -692.294 -635.131 -533.597 -385.947 -215.09 -74.0181 -26.1691 -62.0437 -79.632 -59.2496 -35.0456 -35.5305 -45.6415 -13.1357 8.71832 7.4174 2.90968 0.052982 -0.023665 -0.0205888 -3.08851 0.00640124 28.5381 105.478 158.01 -25.4504 -332.432 -574.478 -676.077 -594.378 -438.339 -257.377 -131.087 -75.5006 -95.1722 -110.758 -122.212 -69.595 -1.84834 11.4693 21.7558 36.7141 34.7909 6.94661 1.04407 0.297247 0.00587793 -0.185128 -2.17857 -4.79525 31.7304 134.083 230.627 120.113 -116.944 -370.006 -483.886 -413.187 -269.722 -143.657 -113.16 -147.728 -197.304 -181.004 -121.279 -35.5481 39.4321 57.079 74.3271 72.6303 38.7459 7.92448 0.870013 0.0498886 0.0057732 -0.361438 -1.765 -6.75324 9.89797 111.843 228.064 208.336 94.5941 -98.6909 -244.289 -224.78 -179.468 -145.25 -197.664 -239.599 -228.372 -143.162 -38.9904 47.0387 93.5534 98.0911 112.716 77.2172 29.3898 5.97618 0.207039 0.0249542 0.00827352 -0.0264046 -1.44802 -7.00257 -1.6524 42.6559 136.29 183.579 153.143 54.3413 -80.7846 -145.203 -188.069 -217.165 -249.552 -238.295 -155.164 -33.2465 43.0647 108.271 129.151 134.24 99.2495 52.1632 17.302 5.50953 0.0254258 0.00677661 -5.53511e-05 0.00177144 -0.986359 -6.71853 -6.32318 -11.3647 7.11843 43.6874 57.1658 43.9399 -40.3571 -122.493 -185.708 -224.453 -227.161 -155.387 -41.5875 42.1074 114.262 133.823 119.812 87.7304 53.7126 28.3932 9.88248 3.90192 0.527108 -0.00190235 0.00608247 0.0056701 -0.031401 -2.34241 -6.20456 -18.7802 -41.6429 -63.9481 -66.2281 -77.0784 -87.7985 -117.655 -164.564 -178.97 -144.254 -80.3844 7.78452 44.9079 62.5313 70.6337 59.0864 30.7136 17.075 11.8072 5.28825 2.74775 0.24756 0.00536082 0.00474227 0.00195876 -0.110308 -0.622688 -6.73867 -18.3699 -36.3209 -56.8204 -81.6485 -94.397 -127.258 -149.413 -157.798 -139.458 -110.169 -64.4958 -29.2073 5.3817 24.1504 20.1209 9.02713 5.04916 5.22653 4.94043 3.90416 0.618377 0.120619 0.000206186 0.0057732 0.00206186 -0.00508189 0.874812 -1.49994 -8.37955 -15.5243 -19.9589 -22.9547 -15.5735 -17.9731 -18.7162 -19.0309 -12.6004 -15.8087 -4.32293 3.62114 9.98473 6.21158 2.70899 -0.870774 2.14846 4.6676 3.85804 2.40078 0.0907574 0.135928 0.00381443 0.00701031 0.00938144 0.00752577 -0.00783874 -0.366236 -1.14484 -3.51613 -5.94996 -6.6987 -4.80008 -3.09966 0.277964 0.904099 -2.50727 -5.73412 -1.22757 0.143836 2.49475 1.2536 0.411352 1.59994 1.25908 0.75636 0.0751256 -0.00735045 0.00639175 0.00463918 0.00742268 0.00865979 0.00278351 0.00762887 0.00835052 0.00351115 0.00924294 0.00429419 -0.420454 -0.47676 -0.561304 -0.225336 0.64327 0.574186 -0.657243 -0.915692 -0.838914 -0.365493 -0.221957 -0.330141 -0.143161 -0.00170284 -0.246238 -0.0232597 0.0425994 0.0056701 0.00752577 0.00721649 0.00298969 0.00247423 0.00896907 0.00319588 0.0043299 0.00742268 0.00546392 0.00309278 0.01 0.00515464 0.000515464 0.00876289 0 0.113517 0.245402 0.00347816 0.00619731 0.0102062 0.00257732 0.00164948 0.00350515 0.00639175 0.00896907 0.0085567 0.00783505 0.00773196 0.0042268 0.00443299 0.00979381 0.00257732 0.00350515 0.000103093 0.00835052 0.01655 0.0201937 0.0383342 0.151206 0.566255 0.610793 1.4527 1.47567 1.23553 2.4839 1.8764 1.0756 0.477508 1.61917 1.19249 0.763818 0.704761 0.510893 0.428073 0.139591 0.00814433 0.00185567 0.00298969 0.00329897 0.00402062 0.0102062 0.00360825 -0.0664615 0.085798 0.268234 0.454536 0.910158 3.39008 5.55507 8.7 12.094 17.0082 20.0459 20.932 20.439 21.4252 19.2964 17.5343 14.0974 9.42228 5.71715 3.29368 1.25695 0.33227 0.000316428 0.0057732 0.00329897 0.00463918 0.00731959 -0.00551554 -0.18152 0.357158 0.344117 1.21279 1.91511 5.87962 11.3541 17.0084 21.2802 28.8955 37.6352 51.7491 60.6238 68.1943 76.6813 77.5024 67.7353 51.9481 34.2365 21.3122 9.76049 5.24787 1.01498 0.253243 0.00298969 0.00917526 0.00801751 -0.0250044 -0.0951422 -0.66727 -2.44439 -3.05829 -5.98132 -8.07868 -10.3711 -10.6815 -23.3613 -42.2373 -65.421 -72.24 -62.4669 -24.3123 18.3558 58.1186 70.9878 67.9709 71.1595 55.7038 39.7069 19.6642 4.93131 0.652387 0.0964878 0.000309278 0.0101031 -0.00424392 -1.00776 -4.21716 -9.37767 -17.209 -25.7753 -33.3799 -53.9391 -84.2889 -151.121 -230.829 -310.449 -359.504 -376.685 -349.634 -272.932 -167.413 -77.009 0.369874 55.6636 69.7297 60.3876 38.006 11.3105 2.61052 0.419309 0.00793814 0.00324806 0.0828045 -1.56946 -9.82366 -19.2782 -24.9128 -37.1107 -58.5738 -91.1221 -145.198 -214.128 -274.968 -311.803 -311.466 -318.245 -333.977 -322.85 -273.205 -192.936 -92.6147 -7.63241 42.202 56.3349 52.7645 24.2357 5.09138 1.04456 0.00204767 -0.309697 0.76476 -0.778006 -14.233 -14.7757 -12.7993 -27.9108 -52.4235 -91.8702 -106.92 -114.227 -109.029 -81.0558 -33.5862 -46.126 -106.199 -201.702 -284.789 -271.401 -180.979 -81.3644 -0.0714269 46.4495 60.2169 34.5402 6.11102 0.573912 -0.196514 0.91523 4.17028 2.75273 -7.67372 -8.99295 -7.70265 -12.6265 -19.7729 -49.5879 -33.8607 17.841 35.1546 72.511 138.14 108.551 -19.4329 -184.935 -348.258 -398.791 -317.978 -180.998 -72.9064 19.4658 51.428 34.2278 5.04921 0.00716719 0.0818277 1.55725 6.96027 11.8909 5.30002 6.74408 2.47155 -4.10882 -3.24039 -9.74648 25.3186 83.6865 88.5222 108.249 152.875 108.29 -45.6266 -240.353 -413.596 -485.447 -415.974 -270.855 -142.325 -41.3922 24.2179 22.0227 1.65989 0.822353 0.0981762 1.36344 8.7989 17.3719 13.7406 14.785 8.13428 -4.20392 0.746338 13.9463 44.4393 56.4877 31.6416 51.2727 65.0905 19.535 -106.767 -290.412 -446.032 -504.683 -445.655 -316.853 -198.505 -96.731 -16.6111 6.00813 1.03288 -0.46753 0.0195869 1.6565 10.4545 15.4667 15.6742 11.6816 2.69987 -10.4615 3.6028 9.3119 16.8898 -8.22785 -37.0193 -25.4439 -41.6562 -86.6546 -156.121 -273.991 -389.653 -457.262 -409.85 -304.928 -202.644 -117.112 -43.5386 -5.60069 -2.6119 -0.098868 0.00710042 1.33551 7.12139 14.5902 19.3533 6.7422 -9.54812 -19.9622 -7.51052 -27.9256 -45.274 -70.1703 -113.985 -159.519 -196.648 -179.041 -155.888 -183.821 -258.761 -330.86 -311.079 -245.253 -167.096 -101.532 -42.4529 -7.61674 -2.05696 -0.0560833 0.0045592 0.32149 3.78795 9.19951 14.6275 -5.08509 -36.8959 -58.3714 -54.0815 -71.311 -94.9538 -148.66 -229.996 -314.852 -311.868 -217.951 -106.89 -68.926 -119.238 -169.143 -183.246 -152.25 -109.726 -68.4243 -20.2856 -2.77686 -1.38397 -0.151273 0.0207484 0.097862 1.63966 5.56493 0.242023 -40.1696 -76.4371 -105.762 -110.29 -126.601 -161.691 -240.451 -342.222 -414.485 -333.717 -169.849 -38.679 -3.63093 -16.0762 -51.1282 -63.8184 -65.6967 -44.0933 -37.7634 -16.1068 0.911697 -0.556618 0.0326547 0.0128433 -0.0779832 0.0115246 0.149069 -18.5371 -71.4563 -111.44 -153.584 -178.824 -194.919 -221.995 -304.229 -412.14 -425.411 -287.807 -121.791 -17.4293 27.9523 18.6322 10.9652 6.26201 -3.66985 -13.0988 -24.2114 -11.3633 -0.342775 -1.19427 0.0060886 0.00831456 -0.19446 -1.25544 -5.36255 -25.6997 -84.3805 -130.947 -186.272 -236.15 -253.563 -283.316 -349.556 -404.452 -324.951 -173.832 -60.7896 -30.7601 -30.668 -7.07077 10.2376 21.4567 6.45952 -3.82876 -18.0756 -8.46255 0.150761 -0.437003 -0.0888098 0.000309278 -0.0470793 -2.48498 -9.02878 -29.8949 -66.4978 -103.755 -191.156 -271.455 -308.535 -337.68 -358.871 -334.769 -183.622 -35.4948 2.12872 -52.3407 -68.3149 -37.579 -15.0853 6.34049 -4.94956 -16.1474 -15.1411 -3.42781 3.69451 0.274797 -0.427926 0.135603 -0.0331953 -2.75613 -12.023 -25.6646 -47.5194 -68.4082 -163.164 -284.305 -343.102 -355.128 -310.56 -199.47 -29.7966 72.1743 19.9493 -62.4036 -68.2591 -58.2131 -41.1963 -11.2256 -20.9266 -27.7946 -16.1176 1.4296 2.50582 0.366318 -0.124071 -0.000331179 0.0715435 -2.43912 -15.7993 -24.9081 -39.198 -46.954 -130.607 -235.215 -300.229 -273.493 -167.271 -38.4648 88.41 113.309 15.6079 -70.794 -89.9531 -92.0288 -63.8374 -38.9941 -50.8571 -36.3384 -10.7263 6.60916 2.4527 -0.24933 -0.0509235 0.00103093 -0.638655 -2.63551 -15.5104 -32.4191 -38.563 -51.4125 -108.374 -164.36 -195.309 -156.603 -48.6199 60.6819 131.78 97.5382 -10.6561 -78.4131 -108.043 -113.321 -90.5568 -72.4982 -60.3542 -25.307 -1.01863 6.82085 2.53715 0.0274692 0.0232738 0.00758043 -0.156744 -2.47533 -12.0544 -26.9354 -48.793 -70.517 -102.535 -133.04 -145.445 -129.061 -65.7543 -6.18947 9.43545 -33.5339 -101.377 -135.397 -154.521 -153.936 -122.54 -82.8966 -37.5456 -14.0025 -0.454615 5.64273 1.88784 -0.277279 0.00662069 0.00471479 0.00143619 -2.73012 -9.36251 -15.4695 -42.3607 -84.262 -113.152 -138.469 -168.229 -202.007 -237.101 -245.934 -262.29 -264.347 -257.225 -236.635 -217.421 -171.027 -113.373 -61.7962 -28.9547 -11.0121 -0.9316 2.66819 1.23594 0.0842518 -0.00112039 0.00958763 0.00216495 -1.48785 -4.99181 -6.6143 -14.8374 -37.3287 -70.1253 -112.656 -171.368 -244.201 -340.334 -416.007 -428.052 -372.338 -312.414 -242.066 -173.565 -123.568 -75.5068 -36.2179 -19.6465 -5.89117 -1.34136 1.64639 0.718759 0.0948432 0.00195876 0.00474227 0.0014433 -0.787819 -1.34665 2.37265 8.85542 13.1904 18.1421 -1.81151 -38.7135 -89.3821 -147.206 -181.764 -175.033 -143.96 -101.404 -66.8017 -21.7181 -13.1905 -6.7158 2.93531 3.13735 3.56345 1.66778 1.26655 -0.212598 -0.0104281 0.000206186 0.00546392 0.00360825 -0.116888 1.1584 5.61524 12.8743 28.9651 57.3743 78.1389 91.0103 99.6581 110.419 120.703 126.119 117.176 106.522 95.9338 84.0108 58.5715 37.804 24.9438 16.2097 8.04626 2.22831 1.12329 0.0185424 -0.0128614 0.0101031 0.00917526 0.00536082 0.0014433 0.0283384 0.753602 3.02068 8.2037 16.0348 27.7671 38.9607 48.1819 57.8266 64.3652 78.0817 76.1031 62.7961 54.8267 42.9668 30.0378 19.4134 10.8112 5.37742 1.68018 0.0477437 0.00490288 0.00752577 0.0057732 0.00587629 0.00298969 0.00319588 0.00659794 0.00793814 0.0146115 0.0662517 0.105665 0.0298184 1.26637 1.78786 2.48885 2.05973 2.8941 4.4568 4.65599 2.54166 3.52868 3.49575 3.98923 1.5398 0.584116 0.625876 0.505919 0.0459775 0.0085567 0.00134021 0.0042268 0.00742268 0.00907216 0.00402062 0.00927835 0.0102062 0.00814433 0.01 0.00216495 0.0102062 0.00154639 0.00360825 0.00938144 0.00762887 -0.00296759 -0.0196154 0.00356707 0.00914349 0.00814433 0.00546392 0.000309278 0.00865979 0.00752577 0.00927835 0.00371134 0.00948454 0.00876289 0.00969072 0.00680412 0.00536082 0.00103093 0.00298969 0.00360825 0.00463918 0.00849284 0.000323336 -0.00397942 -0.0270674 -0.159895 -0.180537 -0.290838 -0.34997 -0.23158 -0.580338 -0.312527 -0.0852833 0.0471819 -0.336498 -0.172982 -0.125662 -0.110876 -0.0660274 -0.0433324 -0.0138898 0.000515464 0.00278351 0.00340206 0.00536082 0.00835052 0.00649485 0.00298969 -0.000644469 -0.0410817 -0.042096 -0.0667499 -0.180105 -0.467924 -1.18675 -1.88066 -2.19306 -3.40742 -3.47359 -3.70328 -2.66701 -2.41487 -2.81275 -3.31799 -2.84452 -2.09132 -1.56387 -0.844004 -0.286054 0.0439182 0.0797838 0.0056701 0.000103093 0.00814433 0.00103093 0.0105214 -0.00826701 -0.00233867 -0.067036 -0.185305 -0.331136 -1.20627 -2.42952 -3.33841 -5.61627 -4.3747 -4.57963 -4.79311 -6.35431 -10.4204 -13.2221 -12.8356 -8.83581 -4.63647 -2.22962 -0.35157 -0.238687 -0.0536686 0.216686 -0.00304656 0.00546392 0.00257732 0.00445965 0.0230633 0.0139284 -0.0749713 0.577408 1.90334 2.27857 1.48797 2.6396 4.77746 5.02289 1.46122 -5.30788 -10.5832 -12.7866 -11.9264 -7.23952 3.18435 13.9565 19.2139 23.4297 19.4347 13.1546 6.46094 1.57502 0.260763 -0.0362475 0.000515464 0.00525773 -0.0201131 0.201752 0.388692 2.47049 6.3901 10.9696 13.4075 17.3124 17.8907 6.0521 -17.1888 -38.1673 -56.4513 -61.992 -48.9497 -20.2787 14.8469 43.598 64.4524 67.287 57.8446 37.4633 19.293 5.36652 1.05904 0.033395 0.00247423 0.00114551 -0.0244525 0.388002 1.33737 5.06972 11.838 15.9307 14.2431 8.85966 -0.238482 -21.4568 -48.9386 -76.1723 -100.184 -112.176 -98.8455 -63.5822 -9.17231 32.7705 61.9713 73.2718 69.3698 53.216 33.5645 13.0067 2.62965 0.247906 0.00729983 0.0633828 0.0291423 0.574681 1.72334 6.27173 11.1846 8.23154 -2.68246 -20.2826 -36.4039 -54.9743 -78.7461 -102.005 -112.055 -119.417 -99.5159 -68.9283 -40.5101 -7.82559 18.5601 42.0846 53.6073 51.0787 39.6283 19.7454 3.41799 0.172305 0.0081207 0.105818 0.318645 0.694103 1.25097 3.45432 -0.442072 -11.5428 -30.3878 -54.6693 -74.2025 -79.4755 -92.0372 -94.6466 -78.91 -57.6117 -46.4976 -44.9102 -59.6941 -58.8734 -38.9762 -10.0954 15.1631 34.1112 35.2727 20.6659 4.06988 0.233149 0.0133937 0.0855334 0.642409 0.795699 1.05482 -2.02196 -14.2785 -32.6919 -55.2521 -78.8052 -95.4695 -87.1165 -77.1706 -49.1273 -15.6868 13.3806 3.60568 -35.5226 -79.0897 -103.626 -94.5197 -59.762 -22.3617 6.1447 23.9118 16.7606 2.81039 0.221804 0.0158455 0.116662 0.692203 1.31732 -0.932213 -10.4341 -28.8337 -52.3922 -75.4352 -89.6604 -97.0674 -76.0932 -49.9555 -8.47395 32.7062 45.0245 0.990527 -67.3576 -127.137 -154.88 -142.367 -108.073 -64.636 -21.451 6.2755 9.76935 2.24054 -0.0458217 0.00195438 0.0746631 0.683763 0.839096 -3.29089 -19.5112 -41.5598 -67.8669 -86.0093 -93.8267 -80.8959 -50.9587 -26.9582 3.13619 28.0142 16.5512 -48.6808 -127.46 -177.181 -191.159 -175.396 -135.974 -90.2293 -43.434 -11.8121 2.08145 0.415117 0.149494 0.00136434 0.0573981 0.378519 -0.0260437 -6.14401 -24.0457 -44.5044 -63.8471 -70.5443 -68.638 -37.5046 -14.4104 -13.7703 -14.2082 -7.23263 -38.4283 -105.539 -157.78 -175.667 -176.745 -157.64 -127.719 -87.6451 -50.3606 -18.3667 -1.56919 0.231162 0.025206 0.00311438 0.0417876 0.141287 -0.389598 -7.31627 -23.9862 -39.9 -51.0526 -49.1028 -33.1606 -5.55068 -1.68102 -21.5589 -32.8137 -40.1614 -86.2574 -126.763 -136.375 -128.383 -117.149 -103.216 -88.2746 -66.2369 -41.0159 -14.8487 -0.703029 0.785426 0.229921 0.015802 0.0461392 0.0431339 -0.485849 -5.87933 -20.7043 -32.0927 -39.2337 -33.2932 -20.9039 -14.4275 -34.2201 -49.2782 -54.3979 -65.0379 -87.6918 -110.155 -105.551 -70.5017 -50.3873 -43.4045 -42.83 -39.4442 -27.0547 -8.9534 -0.0777821 1.32732 0.0343921 0.0105858 0.0369549 0.0636227 0.73983 -2.60147 -9.90181 -16.8667 -31.632 -44.4778 -54.9461 -72.629 -93.9446 -101.564 -89.1655 -71.3502 -74.3014 -84.5922 -75.2301 -31.932 -6.00766 -3.95759 -10.6198 -17.3844 -12.8372 -2.51042 2.4736 1.96405 0.22204 -8.75898e-05 0.0397779 0.22494 2.85102 4.81643 6.44345 2.24158 -30.149 -75.4961 -112.886 -144.756 -161.28 -147.489 -99.3007 -47.9109 -45.3836 -65.7533 -61.0597 -22.1794 10.8998 14.5367 11.7372 1.86774 0.206544 3.22702 5.0646 2.5079 0.254798 0.000927835 0.0148709 0.386813 5.43706 15.1366 28.5842 28.7644 -16.3868 -85.4432 -149.263 -186.468 -190.345 -153.909 -82.8359 -24.077 -24.6476 -46.9609 -51.4017 -28.7094 1.19277 14.863 19.4101 12.0383 10.0782 9.65528 6.0006 1.66806 0.107833 0.00476719 -0.00715853 0.391855 7.87279 24.0563 44.2928 51.4008 9.0207 -64.2281 -131.493 -169.177 -157.279 -104.816 -34.3857 -1.67623 -12.945 -40.6673 -45.099 -35.2966 -11.9864 10.4823 20.7289 19.7059 18.2431 14.306 5.5711 0.811062 0.203124 0.010572 0.0389388 0.72884 7.58674 25.4261 48.6544 64.2084 37.7639 -15.5911 -72.5694 -102.967 -86.2051 -44.85 1.67095 5.41744 -18.0882 -43.5413 -44.2755 -31.3858 -10.024 13.5854 22.2276 23.4112 21.2641 13.6743 4.84354 0.828118 0.0675455 0.00484536 0.0283379 0.681518 6.63915 20.1124 42.0399 64.4644 57.5765 36.9622 -0.776666 -34.3497 -28.0527 -16.9869 -3.31115 -13.4344 -31.2488 -40.4749 -30.9414 -14.3359 3.00722 20.5682 24.7204 24.887 19.2347 10.1189 2.7671 0.55391 0.0151428 0.00392481 0.03994 0.558312 4.96643 14.7424 29.1797 49.4364 56.982 53.8108 34.1049 2.24087 -21.332 -37.2312 -41.9443 -44.56 -44.1783 -36.1438 -17.2242 -4.40762 12.1556 20.7201 25.8902 18.0165 12.1004 5.9805 2.27981 0.213532 0.005878 0.00984216 0.00690421 0.547225 2.90639 10.5874 18.299 25.7194 33.3521 35.7783 30.7421 -0.0609479 -40.3229 -75.454 -85.9732 -80.9369 -60.7081 -38.2831 -16.5907 1.37451 10.4654 12.8118 10.9801 7.01049 4.58854 2.26977 0.955369 0.131836 0.0086953 0.00948454 0.00587629 0.287247 1.44748 6.06419 10.9705 12.0326 7.78439 3.29746 -4.35667 -23.4221 -55.7649 -87.7176 -99.7821 -89.8161 -68.2346 -43.3895 -26.962 -16.4924 -9.10681 -4.19828 -3.71509 -2.41259 -0.797085 0.502373 0.582865 0.22256 0.00319588 0.00298969 0.00752577 0.0966429 0.600965 1.18508 1.83627 0.482303 -6.35256 -17.9066 -28.0396 -46.1057 -62.2112 -73.8499 -73.5606 -64.4063 -52.4185 -42.7914 -30.294 -23.0316 -20.4247 -15.8321 -8.45247 -4.2023 -1.81123 0.491647 0.300819 0.0927805 0.00587629 0.0101031 0.00216495 0.0113539 0.260464 -0.117966 -2.00798 -4.023 -7.1588 -11.0017 -14.123 -20.9514 -22.1166 -23.8827 -24.9389 -25.2789 -21.5455 -20.9881 -19.4712 -18.449 -16.0796 -12.6452 -6.78396 -2.21961 -0.502363 0.268937 0.0268757 0.0936998 0.00814433 0.00453608 0.000309278 0.00927835 -0.00328434 -0.200722 -0.571872 -1.37405 -1.99828 -2.75269 -3.76137 -4.95156 -5.36673 -6.63395 -7.03578 -8.21911 -5.98848 -5.08553 -4.25428 -4.39907 -4.68689 -3.99058 -1.70707 -0.327909 -0.0476809 -0.00273627 0.00257732 0.00536082 0.00814433 0.00762887 0.00206186 0.00969072 0.00556701 0.00109344 0.00925313 -0.0168852 -0.287333 -0.240403 -0.142552 -0.0519397 0.00996979 -0.134304 -0.0436111 -0.531979 -0.225097 0.0181756 0.0555145 -0.106911 -0.27222 -0.223006 -0.132259 -0.0894527 0.00444447 0.00412371 0.00381443 0.00865979 0 0.00804124 0.01 0.0042268 0.00216495 0.00247423 0.00814433 0.0101031 0.0028866 0.0043299 0.0101031 0.00474227 0.00381443 0.000585163 -0.00433511 0.00221123 0.0037691 0.00804124 0.00381443 0.00597938 0.00835052 0.00938144 0.00546392 0.00494845 0.00412371 0.0071134 0.00948454 0.00845361 0.00360825 0.000618557 0.00969072 0.00206186 0.00783505 0.00135765 0.00140207 0.00693551 0.0104026 0.0793094 0.0885893 0.126379 0.0447654 -0.146025 -0.000818842 0.1 0.0632005 -0.411723 -0.105033 0.0429206 0.026379 0.0272108 0.0194966 0.0160178 0.00477604 0.01 0.00597938 0.00175258 0.00103093 0.0102062 0.00659794 0.00587629 -0.0145528 0.0225183 0.0263237 0.0330667 0.0305009 0.0666617 -0.0861567 0.0338578 0.230063 0.338037 0.604998 0.421063 1.11935 1.20669 1.25635 1.48091 1.43125 0.907809 0.488984 0.290733 0.119669 -0.0483263 -0.0571803 0.00886598 0.00134021 0.00742268 0.00505155 0.0157129 -0.0272688 0.0802084 -0.016966 -0.0804241 -0.868569 -1.98398 -3.93274 -4.88159 -6.43035 -6.01857 -5.00262 -2.86162 -1.31137 -1.23159 -0.104115 3.74746 5.98664 6.90574 5.808 4.48424 2.15995 0.985433 0.231581 0.036799 0.01 0.00525773 0.00733514 0.0294946 -0.0126984 -0.189579 -0.781705 -1.91739 -5.03835 -9.69434 -14.5391 -17.6228 -24.8144 -32.7242 -40.7172 -43.6813 -39.6425 -30.6485 -16.9556 0.459623 14.8219 22.3629 27.7231 23.1301 15.8475 7.65835 1.81216 0.272383 0.0127146 0.00412371 0.00329897 -0.0129292 -0.128906 -0.894901 -2.83216 -6.62466 -12.2013 -20.0381 -29.1272 -39.5518 -56.9052 -78.996 -99.5948 -113.306 -115.779 -103.736 -73.9575 -33.5054 2.92336 29.1208 43.9242 43.4517 32.446 18.1221 4.88582 1.03146 0.0962275 0.0043299 0.00271495 -0.0602537 -0.562004 -2.58296 -6.43629 -12.1501 -22.2381 -35.6615 -49.8887 -62.3395 -75.9805 -89.6761 -95.7516 -95.2186 -94.0024 -89.9646 -75.3233 -45.464 -15.2005 13.1247 31.75 41.2334 39.3084 27.6843 10.8539 2.22658 0.273527 0.00446172 -0.0522032 -0.179851 -1.19664 -5.73335 -11.4221 -20.5273 -32.3803 -47.3914 -64.0839 -69.6953 -68.9865 -61.1688 -51.0772 -35.4728 -32.9074 -36.3166 -47.6032 -57.9566 -46.1838 -23.8211 0.850622 22.5255 36.3374 32.6904 16.0557 2.82518 0.17739 -0.0402033 -0.0165738 -0.0241481 -1.8257 -7.77417 -16.2697 -27.3655 -41.2108 -50.5421 -64.9459 -66.6359 -48.8456 -34.6432 -17.9914 -0.693375 4.77205 -13.3103 -48.9435 -86.0998 -96.6617 -75.2582 -39.0186 -7.07596 22.8862 30.6436 17.1812 3.00472 0.138757 0.00449946 0.0223948 0.0846798 -1.66402 -7.41445 -16.4561 -26.0017 -34.0054 -39.2159 -47.331 -42.9793 -18.0888 -5.84445 6.24661 22.9809 24.9292 -13.8751 -68.3533 -116.239 -134.351 -115.332 -73.4134 -33.0677 1.7666 21.1161 13.5417 2.05294 0.238266 0.00992998 0.0392445 0.0341503 -1.1828 -5.00949 -11.8573 -17.4262 -20.3039 -20.6168 -20.9506 -13.2982 1.43899 8.68006 21.3178 36.7929 29.7563 -26.3781 -96.1109 -146.782 -157.263 -136.669 -96.0014 -55.016 -18.0375 5.82132 7.66668 1.57529 -0.0701409 0.00509742 -0.00546925 0.172053 -0.307912 -1.76316 -3.45348 -3.37142 -3.99885 -0.698646 -1.48549 6.09951 11.578 13.0765 27.6951 37.8879 14.1866 -46.8778 -110.893 -148.332 -156.868 -135.147 -98.7339 -62.777 -30.8708 -8.45748 0.85364 -0.00508973 0.0627124 0.00915289 0.0326659 0.151022 0.83226 2.73665 3.52053 8.36333 11.2853 14.3597 11.7681 16.4962 15.587 8.27738 12.2839 13.0707 -14.2268 -61.0742 -97.2117 -113.346 -120.498 -106.344 -82.6476 -55.2539 -31.4325 -13.7119 -2.80872 -0.813657 -0.0236563 0.00504806 -0.0119585 0.140789 0.99228 5.2682 7.09918 10.3895 13.8217 17.4797 15.3286 13.6226 -1.50118 -14.8438 -18.6401 -18.8184 -36.1962 -56.632 -64.5923 -64.3538 -65.4506 -64.6405 -54.9894 -40.9504 -26.7163 -11.74 -3.16695 -1.13736 -0.24521 0.0175314 0.0110391 0.0985839 1.22849 3.76246 1.69557 1.84159 -0.694554 1.25694 -2.62089 -14.2067 -39.2495 -51.767 -53.982 -46.7408 -44.0437 -50.3857 -46.8566 -30.5838 -28.566 -31.371 -31.5694 -26.0072 -20.3808 -10.4368 -3.34691 -1.25933 -0.031657 0.00899095 0.0130673 0.0777416 0.364005 -1.20733 -8.97007 -13.0399 -20.9346 -30.777 -42.6634 -60.705 -83.6793 -97.8716 -92.9523 -69.3149 -56.1126 -52.0377 -39.028 -17.5678 -12.2477 -14.6213 -17.2278 -18.3432 -17.3609 -11.2624 -5.26104 -2.00416 -0.237137 0.00946584 -0.000968425 -0.0255977 -0.966397 -5.62844 -15.6678 -25.2029 -42.7837 -66.7257 -88.7176 -110.113 -130.636 -135.5 -102.541 -57.8711 -48.4278 -55.872 -49.4291 -26.1666 -15.5904 -12.0246 -15.7424 -16.8215 -17.8311 -12.6588 -7.80536 -2.45681 -0.24648 0.00814433 0.0104564 -0.300778 -2.43332 -8.72402 -14.391 -21.1274 -50.8931 -87.8636 -119 -141.657 -154.837 -138.494 -84.4035 -34.4631 -31.2315 -47.7992 -47.1355 -33.9439 -22.2741 -15.5003 -17.9445 -20.4675 -19.0172 -14.4441 -7.93448 -1.80156 -0.187695 0.00839983 0.00393195 -0.27366 -3.29864 -8.51552 -10.9858 -13.5626 -46.8594 -92.0483 -128.157 -150.76 -143.731 -107.125 -47.4193 -8.97446 -17.6532 -40.3814 -42.6918 -39.0935 -28.8531 -17.336 -19.844 -22.6212 -20.7237 -13.6658 -5.85635 -0.626475 -0.0340568 0.0039186 -0.0370705 -0.157565 -3.9184 -8.83434 -9.65235 -8.19387 -34.9273 -72.319 -106.485 -118.76 -99.2559 -60.3333 -13.2546 2.98912 -15.7135 -36.8232 -43.6825 -40.7691 -29.9958 -21.8091 -25.0235 -23.0765 -16.831 -9.16533 -3.94913 -0.641971 -0.00617856 0.00876289 -0.0962555 -0.379376 -4.1727 -11.0431 -9.17366 -7.59022 -23.1085 -40.3794 -61.2112 -69.1749 -51.8482 -26.447 -1.66048 -3.71542 -24.1687 -34.6914 -36.8101 -36.5984 -31.7815 -27.211 -26.2962 -18.0717 -12.4303 -7.18472 -1.93883 -0.321466 0.0172708 0.00400847 -0.014825 -0.592725 -3.21154 -7.58491 -9.80663 -9.97064 -16.5347 -22.4281 -33.0202 -41.6382 -41.5855 -38.0384 -32.2816 -34.9551 -41.3571 -42.9972 -41.3757 -40.3569 -33.5337 -23.8354 -16.1892 -13.1547 -8.92145 -3.31447 -0.976876 -0.330196 0.00636784 0.00320794 0.00116698 -0.585223 -2.31888 -3.85536 -7.6691 -15.6376 -21.2938 -23.3374 -28.2478 -42.9046 -64.7066 -79.8504 -81.6064 -76.2 -67.2121 -53.8937 -42.7464 -32.0125 -21.4734 -13.6329 -10.5976 -8.08022 -3.71598 -1.26217 -0.0641709 0.0904633 0.00225631 0.00752577 0.00525773 -0.128946 -0.664307 -0.852026 -1.46334 -6.95816 -14.9049 -19.0819 -28.3835 -43.7392 -69.3508 -90.8052 -95.8755 -85.4204 -68.4958 -46.9727 -29.6216 -19.6198 -9.98588 -3.57954 -3.72372 -2.13238 -0.721929 0.260749 0.0667479 0.198547 0.0056701 0.00494845 0.000412371 -0.0228012 0.161864 0.571493 1.94494 2.42395 2.41441 -2.0369 -8.06312 -19.7738 -35.3034 -46.9624 -48.055 -41.7449 -30.1283 -19.646 -4.51088 2.9574 5.77767 6.30943 4.4463 2.77996 1.59388 0.243633 -0.251749 -0.0379925 0.00938144 0.00824742 0.00556701 0.00590144 0.288226 0.902098 1.7477 3.50072 7.70037 10.6807 12.7507 12.8101 12.7175 14.0268 13.5208 11.0157 9.23686 10.7249 12.3434 11.7079 9.78442 7.73626 5.62861 3.21217 1.4344 0.51294 -0.0117299 -0.0424103 0.00453608 0.00938144 0.00402062 0.00814433 0.0118965 0.149804 0.4647 0.911465 1.35559 2.46833 3.87365 4.87403 5.88498 6.89471 7.4097 7.47549 6.82538 5.73773 4.7634 3.87827 3.64517 3.06643 1.61362 0.479362 0.0259967 0.00636219 0.00762887 0.00690722 0.00587629 0.00206186 0.000515464 0.00546392 0.00175258 0.00487011 0.0118171 0.0185486 -0.0568237 -0.0918332 -0.194761 -0.0463159 0.0782291 0.168715 0.0666289 0.254692 0.0172928 0.195856 0.165645 0.180964 0.192153 0.141987 0.0879921 0.0849661 0.0157241 0.00989691 0.00969072 0.000618557 0.00134021 0.00804124 0.00494845 0.00412371 0.00649485 0.000721649 0.00793814 0.00546392 0.0042268 0.0071134 0.00896907 0.00103093 0.00989691 0.0104425 0.023974 0.00819896 0.00141982 0.00206186 0.00597938 0.00762887 0.00969072 0.00298969 0.00206186 0.00391753 0.00268041 0.00226804 0.00886598 0.0056701 0.00505155 0.00350515 0.00175258 0.00546392 0.00690722 0.00369096 -0.00776744 0.0733177 0.130786 0.189705 0.0261209 -0.536004 -1.1269 0.135883 0.398167 0.466133 1.2245 2.26051 0.896682 -0.0263907 0.285201 0.136325 0.371238 0.304116 -0.0316328 0.000618557 0.00268041 0.00886598 0.00773196 0.00659794 0.00969072 0.00103093 -0.00938928 -0.079344 -0.231671 -0.106008 -0.354489 -0.889984 -2.14455 -2.2801 -1.65842 0.345416 4.35104 2.07613 7.31351 9.22609 3.08127 -1.32402 0.726791 -0.836613 -0.215807 0.68993 0.471482 0.657418 0.383079 0.00938144 0.00752577 0.000412371 0.00278351 0.0309345 -0.0134429 -0.114602 -0.682188 0.0605365 -0.616359 -3.17686 -4.33618 -3.12877 -4.95579 11.7616 26.3339 38.0241 47.4695 36.8717 20.7748 13.5942 19.8985 19.4974 12.457 7.09371 1.9375 1.4919 0.831961 0.0620812 0.0043299 0.000618557 0.00192406 0.0374225 -0.0532107 -0.640236 2.11885 6.84278 6.09245 1.22652 7.17354 24.2149 33.9203 30.5868 13.6919 1.42174 12.9617 29.5902 63.108 111.025 141.211 133.664 119.193 82.908 48.9321 19.3374 3.00248 0.292352 0.0407585 0.00948454 0.0014433 -0.0178277 -0.0383075 -0.470734 5.20011 15.6784 26.7403 28.8411 34.5661 41.277 -21.4908 -128.381 -209.001 -268.75 -260.463 -188.051 -52.9445 103.278 196.605 232.163 220.821 174.623 101.931 49.8377 9.85558 2.27134 0.355988 0.00103093 0.00253256 -0.146434 -0.845086 -1.80782 0.882366 16.4282 14.6804 -30.599 -91.7482 -149.807 -263.246 -362.551 -421.847 -459.586 -447.271 -349.122 -189.387 11.4572 107.312 159.504 167.669 139.977 100.207 67.494 24.4856 4.79248 0.83744 0.00557062 -0.0595545 -0.119485 -2.75966 -10.9051 -10.2344 -13.7191 -70.9929 -179.274 -294.135 -382.781 -435.578 -467.471 -464.05 -388.808 -345.306 -229.884 -139.074 -106.741 -59.4402 -36.0483 4.84821 28.9015 41.0898 53.518 35.188 5.19079 0.500407 0.0353662 0.0411249 -0.159188 -5.87813 -22.5817 -40.6144 -93.4751 -192.831 -318.879 -452.041 -525.545 -485.708 -448.646 -351.934 -187.298 -35.4627 1.72882 -55.0621 -205.343 -280.884 -269.909 -203.735 -130.835 -39.5843 16.5419 30.689 5.02012 -0.249627 -0.000243576 -0.118529 0.807495 -6.23559 -27.9673 -71.5708 -157.173 -268.352 -394.544 -501.209 -529.012 -451.812 -333.073 -128.937 80.8587 251.339 178.621 -65.5716 -307.105 -462.352 -480.082 -386.27 -256.737 -130.058 -16.4792 16.0908 -0.693978 -0.569396 -0.0160688 0.250734 1.22197 -2.63919 -33.7501 -94.6702 -195.497 -309.777 -409.715 -472.904 -478.936 -396.585 -262.798 -26.3537 234.742 325.128 94.3532 -245.977 -535.686 -668.112 -627.035 -503.715 -342.366 -175.863 -52.2599 -1.43642 -0.354718 -1.32147 -0.0198846 0.183571 0.641537 -3.7166 -33.7945 -108.409 -213.261 -318.113 -390.855 -432.528 -403.027 -357.881 -292.466 -75.587 160.141 134.925 -185.125 -545.18 -750.045 -767.341 -672.158 -508.286 -346.27 -181.423 -79.3904 -14.2808 -4.11506 0.412351 -0.0150444 -0.341073 -0.118905 -5.08404 -32.3342 -103.224 -177.909 -237.785 -267.471 -281.804 -238.66 -260.891 -293.916 -189.313 -60.1188 -181.85 -493.447 -722.048 -733.851 -677.562 -547.347 -408.896 -257.934 -145.442 -63.4814 -15.0822 -3.42049 -0.0955587 0.0129606 -0.104891 -0.491286 -3.95376 -26.0898 -75.8723 -117.096 -140.11 -117.395 -89.8746 -87.8548 -204.687 -321.27 -291.258 -257.682 -444.824 -652.423 -679.442 -559.096 -442.715 -341.051 -237.848 -148.51 -83.9319 -31.2496 -5.58605 -0.253928 0.299572 0.0379777 0.0819618 -0.16395 -2.18794 -16.8527 -48.9057 -60.2937 -52.2075 4.71133 18.5988 -66.6194 -284.022 -394.08 -388.333 -410.708 -522.913 -654.798 -586.924 -357.849 -217.312 -127.908 -90.8599 -61.3452 -35.1157 -5.08055 0.883659 3.04898 -0.00265125 0.0114044 0.195183 -0.0165536 1.77093 -1.27747 -1.39766 -0.688468 -9.73237 -10.1019 -65.7111 -231.722 -445.371 -556.579 -524.544 -447.759 -507.642 -582.405 -491.399 -249.51 -76.8163 0.694277 5.88518 -12.2095 -2.76439 10.0909 10.4281 5.03554 0.45893 -0.0097876 0.160288 0.665773 7.92506 24.4752 56.2598 59.5787 -14.9961 -132.104 -265.837 -448.386 -626.546 -682.552 -509.016 -286.886 -355.23 -484.567 -447.678 -226.116 -7.84799 71.4328 73.9591 37.9273 17.9093 21.4059 18.2112 7.01561 0.613751 0.00793814 0.0164533 1.01531 15.2459 56.5128 122.296 136.196 10.7634 -198.96 -424.593 -588.88 -710.112 -652.27 -371.33 -121.146 -191.131 -365.089 -385.409 -220.336 -21.3873 73.9046 88.7189 54.177 34.0235 30.3816 21.7204 4.78923 0.222142 -0.0316701 -0.15252 0.00171494 20.1737 80.0951 151.997 181.944 63.2455 -164.353 -389.136 -543.498 -581.664 -425.606 -127.046 22.8842 -71.9838 -262.676 -287.952 -187.116 -43.4039 52.5559 81.9325 62.3271 60.7526 53.1098 25.0638 3.70224 0.66553 0.0193641 -0.0762203 1.22792 18.2964 80.6717 149.508 195.404 116.673 -40.4807 -205.391 -300.837 -260.116 -132.929 71.5181 100.505 -31.6856 -185.477 -192.581 -123.767 -25.7102 59.5818 76.2012 66.6602 65.8636 53.5637 21.751 3.5471 0.279329 0.00381443 -0.121437 1.66574 18.313 64.3209 122.892 184.326 155.637 119.171 44.5516 -37.8612 -13.0574 28.4219 110.166 71.8656 -38.0156 -116.165 -103.594 -56.3578 0.0966938 57.9715 67.9773 63.0756 59.0816 42.5098 12.5055 2.8784 0.0724337 0.00340222 -0.0237111 1.33998 17.0585 53.3966 96.4768 147.882 162.095 183.689 161.815 80.5896 -10.3234 -77.1563 -83.2093 -102.318 -134.331 -143.479 -97.2425 -63.3121 -7.89094 26.5295 58.9001 38.4418 41.4069 29.7574 9.70353 1.06282 0.00868564 0.00735108 0.00654209 1.35893 10.3758 40.0704 72.4614 88.2264 99.3776 130.064 130.454 12.3774 -188.977 -368.676 -416.643 -411.48 -347.945 -271.539 -180.357 -103.908 -43.3932 -7.84527 9.2292 11.4625 16.6204 11.287 3.87301 0.530913 0.000666197 0.00123711 0.0057732 0.540084 4.03227 19.9028 45.1495 44.5801 24.9375 22.6809 -4.99155 -113.332 -324.555 -524.312 -621.36 -590.866 -495.682 -360.967 -249.951 -168.035 -103.567 -56.8526 -31.544 -14.2316 -2.55736 2.27045 2.21597 1.3971 0.00556701 0.00907216 0.00886598 -0.223154 0.690916 3.49458 7.46065 -2.33603 -34.1555 -84.0352 -127.194 -212.444 -315.852 -389.8 -413.712 -384.88 -331.494 -266.719 -180.213 -127.527 -103.437 -69.762 -30.454 -14.3069 -5.09616 1.68785 1.32613 0.340561 0.00762887 0.00175258 0.00701031 -0.0661077 0.0756091 -1.05329 -8.11477 -16.9814 -25.5509 -36.8116 -49.0184 -79.7076 -87.4454 -92.5845 -104.537 -106.446 -100.174 -88.8168 -70.491 -59.0192 -50.0443 -37.8028 -20.1801 -7.11498 -1.69181 0.505112 0.116025 0.321415 0.00680412 0.00546392 0.0056701 0.000618557 -0.0139367 -0.627071 -1.60497 -2.65462 -4.67852 -4.55617 -6.8709 -9.91328 -9.39001 -9.17088 -10.7884 -14.2448 -10.0668 -7.27071 -6.52725 -8.96923 -11.6994 -11.3133 -5.55526 -1.11466 -0.0767133 -0.0371832 0.000721649 0.00175258 0.0071134 0.00340206 0.000927835 0.00216495 0.00690722 -0.000407092 0.0251822 -0.00779339 -1.1672 -1.01533 -0.871334 -0.890586 -0.642779 -0.685095 -0.986719 -1.68814 -1.33781 -0.237992 -0.720227 -0.71766 -0.439364 -0.221471 -0.439055 -0.25022 -0.00778107 0.00907216 0.00865979 0.00927835 0.0101031 0.00804124 0.00247423 0.00164948 0.00257732 0.00195876 0.000206186 0.00608247 0.00608247 0.00484536 0.00371134 0.00484536 0.00896907 -0.0949361 -0.19178 0.0181745 0.00961479 0.00360825 0.00298969 0.00175258 0.00948454 0.00865979 0.00206186 0.00762887 0.00969072 0.00907216 0.00783505 0.00824742 0.00969072 0.00494845 0.00247423 0.0102062 0.00556701 -0.00227061 -0.00217512 -0.0620252 -0.237512 -0.996338 -1.057 -1.86799 -2.23038 -1.48863 -2.60981 -0.975777 -0.0809058 0.408292 -1.89943 -1.08407 -0.831401 -0.664964 -0.404346 -0.295303 -0.10404 0.0101031 0.00969072 0.000618557 0.00876289 0.00164948 0.00969072 0 -0.0353782 -0.23333 -0.286931 -0.482551 -1.2168 -2.95697 -6.36035 -10.4607 -11.4333 -16.64 -18.3441 -18.5398 -14.9275 -13.3156 -14.9208 -18.0246 -16.2031 -11.9395 -7.98309 -4.49262 -1.46935 0.397375 0.468352 0.00268041 0.0101031 0.00927835 0.00226804 0.0230381 -0.0983381 -0.294873 0.619046 0.423588 2.67453 0.838545 -1.65151 -0.25422 -1.12228 7.621 5.38423 5.53806 -3.6168 -23.1376 -39.0856 -48.0696 -36.7208 -24.0056 -17.8706 -8.85238 -4.74242 -1.82423 0.714314 -0.0398088 0.000412371 0.00453608 0.00336021 0.0416939 0.197353 0.900332 9.77656 22.6831 37.4675 52.2794 75.2775 103.178 126.511 121.123 96.0249 58.6694 23.99 2.60381 -6.75515 14.0895 37.7964 43.6389 50.3108 41.4146 27.1371 14.4843 3.81224 0.677782 -0.160227 0.00402062 0.00731959 -0.0686734 2.14565 9.18717 33.8946 71.1544 116.062 151.887 193.335 219.727 182.914 93.5508 11.3196 -78.4278 -113.957 -91.2135 -30.0649 60.4322 143.486 200.937 191.688 157.204 96.0117 48.2002 13.5852 2.47049 0.0683424 0.00494845 0.0104106 0.22636 5.49966 22.4797 59.7971 114.34 158.867 178.165 179.859 151.684 64.1981 -43.433 -154.661 -262.5 -321.713 -280.121 -182.605 -7.80453 115.263 203.84 226.636 194.426 135.908 84.0555 33.4126 7.02193 0.608391 0.00708447 0.74937 0.453094 8.10001 33.1415 71.9476 111.669 112.456 82.2748 20.4105 -51.8643 -122.267 -227.106 -325.172 -367.553 -395.204 -327.691 -225.993 -130.422 -14.2754 70.7484 138.025 148.977 114.545 90.3776 50.5919 8.47224 0.37727 -0.0282962 0.179442 0.0071149 6.95274 31.5291 56.9601 47.6744 -2.10098 -82.2945 -182.38 -266.794 -310.879 -381.031 -390.686 -310.78 -207.257 -149.08 -124.386 -166.945 -163.452 -101.469 -25.5186 20.4378 48.3328 65.5055 49.1135 10.094 0.516115 -0.000209906 -0.0759673 0.290656 3.94299 19.3557 13.463 -40.0271 -135.203 -251.944 -353.968 -447.06 -458.393 -422.357 -278.95 -110.702 57.544 79.3738 -31.4539 -192.25 -298.738 -290.371 -209.295 -117.568 -49.1023 26.3069 35.676 5.26609 0.274234 0.0037308 -0.07599 -0.863217 4.32078 -4.55168 -47.4373 -137.556 -267.834 -395.262 -478.902 -538.465 -471.545 -341.155 -130.03 74.336 196.23 114.556 -100.211 -339.068 -480.377 -480.252 -409.748 -285.621 -140.65 -23.9003 14.9822 4.10222 -0.650693 0.00118203 -0.47441 -1.85743 0.166625 -19.9713 -101.207 -223.676 -367.242 -469.49 -514.313 -466.243 -337.214 -209.285 -65.1006 81.1887 133.6 -38.8965 -309.28 -527.916 -626.577 -626.027 -536.01 -387.532 -211.039 -74.5461 -2.75358 -0.603464 0.30978 0.00810036 -0.573977 -2.10676 -6.0177 -33.9043 -124.663 -239.867 -342.253 -375.661 -358.469 -217.411 -105.645 -80.6597 -69.6812 8.6547 -45.8875 -250.776 -440.676 -537.117 -579.138 -569.784 -508.658 -373.445 -228.512 -85.764 -8.43155 0.621662 -0.1675 0.00630393 -0.190645 -1.56426 -4.93746 -34.2042 -117.042 -195.005 -245.272 -225.6 -144.442 -9.52544 44.4934 -14.8095 -58.3811 -71.5618 -238.94 -355.227 -371.148 -359.481 -347.804 -342.983 -342.766 -286.227 -186.681 -70.4682 -2.10031 4.58478 1.36023 0.0089038 0.193218 -0.7736 -1.7412 -19.1989 -85.6186 -127.32 -140.786 -95.7207 -25.3501 23.5141 -8.65406 -59.2709 -109.986 -184.205 -288.636 -326.909 -269.486 -128.133 -72.4028 -92.1877 -145.994 -171.405 -128.602 -46.4215 1.27315 7.93884 0.20527 0.00184433 0.443454 0.704702 7.843 6.01379 -14.5425 -32.0015 -75.7565 -108.359 -137.218 -184.188 -238.956 -281.294 -269.438 -255.433 -277.381 -260.925 -169.549 13.5521 100.717 67.1554 -5.39253 -61.8505 -59.7354 -14.4238 16.0898 12.9691 1.43658 0.00508076 0.402719 3.51145 22.946 47.7052 66.5732 56.44 -64.5181 -240.502 -380.883 -501.589 -562.465 -528.492 -385.303 -231.844 -193.176 -196.202 -107.29 56.1333 159.919 136.118 100.78 37.6478 11.7636 20.5444 34.4654 15.598 1.62007 0.00907216 0.238422 5.67923 42.2003 103.736 159.56 150.482 -23.2363 -303.69 -570.905 -726.054 -745.845 -620.607 -375.935 -169.481 -110.294 -108.611 -65.0547 24.7021 118.57 138.853 148.488 102.965 70.9199 57.1177 41.2413 11.2388 0.654166 -0.0557289 0.103344 6.583 63.1041 154.496 233.484 240.184 65.3762 -231.658 -516.358 -675.007 -641.463 -458.686 -203.908 -75.6647 -44.3722 -51.75 -31.0843 3.66049 72.8476 133.062 170.877 148.371 115.975 83.4258 37.1013 5.23284 0.924123 0.00844318 0.185179 8.35605 67.6222 171.171 266.32 296.671 178.494 -43.0585 -281.729 -417.156 -370.094 -230.777 -53.3098 -10.3963 -28.2718 -43.537 -11.1212 31.822 86.1953 158.954 184.682 158.976 123.887 77.7246 30.4576 4.99412 0.274379 0.00731959 0.308521 7.85901 63.3539 155.466 243.014 308.059 262.644 164.376 4.96442 -149.041 -142.962 -111.953 -37.4477 -25.2841 -35.2419 -18.6322 27.7603 85.1487 135.262 191.154 180.934 146.972 108.481 59.6667 16.4971 3.2507 0.0251467 0.0104053 0.348875 7.27814 47.6537 119.599 187.892 257.489 270.12 236.528 142.488 2.17785 -102.319 -151.778 -141.068 -115.338 -78.9465 -26.5864 44.9957 95.1394 153.833 157.985 150.981 103.509 70.9812 33.7554 11.8281 1.34886 0.00710751 0.0165498 0.0225701 6.48161 30.5294 85.8329 129.545 165.797 186.404 170.473 133.651 5.37402 -149.129 -278.402 -307.758 -283.834 -193.961 -100.93 -12.9673 62.7495 94.2692 90.559 71.6992 49.6073 31.4123 14.2812 4.62547 0.337803 0.00788281 0.00783505 0.01 2.55158 14.884 48.2555 80.6095 97.6076 80.8882 43.3971 -3.73913 -86.7229 -221.359 -355.462 -405.513 -367.883 -285.397 -189.664 -108.464 -46.228 -15.4905 -0.55248 0.522559 0.586838 2.99885 4.35649 2.79005 0.615821 0.00391753 0.00298969 0.000721649 1.09715 5.18963 14.0223 22.8895 25.1414 1.33534 -45.0742 -88.2738 -159.27 -230.331 -292.15 -306.333 -281.076 -239.437 -189.68 -130.061 -97.0412 -82.8919 -59.3308 -28.622 -14.2165 -5.64439 2.32754 1.68805 0.407762 0.00350515 0.00835052 0.00649485 0.0981353 0.382426 -0.914818 -7.67839 -17.702 -32.6052 -46.5641 -56.8301 -78.6906 -86.5585 -97.2476 -111.484 -121.329 -109.707 -102.958 -95.2038 -81.3572 -65.5822 -49.1387 -26.9745 -9.71185 -2.59596 0.426564 0.154243 0.42366 0.00762887 0.00876289 0.00164948 0.00164948 -0.0279254 -0.769985 -1.96195 -6.40072 -11.1531 -16.4985 -21.8015 -28.657 -33.4181 -39.7853 -44.8322 -49.4316 -39.1591 -33.9387 -26.727 -22.9961 -21.2569 -16.1609 -7.07071 -1.53734 -0.159783 -0.0244861 0.00814433 0.00278351 0.00298969 0.00659794 0.00536082 0.00608247 0.00958763 0.00564627 0.0115656 -0.0815958 -1.5318 -1.71501 -1.58353 -1.6154 -1.25683 -1.93149 -2.1898 -3.78743 -2.21681 -1.385 -1.12309 -1.61889 -1.43161 -0.795151 -0.578686 -0.297147 0.0264949 0.00195876 0.000515464 0.0102062 0.00391753 0.00649485 0.00268041 0.00350515 0.00742268 0.00649485 0.00257732 0.000309278 0.00402062 0.0085567 0.000515464 0.00195876 0.0042268 0.188677 0.387086 -0.0192368 0.00735977 0.00164948 0.000618557 0.00814433 0.00824742 0.00628866 0.00474227 0.00608247 0.0042268 0.00907216 0 0.00164948 0.0057732 0.0057732 0.00701031 0.00659794 0.00690722 0.0120492 0.0381347 -0.0720183 0.171498 2.31683 2.53713 4.00457 3.46934 0.842121 5.52052 4.05387 -0.546098 -1.46352 4.97489 3.07006 1.91325 1.7091 1.20628 0.794507 0.178229 0.00721649 0.00474227 0.00474227 0.00164948 0 0.0101031 0.00278351 -0.262503 0.478497 1.10435 1.43785 2.29515 11.9764 20.545 28.843 34.1243 49.3049 55.9513 58.5437 52.0349 59.4098 60.6327 65.0377 61.3199 43.4851 27.8593 14.4006 5.14838 1.26727 -0.103897 0.00659794 0.00639175 0.0071134 0.0028866 -0.0767185 -0.726617 1.07873 1.16763 4.81569 9.67409 28.0463 45.5813 67.5201 84.3378 94.1006 126.87 193.48 245.964 306.199 369.771 377.114 339.394 253.825 162.044 91.4482 39.0517 20.7333 3.38757 