0.00268041 0.00814433 0.00402062 0.00134021 0.00505155 0.00463918 0.00628866 0.00989691 0.00154639 0.0057732 0.00515464 0.00597938 0.000824742 0.00412371 0.00927835 0.00371134 0.00680412 0.000103093 0.00546392 0.00773196 0.0085567 0.000412371 0.00731959 0.0101031 0.000927835 0.00412371 0.00618557 0.00865979 0.00298969 0.00979381 0.00597938 0.00876289 0.00216495 0.00247423 0.00656191 0.00330767 0.00274448 0.00159424 0.0073284 0.00615889 0.0014922 0.0101036 0.0086917 0.00259294 0.00237458 0.0085381 0.00259164 0.00520101 0.00251497 0.00779155 0.0101157 0.00958332 0.00185567 0.00979381 0.00969072 0.00690722 0.000927835 0.00814433 0.00391753 0.00463553 0.00432864 0.00491489 0.00525567 0.00374995 0.0034837 0.00884613 0.00198977 0.00971912 0.0032438 0.00326768 0.00230358 0.00956513 0.0086795 0.00346471 0.000896324 0.00694365 0.00538673 0.00756337 0.00736638 0.00355375 0.00164898 0.0056701 0.00907216 0.0057732 0.00350515 0.00309278 0.00144724 0.00916565 0.00600053 0.00127634 0.00719761 0.00543984 0.00737069 0.00242115 0.00246036 0.00170438 0.00745862 0.00884406 0.00328779 0.00902541 0.00581873 0.00826277 0.00632747 0.00256967 0.00825889 0.00628545 0.00629209 0.00519696 0.00179658 0.00954589 0.000916802 0.00597938 0.00474227 0 0.0057867 0.00742211 0.00684087 0.005513 0.00402063 0.00216697 9.84972e-05 0.00134947 -0.000517986 0.000290692 -0.00107391 0.000431384 0.00332712 0.00920918 0.00329946 0.000362135 -0.00010451 0.00363341 -0.00144768 0.0073245 0.00880203 0.010113 0.00880329 0.0104399 0.000551176 0.00451317 0.00793814 0.00907216 0.0082493 0.000597745 0.00617512 0.00628763 -0.00105316 -0.00173772 -0.000104572 -0.00518236 -0.00339408 0.00304446 0.00024223 0.000275981 -0.00166323 0.00945726 0.00564602 0.00640997 0.00253975 0.00724626 0.00778038 0.00330026 0.000721163 0.00906177 0.00906156 0.000916203 0.00603565 0.00295584 0 0.0100009 0.0100103 0.00341858 0.00939047 0.00232009 0.00216894 -0.00116203 -0.00425034 -0.000189048 -0.00168268 0.000436239 0.00775803 0.00669121 -0.00420394 -0.00372674 0.00612961 0.00707861 0.00131229 0.00500781 0.00760458 0.00261905 0.00308059 0.0014569 0.00773195 0.00953864 0.00300059 0.00031489 0.00804124 0.00723885 0.00769833 0.00947194 0.00889535 0.00264358 0.00591811 -0.00194242 0.00797289 0.00051938 0.0052791 0.00782176 -0.00220207 0.00152317 -0.00707953 -0.0125765 0.000109247 -0.0105835 -0.00616648 -0.00486237 0.00274036 -0.0029053 0.00464873 0.000337419 -0.0004887 0.000708172 0.00827929 0.00890592 0.00533371 -8.26447e-06 0.00699001 0.00332556 0.00543866 0.00276122 0.00944468 0.00567378 0.0069191 0.00826402 0.0018737 -0.00443349 -0.00523677 -0.0023161 -0.0124882 0.000574482 -0.00713018 -0.018091 -0.00801443 -0.00654859 0.00366445 0.0078942 0.00828951 0.00484224 0.00287737 -0.000169367 0.00923367 0.00918471 0.00412371 0.00242182 0.000561992 0.00690134 0.0121922 0.0136902 0.0130572 0.00814271 0.00881378 0.00362718 -0.00595908 0.00152103 -0.00573001 -0.00478181 0.00328595 0.0131091 0.0042613 -0.00641598 -0.00718741 -0.00362209 0.00168363 0.011484 0.0118046 0.00843968 -0.000342201 0.0073965 0.00222955 0.00302899 0.00164948 0.00741149 0.000719852 0.00542329 0.0163902 0.0227348 0.00835439 0.00289945 -0.00211057 -0.00245975 -0.0101483 -0.00323299 -0.00154111 0.00202321 0.00233718 0.0149617 0.00234755 -0.016226 -0.0131204 -0.0105612 0.00570313 0.00469998 0.00842979 0.00366534 0.0081234 0.00867179 0.000630867 0.00996783 0.00938144 0.00897811 0.00904366 0.0147675 0.0177648 0.0206709 0.00632087 -0.00365247 -0.00962693 -0.0131638 -0.0127363 -0.005519 7.07984e-05 0.00798179 0.00638447 0.00329308 -0.00725243 -0.00571725 -0.012703 -0.00159166 0.000526597 0.0037829 -0.000764041 0.00699288 0.00263977 0.00615799 0.00978275 0.00498292 0.0057732 0.00278266 0.00426423 0.0100053 0.00907708 0.016119 -0.00233687 -0.00961051 -0.0154885 -0.0197384 -0.01827 -0.00299542 0.0047549 0.00288855 0.0118424 0.00360151 0.00466227 -0.00328477 -0.00546537 -0.00227044 -0.000776271 -0.000451031 -0.00409544 0.000931748 0.0103536 0.00235768 0.00473536 0.00853333 0.000103093 0.00254214 0.00445082 0.00855934 0.00922207 0.00761411 0.00483715 -0.00299098 -0.0016428 -0.00843356 -0.00754325 -0.00527678 0.00413996 0.0118297 0.0119253 0.00363468 0.00691939 0.000720312 -0.00289625 -0.00266823 0.00145962 -0.0084318 0.0023576 0.00256945 -0.000913129 0.00682139 0.00171036 0.00886991 0.0056701 0.00706944 0.00726864 0.0092926 0.00902367 0.00710743 -0.0041027 -0.000337507 -0.00602702 0.00268087 0.00273403 0.00512113 0.00916014 -0.00245238 -0.00100031 0.00579768 0.00556526 0.00189451 0.00525965 0.0108738 0.00443552 -0.00180804 0.00104257 0.00139727 0.00206532 0.000561534 9.80806e-05 0.00185611 0.00206186 0.0034353 0.00665315 0.00403355 0.00188556 0.00248436 0.00181816 0.00871496 0.00563788 0.00192873 0.00298791 0.0125757 0.0095931 0.00232254 0.0140862 0.00717896 0.0140647 0.00769746 0.00810525 0.0100053 0.00937923 -0.00400072 0.00122482 0.00369022 -0.000501111 0.00814547 0.00166371 0.00834933 0.00618557 0.00831377 0.00762291 0.00449724 0.00357115 -0.00771124 -0.00153124 0.0112983 0.0063019 0.00580479 0.00779555 0.00855891 0.00680721 0.0149601 0.0093384 0.00613878 0.000394616 -0.000846266 -0.000368816 -0.000282668 0.0079633 0.0108087 0.0042197 0.000775315 0.00646384 0.000593834 0.00346986 0.000922923 0.00494845 0.00136261 0.0109511 0.00202538 0.00591849 -0.00541358 -0.0017727 0.00084263 0.000492028 0.00276892 -0.00440029 0.00118072 0.00529697 0.003836 0.00554006 -0.00673301 -0.00822678 -0.004035 -0.0136151 -0.000245767 0.00207356 0.0104516 0.00908498 6.43816e-05 0.00514112 -0.00106264 0.00498187 0.00833444 0.00484452 0.00268041 0.00533964 0.00590067 -0.00399446 0.000720267 0.00755829 -0.0101647 -0.00644574 -0.010993 -0.00479861 7.4484e-05 -0.00180722 0.00500166 0.00180879 -0.0112085 -0.00995986 -0.0131644 -0.0170761 -0.00359075 0.0119502 0.0140949 0.00967506 -0.0019655 0.00747718 0.0087161 0.000558516 0.00928355 0.00319588 0.00679267 0.00166003 0.00935228 0.00895843 0.000268082 -0.00257627 -0.0061986 -0.011172 -0.00698348 -0.00546125 -0.00502829 -0.00854722 0.00282931 -0.00293454 -0.0118306 -0.0140145 -0.00344279 -0.00668332 0.00614531 0.0106888 0.00954407 0.010908 -0.000676825 -0.00088075 0.00246448 0.00246697 0.00340207 0.00164948 0.00586747 0.00945582 0.00866962 0.00502153 0.00508211 -0.0021431 -0.000824351 -0.00851653 -0.0148885 -0.0090082 -0.00971221 -0.00528878 -0.00816469 -0.0061558 -0.0155058 -0.00697419 -0.00456872 0.00156851 -0.00116528 0.00278846 0.00547524 0.0102078 0.00868227 0.00188757 0.00872757 0.00652819 0.000515464 0.00979381 0.00835052 0.00995694 0.0062742 0.00505385 0.00722539 0.00141242 0.0020348 -0.00505226 -0.0142214 -0.0188068 -0.00900696 -0.00784295 -0.0057845 0.000102144 -0.00747882 0.00273918 0.00736485 -0.000878872 0.00330407 -0.000760652 0.0076747 0.00785762 0.00165333 -0.000310154 0.00312171 0.00175636 0.000721649 0.00175258 0.00680412 0.00748169 0.00163006 0.00461825 0.00167903 0.00113766 0.01135 0.00683006 0.00614449 -0.00850406 -0.00685798 0.00337818 -0.000465536 -0.00818339 -0.00341674 0.00149168 0.00818238 0.00436004 0.00278687 -0.00192129 0.00349863 0.0105723 0.00406694 0.00509974 0.0055839 0.000252236 0.00494845 0.00618557 0.00525773 0.00937773 0.000824365 0.00612898 0.00510586 0.00894847 0.00786562 0.00932981 0.0104348 0.00837922 0.00132047 0.00869298 0.00512581 0.000654493 -0.00448706 0.00254666 0.00699335 0.000127783 0.00201233 0.00269778 0.0139931 0.00617788 0.00711342 0.00131064 0.00262464 0.00250812 0.00237113 0.000618557 0.00938144 0.00229454 0.00646974 0.00245467 0.00962163 0.00911054 0.0016731 0.00382333 -0.00225794 0.00268875 0.00070898 0.00913021 0.00537072 -0.00372976 0.00126954 0.00446988 -0.00238074 -0.00657773 -0.00103161 0.00904299 0.00147849 0.00772215 0.00827758 0.00471135 0.00541487 0.00350259 0.00773196 0.0071134 0.000824742 0.00721949 0.00113467 0.00587769 0.00648325 0.00381623 0.00714905 0.000187992 0.0015783 0.00302626 0.00831207 0.00858645 0.00175697 0.00431636 0.00747888 0.00107517 0.00162569 0.0020618 0.00676921 0.00725092 0.000312298 0.00188705 0.00191029 0.00204217 0.00195649 0.00906944 0.0085567 0.00979381 0.000206186 0.0057732 0.00268101 0.0014749 0.00112065 0.00622359 0.00557293 0.00771861 0.00790185 0.00103709 0.00579228 0.0109098 0.00733739 0.0040488 0.00849579 0.00465772 0.000615176 0.000276001 0.00430557 0.00601788 0.00121038 0.00815513 0.00408159 0.00413638 0.000412371 0.00536082 0.00731959 0.0101031 0.00762887 0.000721649 0.00350515 0.00597938 0.00195469 0.00828763 0.00412436 0.000908646 0.00497576 0.010886 0.00560207 0.0073718 0.0090713 0.00346367 0.00823123 0.00446857 0.00841164 0.00946732 0.00883436 0.00858068 0.00670982 0.00243955 0.00453723 0.00319588 0.00907216 0.000206186 0.00597938 0.00680412 0.00536082 0.00453608 0.00979381 0.00164948 0.00134021 0.00907216 0.000309278 0.00721649 0.00917526 0.00886598 0.01 0.00876289 0.00340206 0.00329897 0.00845361 0.0101031 0.000515464 0.00886598 0.00989691 0.00154639 0.00484536 0.00546392 0.00360825 0.00690722 0 0.00773196 0.00886598 0.00350515 0.00731959 0.00350515 0.00618557 0.00896907 0.00484536 0.00231651 0.00401781 -0.000254796 0.00670625 0.00779937 9.36449e-05 0.00492089 0.00293398 0.000849083 0.00959622 0.00360608 0.00412658 0.00615299 0.00703273 0.00639023 0.00944796 0.00990002 0.00133974 0.00886598 0.00113402 0.00773196 0.00927835 0.00113402 0.00948454 0.00515464 0.00278111 0.00474145 0.00118169 0.00160403 0.00391204 0.00825153 0.0069379 0.0022241 -0.000215435 -0.002945 0.00103042 0.00415355 0.000135815 0.00059419 0.00726717 0.0031041 0.00712901 0.00325609 0.00965335 0.00263482 0.00965599 0.00380263 0.00525773 0.00134021 0.00608247 0.00494845 0.00556701 0.00143398 0.00627989 0.00914629 0.00468454 0.00826884 0.00745109 0.000608137 0.0047058 -0.000482496 -0.00487719 0.00263284 -0.00206523 -0.00594483 0.000369775 0.000264758 -0.0043594 -0.000861666 0.00114064 0.00678613 0.0039381 -8.9731e-05 0.00452255 0.00889567 0.00331584 0.00867741 0.0028866 0.0043299 0.00865979 0.0014114 0.00967265 0.00418353 0.000621943 0.00510589 0.00156053 0.00141132 0.00305322 -0.00372052 0.0038653 -0.00240116 -0.00711023 -0.00264005 -0.0016826 0.00103757 -0.00719043 -0.000914563 0.00225248 0.00222655 0.00459161 0.00341245 0.0100459 0.0106107 0.00735524 0.00976329 0.00120985 0.00731959 0.0085567 0.00948011 0.00123136 0.000533054 -0.00765714 0.00479909 0.00286802 -0.00625586 -0.0128822 0.00420866 0.0240756 0.0170262 0.00997891 0.0220728 0.0249267 0.0146413 -0.00823128 -0.00947313 -0.0142345 -0.00404753 -0.0006067 -0.000899677 0.00649629 0.00662697 0.00387191 0.00348624 0.00542362 0.00845361 0.0071139 0.00849035 -0.00138929 0.00103968 0.00516014 0.0182284 0.00650867 -0.00846349 0.00290132 0.00938462 0.02053 0.0135392 -0.000606259 -0.00263684 0.00847198 -0.00115962 0.00358965 2.27191e-05 -0.00418851 -0.0111239 -0.00752598 -0.00340877 0.000372597 0.00799211 0.00274574 0.00739285 0.00657776 0.00505155 0.00834851 0.00523634 0.00584228 0.00061833 -0.00455692 0.00871914 0.00633784 0.0210595 0.0166644 0.0185229 0.0126894 0.0141615 0.00404656 -0.00179806 -0.00760676 -0.0141532 -0.0145093 -0.00933001 -0.00576884 -0.00347089 0.00527271 0.00139323 0.0113782 0.0107185 0.0090321 0.00314561 0.0082814 0.00763681 0.00803664 0.00506167 -0.00122546 -0.00437494 -0.00448243 0.0195435 0.0274126 0.0281923 0.0237655 0.000140532 -0.00510538 -0.00174036 0.001866 -0.0025366 -0.0136104 0.00214476 -0.011735 -0.0105039 -0.0125697 0.000287767 -0.00291681 0.00969852 0.00988745 0.00911646 0.00830605 0.0096793 0.00666028 0.000927835 0.00640665 -0.00414344 0.000820994 0.00207123 0.0125728 0.023765 0.0241417 0.0241935 0.0187102 -0.00545565 -0.00506158 0.000767271 0.00127051 -0.00229317 -0.00359086 0.0135561 0.00398172 -0.0116592 -0.00632504 0.00562806 0.0048006 0.0101085 0.0153003 0.00453517 0.00824179 0.00437441 0.00403764 0.00309278 0.00857989 0.00160405 -0.00476124 0.0145009 0.0164101 0.0106119 0.00583323 0.00924981 0.0138488 0.00355484 0.00622007 0.000830275 -0.00609392 -0.000651534 0.00721512 0.00100768 0.00654805 -0.000846174 0.00566027 -0.00392641 0.000189214 0.00849153 0.00151057 0.00295492 0.00244138 0.00863489 0.00770182 0.00896907 0.00538701 0.000202918 0.00804776 0.0197376 -0.000759868 -0.00606608 -0.00204269 0.00311549 0.00800428 -0.00132229 0.00240543 -0.0111821 -0.0127007 -0.0164777 -0.00734046 -0.0110175 -0.00169152 -0.00347782 -0.00876684 -0.0209054 -0.0164278 -0.0131866 -0.00214007 0.00135362 0.00915841 0.00339005 0.00633094 0.00216495 0.00776115 0.00306766 0.00924119 0.0139305 0.0027388 0.00132905 0.000468384 0.00788311 -0.0011622 0.00288647 -0.00233028 -0.0105806 -0.0111875 -0.0177961 -0.00195506 -0.0172584 -0.0202978 -0.0170716 -0.0213218 -0.0315775 -0.0213453 -0.00770648 -0.00873597 0.00139637 0.00172833 0.00257497 0.00721066 0.00721649 0.00691111 0.00473225 0.00889932 0.00440494 0.012679 -0.00539679 -0.000590231 -0.0125393 -0.0200488 -0.0152424 -0.00336943 0.00437677 0.00271405 0.000451735 0.00981297 -0.0129723 -0.0287236 -0.0342473 -0.0373371 -0.0416459 -0.0227242 -0.00776812 0.000586948 -0.00435014 0.00709688 0.00437993 0.00587701 0.00350515 0.00704533 0.00774281 -0.00214174 -0.00203444 -0.00342885 -0.00583134 -0.0135304 -0.0262296 -0.0207085 -0.0080232 -0.00939367 -0.00456738 0.00786937 0.0262843 0.0299848 0.000759461 -0.0202222 -0.0295743 -0.0358798 -0.0381647 -0.0317019 -0.0158559 -0.00277246 0.00145295 0.00144733 0.00166084 0.00649493 0.00597938 0.00410065 0.00633261 -6.77204e-05 -0.000980584 -0.00817534 -0.000298909 -0.00622582 -0.0103419 -0.0159412 -0.00218969 -0.00464329 -0.00165995 0.00667965 0.0415212 0.0436518 0.0226301 -0.00338506 -0.00996853 -0.00685347 -0.0213805 -0.0259187 -0.0181068 0.000264669 0.00389181 0.00796568 0.00850963 0.00751013 0.00783505 0.00374839 0.00832893 -0.00244762 -0.00781732 -0.00147069 -0.00169528 0.00280871 -0.0141929 -0.0112376 0.00999196 -0.00161642 0.00727965 0.00718681 0.0187503 0.0250874 0.0215715 0.013284 0.0146358 0.011113 -0.0184022 -0.0149191 -0.0117115 0.00182111 0.00796921 0.00198005 0.00430865 0.00748988 0.00639175 0.00753882 0.000574182 0.00338931 -0.00232382 -0.00350337 -0.00943389 0.00310955 -0.00992418 -5.73851e-05 -0.00529467 -0.00289406 0.00391053 0.0144264 0.0150263 0.0139514 0.0213559 0.0205379 0.0117299 0.0215348 0.00125003 -0.0124906 -0.0204625 -0.0124707 0.00788595 -0.000424928 -0.0011816 0.00739244 0.00948155 0.00824742 0.00258104 0.00790185 0.00536707 0.00650116 -0.00604597 -0.0137845 -0.0184847 -0.0023873 -0.00360442 -0.0203154 -0.00159247 0.00265964 0.0054152 -0.000529955 -0.00563507 -0.00385942 0.00556993 0.0344563 0.0200626 0.00324064 -0.018395 -0.00913998 0.00961498 -0.000304998 0.00113365 0.00503694 0.00206186 0.00369391 0.00552236 0.00577312 0.000608947 0.00375163 -0.00495176 -0.0121811 -0.0145543 -0.00727009 -0.00984531 -0.0240593 -0.0134836 -0.0105246 -0.0165713 -0.0290146 -0.0394791 -0.0354398 -0.00763594 0.0246671 0.0225278 0.0194198 0.00173877 -0.00179062 0.0118847 0.00986797 0.00471923 0.00618345 0.00628866 0.0085564 0.00362899 0.00321261 0.00613096 0.00279331 -0.00466241 -0.0119785 0.00290801 -0.00407365 -0.00730561 -0.0149313 -0.0216749 -0.0283688 -0.0300079 -0.0301219 -0.0473413 -0.0509538 -0.0274828 0.00766297 0.0245202 0.0285125 0.0196316 0.0146961 0.00932323 0.0101306 0.00167394 0.00690722 0.00319588 0.00412371 0.00864839 0.00602262 0.00111458 0.00287564 0.00112394 -0.0112652 -0.0163816 -0.0168627 -0.0224856 -0.00644964 -0.0208334 -0.0208512 -0.0245003 -0.019401 -0.0308011 -0.0281908 -0.0106651 0.015561 0.0386214 0.0242732 0.021299 0.00953453 0.00385832 0.0115474 0.0100225 0.00690722 0.00381443 0.00402062 0.00810873 -0.00052881 0.000657384 0.00315856 -0.00189224 0.00219391 -0.0114898 -0.00933669 -0.0116773 -0.0153997 -0.0107174 -0.0263843 -0.0318513 -0.0336768 -0.00968874 0.0247074 0.0253405 0.0269396 0.027802 0.00817211 0.00772339 0.0184651 0.00762614 0.00817691 0.0111212 0.00515464 0.00845361 0.00206186 0.00758859 0.00702465 0.00341806 0.000655179 -0.00143155 -0.00152274 -0.00288036 -0.0112918 -0.00517731 -0.0122978 -0.00577169 -0.00713389 -0.013475 0.00408003 0.0332384 0.0511075 0.0488511 0.0226513 0.0082171 0.000629143 0.0136524 0.0200769 0.00928947 0.00799894 0.00682701 0.00443299 0.0042268 0.00329897 0.00306972 0.0071419 0.00284517 -0.00134608 0.00353171 -0.00502813 -0.00377639 -0.00957607 0.00045506 0.00585587 0.00266459 0.00307182 0.00729105 0.0342647 0.0522232 0.0401032 0.016408 0.0190304 0.0043922 0.00511287 0.00186418 0.005328 0.00302425 0.00625667 0.00701068 0.000824742 0.00164948 0.00134021 0.00515482 0.00990677 -0.000294536 0.0047337 0.00862323 0.00440282 0.000672757 0.00434208 -0.00256322 0.00136875 0.0124012 0.0157075 0.0184557 0.0250292 0.0232687 0.0226538 0.00402278 0.00486674 0.0101777 0.00320092 0.00823917 0.0112089 0.00955112 0.00536115 0.00154678 0.00525773 0.00237113 0.00969072 0.000412371 0.00566898 0.00917278 0.00811306 3.45822e-05 0.00787421 0.00185584 0.00471548 -0.00106469 0.00736202 0.00977237 0.00364032 0.00603858 0.00696499 0.000252537 0.0135293 0.000431358 0.00593917 0.00482343 0.000339181 0.00307002 0.00482397 0.00172598 0.00268041 0.00938144 0.01 0.00175258 0.00608247 0.000206186 0.00969072 0.00237113 0.0053535 0.00336661 6.07201e-05 0.00178234 0.00274508 0.000946458 0.0110113 0.00630223 0.000667561 0.0012049 0.00548299 0.00208746 0.00265504 -0.00309001 -0.0010549 0.00890952 0.000229681 0.00473351 0.00893068 0.00907216 0.00237113 0.00969072 0.00154639 0.00484536 0.00350515 0.000721649 0.00938144 0.00257732 0.00556701 0.00670103 0.00938144 0.0028866 0.00824742 0.00907216 0.00814433 0.00969072 0.00649485 0.00443299 0.000515464 0.00917526 0.0101031 0.00525773 0.00649485 0.00319588 0.00247423 0.000721649 0.00618557 0.00340206 0.00762887 0.000103093 0.00814433 0.00701031 0.000103093 0.00247423 0.00453608 0.00701031 0.00175258 0.00608067 0.000412275 0.00711593 0.00749588 0.00206657 0.00114976 0.00187359 0.00858713 0.00211372 0.00736271 0.00493719 0.000573964 0.00720835 0.00445195 0.00239214 0.00159473 0.000758304 0.000518196 0.00721649 0.0014433 0.00680412 0.00670103 0.00835052 0.00628866 0.000721649 0.00144765 0.00515614 0.00468271 0.00519289 0.00330832 0.00134738 0.00544991 0.00406255 -5.73925e-05 0.00747405 0.0062973 0.00910448 0.00596785 0.00274458 0.00350809 0.00746091 0.00388037 0.00433323 0.000667886 0.00527036 0.00394041 0.00524503 0.000412371 0.0102062 0 0.00958763 0.00865979 0.00721152 0.00506297 0.000265172 0.00389835 0.00566135 0.000432331 0.00801122 0.00468093 -0.000449312 0.00353977 0.00204576 -0.000395733 0.00214971 0.00437275 -0.00295198 0.00499782 0.00296247 0.00730927 0.00714628 0.000469692 0.00888411 0.00377251 0.0101013 0.00793338 0.000727078 0.00216495 0.00690722 0.00443299 0.00431286 0.00669633 0.00429925 0.00615762 -0.00123941 0.00354012 0.00491027 -0.00130411 -0.0034728 -0.00190272 -0.00692895 0.00294369 -0.00311062 -0.00163124 -0.00398932 -0.00037262 0.00715576 0.00948158 0.0119411 0.0137131 0.0121287 0.00274834 0.00125036 0.00247352 0.00782547 0.00970637 0.00773196 0.0043299 0.00845124 0.00365539 0.00201165 0.00110863 0.00687701 0.00131467 0.00377879 0.00118542 0.00221939 -0.00403851 -0.00587953 -0.0029894 -0.00305908 -0.00212783 -0.0089392 -0.00622183 -0.0034796 0.00298031 0.00449175 0.00774995 0.012 0.0112698 0.00535097 0.00943151 0.00751109 0.00868292 0.00762887 0.00371013 0.00449382 0.00499938 0.00738483 0.0018229 0.00580572 0.00966783 0.00505724 0.00398124 0.000701033 -0.00329799 -0.00529605 -0.00220051 -0.0127754 -0.0143224 -0.0104505 -0.00600474 -0.011221 -0.00157013 0.00482435 0.00587332 0.00682801 0.010009 0.0114221 0.00383389 0.00780985 0.00621958 0.00216495 0.00914909 0.0100026 0.00684197 0.003225 0.00624623 0.0102476 0.00562438 0.00451372 -0.000829993 0.000549059 0.00470552 -0.0009809 -0.000549653 -0.00496497 -0.00856325 -0.0084869 -0.0036101 -0.00222359 0.00188926 0.00873541 0.00332179 0.00622986 0.0165158 0.00805744 0.0098208 0.000952513 0.00229285 0.00291787 0.00587642 0.0075189 0.00948526 0.00388489 0.00578437 0.0089332 0.00525578 0.00973086 0.00205648 -0.0060967 0.00235882 0.00220635 -0.00594182 -0.00278037 -0.000878342 -0.0012751 -0.0101916 -0.0118174 -0.001126 0.00552718 0.0012909 0.00912821 0.0139934 0.00512264 0.00513612 0.00915738 0.00421191 0.00103093 0.0076822 0.00579424 0.0100451 0.00245498 0.00250794 0.0114608 0.00551681 0.00624453 0.00284342 -0.0018006 0.000982054 -0.00477322 -0.00382572 0.00167124 -0.00496509 -0.00856767 -0.010523 -0.00745069 0.00626635 0.0164552 0.00817094 0.0105415 0.0191618 0.014862 0.00629752 0.00545692 0.00186583 0.00175258 0.00576966 0.0104956 0.00918728 0.0104951 0.00784188 0.00432727 0.00951216 0.00840486 0.0082944 0.00519396 0.00322779 -0.0055414 -0.00864802 -0.000459023 0.000242429 -0.00624862 -0.00652699 0.00308224 0.0109427 0.012113 0.00611897 0.0122707 0.0125343 0.00810577 0.00448239 0.00926206 0.00609107 0.00824742 0.00475733 0.00340833 0.00582596 0.00556337 1.7381e-05 0.0105333 0.00976627 0.0109484 0.00597419 -0.00333881 0.00134703 -0.000117528 0.00125888 -0.0032911 -0.00932173 -0.0124457 -0.00802668 -0.00139498 -0.00182012 0.00264321 0.00616658 -0.00108572 0.00847863 0.0128553 0.0097575 0.00389577 0.000616597 0.00206186 0.00478807 0.00320652 0.00114945 0.00395804 0.00487188 0.00435889 0.0135283 0.0118961 0.00955635 0.00539954 -0.0032846 0.00253631 -0.011714 -0.0167451 -0.00690701 -0.00656547 -0.0112182 -0.000893606 -0.00442527 0.000750041 -0.000660728 0.00750717 0.00522465 0.0139935 0.00177911 0.00773868 0.00145027 0.00268041 0.000449787 0.00841372 0.00999487 0.00442716 0.0011787 0.0179659 0.0216086 0.0125986 0.00961576 -0.00198524 -0.00800018 -0.0093025 -0.0200677 -0.0139726 -0.0142867 -0.0112436 -0.0144275 -0.0086192 -0.00113558 0.00402834 -0.000561412 0.00170639 0.0126416 0.00767261 0.00297091 0.00819416 0.00544398 0.00659794 0.00256585 0.00490289 0.00977155 -0.00277395 0.0148234 0.0228261 0.0192146 0.00757061 0.00703314 -0.00689496 -0.00554982 -0.0124252 -0.0161218 -0.0171646 -0.0179571 -0.011522 -0.0147324 -0.00835663 -0.000173848 0.00533213 0.00101397 0.00619554 0.017673 0.00522467 0.0022766 0.00394131 0.00463696 0.00989691 0.00842474 0.00980686 0.0093413 -0.00620311 0.0085423 0.019388 0.0181126 0.0109496 0.000899208 -0.00641456 -0.012406 -0.0141959 -0.0165236 -0.0167066 -0.0167637 -0.0198475 -0.00618868 -0.0123124 -0.0068946 0.00532718 -0.000493855 0.00805857 0.00672676 0.00651578 0.00107224 0.00458391 0.00893369 0.00515464 0.000396048 0.00576329 0.00938174 0.00474477 0.0084439 0.0146345 0.0123969 0.0144008 0.00653742 -0.000577314 -0.00465567 -0.00352359 -0.00489997 -0.0128162 -0.00773809 -0.014143 -0.0109908 -0.00350579 -0.00281052 0.0051243 0.00553228 0.00427333 0.00599692 0.00543042 0.00688043 0.00799529 0.00539187 0.00721649 0.00937658 0.00706293 0.00182987 0.0110361 0.0041797 0.00995162 0.00739417 -0.000947998 -0.00230586 -0.00341031 -0.0060411 -0.00430147 -0.00914903 -0.00646343 -0.00377574 -0.0103015 -0.00461436 -0.00503785 3.07455e-05 0.00736898 0.00384933 0.00804157 0.0121382 0.00590164 -0.000733089 0.00725919 0.00979315 0.00330362 0.00597938 0.000441421 0.00481204 -0.000796417 0.00682075 0.00728682 0.00648217 0.0120075 -0.00522335 -0.00325122 -0.00620818 -0.00654215 -0.00524852 -0.00020129 -0.000558659 -0.0054051 -0.00589569 -0.00495646 -0.00023699 0.00662871 0.00292594 -0.000272678 0.00773659 0.000562172 0.00849108 0.00932812 0.00604272 0.000927835 0.00282329 0.00622263 0.00782838 0.00034992 0.00378377 0.00228057 0.00204747 0.00741236 -0.00108146 -0.0143341 -0.0106431 -0.0106781 -0.0124272 -0.00527911 -0.0079652 -0.00572791 -0.000805638 0.000524544 -0.00598248 0.0051818 0.0032376 0.00370522 -0.00526649 0.00178401 0.00942302 0.00943094 0.00143398 0.0101031 0.00877788 0.00826252 0.00236657 -0.00370742 -0.00274176 0.00385272 0.00185481 -0.00714884 -0.00380107 -0.010301 -0.00772668 -0.00292907 -0.0059029 -0.00515016 -0.00664622 -0.00548331 0.0032352 -0.00392397 -0.00118316 0.00428516 -0.00222838 -0.00456654 0.00251398 0.00135821 0.000640115 5.47171e-05 0.00824742 0.00402062 0.0102062 0.000841238 0.00527046 0.0055879 0.000755483 -0.00261884 -0.00889022 -0.0096733 -0.0142592 -0.00707239 -0.0125804 -0.0113393 -0.00499229 -0.003704 0.00811159 0.0016291 -0.00167006 -0.000501978 0.00578506 0.000930949 0.00385337 0.00253498 0.00289781 0.00314742 0.00286672 0.00942857 0.00948454 0.00154639 0.00804124 0.00875513 0.00511537 0.00515576 0.00255828 -0.00278071 0.00131661 -0.0120212 -0.00614484 -0.00749982 -0.0114364 -0.00918695 -0.00134583 0.0072626 0.00720998 0.0105303 0.00775491 0.000735568 0.00618766 -0.00206548 0.00837751 -0.00282212 -0.00204618 0.00165975 0.000282826 0.000972892 0.00835052 0.00185567 0.00793814 0.00867661 0.00596864 0.00137963 0.000878617 0.0078366 -0.0019519 2.85176e-05 -0.00339385 -0.00424322 -0.00375523 0.00304757 0.00939061 0.0107416 0.00904997 0.0127816 0.00544536 0.00508316 0.0100181 0.00120658 0.00636025 -0.00136905 0.000971407 0.00682878 0.00319697 0.00103184 0.00701031 0.00319588 0.00206186 0.00415094 0.00315604 0.00286533 0.0032371 0.00794014 0.00805526 0.00599863 -0.00271267 0.00363017 0.00205803 0.00371268 0.00387714 0.00256747 0.00757925 0.00899451 0.00744282 0.00338673 -0.00023464 -0.00229347 -0.00268577 0.00325439 -0.00131501 0.00390241 0.00364786 0.00112898 0.000721649 0.000618557 0.0085567 0.00803623 0.00165527 0.00796424 0.00552452 0.0100221 0.0110866 0.00638805 0.00547359 0.00147525 0.00932592 0.00515649 0.00582031 0.00387974 0.0123927 0.0119441 0.000612505 0.00497718 0.00343723 0.00612343 0.00741677 0.00324265 0.00967396 0.00214597 0.00875841 0.0034998 0.00546392 0.00453608 0.000412371 0.00680412 0.00742223 0.00942893 0.00396194 0.00438752 0.00634999 0.00352234 0.0104746 0.0106646 0.00705237 0.00746244 0.0093447 0.00406076 0.00348392 -3.91083e-05 0.00295477 0.00427305 0.00461708 0.00774746 0.00224572 0.00177681 0.00507536 0.00690113 0.00103093 0.00587629 0.00309278 0.00721649 0.00237113 0.00515464 0.0014433 0.0056701 0.00506007 0.00641063 0.00095452 0.00448363 0.00926209 0.00837219 0.00732601 0.000431306 0.00739999 0.00713531 0.00409374 0.00936269 0.0021605 0.000759875 0.00468983 0.00300611 0.00925436 0.0077569 0.0060953 0.00804124 0.0014433 0.00536082 0.000618557 0.0102062 0.00505155 0.00938144 0.00195876 0.00845361 0.00876289 0.01 0 0.00484536 0.00402062 0.00876289 0.00536082 0.00134021 0.00608247 0.00865979 0.00628866 0.000309278 0.00917526 0.00927835 0.00237113 0.00536082 0.0102062 0.00556701 0.00319588 0.00381443 0.000721649 0.00402062 0.00701031 0.00340206 0.0014433 0.01 0.00814433 0.00845361 0.00216495 0.0008412 0.0027711 0.00600509 0.00180443 0.00415818 0.00453305 0.00316749 0.00815568 0.00810877 0.006628 0.00633857 0.00685246 0.00140551 0.00638019 0.00957853 0.00100832 0.00719865 0.00288706 0.00309278 0.00927835 0.0056701 0.000824742 0.0043299 0.00896907 0.00484536 0.0020658 0.000310635 0.0031311 0.00450204 0.00792557 0.00983469 0.00880596 0.00323191 0.0069691 0.0149298 0.00589977 0.00885806 0.0147995 0.0126651 0.00832852 0.00672561 0.00559741 0.00228861 0.00057605 0.00726516 0.00649554 0.00751843 0.00525773 0.00309278 0.00680412 0.00484536 0.00412371 0.00226634 0.00124788 0.00069273 0.00660849 0.00380653 0.00407651 0.00265264 0.0124763 0.00583958 0.00698181 0.0141227 0.00699279 0.0112258 0.013471 0.0046466 0.00779257 0.00908025 0.00690185 0.00908911 0.00413883 0.00208916 0.00745799 0.00552821 0.00557622 0.0029657 0.00628866 0.00835052 0.00391753 0.00226223 0.00432731 0.00904389 0.00826434 0.00612973 0.00472545 0.00805525 0.00422427 -0.000169602 0.0099353 0.0111822 0.00271557 -0.00295832 0.00621769 -0.00228842 0.000496935 0.000700647 0.00620152 0.00915978 0.00187387 0.00373254 0.00121689 0.00164773 0.00256695 0.0054621 0.00289968 0.00659794 0.0028866 0.00443218 0.00650491 0.0122346 0.0158243 0.00607474 0.0136829 0.0117065 0.00804648 0.00867132 0.00414166 0.00568517 0.000359154 -0.00725009 -0.00857028 -0.0128149 0.00398531 0.00488313 0.00136862 -0.0016069 -0.00289879 -0.00343067 0.00182652 0.00837152 0.00979917 0.00379286 0.00548325 0.000412371 0.00144232 0.00304591 0.00975999 0.00727666 0.00636938 0.00246058 0.00283729 0.00361677 -0.00218989 0.00985816 0.00844548 -0.000698593 0.00251621 0.00271802 -0.000247206 0.0152302 0.0147947 0.00463003 -0.0141454 -0.0136523 -0.0052361 0.00148902 -0.0032724 0.00659831 0.00750086 0.00219081 0.00309506 0.00958763 0.00720045 0.00653031 0.00953087 0.00432064 0.0050986 0.00263571 -0.0043773 0.000603552 0.00463095 0.0163687 -0.0062466 -0.0137411 -0.00519064 -0.00184284 0.00262222 0.00838661 0.0126073 0.00485451 -0.0134776 -0.0221014 -0.0177542 -0.00837052 -0.00592342 0.00502331 0.00207258 0.00396326 0.00175216 0.00505083 0.00494922 0.00706075 0.00560568 0.00684741 0.00998199 0.00502696 -0.000733019 0.012673 0.00236549 -0.00745443 -0.0171471 -0.0202409 -0.018939 -0.00601037 0.00756676 0.000102687 0.00521085 0.00310738 0.014456 0.000677033 -0.00024546 -0.00927968 -0.00380526 -0.00335489 0.00633654 0.000290562 0.00152155 0.00793814 0.00387782 0.00244241 -0.000164617 0.0129395 0.0206787 0.011039 0.00661196 -0.00309953 -0.00317476 -0.010706 -0.00673074 -0.00720715 -0.0119961 -0.00459121 0.00939049 0.00583432 0.00702881 0.00919554 0.014658 0.0210692 0.00671494 -0.00287107 -0.00818445 -0.00151443 0.00190381 0.00699106 0.0089503 0.00628866 0.00308312 0.00525872 0.00521044 0.0169162 0.0335089 0.0111897 0.00361718 -0.00404711 -0.0166824 -0.0099712 -0.00843318 0.000426001 -0.0113593 -0.00163981 0.0112939 0.00829637 0.00657361 0.00757949 0.00658337 0.00955686 0.0104773 0.00678214 -0.00252296 0.00380336 0.00288431 0.00074352 0.00524631 0.00278351 0.00139976 0.00480463 0.00728724 0.0159504 0.0312529 0.00321774 0.00135229 0.00791159 -0.00715547 -0.0129642 -0.00848491 0.00127033 0.00362439 0.0112515 0.00250234 0.00961647 0.00124828 -0.00164745 0.0030262 0.0173602 0.0188444 0.0186281 0.00417183 -0.000402507 0.00251781 0.00158195 0.00781616 0.0014433 0.00941961 0.00841624 0.0132134 0.0237243 0.0167613 0.00977816 -0.00166974 0.000284318 -0.0108289 -0.00488533 -0.000494873 0.00841338 0.00202286 0.0126011 0.00275388 0.0017977 -0.00677407 -0.00846239 -0.00940852 0.00186619 0.0243992 0.021503 0.0157948 -0.00095458 0.00408523 0.00847656 0.0031956 0.000206186 0.00258901 0.00202803 0.0113846 0.0227959 0.0140295 0.00239909 0.00107013 0.00150628 0.00438896 0.00988913 -0.00117644 -7.50286e-05 -0.00323663 -0.00519584 -0.00730688 0.00279402 -0.00662135 -0.0099942 -0.0176211 0.00335634 0.0335153 0.0318543 0.0100431 -0.00220597 0.00447531 0.00449607 0.000601426 0.00618557 0.00823722 0.00549859 0.0109629 0.0242887 0.0148135 0.000351548 -0.00395239 0.000279093 0.00369372 -0.00209896 -0.00783503 -0.00731909 -0.0136087 -0.00950473 -0.0116252 -0.00267942 -0.00669656 -0.00811253 -0.00651019 0.0197174 0.0374951 0.0360124 0.00236864 -0.00447915 0.00202462 0.000661575 0.00814242 0.00329897 0.00244738 0.00999169 0.00788461 0.0134042 0.00698102 -0.000784816 0.0011024 0.00529417 0.0122409 0.00843933 0.00429493 0.00710813 -0.00979086 -0.0165895 -0.0180312 -0.0100309 -0.00984123 0.00204209 0.00436209 0.0298752 0.0315461 0.023036 -0.00548576 -0.00821513 0.00691494 0.00619035 0.00318408 0.0014433 0.00710119 0.00684521 0.00211426 0.0107746 -0.000533812 -0.00115966 -0.00158927 0.00211929 0.00258839 0.00164635 -0.00429617 -0.00494008 -6.95884e-05 -0.00312502 -0.00111238 -0.0042982 -0.00453594 -0.00093614 0.00252379 0.0259592 0.00790513 0.0179145 -0.0134209 -0.00752802 0.00677919 0.000279218 0.00162783 0.00175258 0.00112966 0.00924726 0.00266404 -0.0032172 -0.011463 -0.00531274 -0.000415424 0.00452267 0.00356794 -0.00309659 -0.0084416 -0.00824525 -0.0078081 0.000635041 0.0108593 0.00208254 0.000633008 0.0086084 0.0155057 0.0166932 0.00413759 0.0108132 -0.00809941 -0.000479875 0.000484115 0.00454567 0.00589578 0.0090737 0.00783505 0.00147186 0.00732846 -6.6435e-05 -0.0163205 -0.00511481 0.000258924 -0.00617454 -0.0061153 -0.00711396 -0.00666169 -0.00860282 -0.00692899 -0.0104118 -0.0111654 -0.00258589 0.00926203 0.00240147 0.0125755 0.0107592 -0.00829733 -0.00274883 -0.0143753 0.00144434 0.00648545 0.00507608 0.00575636 0.0014433 0.000929815 0.00813826 0.00467759 -0.00579244 -0.00355323 -0.00714181 -0.00933207 0.00752792 0.00408063 0.00255502 -0.0039883 -0.00758131 -0.00942202 -0.00842689 -0.00348864 -0.00270761 -0.00308516 0.0118471 0.0143938 0.0043611 -0.00633217 -0.0136247 -0.00650498 0.00142522 0.00943714 0.00939793 0.00360599 0.00752577 0.0101052 0.00503591 -0.000369629 0.000941304 -0.00821943 -0.012601 -0.0119678 -0.0046227 0.00390212 0.00763744 0.00147884 -0.00425127 -0.00227655 -0.00540583 -0.019457 -0.00697434 -0.0062516 -0.000764397 0.00690554 4.19021e-05 -0.0081523 -0.00331695 -0.00391573 0.00368754 0.00475727 0.00493599 0.00618557 0.00969072 0.0028866 0.000957689 0.00603082 0.00494775 -0.00340486 -0.00787535 -0.00871182 -0.00576397 0.00212256 0.00813922 0.00195844 -0.00593222 -0.00780802 -0.0102766 -0.0049106 -0.00592094 -0.00803064 0.00386479 0.00181828 -0.00181044 -0.00909026 -0.00314281 0.0012785 0.00839594 0.00575028 0.000676079 0.01 0.00618557 0.000103093 0.00679655 -9.48709e-05 0.00718507 0.00233867 -0.00304042 -0.00640941 -0.00713339 -0.00523262 -0.00777061 -0.00417199 -0.00871916 0.000993911 0.0010678 -0.00627738 0.00478234 0.0042796 0.00953338 0.00452536 0.00158822 -0.00384506 -0.00155527 0.00395748 0.00474244 0.00532586 0.00184618 0.00938144 0.00886598 0.00659794 0.00248023 0.0092265 0.00473926 0.00605198 0.0033663 -0.00414196 -0.0119893 -0.00546197 -0.0104286 -0.00736986 -0.00131219 0.000413686 0.0112252 0.0123243 0.00278951 0.010165 0.00768295 -0.00070106 -0.00403944 -0.00125112 -0.00585184 0.00462272 0.00604228 0.00803106 0.00359607 0.00412371 0.00876289 0.00113402 0.00270688 0.0093781 0.00543257 0.00731851 0.00506998 0.00670215 0.00783012 0.00552988 0.0145195 0.00290678 0.00236625 0.000335837 -0.000820441 0.00818625 0.00809855 0.00861078 0.00114395 0.00834332 0.013119 0.00576994 0.00255143 0.00859775 0.00116928 0.00232806 0.0089637 0.00659794 0.00226804 0.00670103 0.00153624 0.000431685 0.0102338 0.00836392 0.00296928 0.00343777 -0.00316935 0.00550755 0.00998697 0.00980833 0.00860417 0.00816538 0.0055996 0.00380194 -0.00646694 -0.00668686 0.00575958 0.0131906 0.00901418 0.0120757 0.00350129 0.00287381 0.00307352 0.00350039 0.00143759 0.00670103 0.00731959 0.00175258 0.0028866 0.00917588 0.00401078 0.00855735 0.00695591 0.00440666 0.00626777 0.00503199 0.00392166 0.0075423 0.0114656 0.00746095 0.00369363 0.00501444 0.00793593 0.00608512 0.0033048 0.00922241 0.00899075 0.00892019 0.0123876 0.00759238 0.00429089 0.00237113 0.00309278 0.00268041 0.00175258 0.00371134 0.00206186 0.00958763 0.0056701 0.00814881 0.00312485 0.00700656 0.000326133 0.00561766 -0.00188408 0.00362745 0.00783703 0.00539785 0.00828518 0.0057373 0.00619991 0.00754674 0.00766285 0.00368034 0.00826148 0.00200605 0.00800111 0.00712994 0.00762887 0.00659794 0.00123711 0.00381443 0.000206186 0.01 0.00958763 0.00216495 0.00402062 0.00804124 0.00113402 0.00412371 0.00412371 0.00391753 0.01 0.00257732 0.000721649 0.00917526 0 0.00783505 0.0042268 0.00618557 0.00938144 0.00113402 0.00927835 0.00969072 0.0014433 0.00762887 0.00206186 0.00979381 0.00927835 0.00896907 0.00649485 0.00731959 0.00484536 0.00350515 0.00257732 0.00515464 0.00693374 0.00353036 0.00474766 0.00945826 0.00611171 0.00694064 0.00315147 0.00614957 0.00891222 0.00716022 0.00445604 0.0058092 0.00794984 0.00398978 0.00418151 0.00343569 0.00632569 0.00175342 0.00412371 0.00402062 0.00948454 0.00587629 0.00536082 0.00103093 0.00752577 0.000511059 0.00144178 0.00503339 0.0040278 0.00199483 0.00155164 0.00165523 0.00818825 0.0085133 0.0105847 -0.00365248 0.00338021 0.000250341 -0.0048302 -0.00286008 -0.00162426 -0.0106923 0.0042095 0.0035582 0.00659546 0.00888715 0.00332736 0.00917526 0.0057732 0.000824742 0.00680412 0.0056701 0.00701061 0.0055549 0.00426637 0.00728327 0.000814466 0.00815192 0.00230118 0.00455182 0.0139212 0.0128583 0.0070828 -0.00712815 -0.00588379 -0.00346042 0.00426982 0.00270029 -0.0103153 -0.00844301 -0.00599911 0.00144025 0.00643908 0.00782158 0.00156763 0.0101507 0.00240414 0.00876289 0.00556701 0.00804124 0.00969174 0.00506563 0.00714343 0.00325593 -0.00228983 0.00779504 -0.00198668 0.00394127 -0.00759873 -0.00764917 -0.00691255 -0.0217044 -0.0211689 -0.0200188 -0.0130779 0.00105441 0.00886532 -0.00713747 -0.0161598 -0.00882448 0.00539599 0.00686729 0.00551915 0.00536258 0.00843787 0.00443175 0.000412371 0.00123711 0.00474241 0.00817552 0.012365 0.0182843 0.0272732 0.0251674 0.0160777 0.0100142 -0.00743867 -0.0274736 -0.0130615 -0.0327215 -0.043923 -0.0190485 0.0170111 -0.00441574 0.0018612 -0.000491827 -0.0177842 -0.0173183 -0.00150326 -0.00795775 -0.00567613 -0.00592424 0.00241345 0.00923186 0.00226804 0.000116994 0.00117769 0.00486604 0.0130618 0.0205734 0.0123769 0.0168692 0.0130319 0.0358019 0.00359312 0.0061995 0.00519301 -0.0180433 -0.0110185 -0.00791573 0.0037643 0.00602112 -0.00726223 0.0167105 0.0191096 -0.00315766 -0.000156064 -0.0081915 -0.0195684 -0.00659198 -0.000977499 0.00587445 0.00927835 0.00454487 0.00997029 0.0134868 -0.00185376 0.000871619 0.0167931 0.0406491 0.0204509 0.00763572 0.013475 0.0114491 0.0342266 0.0342825 -0.0162231 -0.0224078 -0.00634248 0.0220915 0.00925928 0.019636 0.00774665 0.0261636 0.0163089 -0.0147255 -0.00579205 6.16723e-05 0.00353815 0.00233377 0.00079842 0.00413413 0.0066966 0.0107267 -0.00185606 0.00496788 0.000930884 0.0399423 0.0151574 -0.00698224 0.00288437 0.0192361 0.031941 -0.00673914 0.0112635 0.0212012 0.00833994 0.0322817 0.0028128 0.00113249 0.00909369 -0.00603667 0.0304311 0.0206707 -0.00175034 0.00330353 0.00607311 0.00506763 0.00505155 0.00881133 0.00497041 0.00651595 -0.00689638 -0.00112406 0.00583511 0.0109716 -0.00128532 -0.0279038 -0.0259472 0.0229688 0.0158475 -0.0114805 0.00176314 -0.00396311 -0.00358204 0.0102963 0.0297131 -0.00785108 -0.0223675 -0.0192896 0.0321383 0.0248063 0.00290014 0.00459481 0.00318284 0.00316208 0.00494845 0.00147692 0.0114622 0.00387313 -0.00582625 -0.0123495 -0.0182295 -0.0213307 -0.00708866 -0.0326175 -0.0353524 -0.0188647 -0.0342727 -0.0253577 -0.048117 -0.0688177 -0.0171834 -0.00310032 0.0275468 -0.00951705 -0.0115528 -0.00655103 0.00962567 -0.00141999 0.00303726 0.00753756 0.0049309 0.000262685 0.00391753 0.00485827 0.00580827 0.00103687 -0.0154254 -0.0168891 -0.0340504 -0.0355251 -0.0414287 -0.0621178 -0.0625927 -0.060841 -0.0945691 -0.0753406 -0.0767364 -0.0647088 -0.043811 -0.0280683 0.0147176 -0.0108178 -0.00890384 -0.0267135 -0.0108925 -0.00402743 -0.00278677 0.00549389 0.00120694 0.00841777 0.00835052 0.00745949 0.00332051 -0.00954886 -0.0348782 -0.0368998 -0.0563959 -0.0672522 -0.0696775 -0.0921436 -0.0699108 -0.076721 -0.0742852 -0.0324273 -0.0117139 -0.0173253 -0.00927747 0.000323694 -0.00522541 -0.015663 -0.0227411 -0.0123923 -0.0237138 -0.0176756 0.000941213 0.00740524 0.00348806 0.00120758 0.00989691 0.00402736 0.00541477 -0.0141652 -0.0326144 -0.0532593 -0.0716267 -0.0828781 -0.0791052 -0.0705417 -0.0530324 -0.0464787 -0.0242035 0.00749975 0.00945399 -0.00188752 0.0156056 -0.016195 -0.0117505 -0.0263083 -0.0107121 -0.00612115 -0.0185365 -0.0118603 0.0100842 0.0135734 0.00545576 0.00837909 0.00917526 0.00739183 0.00549018 -0.0101483 -0.029917 -0.0513939 -0.0613121 -0.0508367 -0.0396176 -0.0134821 0.00931175 0.00242385 0.013112 0.00117728 -0.00586526 -0.00959757 0.025369 0.00909046 0.00488076 -0.00757318 -0.0233244 -0.00453232 -0.00810126 0.00277345 0.00191163 0.0135545 0.00513304 0.00443617 0.00391753 0.0024875 0.00971534 -0.00710993 -0.0261394 -0.0274602 -0.0192789 -0.0130179 -0.0149291 0.0050346 0.0157073 0.0027914 -0.0178325 -0.00115028 0.000392754 0.014067 -0.0106409 0.00726542 -0.0179045 -0.0238648 -0.0155769 -0.00596541 -0.0156101 0.00482642 0.0117012 0.000774224 0.00596191 0.00623376 0.00340206 0.00452794 0.00452161 0.00559171 -0.00411969 0.010068 0.019884 0.00903353 0.0337071 0.0304363 0.0150476 -0.000567392 0.00710808 0.0153366 0.0172241 0.0340744 0.0172818 0.00837471 0.0230112 0.0274232 0.00909388 0.0111967 -0.012363 0.00453743 0.00152065 0.0123659 0.0120994 0.00442712 0.000412371 0.0042272 0.00197042 0.0105853 0.0177921 0.0222235 0.0129635 0.00619326 0.0473433 0.0517657 0.0342813 0.0183967 0.0114538 0.00555562 0.0358355 0.0376824 0.00644823 -0.00544303 0.0104005 -0.00157104 0.00705552 0.0122888 -0.0109717 -0.0149876 -0.0054556 0.0157536 0.0102009 0.000403282 0.00620102 0.00463918 0.00641863 0.0251967 0.0223323 0.00658228 0.00521932 0.0258948 0.0383964 0.019125 -0.0049508 -0.00186194 0.00720561 -0.0144079 -0.000398622 0.0204086 0.0312988 0.0605791 0.0507432 0.0371637 0.0214187 0.0120806 -0.0124699 -0.022995 -0.0142902 -0.00334516 0.00289275 0.00349977 0.00505155 0.00440943 0.00463796 0.0229335 0.0202259 -0.00417604 -0.0154876 -0.00216635 0.0258215 0.0156826 0.0040359 0.0101575 -0.0102138 -0.00960412 0.014818 0.0149265 0.0221095 0.0471162 0.0194099 0.0224216 0.025312 0.00166983 -0.00167881 -0.0075938 0.00228849 0.0020998 -0.000482274 0.00251564 0.00927835 0.00605245 0.00518251 0.0186638 0.0116051 0.00296984 -0.0047651 0.0192355 0.0275934 0.0232465 0.0268319 0.0157005 -0.0154906 0.00456546 0.0064273 -0.0150222 -0.0185387 -0.0243985 -0.00618379 -0.0119233 -0.0179396 -0.0145506 -0.0139963 0.0119252 0.0142787 0.0075008 0.00821788 0.00329897 0.00412371 0.00164948 0.0117036 -0.00174365 -0.00524195 -0.00907942 -0.015151 -0.0116436 -0.00895987 -0.0199663 0.00683035 -0.00697441 0.000396267 -0.013352 -0.0228003 -0.0219585 -0.0252448 -0.0169436 -0.00376596 -0.0155406 -0.020785 -0.00438938 0.00546939 0.0152918 0.0107363 0.0096962 0.00174507 0.00670103 0.00824742 0.00257732 0.0092347 -0.00180832 -0.00839359 0.000332983 -0.0243971 -0.0144618 -0.00252501 0.00215192 0.0177925 0.00308711 0.0138273 0.00353074 -0.0132229 0.00559057 0.0103444 0.000311813 -0.00484095 -0.00802831 -0.0134787 -0.00424599 0.00946811 0.00785865 0.00543568 2.36825e-05 0.00475799 0.00546392 0.00515464 0.00463918 0.00936166 -0.00440847 0.0120387 0.0104438 0.0156061 0.025514 0.00473018 0.0146856 0.00506768 0.0191622 0.0207057 8.57775e-05 -0.0110528 0.00566553 0.00173185 -0.00852526 -0.00407756 -0.0068217 -0.0195554 -0.00719691 0.0023716 -0.00283026 0.00157988 0.00349623 -0.00029275 0.00371134 0.00536082 0.00268041 0.00792996 0.00734126 0.00850978 0.0110861 0.0103727 0.0012221 -0.00105236 0.00426605 0.000639645 0.013388 0.0344355 0.00550443 -0.00688769 -0.00313388 0.00823894 0.0100263 -0.0179976 -0.0156185 -0.0156275 -0.0160339 -0.0120522 -0.00365985 0.00557925 0.00550811 0.00211461 0.00536082 0.00701031 0.00762887 0.00057698 0.00951978 0.00147706 -0.00124692 -0.003043 0.00545086 0.0126955 0.0155715 0.0148364 0.0296416 0.037842 0.0219136 0.00656826 0.00439831 0.0147218 -0.00388144 -0.0211048 -0.0128965 -0.00687146 -0.0144996 -0.00298237 0.00443724 0.000503223 0.00189097 0.00470167 0.00123711 0.00340206 0.00175258 0.00649485 0.0027823 -0.00118037 -0.0193804 -0.0247595 -0.000492879 0.00363355 0.00553322 0.0102072 0.017903 0.0113765 0.0148775 0.000943039 -0.00458544 -0.00220149 -0.0014089 0.00179215 0.0030466 0.00956042 0.00248428 0.00609987 0.00280015 0.00309197 0.00721649 0.00206186 0.00381443 0.00608247 0.00680412 0.0101031 0.0043299 0.00742268 0.000621473 0.00782555 0.00395297 0.00552947 0.00329422 0.00885179 0.00743001 0.00656036 0.0061019 0.0064478 0.00790593 0.00686455 0.00321992 0.00354893 0.0056124 0.00297721 -4.48229e-05 -0.00414522 0.00355947 0.000515464 0.00865979 0.0056701 0.00206186 0.0071134 0.00556701 0.00917526 0.00752577 0.00391753 0.00309278 0.00680412 0.00515464 0.00948454 0.00701031 0.0085567 0.00659794 0.00381443 0.00948454 0.00247423 0.00391753 0.00463918 0.00969072 0.000309278 0.00865979 0.00319588 0.00793814 0.00216495 0.00371134 0.00690722 0.0057732 0.00391753 0.00876289 0.00340206 0.000103093 0.00391753 0.00752577 0.00845361 0.0028866 0.00299308 0.00648791 0.00325828 0.00502114 0.00172406 0.00486467 0.00842869 0.00639829 0.000366697 0.00198858 0.00522862 0.00422023 0.000401981 0.00715664 0.00789085 0.00584548 0.00474017 0.00226744 0.00783505 0.00721649 0.0101031 0.00731959 0.00783505 0.00175258 0.00319588 0.00443197 0.00288625 0.010139 0.00054662 0.00156544 0.00578105 0.000866404 0.00948933 0.00532025 0.0128314 0.011798 0.00797269 0.0122491 0.00944661 0.00252764 0.00155687 0.00174475 0.00797137 0.00657154 0.000694129 0.0040179 0.00815583 0.00979381 0.000103093 0.0057732 0.00948454 0.00938144 0.0101608 0.00253361 0.00301473 0.00525101 -0.000959141 -0.000704206 0.00311904 0.00338155 0.00166345 -0.00166731 0.00252614 -0.00138248 0.00333306 0.0136767 0.0153463 -0.00774872 -0.00552541 -0.00204712 -0.00433962 0.00287109 0.0134968 0.00873714 0.00256692 0.00157268 0.002839 0.00360825 0.00381443 0.00865979 0.00698603 0.00434527 0.00901028 0.00779286 0.00841085 0.00274221 0.0051362 -0.00960188 -0.00649882 -0.00763808 0.0131891 0.0292217 0.0442058 0.0435626 0.0363421 0.000202879 -0.00687696 0.00252433 0.0111592 -9.60066e-05 0.00335277 -0.0109285 -0.0163921 -0.00419379 0.00199804 -0.000271789 0.00257732 0.00701031 0.00888827 0.00614362 0.000762363 0.00131795 -0.00553664 -0.00560725 0.00478014 -0.00248228 -0.014209 0.00666398 -0.00197446 -0.0141491 0.0047012 0.0390869 0.0517629 -0.00903924 -0.0212242 -0.000814594 -0.00828515 -0.00737474 -0.00413822 -0.0225213 -0.0128624 -0.00326969 0.00502822 0.00243572 0.0042268 0.00474038 0.00764433 0.00300744 0.0063672 -0.00227896 -0.00787995 -0.00587827 -0.00918503 -0.00150983 0.00341112 -0.0054493 0.00264565 -0.00175953 0.00100558 -0.00769369 0.000479329 -0.00171854 -0.0260447 0.000173312 0.00447465 -0.00155001 -0.0093895 -0.0194824 -0.0211317 -0.00089049 -0.00275368 0.000619743 0.00123711 0.00284579 0.0108148 0.00625171 0.00537087 0.00986107 -0.0107944 -0.0181945 -0.0209679 0.0182417 0.031006 0.0207083 -0.00557396 0.00408662 -0.0133212 -0.0265824 0.0638549 0.0362878 -0.0177189 0.00848326 0.0174574 0.00301089 -0.00809999 -0.00824113 -0.0130195 -0.00365155 -0.0017617 0.000453123 0.00761499 0.00255608 0.00264814 0.00468869 0.0172353 0.00259932 -0.000945923 0.012008 -0.00690822 0.0411362 0.0418634 0.0313748 0.00156926 -0.0101613 0.00604461 0.0296799 0.0652788 0.0424726 -0.00797243 -0.00991496 -0.0137964 -0.0180492 -0.00801221 -0.00362124 -0.0116849 -0.00740026 0.00593343 0.00329379 0.00536082 0.00769713 0.00113581 0.01087 -0.00130173 0.00399108 0.0021299 0.0098504 0.00377245 0.0313419 0.024235 0.0140473 0.00113164 -0.0231836 -0.0374773 0.031729 0.0403312 -0.00432124 -0.00624473 -0.0224812 -0.0366323 -0.0110396 0.00171284 0.00467171 -0.000823199 0.00306877 0.0044124 0.0027061 0.00154639 0.00962497 0.0090274 0.00534266 -0.00450551 -8.58007e-05 -0.00177493 0.00534109 0.0124331 0.00619405 0.00397811 -0.0152076 -0.0155297 -0.0368136 -0.0470031 0.0243036 0.031564 -0.00965824 -0.0282831 -0.0330771 -0.0206298 -0.000584055 -0.0111198 -0.00705543 0.00185832 0.00161551 0.00948083 0.000634019 0.00886598 0.00100645 0.0102399 0.00224888 -0.00235536 0.00703181 0.00114001 -0.0114063 -0.0163361 -0.0198765 -0.0326475 -0.0147849 -0.0372256 -0.0716388 -0.0245327 0.0330727 0.0176074 -0.0451605 -0.0336074 -0.021343 -0.0146481 -0.0146696 -0.0100536 -0.010539 -0.000670033 0.00804336 0.0065745 0.00474621 0.00247423 0.00463231 0.0091122 0.00348309 0.00271245 -0.00299453 -0.0114166 -0.0195305 -0.0222126 -0.0316809 -0.0284378 -0.0463267 -0.0427387 -0.0619884 -0.0181631 0.0329126 0.0198082 -0.0203094 -0.00115922 -0.0285561 -0.0265783 -0.0135225 -0.000872913 -0.00776841 0.00412643 0.00903831 0.00503942 0.00376998 0.00443299 0.00990468 0.00577201 0.0024308 -0.000188538 -0.00324109 -0.0178796 -0.0244062 -0.0296378 -0.0269736 -0.0262152 -0.025902 -0.0258211 -0.0274185 -0.00139886 0.0184345 0.0167866 -0.0142734 0.00882721 -0.0281535 -0.0211446 -0.0021021 0.00202835 0.00448484 0.00975549 0.00888083 0.00511203 0.00819887 0.00958763 0.000932362 0.00948802 0.0085074 0.00408635 4.09885e-05 -0.0180349 -0.0242276 -0.0291895 -0.0292743 -0.025464 0.0146979 -0.027854 -0.0390236 0.0366848 0.0225178 -0.00493594 -0.0343032 -0.0196951 -0.0343709 -0.0326316 -0.0198699 -0.0146924 0.00325872 0.00545073 0.00341258 0.00284103 0.00928442 0.00701031 0.00234984 0.00174773 0.00741767 0.00119921 -0.013321 -0.023249 -0.0292797 -0.0236018 -0.0223003 -0.00349607 0.00509066 -0.0362913 0.0106547 -0.00237148 0.0374497 -0.0371025 -0.0690349 -0.0656802 -0.0509963 -0.029389 -0.0248352 -0.012153 -0.00386509 -3.33277e-05 0.00397085 0.00483832 0.00351012 0.00257732 0.00523916 0.00845197 0.000404289 -0.00680054 -0.0144183 -0.0262612 -0.0269698 -0.0155001 -0.0129073 -0.00737644 -0.00511764 -0.00185749 0.03151 0.0188499 -0.0145103 -0.0262127 -0.0516162 -0.0556484 -0.0478698 -0.0379965 -0.0164812 -0.00703924 0.0184226 0.0071667 0.0189424 0.0166257 0.00786355 0.0056701 0.0059414 0.00451602 0.00675267 -0.00975523 -0.0170576 -0.014953 -0.0288835 -0.030471 -0.0149019 0.0291143 0.0343158 0.0357971 0.0162455 0.0230327 -0.052813 -0.0591976 -0.0540469 -0.016896 -0.0310967 -0.0196366 -0.00959726 0.00988832 0.0369825 0.0280532 0.0280293 0.0159375 0.00572208 0.000631209 0.0102062 0.00588891 -0.00300513 -0.000269988 -0.0220441 -0.0280681 -0.00430145 0.0086778 0.0214539 0.0282466 0.0354061 0.0423904 0.0371825 -0.0182881 -0.0511636 -0.045009 -0.0299489 -0.00422435 -0.0169929 -0.000148504 0.0154888 0.0430085 0.0417943 0.0279658 0.017295 0.00627519 0.0011103 0.00639175 0.000503909 0.00731957 0.00227709 -0.00192286 -0.02273 -0.0153061 -0.00046084 -0.00109223 -0.0139781 0.0258588 0.0447042 0.0392112 0.0157449 -0.0565519 -0.0550011 -0.0287955 -0.0118199 -0.0212391 0.000460766 0.0344688 0.00868201 0.0174744 0.0180624 0.0157113 0.0115861 0.0128393 0.00757623 0.00886598 0.000192438 0.00941261 0.00259977 0.000303375 -0.0158165 -0.00892451 0.0106435 0.00902407 -0.0256949 0.0627501 0.0805989 0.0607302 -0.0140737 -0.032851 -0.0242671 0.00541197 0.0112798 0.00612897 0.00194082 0.0114167 -0.0157898 -0.00828453 0.00745228 0.00220674 0.00860176 0.0100105 0.00309278 0.000618557 0.00123711 0.00554549 0.00920214 0.00477003 0.00605265 0.00669534 -0.013547 -0.0168513 0.00737516 0.0305556 0.0222571 0.0425551 0.0125598 -0.0146375 -0.0365259 -0.005154 0.0164244 0.00802317 -0.00400158 -0.00589743 -0.00417258 -0.00895844 0.0128482 0.0162809 0.00981278 0.00444923 0.00649485 0.00680412 0.00309278 0.00139953 0.00260517 0.00288403 0.0122071 0.00535589 -0.0134042 -0.0130647 -0.00305252 -0.00645905 -0.0180639 0.00274474 0.0292053 -0.0081114 -0.0658103 -0.00985544 -0.0233432 -0.00477701 -0.00273892 0.00424053 0.00156616 0.00892095 0.0070904 0.0010806 0.00484977 0.00752956 0.00701031 0.00360825 0.00762887 0.0104488 -0.00397051 0.00515059 0.00344702 -0.00863807 -0.00813922 -0.0266251 0.00855087 0.000227355 0.0272873 0.0699468 0.0441186 -0.00741117 -0.0468203 -0.0287789 -0.0351394 -0.00338565 0.00186638 -0.01542 -0.00468394 0.000995653 -0.00458122 -0.000833179 0.00643123 0.00423106 0.00206186 0.00103093 0.00226804 0.00762246 0.000984436 -0.00431817 0.000554709 -0.0097013 -0.0314773 -0.0317011 -0.0304739 -0.0257789 0.0269079 0.0654928 0.0319083 0.00561339 0.00766798 -0.0138657 0.00148014 0.0189132 0.00587793 -0.0134963 -0.0136026 -0.00336323 0.00121441 0.0013782 0.00519746 0.0073599 0.00546392 0.00536082 0.00463918 0.00246399 0.00144711 0.00436631 0.00376656 0.00500957 -0.00247006 0.00462335 0.0005762 -0.0101934 0.0159174 0.0253752 0.0312879 0.0312842 0.0247615 0.0103849 0.0155816 0.00979129 -0.0175039 -0.01193 -0.003102 -0.00280802 -0.00107552 0.00671368 0.00261312 0.000455203 0.00319588 0.00268041 0.00969072 0.000824742 0.00783537 0.000676675 0.00877764 0.00199737 0.00617331 0.00516369 0.00430228 -0.00294455 0.00636284 0.0106367 0.00968815 0.00153448 -0.00107698 -0.00256415 0.00431984 -0.00192099 0.0068493 0.00502936 2.12194e-05 0.00538245 0.00557665 0.00773013 0.00721649 0.00319588 0.00113402 0.000618557 0.00721649 0.00876289 0.00701031 0.00474227 0.00536557 0.00308727 0.00466933 0.00308743 0.00930578 0.00657533 0.00341692 0.00362394 0.00914979 0.00759833 0.000347256 0.00977837 0.00661565 -9.68874e-05 0.00476556 0.00443103 0.00496882 0.00307079 0.00178935 0.00989691 0.00917526 0.00185567 0.00268041 0.00917526 0.00268041 0.00865979 0.00319588 0.00989691 0.00237113 0.00701031 0.00329897 0.00360825 0.00731959 0.0014433 0.00876289 0.00824742 0.00402062 0.00268041 0.00628866 0.00484536 0.00391753 0.00824742 0.00876289 0.00113402 0.00721649 0.00690722 0.0028866 0.00639175 0.00195876 0.0101031 0.00216495 0.0014433 0.00958763 0.0085567 0.0014433 0.000618557 0.0071134 0.00844019 0.00692244 0.00919732 0.00945276 0.00590939 0.0082089 0.00512156 -0.000591757 -0.000147236 -0.000313601 -0.000178628 0.00914922 0.0098702 0.00525819 0.0027044 0.00445598 0.000658939 0.000356127 0.00865979 0.00670103 0.0042268 0.00247423 0.00309278 0.00639175 0.00505155 0.00735333 0.00385823 0.00701182 0.0028544 0.00613254 0.00417049 6.55809e-05 0.00457122 -0.000358184 -0.00287813 -0.0107895 0.00186482 -0.00694619 0.0071491 0.00176359 0.00152146 0.00932818 0.00232061 0.0101259 0.00841752 0.00917927 0.00466285 0.00690722 0.00474227 0.000309278 0.00381443 0.00783505 0.000392603 0.00434268 0.00484462 0.00261849 0.0110269 0.00259729 -0.000407495 0.000643715 -0.00629762 0.00644266 -0.00287488 -0.00178828 0.0293271 0.0402861 0.0150584 0.000204076 0.00282822 0.0012706 -0.000962942 0.00504712 -0.00171374 0.0110206 0.0098354 0.00485937 0.00282838 0.00865979 0.00835052 0.00515464 0.00766427 0.00957369 0.00507497 0.0064001 0.00575766 0.00242564 0.000856294 -0.00311703 -0.0112926 -0.0161011 -0.0203979 0.00729343 0.034804 0.0348784 0.00635743 -0.00802401 -0.0108725 0.000849956 0.00380176 0.00307806 0.0094764 0.0108451 0.0110898 0.00293248 0.00901559 0.0102872 0.0101031 0.0071134 0.00267102 0.000237686 0.00727827 0.00948077 0.0124046 -0.001224 -0.00668226 -0.0153137 -0.0310995 -0.0222011 -0.0329599 -0.00380288 0.0343499 0.026314 0.00635663 -0.0184143 -0.0237077 -0.0172432 -0.00389973 0.0130144 0.0193303 0.0192746 0.0126067 0.00120263 0.00245337 0.00310941 0.000927835 0.00340145 0.00640088 0.00732131 0.00506008 0.00925292 0.00997149 -0.00506679 -0.0216143 -0.0266031 -0.0415514 -0.0385162 -0.031155 0.00226254 0.0371861 0.015781 -0.0318104 -0.049821 -0.0540317 -0.025911 -0.0158749 0.0107401 0.0253523 0.017061 0.00808649 0.00138843 0.00615653 0.0087296 0.00175258 0.00895199 0.000489353 0.00625417 0.00972049 0.00567904 0.000376027 -0.00743713 -0.0232448 -0.0281043 -0.0330093 -0.02118 -0.0375506 -0.00935781 0.0245206 -0.00531151 -0.0444397 -0.0550803 -0.0565846 -0.0268141 0.00770307 0.0194201 0.0167247 -0.000844753 0.00319543 -0.0034664 0.00939936 0.00643365 0.00704693 0.00178847 0.00261932 0.00473672 0.00959278 0.00757644 -0.000756749 -0.0156139 -0.027549 -0.0371292 -0.0414281 -0.0359695 -0.0367369 0.0164644 0.0412763 0.0148144 -0.0453335 -0.0598753 -0.0313692 0.012045 0.0160001 0.00286768 -0.00791816 -0.0159543 0.00122866 0.00702299 0.00376022 0.00402342 0.00154639 0.00343073 0.0066896 0.00231836 -0.00016469 0.00778664 -0.00132926 -0.0124021 -0.0204639 -0.041931 -0.0453553 -0.0482002 -0.0178463 0.0436427 0.0596741 0.00202272 -0.0505044 -0.0587866 0.00125616 0.0279376 0.016292 0.00296949 -0.0271829 -0.0223252 -0.0057324 0.00135547 0.00545955 0.00888402 0.00278351 0.00976151 0.00910551 0.00347699 -0.00346335 0.00538726 -0.00110265 -0.000869183 -0.0285466 -0.0336312 -0.0377545 -0.0414614 -0.00286165 0.0515851 0.0231062 -0.0353024 -0.0676406 -0.0279286 0.0283104 0.0146247 -0.00281087 -0.019084 -0.0288355 -0.0126185 -0.00304623 0.00919107 0.00253659 0.00955705 0.00154639 0.00199745 0.000312204 -0.000435692 -0.00567058 -0.00432752 -0.005479 -0.006169 -0.0282774 -0.0151313 -0.0109638 -0.0114756 0.0225139 0.0232312 8.93531e-05 -0.0310218 -0.049921 0.0056772 0.0168628 0.000874326 -0.0261632 -0.017158 -0.0118954 -0.0101393 0.0039003 0.00418923 0.00296445 0.00338732 0.0056701 0.00598949 0.0065824 0.00589991 -0.00387649 -0.0122589 -0.0116498 -0.00570156 -0.00695409 -0.0047341 0.0149058 0.00958882 0.0422504 0.0287535 -0.00397677 -0.0301598 -0.0158308 -0.00888969 0.0183996 -0.0150603 -0.0223163 -0.00895833 -0.00902971 -0.00892285 0.00235772 -0.00617589 0.0019081 0.00138766 0.000103093 0.00894372 0.0105098 0.00445158 -0.00589278 -0.00834577 -0.00530486 -0.00745623 0.0164949 0.0210379 0.0231067 0.0103149 0.028498 0.00385122 -0.0269486 -0.00479099 0.01869 0.00233717 -0.00983275 0.00394717 -0.00312273 -0.00878493 -0.0057896 -0.00842224 -0.0160945 -0.00904687 -0.00322989 0.00306674 0.00670103 0.00120379 0.00604435 0.0041306 -0.00364382 0.000726555 -0.00708096 0.000275675 0.0380276 0.0247735 0.00791318 0.00784436 0.0145747 0.00916921 -0.011978 0.0107882 0.0259143 0.0078408 -0.0228238 -0.0149206 -0.00980283 -0.000609164 -0.00360919 -0.00453782 -0.013097 -0.00302422 -0.00303942 0.0024828 0.000618557 0.00899764 0.00200871 0.00458115 0.00553243 0.00393473 0.00218384 0.0262688 0.045351 0.0292318 0.00806443 -0.00246319 0.0180616 -0.0220415 -0.0152593 0.0285154 0.0306433 0.00615268 -0.019142 -0.00237816 -0.00782505 0.019468 0.013717 0.00604197 -0.00851878 0.00114993 -0.00511898 0.00563944 0.00309278 0.00233484 0.0052298 0.00281533 -0.000410912 0.010339 0.0189195 0.0281358 0.0466217 0.00819306 -0.0412923 -0.0037228 0.0119568 0.000144003 -0.00119531 0.0445478 0.0292256 0.0197671 0.00458572 0.00895714 -0.0138146 0.0225808 0.0172842 0.00814792 -0.000164715 0.00244099 0.00393042 0.00415675 0.000515464 0.00297744 0.00594828 0.00223949 -0.000548749 0.0195738 0.0221989 0.0292334 0.0219432 -0.0133772 -0.0258838 -0.0141225 -0.0153324 0.0172883 0.0409448 0.0273197 0.0333797 0.0359383 0.0246145 0.0122023 0.00655537 0.0259871 0.0215332 0.0119318 0.0062532 -0.00471543 0.00406404 -0.000573575 0.00236594 0.0101031 0.00863989 0.00835118 0.00360859 0.0114627 0.0285256 0.0164362 0.00402582 -0.0159771 -0.0162474 -0.0123632 0.00958893 0.0384678 0.0263418 0.0156475 0.000395196 0.0253704 0.00503547 -0.00100122 0.0144558 0.0307343 0.00791526 0.018004 0.00310647 -0.0020789 0.00535686 0.00738813 0.00237113 0.00723705 0.0108504 0.0116658 0.0209164 0.0122826 0.015482 0.000579703 0.00416893 -0.0201353 -0.0207416 -0.00920777 0.0133513 0.0256899 0.0236691 0.00786978 0.0148204 0.017501 -0.00870676 -0.0103065 0.00400265 0.0226932 0.00946739 0.0186383 0.00106933 0.00544649 0.00489733 0.00886656 0.0014433 0.00760474 0.00485104 0.0121029 0.00453813 0.0079558 0.000642085 -0.00113743 -0.015627 -0.0187547 -0.0284735 -0.0242829 0.00798695 0.000866644 0.00227016 -0.0147223 0.0147524 0.020386 -0.013442 -0.0148889 -0.00191347 0.0191828 -0.00175453 0.00917586 0.0032451 0.00258019 0.00935823 0.00546392 0.00824742 0.000927835 0.00206308 0.00853533 0.0043212 0.00490571 -0.0146328 -0.0235687 -0.0166648 -0.0160658 -0.0338259 -0.0187087 -0.00730048 -0.00926713 0.00144935 -0.00943198 -0.00383905 0.0181453 -0.0106812 -0.0102466 0.0143679 0.0143134 0.00710717 -0.000969016 0.00163722 0.00232326 0.00228526 0.00195876 0.00298969 0.00938144 0.00612038 0.00324807 0.00444405 0.00128521 -0.00793853 -0.0178693 -0.0221258 -0.040004 -0.0128632 -0.00101159 -0.00493901 -0.0245669 -0.00241899 -0.00899311 0.0207062 -0.00273377 -0.0112483 0.0113648 0.00263227 0.00166269 0.00939343 -0.00589921 0.00275019 -0.00366147 0.00426534 0.00587629 0.00402062 0.00237113 0.00483538 0.00941421 0.00860142 0.00934901 -0.00417829 -0.00840056 -0.0137126 -0.00772958 0.00233582 0.00368895 -0.0178189 -0.0379927 -0.0221513 -0.0177869 -0.0203444 -0.0203413 -0.0116787 0.0105352 0.00262366 0.00437688 -0.00296867 0.00220088 -0.00110994 0.00322774 0.00890555 0.00845361 0.00690722 0.00824742 0.00362419 0.00518582 0.0095493 0.0100146 0.0070016 0.00169686 -0.00185572 0.00102818 0.0113126 0.017631 0.000797194 -0.0173649 -0.0199963 -0.0124161 -0.0209211 -0.0228955 -0.00323289 0.00900559 0.00160625 0.0117472 0.00696118 0.00871155 0.00368989 0.0064412 0.00571694 0.00927835 0.00670103 0.00371134 0.00845216 0.00164295 0.008477 0.000347115 0.000134284 0.000585089 -0.00338457 0.00614336 0.0201016 0.0172191 0.0122279 -0.00443633 -0.00798857 -0.00488892 -0.00270122 -0.00883192 -0.00336963 -0.00693615 -0.00123538 0.00287642 0.00833653 0.00749968 0.0064695 0.00117561 0.00571987 0.0102062 0.00618557 0.00298969 0.00484536 0.00907198 0.00956747 0.00377856 0.00476893 0.00632059 -0.00321451 0.00215779 -0.00332905 -0.00264494 -0.000321694 0.00361845 0.00189153 0.00392267 -0.00283666 -0.00167381 0.000198861 0.00277199 -0.00257138 0.00415019 0.00877678 -2.22899e-05 0.00154118 0.00886598 0.00865979 0.00237113 0.0101031 0.00680412 0.00185567 0.00185567 0.00938144 0.00639142 0.00901153 0.000261322 0.0013328 0.0012013 0.00580436 0.00559766 0.00599165 -6.49625e-06 0.000848262 0.00607548 0.00150754 0.00482033 0.00664303 0.00120542 1.13954e-05 0.00220833 0.00634243 0.00710617 0.00907216 0.00969072 0.0043299 0.00536082 0.00773196 0.00237113 0.00195876 0.000309278 0.00134021 0.00175258 0.00835052 0.00484536 0.00701031 0.00371134 0.00628866 0.00175258 0.00350515 0.01 0.00876289 0.00134021 0.00164948 0.00371134 0.00969072 0.00309278 0.00329897 0.000103093 0.00195876 0.0042268 0.00659794 0.00216495 0.00216495 0.00391753 0.000927835 0.00979381 0.00195876 0.00587629 0.00690722 0.00824742 0.00722806 0.00300344 0.00938149 0.00413449 0.000459092 0.00611689 0.0096145 0.00960467 0.00419175 0.00950675 0.00328791 0.00423508 0.00180229 0.00878901 0.00558051 0.00752852 0.00703571 0.00567188 0.000412371 0.0042268 0.00938144 0.000103093 0.00371134 0.00381443 0.00969072 0.00103174 0.0100003 0.0102976 0.0102538 0.00688552 0.0031111 0.00271908 0.00951817 0.010145 0.0110101 0.010705 0.00324639 0.0048687 0.000983408 0.00627519 0.00557549 0.00815611 0.00909907 -7.84775e-06 0.00794639 0.00411862 0.00432782 0.0042268 0.000927835 0.00721649 0.00278351 0.00329897 0.00834386 0.00494939 0.00410724 0.00406123 0.000577558 0.00695719 0.000941668 0.00949806 0.000444886 0.000690917 0.00729309 0.00519632 0.00367284 0.000816156 0.00256523 -0.000155457 0.00162908 0.00505623 0.000271649 0.00995441 0.00482379 0.00731138 0.00204649 0.00772816 0.00909856 0.00381443 0.00474227 0.000309278 0.00183287 0.00391249 0.00740507 0.00477088 0.00817262 0.000900902 0.000880394 0.000318258 0.00359481 0.00292017 -0.000814048 -0.0046304 -0.00419264 -0.00772775 -0.0014128 0.000870033 -0.000843079 0.00194868 -0.00359632 0.000335057 0.00361146 0.00284886 0.00920138 0.00517044 0.00198191 0.00607015 0.00917526 0.00505155 0.00133704 0.00694782 0.00634024 0.0109456 0.00570423 0.00692672 0.00431503 -0.00470072 -0.00981008 -0.0124208 -0.0115229 -0.0145732 -0.022654 -0.0154161 -0.0159077 -0.0209456 -0.0200093 -0.0194817 -0.012156 -0.00167128 0.000227909 0.00515991 -4.12263e-05 0.0084436 0.00294724 0.00874468 0.000515464 0.0024736 0.00774573 0.0122905 0.0153491 0.0178311 -0.00330328 -0.0107813 -0.0089756 -0.00890403 -0.00803714 -0.0092971 -0.00514509 0.002017 -0.00153033 -0.0184985 -0.0114389 0.00731925 -0.00389457 -0.00923827 -0.00590924 0.00495687 0.00238891 -0.00362872 0.00870391 0.0040563 0.00890932 0.00359694 0.00628866 0.00783254 0.00264612 0.00779394 0.0167338 0.00703858 0.0113905 0.00131827 0.0125188 0.0124822 0.00959821 0.0291895 0.0274108 0.012376 0.011475 -0.000743982 0.00155254 0.0223705 0.0233224 0.0146084 0.00632195 -0.00318253 0.00112416 0.00505377 0.00910125 0.00218098 0.00268675 0.000205084 0.00885378 0.00516076 0.00978999 0.00998729 0.0152431 0.00116629 -0.00524811 0.000730077 0.0277153 0.0122946 0.0272769 0.0394519 0.0311145 0.0197215 0.0221755 0.0410723 0.0251049 0.0148514 0.0235951 0.00991638 0.0116171 0.0065747 -0.00836354 0.00332301 0.00129157 0.00574206 0.00390132 0.003342 0.00731959 0.00866945 0.0117562 0.00998554 0.0113671 0.0091931 0.0129783 0.0151156 -0.00205439 0.0161648 0.0268765 0.0127824 0.0212072 0.0272995 0.0368858 0.00957602 -0.00557978 -0.00977319 0.00099087 0.00449226 0.0121263 -0.00607622 -0.00344231 0.00650535 1.10393e-05 0.0034349 0.00580129 0.00597701 0.0057732 0.00739575 0.0119864 0.0130951 0.0201693 0.019927 0.0129439 -0.0101765 0.00105287 0.0240967 0.0293928 0.0254033 -0.0204782 -0.00761515 -0.0310452 -0.00336232 -0.00487425 -0.00680446 -0.00661353 0.0149799 0.00609668 -0.0102109 -0.00992438 -8.91444e-05 -0.00116441 -0.000200232 0.00839127 0.0016071 0.00309278 0.008726 0.0112705 0.0100568 0.0112464 0.0234503 0.0125363 -0.017412 -0.00533433 0.022048 0.0360185 0.0162184 -0.0332254 -0.051552 -0.041538 -0.00516421 -0.0020073 0.00547296 0.00750279 0.0017945 -0.00186598 -0.0292505 -0.00817085 0.00258007 0.0136191 0.003229 0.00352313 0.00565796 0.00329897 0.00204569 0.00299779 0.00832776 0.0090966 0.0133505 -0.0031252 0.0106319 -0.00277812 0.0135135 0.00491464 -0.0365212 -0.0742852 -0.071765 -0.0384712 0.000375519 0.00875745 0.00315803 0.0139769 -0.0226377 -0.0109566 -0.0178516 -0.00439644 -0.00709658 0.0144939 0.00419149 0.00800445 0.0099411 0.00237113 0.00446007 0.00164138 0.00695394 -0.006302 -0.00507122 0.00268381 -0.00015457 -0.000997557 -0.00383971 -0.000786834 -0.0421208 -0.0687364 -0.0567631 -0.0271206 -0.0110052 0.0111786 -0.00583481 -0.0199801 -0.041603 -0.0149715 -0.00978825 -0.0131647 -0.00429708 0.00837263 0.00416475 0.00453091 0.0084047 0.00597938 0.00580616 0.0102835 0.00611201 -0.0115877 -0.00113233 -0.010011 -0.01591 -0.00972389 0.00491412 0.00354438 -0.0308895 -0.0451604 -0.0473615 -0.015405 0.00638896 0.0127193 0.0100471 -0.00936165 0.00167883 -0.00684461 -0.0074314 0.00063463 0.00725468 0.00851079 0.00132587 0.00170259 0.00206788 0.0014433 0.00175058 0.00418149 0.00421872 -0.0107527 -0.0143416 -0.0130064 -0.0127695 -0.0180225 -0.00882833 -0.0140466 -0.0404297 -0.0488272 -0.0466078 -0.0211985 -0.00319432 -0.000241249 0.0153273 -0.00172121 0.00226708 -0.00900127 -0.000485372 -0.00184256 0.00282787 0.00493569 0.0068301 0.0081826 0.0076433 0.00298969 0.00894791 0.00833226 0.00846101 0.00243397 -0.0109932 -0.0187784 -0.00373953 -0.00509601 -0.00833756 -0.0252669 -0.0392364 -0.0459605 -0.0396072 -0.00951665 -0.0106562 -0.0153985 0.0203525 0.00170669 -0.00415434 -0.0103262 -0.0136109 -0.00925627 -0.00445945 -0.000343416 0.00813768 0.00412814 0.0102398 0.00391753 0.00566868 0.00814754 -0.0016949 -0.00427742 -0.00576853 -0.00646123 -0.00178687 -0.00990162 -0.0223036 -0.014421 -0.0189904 -0.029593 -0.0174689 -0.000991136 -0.0176177 -0.0091988 0.0227256 0.023426 -0.00960847 -0.0113452 -0.00731783 -0.00310723 0.00581306 0.00401328 0.00183938 0.00980465 0.00105901 0.00248759 0.00505155 0.00737234 -0.00164155 -0.0059138 -0.0078661 -0.0144564 0.00407998 -0.00118488 -0.0101401 -0.0154508 -0.0156418 -0.0188311 -0.0162379 -0.00218096 -0.032556 -1.23189e-05 0.0290774 0.0171015 -0.011881 -0.00625035 -0.00422377 -0.00451151 0.00219688 -0.000516281 0.00654508 0.00885447 0.00351344 0.00618557 0.00970001 0.00375278 0.0042452 -0.00206875 -0.00303408 -0.00849726 -0.00108536 0.013743 0.00400373 -0.00404106 -0.0103951 -0.00930252 -0.0260322 -0.00727626 -0.0150477 0.00345079 0.0115837 0.00408532 0.00256955 -0.00488376 -0.0109392 0.000248564 -0.00381523 0.00421238 0.00956148 0.00441943 0.00536513 0.0057732 0.00154447 0.00667408 0.00692084 -0.00395596 0.00144266 -0.00350758 0.00369906 0.0104158 -0.000748517 -0.00348335 0.00453076 -4.70768e-05 -0.0160155 -0.00036962 -0.0131027 -0.00786889 0.00319581 -0.00399216 -0.00318679 -0.00928377 -0.0127298 -0.00833282 -0.00284782 0.000808266 0.00484134 0.00211454 0.00701031 0.00257732 0.00814433 0.00254499 0.00521427 -0.00182921 0.00724242 -0.00327098 -0.0114946 -0.00671163 -0.0014038 0.0171165 0.0127347 -0.002449 -0.0245048 -0.0181588 -0.0129638 -0.0039693 -0.00351143 0.00173156 0.00949441 -0.00414349 0.000144611 -0.00283407 -0.000992953 0.00398914 0.00209721 0.00351372 0.0101031 0.00896907 0.00309278 0.00283182 0.0054411 -0.000964603 -0.00405315 -0.00351223 -0.0134724 -0.0102661 0.00129893 -0.00162766 -0.00647729 -0.0308161 -0.0249662 -0.0113906 -0.00334079 -0.00849824 0.012985 0.0129135 0.01822 0.00833973 -0.0040817 -0.00580268 0.00516762 0.00145057 0.00261118 0.00839173 0.00216495 0.00773196 0.00463918 0.00168801 0.00282224 0.00452474 0.00619541 0.00758793 0.000840513 -0.00569464 0.00339188 0.00944817 -0.016477 -0.0270431 -0.0319048 -0.0102033 -0.0058759 -0.00522058 0.0127383 -0.0053026 0.025303 0.00408057 -0.00195169 -0.000106258 0.00396474 0.00863517 0.0088178 0.00977996 0.00268041 0.00123711 0.000618557 0.00302407 0.00277782 0.00422959 0.0134642 -0.00554132 -0.000611628 0.00687767 0.0179756 0.00715376 -0.0138331 -0.0189968 -0.0196858 -0.0165948 -0.00714177 0.00244619 0.0237274 -0.00334729 0.0263734 0.0130424 0.00223327 2.97237e-05 0.00221169 0.00403633 0.00586425 0.00917594 0.00896907 0.00268041 0.00546392 0.000892788 0.00200535 -0.00147633 -0.00810657 -0.00748614 0.00387548 0.0212687 0.0176275 -0.00891273 -0.0149206 -0.0115033 -0.00428179 -0.00904167 -0.000465281 0.0305467 0.02259 0.0080237 0.0276555 0.0143273 0.00845438 -0.00205886 0.00294603 0.00738157 0.00195937 0.00783578 0.00298969 0.000412371 0.00649485 0.00896907 0.00082562 -0.000726916 -0.00942636 -0.0109947 0.00428733 0.0111449 0.014137 0.000423124 -0.00448483 -0.00684097 0.0082738 0.00582783 -0.00295719 0.0180673 0.00122519 0.00745934 0.0305691 0.0175454 0.0124376 0.0100162 0.000671448 0.00340854 0.0043299 0.00628866 0.00329897 0.0042268 0.00886598 0.00134021 0.0028866 0 0.00299973 0.00524267 0.00307004 0.0110593 0.0082234 0.0102915 0.00756118 0.000736081 0.00530849 0.00350634 0.000569999 0.00810725 0.00248252 0.0116782 0.0119252 -0.000719012 0.00586217 0.00210747 0.00930916 0.000618557 0.00752577 0.00865979 0.00907216 0.000927835 0.00484536 0.00247423 0.00453608 0.00185567 0.00185567 0.00773196 0.000515464 0.00639175 0.00938144 0.0102062 0.000206186 0.00680412 0.00226804 0.00865979 0.00494845 0.00670103 0.00546392 0.0085567 0.00154639 0.00350515 0.00690722 0.00237113 0.00226804 0.00865979 0.00350515 0.00556701 0.00824742 0.000515464 0.00103093 0.00608247 0.00536082 0.00958763 0.00536082 0.00904884 0.00251674 0.00834695 0.00579055 0.00159629 0.00846034 0.00510487 0.00895742 0.000970367 0.00682791 0.00964981 0.00594804 0.000807873 0.000338092 0.00334314 0.00159547 0.00357195 0.00762771 0.00391753 0.00793814 0.00917526 0.00989691 0.00237113 0.00257732 0.000618557 0.00319343 0.00350431 0.00313285 0.00410753 0.00742786 0.00840322 0.00470975 0.00546905 0.00077165 0.0048631 -0.00154938 0.00459576 0.00045181 0.00608464 -0.000307352 0.00654996 -0.000381134 0.000630193 0.00935017 0.00626939 0.00456539 0.00164773 0.0101031 0.00886598 0.00391753 0.00113402 0 0.00115216 0.00205922 0.00629421 0.00968757 -0.000336522 0.00505547 0.00531548 -0.000982854 0.00180635 0.00697204 0.000878915 -0.00290034 0.00332392 0.00637993 -0.000771099 -0.00181679 -0.00136874 0.00781428 0.00729683 0.00807013 0.0051944 0.00906767 0.00934246 0.00203827 0.0055437 0.00226804 0.00515464 0.00721649 0.000577592 0.00279794 0.00876871 0.000752705 0.00748153 0.00362251 0.00813292 0.00684969 0.00377421 -0.00140271 0.00098304 -0.00289532 0.00409459 0.00190471 0.0055116 0.00279327 0.00471025 0.00736658 -0.00110563 0.00846009 0.00713772 0.00160766 0.00773445 0.000277751 0.00208002 0.00449383 0.00701031 0.0102062 0.00897769 0.00314742 0.0041445 0.00167389 0.0105375 0.00351993 0.00926522 0.000114642 0.00221111 0.00175321 -0.00274154 -0.000210636 -0.000735931 -0.00570866 0.00121445 0.00148175 0.00336448 -0.00153393 0.00331991 0.0029069 0.0102224 0.00404955 0.010704 0.00906426 0.00276531 0.00978522 0.00989691 0.00082617 0.000605017 0.00341023 0.00909234 0.012478 0.0119588 0.00687254 0.00463104 0.00120007 0.00194675 -0.00549231 -0.00945344 -0.00154083 -0.0114949 -0.00575137 -0.0108824 -0.00265832 -0.00178251 0.00329508 0.00268054 0.00739167 0.0130553 0.0106008 0.00568959 0.00149414 0.00396222 0.00408066 0.00505155 0.00075527 0.00252311 0.00993425 0.0024123 0.00525751 0.00309347 0.00858184 0.001702 -0.00480901 -0.00652545 -0.0117264 -0.00835571 -0.0123876 -0.00746051 -0.0182627 -0.0131723 -0.0112704 0.0016764 0.00252263 0.0095577 0.00233788 0.00481099 0.00776641 0.00568822 0.00979067 0.00254312 0.00355473 0.00588049 0.00634531 0.0017422 0.00423077 0.00593106 0.00621667 0.00290623 0.00178615 -0.00552486 -0.00823613 -0.00683074 -0.0060296 -0.00676954 -0.00543105 -0.0108114 -0.00766396 -0.00453631 -0.00225862 0.00193089 0.00477955 0.00601616 0.00622221 0.00737263 0.0100465 0.00795814 0.00984705 0.002353 0.00612251 0.00886598 0.00682886 0.000911648 0.00710053 0.00766935 0.00203033 0.00319379 -0.00401721 0.00207872 -0.00896339 -0.00625957 -0.000216423 -0.00636721 -0.00845774 -0.00859918 -0.00424689 -0.000521605 -0.00649305 0.00205643 0.00374601 0.00801139 0.00877319 0.0137223 0.00605933 0.0118174 0.00944736 0.000309849 0.00816947 0 0.00236894 0.0048156 0.00557696 0.00981696 -0.000102332 0.00473825 -0.00522119 -0.00198209 -0.0036914 -0.00738638 -0.00531017 -0.00483563 -0.00857034 -0.00770541 0.00451198 0.00493516 -0.000966872 -0.00211523 0.00518024 0.000689488 0.00586229 0.00428572 0.00344381 0.00790488 0.00748867 0.00247936 0.00734082 0.0071134 0.00459943 0.00940048 0.00816862 0.00342464 -0.000763606 -0.0018207 -0.00520745 -0.006204 -0.00375413 -0.00140086 -0.000235177 0.00122043 -0.00616551 0.00518486 0.00432834 0.00874606 0.00566938 0.00651043 -0.00274391 0.00249875 0.000764468 -0.00617695 0.000529902 0.00780645 0.0011059 0.00500283 0.00743329 0.00886598 0.0024684 0.0072239 0.00889108 0.00520391 0.00372961 -0.00755583 -0.00414246 -0.0082765 -0.0128021 -0.00936459 -0.00122527 -0.00078389 0.00438503 0.00675153 0.00812309 0.000464422 -0.00159041 -0.00354032 -0.00290095 -0.00806004 -0.00916449 -0.0036153 0.000511116 0.00210369 0.00670769 0.00819032 0.00133175 0.00474227 0.0092723 0.00313154 0.000668271 0.00959201 -0.0017386 -0.00298242 -0.006873 -0.00544776 -0.0111958 -0.00391033 -0.000627865 -0.00221756 0.009064 0.00225214 0.0083356 0.00425434 -0.000127299 -0.00320921 -0.00933975 -0.0111475 -0.00461752 -0.00664741 0.000822102 0.00447854 0.00768463 0.00539483 0.00391803 0.00659794 0.000232853 0.0018326 0.00078741 0.00964324 0.00605633 -0.00117492 -0.00979954 -0.00453206 -0.00550046 -0.00501647 0.000226199 -0.00135451 0.00790877 0.00369753 0.00608604 0.00546074 -0.0069759 -0.0101593 -0.00693473 -0.0025854 -0.00541584 0.00220116 -0.00184501 0.0066844 0.00815902 0.00969532 0.00958769 0.0042268 0.00284263 4.45804e-05 0.00972381 0.00798842 0.00142574 0.00142563 -0.00182417 -0.00256741 -0.000447983 -0.000106062 0.00532567 0.0100195 0.00233551 0.00480323 0.0046642 0.00288316 0.00251015 -0.00192052 -0.000554497 0.00115021 -0.00655986 -0.00454357 0.000483749 0.00484384 0.00410681 0.00688386 0.00452683 0.00237113 0.00229963 3.65847e-05 -7.93584e-05 0.00907585 0.00173008 -0.00255223 -0.00584354 -0.00524455 -0.00156388 -0.00159081 -0.00308159 0.000834284 0.00681096 0.00233878 0.000245309 0.00121368 0.00442656 -0.00139995 0.00111874 -0.00155679 0.00185389 0.00231576 0.00475431 0.00147738 0.00293367 0.00210925 0.00606172 0.000721649 0.00805111 0.00540694 0.00283362 0.00773588 0.00326279 0.00244738 -0.00833085 -0.00902677 -0.00587204 -0.00123788 -0.00427352 -0.000828234 0.00185824 0.00624726 0.00305691 0.000487805 0.00211908 0.000688052 0.00313722 -0.0035541 0.00539153 -0.000676912 0.00244349 0.00759558 0.001559 0.00957657 0.00617525 0.0084534 0.000618557 0.00420546 0.00257132 0.00381366 0.00388761 0.00129607 -0.00721092 -0.00123789 -0.00525653 -0.00354807 -0.000508229 0.00288445 -0.0047122 -0.00232004 -0.00667291 0.000532458 -0.00513693 -0.00966785 -0.00186899 -0.00429702 0.00223503 0.00155185 -0.000186547 0.00196647 0.00705281 0.00420771 0.00464506 0.0085567 0.00959281 0.001875 0.00363736 0.00509563 0.00660842 -0.00108533 -0.00158592 -0.00143478 -0.00578284 -0.00697955 -0.00421522 -0.00716601 -0.00922779 -0.00609892 -0.0114227 -0.0118856 -0.00652833 -0.0043876 0.00234368 0.00478309 -0.00358662 -0.00315506 0.000360686 0.00488274 0.0051736 0.00382789 0.00680881 0.00979381 0.00123547 0.00902894 0.00964753 0.0111301 0.00159817 0.00884794 0.0052607 0.00316873 0.00155782 -0.00643023 -0.00745716 -0.00253041 -0.00776097 -0.00953184 -0.00906762 -0.00162334 -4.67287e-05 -0.00355619 -0.00205579 -0.00179074 -0.00252197 0.00195096 0.0011753 0.00512394 0.00933389 0.00618624 0.00329897 0.00587629 0.00752577 0.00813148 0.00389799 0.00945134 0.00809857 0.00540918 0.0074164 0.00150315 -0.0021317 -0.00381007 -0.00766213 -0.00607363 -0.00337938 -0.00956973 -0.00149121 -0.00793644 -0.0085272 0.00277628 -0.00252602 0.00580639 0.00139172 0.00201385 0.00565666 0.00949208 0.00793381 0.00735656 0.0057732 0.00742268 0.00278351 0.00586327 0.00869139 0.0087528 0.00313697 0.00362298 0.00438812 -0.0013094 0.000319058 -0.00556124 -0.00602446 -0.00280618 -0.00678451 -0.0025968 -0.00316111 -0.000264074 0.00358873 -0.000605068 0.00378973 0.0078104 0.0038528 0.00371411 0.00953552 0.00710366 0.00640749 0.00210185 0.00783505 0.00896907 0.000206186 0.00463565 0.00342707 0.00559398 0.0035963 0.00886314 0.00718785 -0.00441035 0.00312697 -0.00436228 0.00194394 0.000304065 -0.000816483 -0.00323107 0.00581941 0.0041136 0.00677966 0.00937421 0.00754689 0.0100466 4.77205e-05 0.00269151 0.00587833 0.00959372 0.00291702 0.00033254 0.00391753 0.00690722 0.00948454 0.00894231 0.00871391 0.000166906 0.00964144 0.000959241 0.00298159 0.00146847 0.005743 0.0043748 0.00311905 0.00599495 0.00159444 -0.000386399 0.00588525 0.00106942 0.0016645 0.00617018 0.000836815 0.00809409 0.0038569 -0.00154892 0.00331214 0.00804905 0.0007987 0.00690828 0.00680412 0.00268041 0.00113402 0.00731968 0.00579569 0.00011131 0.00670717 0.00227069 0.00450342 0.00231554 0.00162557 0.000221855 0.00391445 0.00849951 0.00485359 0.00274595 0.00897542 0.00120845 -0.000588105 0.00449415 0.00584166 0.000119116 0.000661781 0.00554096 0.00439936 0.00598613 0.00845455 0.00845474 0.00350515 0.00649485 0.00618557 0.000824742 0.000617971 0.00524405 0.00178433 0.00164651 0.00656124 -0.000580381 -0.00158558 0.00448044 0.000966221 0.00815958 0.00637999 0.00295679 0.00566702 0.00264272 0.0029131 -0.000276841 0.00598918 0.00233152 0.00324613 0.00506914 0.000420915 0.00381106 0.00690722 0.00845361 0.00494845 0 0.00453608 0.00123711 0.00608247 0.0101031 0.00628962 0.00472353 0.00561848 -0.000119875 0.00428488 0.00836698 0.00281419 0.0059861 0.00565853 0.0041417 0.00572654 0.00499011 0.0101597 0.00879112 0.00941293 0.0101424 0.00338631 0.00700588 0.00186443 0.00525773 0.00618557 0.00969072 0.000309278 0.00195876 0.00556701 0.00247423 0.00134021 0.00876289 0.00350515 0.00350515 0.000103093 0.00762887 0.00721649 0.00927835 0.00907216 0.00268041 0.00268041 0.00731959 0.00690722 0.00742268 0.00402062 0.00938144 0.00721649 0.0085567 0.00762887 0.00237113 0.00237113 0.00690722 0.00371134 0.00329897 0.00298969 0.00505155 0.00556701 0.00371134 0.00237113 0.00546392 0.00257732 0.00134293 0.00813287 0.00253063 -0.000211206 0.00337416 0.00632178 0.00112108 0.00898586 -0.000387194 0.00206433 0.00938147 0.00314386 0.00217765 0.00122568 0.00320594 0.00661365 0.00728349 0.00164901 0.0043299 0.00835052 0.00690722 0.00701031 0.00824742 0.00742268 0.00876289 0.00370901 0.00309198 0.00203327 0.00465979 0.00385353 0.00786194 0.00311767 0.00105431 0.00238683 -0.0040901 -0.0105788 -0.00323101 0.00291308 -0.000310253 -0.00388526 0.00487305 0.0027908 0.00367981 0.00706197 0.00665606 0.00733879 0.00195712 0.0085567 0.0102062 0.000721649 0.00453608 0.00773196 0.00330689 0.00824316 0.00409752 0.00505272 0.00853675 0.00205978 0.00862693 0.0111258 0.0129693 0.00693597 -0.00300244 -0.00662192 -0.0118611 -0.00817604 -0.00965196 -0.00998682 -0.00849924 -0.00633246 -0.00629131 -0.00461811 0.00417264 0.00145984 0.00470256 0.000904276 0.00153776 0.00618557 0.00134021 0.000721649 0.00105804 0.00165764 0.00206273 0.00481919 0.000747348 0.00497329 0.00286628 0.00883465 0.0167672 0.0103027 0.0111854 0.00417854 0.00268935 -0.0144798 -0.00555054 -0.000461485 0.0111994 -0.00341376 -0.0101286 -0.00641486 0.00630861 0.00133512 0.00381086 0.00967893 0.00701117 0.00933889 0.0014433 0.00670103 0.00959139 0.000122126 0.00648338 -0.0105611 -0.0149253 -0.00866102 -0.00931134 -0.00232666 0.00532173 0.0110277 0.00997807 0.00650005 0.00190655 0.00880784 0.0163998 0.00949502 0.0168084 -0.0160937 -0.0131314 0.0102867 0.00751617 0.00147562 0.00353107 0.00867668 0.000405509 0.000555682 0.00742268 0.00103108 0.00542308 0.0114621 -0.00284621 -0.0102206 -0.0127929 -0.018932 -0.00625691 0.000984077 -0.00652497 0.00917221 0.000256954 -0.00129739 -0.00313113 -0.010984 -0.00215161 -0.00178496 0.00751156 -0.00199172 -0.00189175 0.000730902 0.00154717 -0.000751091 0.0022677 0.0101058 0.00514879 0.00590673 0.00824742 0.00558337 0.000713359 0.00221074 0.00420936 -0.0098063 -0.0182812 -0.018912 0.0153921 0.00687154 0.00801544 0.0208835 0.0176553 -0.00590486 -0.0162232 -0.01282 -0.00581909 -0.0182056 0.000177513 0.00876377 0.000187523 -0.00364814 -0.00932855 -0.00607807 0.00434417 0.007648 0.00954486 0.00986747 0.00337456 0.000299907 0.00535302 0.00562942 0.0016423 0.00151263 0.00657431 0.00417131 0.0149361 0.0137008 0.025244 0.00737612 -0.000594216 -0.00412447 -0.00551663 -0.033306 -0.034485 -0.0364618 -0.0182736 -0.004598 0.00227739 -0.00857809 -0.0160861 0.00311266 0.00470915 0.0021147 0.00702543 1.21576e-05 0.00195876 0.00173936 0.00724465 0.00665507 -0.000673657 0.00810776 0.0101204 0.0174119 0.0314983 0.011639 0.00661155 0.00990853 0.0156267 0.0106485 0.00864067 0.0143029 0.00825783 -0.0161496 0.00268436 0.00118901 -0.00407182 -0.0174202 -0.00890959 -0.0040981 0.00112304 0.00347804 0.00886554 0.0034172 0.00536082 0.0101283 0.000828456 -0.000996522 0.00707699 0.0165702 0.0125528 0.00346634 0.0226374 0.0170948 -0.00263979 0.0189038 0.0224442 0.0192034 0.0213644 0.014877 0.0259203 -0.00304644 0.00306116 0.00870027 -0.000594865 -0.00970611 -0.00986687 -0.000835058 0.00089849 0.00181371 0.00104928 0.0101897 0.00505155 0.00811057 0.00806888 0.00810623 0.00739229 0.0171119 0.0120264 0.00681438 0.00882592 -0.000879997 -0.00159281 0.0183605 0.0191614 0.0047002 0.000488056 0.0125075 0.00215117 0.00482922 0.0108384 0.00737624 -0.00696871 -0.00370201 -0.00479991 -0.00568493 0.00393416 0.00695475 0.00704634 0.00258365 0.00876289 0.00756944 0.0072094 0.00805932 0.00272788 0.0116831 -0.00349675 -0.0018971 0.00448798 -0.00884063 -0.000507748 0.00464239 0.0057086 -0.0239628 -0.0376764 -0.0390948 -0.0277238 0.00675004 0.0159471 0.0101007 -0.0097991 -0.00506266 -0.00865711 -0.00733994 0.00242676 0.00417778 0.000435421 0.00118352 0.00237113 0.00528751 0.00701992 0.00509415 -0.00396757 0.00280997 -0.00819903 -0.0150599 -0.0139086 -0.0198028 -0.0147444 -0.0252857 -0.0330584 -0.0371642 -0.0409983 -0.04472 -0.0337005 -0.00286305 0.0154577 0.0117294 0.00539102 -0.0103151 -0.004105 -0.00302635 -0.00305836 0.00522325 0.00961278 0.00558831 0.0071134 0.00494886 0.00150988 0.00219669 -0.00290764 -0.0174006 -0.0249513 -0.027956 -0.0436588 -0.0463814 -0.0407815 -0.0439448 -0.0372465 -0.0417788 -0.0299794 -0.0309354 -0.0138641 -0.0137517 0.0138993 -0.000584631 -0.0127365 -0.0070612 -0.00679778 -0.00438806 -0.000619688 0.00212677 0.0105432 0.00587866 0.000309278 0.00649219 0.00151668 -0.00224965 -0.00756652 -0.0204081 -0.0215681 -0.0385465 -0.046838 -0.0420467 -0.0396479 -0.0347457 -0.0251335 -0.0162681 -0.0278403 -0.025839 -0.0167229 -0.0135317 -0.00611259 0.00524515 -0.0045002 0.00487498 0.00553594 0.00200148 0.00367024 0.0100346 0.011335 0.00335471 0.000927835 0.00113834 0.00420842 0.00353827 -0.010105 -0.00387826 -0.00863755 -0.0291439 -0.0244351 -0.0275515 -0.0199767 -0.0157655 -0.0098536 -0.00588466 -0.00621161 -0.0124021 -0.0096115 0.000785757 0.0119444 0.0114461 0.00639336 0.0193581 0.0165651 0.00895038 0.000651929 0.000932326 0.0101665 0.0102373 0.0042268 0.000102961 -0.000506793 -0.000681877 -0.00892356 -0.0132155 -0.0124778 -0.00142065 0.00279467 -0.00930791 -0.0206269 -0.0178515 -0.0149856 -0.00109322 -0.00317395 -0.0121834 -0.00616004 0.00856658 0.0172396 0.00532165 0.00896131 0.0361363 0.0149082 0.0001301 -0.00324114 0.00758368 0.00593341 0.00581558 0.00835142 0.00298969 0.0036235 0.00307898 0.00409844 -0.00834803 -0.00766237 -0.00148314 -0.00786191 0.0114502 0.00692915 0.00321739 0.00589576 0.0044886 -0.0011613 0.0127537 0.00285767 -0.00307947 0.0115513 -0.00119677 0.00865118 0.0369565 0.00909605 -0.00455738 0.00463754 0.00252659 0.00875167 0.00284943 0.00206186 0.006499 0.00215612 0.00439932 0.000123705 -0.000627868 -0.0091186 0.000170057 0.0130211 0.0235473 0.021043 0.034109 0.0186907 0.00752008 -0.000431447 0.000911642 -0.0149726 -0.000843511 0.00467101 0.0086955 0.0122709 0.0239761 0.00262312 -0.00420665 -0.00885628 -0.00175076 0.00366705 0.00313619 0.00402062 0.00988946 0.00374922 0.0113279 0.0140699 0.0111533 -0.0034224 0.00477561 0.0303666 0.018629 0.00886469 -0.0041901 -0.00710987 -0.00295272 -0.0129219 -0.00264539 0.00351343 0.0167914 0.010116 0.00526036 0.0184179 0.0185661 0.0131676 0.000309616 -0.00225528 0.00357233 0.00401028 0.00257732 0.00587629 0.000721649 0.00397474 0.00721098 0.00853198 0.0100005 0.0074116 -0.000658569 0.0163169 0.0265572 0.025955 0.00718122 0.00773771 0.0109346 0.00573084 0.0148178 0.00523003 0.00873974 0.0118613 -0.00923465 -0.0018291 0.00987527 0.0108288 0.0135531 0.00633281 0.00668212 0.00431511 0.00453608 0.0014433 0.00381443 0.0130681 0.00907413 0.00384576 -0.00127941 0.0115224 0.0160089 0.0220127 0.0218383 0.0201051 0.0104748 0.0166309 0.0204394 0.0142765 0.0054365 0.0104269 0.0113801 0.00238424 -0.00895652 -0.00434993 0.0101738 0.009956 0.0120493 0.00776774 0.00366597 0.00692432 0.00123711 0.01 0.00639175 0.00722773 0.00253935 0.00244331 0.0130839 0.00173517 0.0015836 0.0231656 0.0162134 0.0209397 0.0211744 0.00939501 0.00756628 -0.00337603 -0.00201654 -0.000763084 -0.00486745 -0.00403001 -0.00789195 -0.00579732 0.00105445 0.00681263 0.00718845 0.00858735 0.00868543 0.0066171 0.00814433 0.00525773 0.00773196 0.00447875 -0.000252401 0.000694369 -0.0031002 0.00597319 0.00279461 0.00613965 -0.00240772 -0.00728668 -0.00314254 -0.0056279 -0.00572025 -0.00535485 -0.00961732 -0.0180912 -0.00706384 0.00071866 -0.00235693 -0.0100124 -0.00369622 0.00709479 0.00737709 0.00623021 0.00079559 0.000416202 0.00762887 0.00134021 0.00742268 0.00413827 0.00185549 0.00796143 0.00512539 -0.00464591 0.00180205 0.00196594 -0.00922149 -0.00224219 -0.00270718 -0.00524947 -0.00921208 -0.00604761 -0.00127243 -0.00118647 0.00261472 0.00139142 0.00131759 0.00275127 0.00364117 0.0103536 0.00712484 0.00619956 0.00557041 0.00309685 0.00195876 0.00587629 0.0101031 0.000206186 0.000206432 0.00424348 0.0103502 0.00425964 0.00493737 0.00491863 -0.00299713 0.00335951 0.00218158 0.00876412 -0.000851952 0.00416564 0.00711316 0.003199 0.00771577 0.0070664 0.00126901 0.0062457 0.00299093 0.00895563 0.00525265 2.58134e-06 0.0014433 0.00865979 0.00608247 0.00979381 0.01 0.00278351 0.00237113 0.00505155 0.000417012 0.000234812 0.00381986 0.00326294 0.00951742 0.00493988 0.00441071 0.00360813 0.0073387 0.00301303 0.00813099 0.00848098 0.00319455 0.00456745 0.00119914 0.00685897 0.00916297 0.00920597 0.00742645 0.000412371 0.0043299 0.00618557 0.0014433 0.00979381 0.00917526 0.00525773 0.00113402 0.00773196 0.00113402 0.00134021 0.000618557 0.00690722 0.00103093 0.0102062 0.00907216 0.00989691 0.0102062 0.0085567 0.00762887 0.00876289 0.00958763 0.0057732 0.00948454 0.00443299 0.00185567 0.00391753 0.000515464 0.00742268 0.00659794 0.00463918 0.01 0.00329897 0.00195876 0.00824742 0.00659794 0 0.00494845 0.00987937 0.001732 0.00164643 0.00845852 0.00384542 0.00546545 0.00913361 0.00743384 0.00468626 0.00587921 8.25358e-05 0.00878116 0.00261003 0.00915672 0.00184218 0.00555249 0.00555685 0.00649528 0.0056701 0.00123711 0.00896907 0.00824742 0.00701031 0.00443299 0.00721649 0.00556672 0.00680402 0.00529861 0.00989902 0.00466123 0.00727573 0.00737813 0.00377747 0.00602129 0.00760857 0.00673555 0.000115186 0.00400864 0.00123693 0.00816736 0.0077183 0.0010929 0.00488426 0.00596349 0.00963494 0.00917629 0.00979108 0.00793814 0.00783505 0.00618557 0.000206186 0.00329897 0.00340264 0.00752527 0.00179877 0.000623018 0.00878208 0.00381684 0.000656772 0.000366122 0.00185042 0.00605464 0.00398152 0.001313 0.00217277 0.0039919 0.0049639 -0.00201578 0.00647101 0.00693531 0.00889182 0.00242565 0.004642 0.000694742 0.00210561 0.00781034 0.00187401 0.00876289 0 0.00247423 0.00680612 0.000927967 0.009145 0.00615843 0.00172506 0.00276107 0.00660128 0.00189346 0.00368676 0.00358077 -0.00288645 -0.0040143 -0.00248905 0.00371326 -0.00146118 0.00424693 0.000116798 0.00281626 0.00480042 0.00394778 0.00537015 0.00920205 0.00514952 0.000707447 0.00544721 0.000409232 0.0042268 0.000824742 0.00659821 0.000204914 0.00975329 0.00749875 0.00453253 0.00536149 0.00845236 0.000938527 0.00714364 0.00373306 0.00218399 -0.00451973 -0.000810572 -0.0051943 -0.00665828 -0.000920729 0.00476473 -0.00296534 0.00259403 0.0099949 0.00572354 0.00931571 0.005834 0.00901697 0.0094863 0.00535619 0.00752577 0.000617755 0.00920529 0.00149423 0.00244591 0.00703134 0.0108356 0.0105231 0.00403035 0.00435838 -0.00147203 0.00327578 -0.00414643 0.00358343 -0.00172634 0.00290748 0.00145438 -0.00811604 -0.0040813 0.00242195 0.00677315 0.00484041 0.00801631 0.00797718 0.00650594 0.00708579 0.00560773 0.00946824 0.00206186 0.00709764 0.00671723 0.00722124 0.00418616 0.00786637 0.0104625 0.0037908 0.00922453 0.00752165 0.00556322 -0.00400361 -0.00257093 -0.000434218 0.00475384 0.0019346 0.0047287 -0.000426607 -0.00184669 -0.00252432 -0.000266995 -0.000918618 -0.000819878 0.00129533 0.00174745 0.00682113 0.00979437 0.00298335 0.00423069 0.00320042 0.00826178 0.00308273 -0.00268899 0.00343278 0.00412448 0.00713489 0.00599021 0.00183024 -0.0055244 -0.00348736 -0.00196476 -0.00216933 0.00235579 0.00398017 0.00423873 -0.00331376 -0.000241673 -0.00244117 -0.00100695 0.00240901 0.00291154 -0.000423056 0.0103798 0.0108046 0.00646837 0.00525661 0.00865979 0.00586107 0.00606929 0.00189261 -0.00157929 0.00190504 0.00473377 -0.00141961 -0.00068886 -0.00261875 -0.00850355 -0.00250368 -0.0037868 0.0018547 -0.00672455 -0.00563308 -0.0054549 -0.00873035 -0.00365297 0.00458718 0.00320601 0.00579245 0.00396939 0.00755768 0.00716454 0.00425634 0.00243176 0.00788842 0.00876289 0.00354839 0.00794497 0.00438907 0.00811075 0.00256287 0.00319153 0.00477667 0.00588428 0.00497617 -0.00170037 0.00314024 0.00167563 -0.00633791 -0.00292158 -0.00223129 -0.0073209 -0.00845779 -0.00382045 -0.00450352 0.000385277 -0.000699278 0.00252948 0.00712439 0.00252862 0.00203212 0.00394272 0.00938618 0.00474227 0.0042294 0.00611878 0.00408713 0.00817736 0.0102651 0.000602258 -0.000341332 0.00889 0.00484382 0.00261107 -0.00609491 -0.00308602 0.00383171 0.00535859 0.00217095 0.00157559 -0.00309474 -0.00184426 0.000769767 -0.00515277 0.00394682 0.00813005 6.0305e-05 0.00427483 0.00326839 0.0068931 0.00401988 0.00226804 0.00550944 0.00106293 -0.000664691 0.00616826 0.00185905 0.00554923 0.00123293 0.00121351 -0.000666788 0.00105541 -0.00281223 7.56783e-05 0.00140497 0.00524251 0.00211748 -0.00189427 -0.00135837 -0.00372105 -0.00357734 -0.00119807 0.000218765 -7.62572e-05 0.00650904 0.00145034 0.000216749 0.00419897 0.00299098 0.00525773 0.00782619 0.0050265 0.00880969 0.00797994 0.00680326 0.00872108 0.00128556 0.00449915 0.00296469 -0.000770529 -0.00640471 -0.00573184 -0.00356685 0.00182641 -0.00526437 -0.00486332 -0.0103291 -0.00963858 -0.00496649 -0.00351324 0.00495335 0.0104142 0.00844051 -0.000907127 0.00415105 0.00824992 0.0027733 0.00556701 0.00927723 0.00770761 0.00836303 0.00473563 0.0017837 0.00706871 -0.00322487 0.00337157 0.00634735 0.00321949 -0.00497792 -0.00686619 -0.00349722 -0.00374811 -0.00163829 -0.00744434 -0.0088231 -0.00741448 0.00236578 0.00386954 0.000499139 0.00905958 0.000920102 0.00183745 0.00766677 0.00324926 0.00876175 0.00670103 0.00958552 0.00334549 0.00996551 0.00966439 0.00914087 0.0065199 -0.00376178 0.00190973 0.00534513 0.00392636 -0.00189894 -0.00772624 -0.00635214 -0.0111536 -0.00864519 -0.00419926 -0.000216501 -5.66565e-05 0.005134 -0.0023775 0.00533911 0.00927075 0.00888521 -0.00075631 0.00674689 0.00639979 0.00729606 0.00298969 0.000927304 0.00903108 0.00608024 0.00472292 0.00238613 0.00430419 -0.000504663 -0.00196093 0.0019353 -0.00121017 0.00184674 0.00375166 -0.000408414 -0.00602788 -0.0027835 -0.00845056 0.00091713 -0.00116238 0.00582557 0.00365503 -0.00275262 0.00632732 0.00124432 -0.000626867 0.00681487 0.00653846 0.00778614 0.00628866 0.00268009 0.00320487 0.00538146 0.00806287 -0.00176827 0.00338309 0.00252023 -0.00597058 -0.000938244 0.00153151 -0.00636346 -6.28162e-06 -0.0014202 -0.00330797 -0.00201721 -0.00410757 0.004213 0.000123481 0.00275085 0.00637558 0.000427322 0.00416228 0.00757114 0.00279395 -2.88542e-05 0.00349957 0.00308159 0.00938181 0.00546392 0.00425047 0.00114837 0.00483723 0.002698 -0.000269301 -0.00484507 -0.00677505 0.00129756 -0.00145322 -0.00105171 -0.00659973 0.00247441 -8.66996e-05 -0.00278246 -0.00410115 -0.00454299 -0.0051621 -0.00536365 -0.000591834 0.00127766 0.00396166 0.000568857 0.000846676 0.00734769 0.00679673 0.00326989 0.0071134 0.00433088 0.00696397 0.000353995 -0.000984432 0.00423364 -5.41503e-05 -0.00554342 -0.00509046 2.28919e-06 -0.00654119 0.000720611 -0.00890708 -0.00256308 4.7303e-05 -0.00955886 -0.00291084 -0.00397647 -0.000345233 -0.00132312 0.000853758 0.000515464 0.000662973 0.00469497 0.00116814 0.0052636 0.008437 0.00453257 0.00556701 0.00732483 0.00204832 0.00486517 -0.00252601 0.00163208 -0.00184839 -0.00368752 -0.00609873 -0.00462784 0.000229711 0.00108775 -0.00704285 -0.000690776 -0.00692506 -0.008319 -0.00712777 -0.00590474 0.000556817 -0.00452467 -0.00595115 0.00195421 0.00542082 0.00772566 0.00625382 0.000307137 0.00698373 0.00824742 0.00185567 0.0101031 0.00187503 0.00134497 0.00431773 0.00244461 0.0028514 -0.00145656 -0.00237186 -0.00825963 -0.00219772 -0.00762656 -0.00368427 -0.00468806 -0.00580769 -0.00932331 0.00205 -0.00694745 -0.00357991 0.00238401 0.00600332 0.00186798 0.0042918 0.00731464 0.0107178 0.00857119 0.00183712 0.00969072 0.00556701 0.00597938 0.00278868 0.00610473 0.00177129 0.00447437 0.00367179 -0.000864 -0.00633464 -0.0054106 0.00296855 -0.001971 -0.00761585 -0.00104598 -0.00314243 0.00289537 0.00662853 0.000786662 0.00102177 0.00134357 0.00743788 0.000814215 0.00416705 0.00246865 0.00316889 0.000652065 0.00565881 0.00597938 0.00793814 0.00278351 0.00676941 0.00838096 0.00225103 0.00740395 0.00706911 0.00450022 -0.000648315 0.000758749 -0.000665434 -0.00627009 -0.00412664 0.00289353 0.00332459 0.00057313 0.00610897 0.00547224 0.00193931 0.00335079 0.00867293 0.00172667 0.00732188 0.00965121 0.0036104 0.00446797 0.00412706 0.00505155 0.00113402 0.00412371 0.00739743 0.00903576 0.00716702 0.00893061 0.0104582 0.00914457 -0.000382975 0.00380772 0.00284624 0.00774911 -0.000449478 0.00249129 -0.00432008 0.00819198 0.00276925 0.00179946 0.00557713 0.00534163 0.00800165 0.00949649 0.0101723 0.00741175 0.00404615 0.00634791 0.00267578 0.00525773 0.00989691 0.00628866 0.00824707 0.000206179 0.00499318 0.002087 0.009195 0.00749944 0.00911594 0.00911646 0.00399636 0.00668406 0.0018014 0.0053075 -0.00229261 0.00768992 0.00326678 0.00986112 0.00744114 0.0118455 0.0124535 0.00475682 0.00656852 0.00678121 0.0029697 0.0102021 0.0011291 0.00845361 0.00742268 0.00391753 0.00608247 0.00670173 0.00794227 0.00115534 0.00241311 0.00429853 0.00326718 0.00402826 0.00187943 0.00712088 0.00983259 0.00745592 0.0110374 0.00623718 0.00492996 0.00940675 0.000590212 0.00508336 0.00595278 0.00907689 0.00304703 0.00551468 0.00123786 0.00948454 0.00381443 0.00659794 0.00608247 0.000412371 0.0057732 0.00907216 0.00412371 0.00474449 0.00928136 0.00845863 0.003726 0.00467559 0.00284092 0.00166568 0.00680869 0.00245886 0.00720861 0.00711068 0.00643427 0.00243759 0.0093386 0.00925354 0.00521071 0.00616555 0.00853949 0.00661478 0.00391753 0.00546392 0.00927835 0.00824742 0.00659794 0.00804124 0.0101031 0.000103093 0.00164948 0.00587629 0.00309278 0 0.00783505 0.00731959 0.0102062 0.00164948 0.00237113 0.00154639 0.00257732 0.00886598 0.0071134 0.00268041 0.00463918 0.0043299 0.00989691 0.00257732 0.00804124 0.01 0.00845361 0.00474227 0.00350515 0.00216495 0.00639175 0.00123711 0.00680412 0.000721649 0.00206186 0.00474227 0.00681159 0.00907546 0.00150723 0.000775442 0.00106677 0.005333 0.00884446 0.0103091 0.00977661 0.00102657 0.0102261 0.0088871 0.00136781 0.0042831 0.00818062 0.00813617 0.00493995 0.00206125 0.00309278 0.0085567 0.00639175 0.0085567 0.00979381 0.00886598 0.00123711 0.00268555 0.00690898 0.000954428 0.00195504 0.0080426 0.00122137 0.00364372 0.000703368 0.0032034 0.0027338 0.00697949 0.00267364 0.00147949 0.00082363 0.00417565 0.000425287 0.00676264 0.000926603 0.00466458 0.00927461 0.00493782 0.00620006 0.00185567 0.00680412 0.00948454 0.00907216 0.0057732 0.00103135 0.00620037 0.00760878 0.00802974 0.00565462 0.00842676 0.00793097 0.00382504 0.00464044 0.00506802 0.00832299 0.0124874 0.00405078 0.00979668 0.00593427 0.00492488 0.000446154 0.00415787 0.000906437 0.000830963 0.00569059 0.00432785 0.00167567 0.00284968 0.00581063 0.0014433 0.00742268 0.00494845 0.00824887 0.0046409 0.00720604 0.00610194 0.000504574 0.00270388 -0.000864826 -0.00222295 0.00781827 0.0049113 0.00639595 0.0106849 0.00819238 0.00265633 -0.000681711 0.00860437 0.00827143 -0.00345676 -0.00436472 -0.00314965 -0.00588525 0.00418799 0.00362592 -0.00137966 0.00230766 0.00547833 0.00690722 0.000103093 0.00670123 0.00300307 0.00346363 0.000866745 0.00305154 0.00194083 0.00173403 -0.00135754 0.00213329 0.00190079 -0.00425589 -0.00194293 -0.00697275 0.000951542 0.00529538 0.0135306 0.013633 0.00451957 0.00101702 -0.00796888 -0.00365316 -0.00253796 0.000116553 0.00654997 0.00446885 0.0084749 0.00185567 0.00350506 0.00211298 0.00349738 0.00671758 -0.00321149 0.000866659 -0.00227278 -0.00936178 -0.00743466 -0.00254157 -0.00103859 -0.00178539 -0.00503767 -0.000959784 0.00320236 0.00909048 0.00990037 0.00403934 -0.00099108 0.00209862 -0.0105622 -0.00568768 -0.000395221 0.00362163 0.00701994 0.00802036 0.000133602 0.00587629 0.00927287 0.00442038 0.00345144 0.00507726 0.000629481 -0.00215126 -0.00854479 -0.0114074 -0.00384946 -0.00257637 -0.0047718 -0.000223494 0.00689349 0.00126491 -0.00282708 -0.00627011 -0.000926508 -0.0106992 -0.00339371 0.00222096 -0.00106741 -0.0109822 -0.00368805 0.00678724 0.00890644 0.00424216 0.00743674 0.00876329 0.00513979 0.00785279 0.00683763 0.00269913 0.00568401 0.00371931 -0.00746398 -0.00111904 -0.00474271 -0.000988629 7.36047e-05 -0.00585668 0.000211125 0.000572486 -0.00140235 -0.00461624 -0.00780301 -0.0109356 0.00477512 0.00846703 0.00923088 -0.00957417 -0.00950048 0.000155592 0.00279664 0.0044435 0.00420649 0.00927835 0.00792221 0.00384382 0.0097516 0.00414948 0.00297476 0.00342109 0.00192528 -0.00245793 -0.000980021 0.00082857 0.00143476 0.00417741 0.00294043 0.000932028 0.00286645 -0.00388585 -0.0126515 -0.0134208 0.00666115 0.00681612 0.00335303 -0.0098019 -0.00603314 0.00220836 0.00588406 0.00418009 0.00352021 0.00329897 0.0054251 0.00338254 0.000199913 0.00626089 0.0089666 -0.000592167 -0.00222137 -0.0016534 -0.00195187 -0.00440001 0.00624181 -0.000272792 -6.74847e-06 -0.00935947 -0.00654487 -0.00681185 -0.00982034 -0.0127369 -0.00446292 0.0074059 0.00477396 -0.00225844 -0.00341982 0.00873996 0.00180594 0.0011105 0.00306031 0.000927835 0.0049303 0.000554844 0.00234684 0.00219784 0.00751652 0.00305686 0.00110363 0.00373088 0.00355291 0.00359485 -0.00408695 0.00232244 -0.0041486 -0.00457323 -0.0154101 -0.0150402 -0.0147098 -0.0128991 0.00575252 0.00578481 0.0117456 0.00545302 0.0102472 0.0131378 0.0081193 0.0031251 0.00307038 0.00268041 0.00964506 0.00543708 0.00149982 0.00541332 2.38057e-05 0.00917631 0.00772048 0.00339078 -0.00192977 -0.0010009 -0.00428512 -0.000387794 0.00146492 -0.00794514 -0.0167217 -0.0113673 -0.0157665 -0.00795385 -0.00550094 -0.000368849 0.00435145 0.00571481 0.00734171 0.00691311 0.00109194 0.000860842 0.00865577 0.00731959 0.00299123 0.00517088 0.00384617 0.00664137 0.00430624 -0.00220247 -0.00598796 0.00370042 0.0048721 -0.00445441 -0.00351015 -0.00293768 0.000758552 -0.00497665 -0.00377342 -0.00294768 -0.00686556 -0.0118783 -0.00884219 0.00186392 0.0113792 0.0110516 0.00847759 0.00346052 0.00756093 0.00128569 0.00619477 0.00494845 0.00928346 0.00743026 0.0010242 0.00556686 0.00462963 0.00526256 0.00516978 0.0114938 0.011047 -0.00163061 0.0052413 -0.00180122 -0.000489928 -0.00153699 -0.00336939 0.0010077 -0.00531112 -0.0115642 -0.00506248 0.00255311 0.0131708 0.0105056 0.00844391 0.00169311 0.00844094 0.0066426 0.00144432 0.00505155 0.00410661 0.00113384 0.00122692 0.00325449 